{"learner":{"attributes":{"scikit_learn":"{\"_estimator_type\": \"regressor\"}"},"feature_names":[],"feature_types":[],"gradient_booster":{"model":{"gbtree_model_param":{"num_parallel_tree":"1","num_trees":"80"},"iteration_indptr":[0,1,2,3,4,5,6,7,8,9,10,11,12,13,14,15,16,17,18,19,20,21,22,23,24,25,26,27,28,29,30,31,32,33,34,35,36,37,38,39,40,41,42,43,44,45,46,47,48,49,50,51,52,53,54,55,56,57,58,59,60,61,62,63,64,65,66,67,68,69,70,71,72,73,74,75,76,77,78,79,80],"tree_info":[0,0,0,0,0,0,0,0,0,0,0,0,0,0,0,0,0,0,0,0,0,0,0,0,0,0,0,0,0,0,0,0,0,0,0,0,0,0,0,0,0,0,0,0,0,0,0,0,0,0,0,0,0,0,0,0,0,0,0,0,0,0,0,0,0,0,0,0,0,0,0,0,0,0,0,0,0,0,0,0],"trees":[{"base_weights":[-5.683096E-4,-1.4076522E-1,3.8645816E-1,-1.6637167E-1,-9.385556E-3,1.8289469E-1,4.4640952E-1,-1.1318933E-2,-7.5481986E-3,-1.124181E-3,3.271617E-3,8.1648305E-3,1.3338421E-2,2.0987384E-2,2.8077794E-2],"categories":[],"categories_nodes":[],"categories_segments":[],"categories_sizes":[],"default_left":[0,0,0,0,0,0,0,0,0,0,0,0,0,0,0],"id":0,"left_children":[1,3,5,7,9,11,13,-1,-1,-1,-1,-1,-1,-1,-1],"loss_changes":[2.8974934E1,1.3171911E0,1.65131E0,3.3523083E-1,4.651434E-2,3.5367727E-2,2.2001076E-1,0E0,0E0,0E0,0E0,0E0,0E0,0E0,0E0],"parents":[2147483647,0,0,1,1,2,2,3,3,4,4,5,5,6,6],"right_children":[2,4,6,8,10,12,14,-1,-1,-1,-1,-1,-1,-1,-1],"split_conditions":[3.738418E-1,2.5960615E-1,5.4564416E-1,2.0278661E-1,3.3972958E-1,4.537547E-1,6.590105E-1,-1.1318933E-2,-7.5481986E-3,-1.124181E-3,3.271617E-3,8.1648305E-3,1.3338421E-2,2.0987384E-2,2.8077794E-2],"split_indices":[1,1,1,1,1,1,1,0,0,0,0,0,0,0,0],"split_type":[0,0,0,0,0,0,0,0,0,0,0,0,0,0,0],"sum_hessian":[5.32E2,3.91E2,1.41E2,3.27E2,6.4E1,3.3E1,1.08E2,1.62E2,1.65E2,5.6E1,8E0,2.1E1,1.2E1,4.5E1,6.3E1],"tree_param":{"num_deleted":"0","num_feature":"2","num_nodes":"15","size_leaf_vector":"1"}},{"base_weights":[-3.58696E-3,-1.3703239E-1,3.5357338E-1,-1.6057545E-1,-1.9010475E-2,1.6420956E-1,4.311214E-1,-1.0865389E-2,-7.1277656E-3,-3.2974915E-3,3.7038376E-4,7.700629E-3,1.2347639E-2,1.9238181E-2,2.672285E-2],"categories":[],"categories_nodes":[],"categories_segments":[],"categories_sizes":[],"default_left":[0,0,0,0,0,0,0,0,0,0,0,0,0,0,0],"id":1,"left_children":[1,3,5,7,9,11,13,-1,-1,-1,-1,-1,-1,-1,-1],"loss_changes":[2.4355774E1,1.0305858E0,1.9703922E0,3.1052113E-1,6.323603E-2,3.443253E-2,1.9841003E-1,0E0,0E0,0E0,0E0,0E0,0E0,0E0,0E0],"parents":[2147483647,0,0,1,1,2,2,3,3,4,4,5,5,6,6],"right_children":[2,4,6,8,10,12,14,-1,-1,-1,-1,-1,-1,-1,-1],"split_conditions":[3.738418E-1,2.5084028E-1,5.4564416E-1,2.0315564E-1,3.1065744E-1,4.537547E-1,6.590105E-1,-1.0865389E-2,-7.1277656E-3,-3.2974915E-3,3.7038376E-4,7.700629E-3,1.2347639E-2,1.9238181E-2,2.672285E-2],"split_indices":[1,1,1,1,1,1,1,0,0,0,0,0,0,0,0],"split_type":[0,0,0,0,0,0,0,0,0,0,0,0,0,0,0],"sum_hessian":[5.09E2,3.71E2,1.38E2,3.09E2,6.2E1,4.1E1,9.7E1,1.62E2,1.47E2,2.4E1,3.8E1,2.9E1,1.2E1,3.2E1,6.5E1],"tree_param":{"num_deleted":"0","num_feature":"2","num_nodes":"15","size_leaf_vector":"1"}},{"base_weights":[-4.6777343E-3,-1.24506064E-1,3.504362E-1,-1.4702363E-1,-5.1528444E-3,1.5987445E-1,4.0517467E-1,-1.2653923E-2,-7.5752647E-3,-9.118914E-4,3.6625813E-3,7.4759023E-3,1.2335296E-2,1.8743532E-2,2.5234632E-2],"categories":[],"categories_nodes":[],"categories_segments":[],"categories_sizes":[],"default_left":[0,0,0,0,0,0,0,0,0,0,0,0,0,0,0],"id":2,"left_children":[1,3,5,7,9,11,13,-1,-1,-1,-1,-1,-1,-1,-1],"loss_changes":[2.293699E1,1.0823226E0,1.3538456E0,3.197465E-1,5.0440304E-2,2.3171604E-2,1.6298103E-1,0E0,0E0,0E0,0E0,0E0,0E0,0E0,0E0],"parents":[2147483647,0,0,1,1,2,2,3,3,4,4,5,5,6,6],"right_children":[2,4,6,8,10,12,14,-1,-1,-1,-1,-1,-1,-1,-1],"split_conditions":[3.738418E-1,2.627185E-1,5.4564416E-1,1.4691229E-1,3.3972958E-1,4.7509286E-1,6.590105E-1,-1.2653923E-2,-7.5752647E-3,-9.118914E-4,3.6625813E-3,7.4759023E-3,1.2335296E-2,1.8743532E-2,2.5234632E-2],"split_indices":[1,1,1,1,1,1,1,0,0,0,0,0,0,0,0],"split_type":[0,0,0,0,0,0,0,0,0,0,0,0,0,0,0],"sum_hessian":[5.37E2,4.02E2,1.35E2,3.38E2,6.4E1,3.1E1,1.04E2,4.9E1,2.89E2,5.6E1,8E0,2.3E1,8E0,3.9E1,6.5E1],"tree_param":{"num_deleted":"0","num_feature":"2","num_nodes":"15","size_leaf_vector":"1"}},{"base_weights":[3.7054918E-4,-1.2048185E-1,3.2599804E-1,-1.4568552E-1,-2.8924227E-2,1.4510289E-1,3.7847045E-1,-1.2058548E-2,-7.5133857E-3,-3.4082083E-3,8.565444E-4,6.8529206E-3,1.0875649E-2,1.8221823E-2,2.4594361E-2],"categories":[],"categories_nodes":[],"categories_segments":[],"categories_sizes":[],"default_left":[0,0,0,0,0,0,0,0,0,0,0,0,0,0,0],"id":3,"left_children":[1,3,5,7,9,11,13,-1,-1,-1,-1,-1,-1,-1,-1],"loss_changes":[2.0935646E1,8.911309E-1,1.3119316E0,2.4246788E-1,1.1728919E-1,1.54109E-2,2.1039104E-1,0E0,0E0,0E0,0E0,0E0,0E0,0E0,0E0],"parents":[2147483647,0,0,1,1,2,2,3,3,4,4,5,5,6,6],"right_children":[2,4,6,8,10,12,14,-1,-1,-1,-1,-1,-1,-1,-1],"split_conditions":[3.4007815E-1,1.4230253E-1,5.58761E-1,4.3590784E-2,2.3017511E-1,4.390565E-1,7.1708876E-1,-1.2058548E-2,-7.5133857E-3,-3.4082083E-3,8.565444E-4,6.8529206E-3,1.0875649E-2,1.8221823E-2,2.4594361E-2],"split_indices":[0,0,0,0,0,0,0,0,0,0,0,0,0,0,0],"split_type":[0,0,0,0,0,0,0,0,0,0,0,0,0,0,0],"sum_hessian":[5.3E2,3.87E2,1.43E2,3.03E2,8.4E1,3.3E1,1.1E2,4.8E1,2.55E2,4.9E1,3.5E1,2.4E1,9E0,5.7E1,5.3E1],"tree_param":{"num_deleted":"0","num_feature":"2","num_nodes":"15","size_leaf_vector":"1"}},{"base_weights":[3.0048594E-3,-1.1063249E-1,3.1198445E-1,-1.3828209E-1,-3.3421945E-2,1.5031064E-1,3.6548558E-1,-9.359297E-3,-6.256162E-3,-4.1109705E-3,-3.212908E-4,6.598409E-3,1.1378892E-2,1.7416824E-2,2.2905514E-2],"categories":[],"categories_nodes":[],"categories_segments":[],"categories_sizes":[],"default_left":[0,0,0,0,0,0,0,0,0,0,0,0,0,0,0],"id":4,"left_children":[1,3,5,7,9,11,13,-1,-1,-1,-1,-1,-1,-1,-1],"loss_changes":[1.9065014E1,8.429103E-1,1.2079239E0,1.9977522E-1,1.1433486E-1,4.162079E-2,1.1924648E-1,0E0,0E0,0E0,0E0,0E0,0E0,0E0,0E0],"parents":[2147483647,0,0,1,1,2,2,3,3,4,4,5,5,6,6],"right_children":[2,4,6,8,10,12,14,-1,-1,-1,-1,-1,-1,-1,-1],"split_conditions":[3.4007815E-1,1.4129776E-1,5.58761E-1,9.085074E-2,2.0249037E-1,4.390565E-1,7.051983E-1,-9.359297E-3,-6.256162E-3,-4.1109705E-3,-3.212908E-4,6.598409E-3,1.1378892E-2,1.7416824E-2,2.2905514E-2],"split_indices":[0,0,0,0,0,0,0,0,0,0,0,0,0,0,0],"split_type":[0,0,0,0,0,0,0,0,0,0,0,0,0,0,0],"sum_hessian":[5.41E2,3.96E2,1.45E2,2.91E2,1.05E2,3.7E1,1.08E2,1.47E2,1.44E2,4.3E1,6.2E1,2.4E1,1.3E1,4.6E1,6.2E1],"tree_param":{"num_deleted":"0","num_feature":"2","num_nodes":"15","size_leaf_vector":"1"}},{"base_weights":[-5.6115626E-3,-1.03902265E-1,2.856882E-1,-1.24751784E-1,-1.8162945E-2,1.2456661E-1,3.424463E-1,-8.6764E-3,-5.4741367E-3,-2.4380211E-3,2.3615241E-4,6.105091E-3,9.400864E-3,1.6553989E-2,2.2223743E-2],"categories":[],"categories_nodes":[],"categories_segments":[],"categories_sizes":[],"default_left":[0,0,0,0,0,0,0,0,0,0,0,0,0,0,0],"id":5,"left_children":[1,3,5,7,9,11,13,-1,-1,-1,-1,-1,-1,-1,-1],"loss_changes":[1.5433731E1,7.181468E-1,1.2010565E0,2.4297714E-1,4.4434525E-2,8.0397725E-3,1.3512135E-1,0E0,0E0,0E0,0E0,0E0,0E0,0E0,0E0],"parents":[2147483647,0,0,1,1,2,2,3,3,4,4,5,5,6,6],"right_children":[2,4,6,8,10,12,14,-1,-1,-1,-1,-1,-1,-1,-1],"split_conditions":[3.1215057E-1,1.6209006E-1,5.6934744E-1,9.585268E-2,2.3432036E-1,4.390565E-1,7.251439E-1,-8.6764E-3,-5.4741367E-3,-2.4380211E-3,2.3615241E-4,6.105091E-3,9.400864E-3,1.6553989E-2,2.2223743E-2],"split_indices":[0,0,0,0,0,0,0,0,0,0,0,0,0,0,0],"split_type":[0,0,0,0,0,0,0,0,0,0,0,0,0,0,0],"sum_hessian":[5.37E2,4.02E2,1.35E2,3.23E2,7.9E1,3.6E1,9.9E1,1.6E2,1.63E2,3.7E1,4.2E1,2.8E1,8E0,5.2E1,4.7E1],"tree_param":{"num_deleted":"0","num_feature":"2","num_nodes":"15","size_leaf_vector":"1"}},{"base_weights":[1.0997568E-3,-1.0004588E-1,2.70578E-1,-1.3317542E-1,-5.633489E-2,1.3646162E-1,3.2688344E-1,-9.97619E-3,-6.86645E-3,-4.4506383E-3,-2.0348681E-4,5.8419933E-3,1.0715802E-2,1.5302889E-2,2.065043E-2],"categories":[],"categories_nodes":[],"categories_segments":[],"categories_sizes":[],"default_left":[0,0,0,0,0,0,0,0,0,0,0,0,0,0,0],"id":6,"left_children":[1,3,5,7,9,11,13,-1,-1,-1,-1,-1,-1,-1,-1],"loss_changes":[1.4282245E1,5.442333E-1,1.0352545E0,9.1110945E-2,1.9290233E-1,5.7787895E-2,1.1330032E-1,0E0,0E0,0E0,0E0,0E0,0E0,0E0,0E0],"parents":[2147483647,0,0,1,1,2,2,3,3,4,4,5,5,6,6],"right_children":[2,4,6,8,10,12,14,-1,-1,-1,-1,-1,-1,-1,-1],"split_conditions":[3.1215057E-1,1.1313988E-1,5.6934744E-1,5.4517776E-2,2.0249037E-1,4.390565E-1,7.0752686E-1,-9.97619E-3,-6.86645E-3,-4.4506383E-3,-2.0348681E-4,5.8419933E-3,1.0715802E-2,1.5302889E-2,2.065043E-2],"split_indices":[0,0,0,0,0,0,0,0,0,0,0,0,0,0,0],"split_type":[0,0,0,0,0,0,0,0,0,0,0,0,0,0,0],"sum_hessian":[5.22E2,3.8E2,1.42E2,2.15E2,1.65E2,4.3E1,9.9E1,4.5E1,1.7E2,1.16E2,4.9E1,2.8E1,1.5E1,4.2E1,5.7E1],"tree_param":{"num_deleted":"0","num_feature":"2","num_nodes":"15","size_leaf_vector":"1"}},{"base_weights":[-4.5079156E-3,-9.272056E-2,2.497852E-1,-1.15035884E-1,-2.6409445E-2,1.2037867E-1,2.9873487E-1,-9.683255E-3,-5.9043807E-3,-3.3691893E-3,-1.4276369E-4,5.2029695E-3,9.374955E-3,1.4482272E-2,1.9047938E-2],"categories":[],"categories_nodes":[],"categories_segments":[],"categories_sizes":[],"default_left":[0,0,0,0,0,0,0,0,0,0,0,0,0,0,0],"id":7,"left_children":[1,3,5,7,9,11,13,-1,-1,-1,-1,-1,-1,-1,-1],"loss_changes":[1.1844754E1,5.770252E-1,8.2551765E-1,1.6176438E-1,7.85542E-2,3.5015643E-2,7.172108E-2,0E0,0E0,0E0,0E0,0E0,0E0,0E0,0E0],"parents":[2147483647,0,0,1,1,2,2,3,3,4,4,5,5,6,6],"right_children":[2,4,6,8,10,12,14,-1,-1,-1,-1,-1,-1,-1,-1],"split_conditions":[3.1215057E-1,1.4129776E-1,5.58761E-1,4.3590784E-2,2.0484436E-1,4.390565E-1,7.0752686E-1,-9.683255E-3,-5.9043807E-3,-3.3691893E-3,-1.4276369E-4,5.2029695E-3,9.374955E-3,1.4482272E-2,1.9047938E-2],"split_indices":[0,0,0,0,0,0,0,0,0,0,0,0,0,0,0],"split_type":[0,0,0,0,0,0,0,0,0,0,0,0,0,0,0],"sum_hessian":[5.26E2,3.91E2,1.35E2,2.92E2,9.9E1,3.8E1,9.7E1,4.6E1,2.46E2,4.1E1,5.8E1,2.5E1,1.3E1,4.8E1,4.9E1],"tree_param":{"num_deleted":"0","num_feature":"2","num_nodes":"15","size_leaf_vector":"1"}},{"base_weights":[1.7070839E-4,-8.970116E-2,2.3962267E-1,-1.1772683E-1,-4.0665906E-2,1.1819042E-1,2.9255593E-1,-9.224581E-3,-6.040183E-3,-3.6879946E-3,-3.9397416E-4,5.3007137E-3,9.5518995E-3,1.3975026E-2,1.9015519E-2],"categories":[],"categories_nodes":[],"categories_segments":[],"categories_sizes":[],"default_left":[0,0,0,0,0,0,0,0,0,0,0,0,0,0,0],"id":8,"left_children":[1,3,5,7,9,11,13,-1,-1,-1,-1,-1,-1,-1,-1],"loss_changes":[1.1513171E1,5.297942E-1,9.03883E-1,1.0798931E-1,1.1672877E-1,4.1448534E-2,1.1618996E-1,0E0,0E0,0E0,0E0,0E0,0E0,0E0,0E0],"parents":[2147483647,0,0,1,1,2,2,3,3,4,4,5,5,6,6],"right_children":[2,4,6,8,10,12,14,-1,-1,-1,-1,-1,-1,-1,-1],"split_conditions":[3.1215057E-1,1.2189169E-1,5.6934744E-1,4.3590784E-2,1.9518761E-1,4.7997227E-1,7.2788703E-1,-9.224581E-3,-6.040183E-3,-3.6879946E-3,-3.9397416E-4,5.3007137E-3,9.5518995E-3,1.3975026E-2,1.9015519E-2],"split_indices":[0,0,0,0,0,0,0,0,0,0,0,0,0,0,0],"split_type":[0,0,0,0,0,0,0,0,0,0,0,0,0,0,0],"sum_hessian":[5.33E2,3.88E2,1.45E2,2.46E2,1.42E2,4.5E1,1E2,4.7E1,1.99E2,8.2E1,6E1,3.2E1,1.3E1,5.1E1,4.9E1],"tree_param":{"num_deleted":"0","num_feature":"2","num_nodes":"15","size_leaf_vector":"1"}},{"base_weights":[5.536137E-3,-8.4619254E-2,2.3977984E-1,-1.00402296E-1,-1.8675338E-2,1.1550517E-1,2.7615005E-1,-6.9332975E-3,-4.5890026E-3,-2.0647217E-3,8.0203946E-4,5.2870624E-3,8.848216E-3,1.2568634E-2,1.7084789E-2],"categories":[],"categories_nodes":[],"categories_segments":[],"categories_sizes":[],"default_left":[0,0,0,0,0,0,0,0,0,0,0,0,0,0,0],"id":9,"left_children":[1,3,5,7,9,11,13,-1,-1,-1,-1,-1,-1,-1,-1],"loss_changes":[1.117077E1,3.9570856E-1,6.325283E-1,1.2106919E-1,4.4044934E-2,1.7087072E-2,8.6779594E-2,0E0,0E0,0E0,0E0,0E0,0E0,0E0,0E0],"parents":[2147483647,0,0,1,1,2,2,3,3,4,4,5,5,6,6],"right_children":[2,4,6,8,10,12,14,-1,-1,-1,-1,-1,-1,-1,-1],"split_conditions":[3.738418E-1,2.4445747E-1,5.551698E-1,2.0036049E-1,3.2662317E-1,4.7509286E-1,6.590105E-1,-6.9332975E-3,-4.5890026E-3,-2.0647217E-3,8.0203946E-4,5.2870624E-3,8.848216E-3,1.2568634E-2,1.7084789E-2],"split_indices":[1,1,1,1,1,1,1,0,0,0,0,0,0,0,0],"split_type":[0,0,0,0,0,0,0,0,0,0,0,0,0,0,0],"sum_hessian":[5.27E2,3.81E2,1.46E2,3.07E2,7.4E1,3.4E1,1.12E2,1.43E2,1.64E2,4.8E1,2.6E1,2.4E1,1E1,3.8E1,7.4E1],"tree_param":{"num_deleted":"0","num_feature":"2","num_nodes":"15","size_leaf_vector":"1"}},{"base_weights":[-7.089317E-4,-7.949666E-2,2.1652515E-1,-1.0585229E-1,-3.910472E-2,9.790724E-2,2.55132E-1,-8.343951E-3,-5.4370626E-3,-3.4044553E-3,-1.4465602E-4,4.9869022E-3,7.584076E-3,1.0671021E-2,1.554229E-2],"categories":[],"categories_nodes":[],"categories_segments":[],"categories_sizes":[],"default_left":[0,0,0,0,0,0,0,0,0,0,0,0,0,0,0],"id":10,"left_children":[1,3,5,7,9,11,13,-1,-1,-1,-1,-1,-1,-1,-1],"loss_changes":[9.002787E0,4.0677905E-1,6.161461E-1,8.251166E-2,1.1730307E-1,1.1943281E-3,7.9995155E-2,0E0,0E0,0E0,0E0,0E0,0E0,0E0,0E0],"parents":[2147483647,0,0,1,1,2,2,3,3,4,4,5,5,6,6],"right_children":[2,4,6,8,10,12,14,-1,-1,-1,-1,-1,-1,-1,-1],"split_conditions":[3.4007815E-1,1.17832005E-1,5.58761E-1,4.3590784E-2,2.0249037E-1,4.7997227E-1,6.508298E-1,-8.343951E-3,-5.4370626E-3,-3.4044553E-3,-1.4465602E-4,4.9869022E-3,7.584076E-3,1.0671021E-2,1.554229E-2],"split_indices":[0,0,0,0,0,0,0,0,0,0,0,0,0,0,0],"split_type":[0,0,0,0,0,0,0,0,0,0,0,0,0,0,0],"sum_hessian":[5.24E2,3.85E2,1.39E2,2.32E2,1.53E2,3.5E1,1.04E2,4.3E1,1.89E2,9.7E1,5.6E1,3E1,5E0,2.5E1,7.9E1],"tree_param":{"num_deleted":"0","num_feature":"2","num_nodes":"15","size_leaf_vector":"1"}},{"base_weights":[1.6368589E-3,-7.4933246E-2,2.1074116E-1,-9.991838E-2,-4.181354E-2,9.885694E-2,2.4544199E-1,-7.505181E-3,-5.146381E-3,-3.249821E-3,-2.89702E-4,4.450764E-3,7.847229E-3,1.2100543E-2,1.605008E-2],"categories":[],"categories_nodes":[],"categories_segments":[],"categories_sizes":[],"default_left":[0,0,0,0,0,0,0,0,0,0,0,0,0,0,0],"id":11,"left_children":[1,3,5,7,9,11,13,-1,-1,-1,-1,-1,-1,-1,-1],"loss_changes":[8.661807E0,3.2351208E-1,5.3869486E-1,5.5325747E-2,9.714168E-2,1.8158674E-2,7.2156906E-2,0E0,0E0,0E0,0E0,0E0,0E0,0E0,0E0],"parents":[2147483647,0,0,1,1,2,2,3,3,4,4,5,5,6,6],"right_children":[2,4,6,8,10,12,14,-1,-1,-1,-1,-1,-1,-1,-1],"split_conditions":[3.1215057E-1,1.1263317E-1,5.6934744E-1,5.4517776E-2,2.0249037E-1,4.390565E-1,7.251439E-1,-7.505181E-3,-5.146381E-3,-3.249821E-3,-2.89702E-4,4.450764E-3,7.847229E-3,1.2100543E-2,1.605008E-2],"split_indices":[0,0,0,0,0,0,0,0,0,0,0,0,0,0,0],"split_type":[0,0,0,0,0,0,0,0,0,0,0,0,0,0,0],"sum_hessian":[5.39E2,3.95E2,1.44E2,2.24E2,1.71E2,3.5E1,1.09E2,4.7E1,1.77E2,1.2E2,5.1E1,2.5E1,1E1,6.2E1,4.7E1],"tree_param":{"num_deleted":"0","num_feature":"2","num_nodes":"15","size_leaf_vector":"1"}},{"base_weights":[-1.7254348E-5,-7.213881E-2,1.9780199E-1,-9.4884045E-2,-4.00452E-2,8.72655E-2,2.3107713E-1,-7.19494E-3,-4.839228E-3,-3.121808E-3,-3.8230486E-4,4.044935E-3,7.0303013E-3,1.0751501E-2,1.5006144E-2],"categories":[],"categories_nodes":[],"categories_segments":[],"categories_sizes":[],"default_left":[0,0,0,0,0,0,0,0,0,0,0,0,0,0,0],"id":12,"left_children":[1,3,5,7,9,11,13,-1,-1,-1,-1,-1,-1,-1,-1],"loss_changes":[7.4759274E0,2.7651143E-1,4.9477148E-1,5.7997227E-2,7.977718E-2,1.1090368E-2,9.8278046E-2,0E0,0E0,0E0,0E0,0E0,0E0,0E0,0E0],"parents":[2147483647,0,0,1,1,2,2,3,3,4,4,5,5,6,6],"right_children":[2,4,6,8,10,12,14,-1,-1,-1,-1,-1,-1,-1,-1],"split_conditions":[2.9957518E-1,1.1263317E-1,5.58761E-1,6.311927E-2,2.0249037E-1,4.7997227E-1,7.0752686E-1,-7.19494E-3,-4.839228E-3,-3.121808E-3,-3.8230486E-4,4.044935E-3,7.0303013E-3,1.0751501E-2,1.5006144E-2],"split_indices":[0,0,0,0,0,0,0,0,0,0,0,0,0,0,0],"split_type":[0,0,0,0,0,0,0,0,0,0,0,0,0,0,0],"sum_hessian":[5.22E2,3.83E2,1.39E2,2.23E2,1.6E2,3.3E1,1.06E2,4.9E1,1.74E2,1.1E2,5E1,2.5E1,8E0,5E1,5.6E1],"tree_param":{"num_deleted":"0","num_feature":"2","num_nodes":"15","size_leaf_vector":"1"}},{"base_weights":[6.896183E-4,-6.5844625E-2,1.841291E-1,-8.001248E-2,-1.6233133E-2,1.20184556E-1,1.3169884E-2,-5.6694E-3,-3.647203E-3,-1.554541E-3,4.67707E-4,4.205313E-3,8.596728E-3],"categories":[],"categories_nodes":[],"categories_segments":[],"categories_sizes":[],"default_left":[0,0,0,0,0,0,0,0,0,0,0,0,0],"id":13,"left_children":[1,3,5,7,9,11,-1,-1,-1,-1,-1,-1,-1],"loss_changes":[6.4197526E0,2.7001595E-1,4.005165E-1,8.749366E-2,2.3963302E-2,7.810199E-2,0E0,0E0,0E0,0E0,0E0,0E0,0E0],"parents":[2147483647,0,0,1,1,2,2,3,3,4,4,5,5],"right_children":[2,4,6,8,10,12,-1,-1,-1,-1,-1,-1,-1],"split_conditions":[3.629583E-1,2.4445747E-1,6.3879085E-1,1.9579671E-1,3.2483265E-1,4.537547E-1,1.3169884E-2,-5.6694E-3,-3.647203E-3,-1.554541E-3,4.67707E-4,4.205313E-3,8.596728E-3],"split_indices":[1,1,1,1,1,1,0,0,0,0,0,0,0],"split_type":[0,0,0,0,0,0,0,0,0,0,0,0,0],"sum_hessian":[5.24E2,3.85E2,1.39E2,2.99E2,8.6E1,6.1E1,7.8E1,1.3E2,1.69E2,5.9E1,2.7E1,2.6E1,3.5E1],"tree_param":{"num_deleted":"0","num_feature":"2","num_nodes":"13","size_leaf_vector":"1"}},{"base_weights":[1.3910992E-3,-6.38395E-2,1.7810528E-1,-7.448576E-2,-5.463177E-3,8.9248456E-2,2.0772049E-1,-6.690733E-3,-3.7851161E-3,-6.1272754E-4,1.7331959E-3,3.7967602E-3,6.881891E-3,1.0364575E-2,1.3536552E-2],"categories":[],"categories_nodes":[],"categories_segments":[],"categories_sizes":[],"default_left":[0,0,0,0,0,0,0,0,0,0,0,0,0,0,0],"id":14,"left_children":[1,3,5,7,9,11,13,-1,-1,-1,-1,-1,-1,-1,-1],"loss_changes":[6.028554E0,2.370019E-1,3.5250425E-1,1.0157883E-1,1.18395565E-2,1.835695E-2,3.7601948E-2,0E0,0E0,0E0,0E0,0E0,0E0,0E0,0E0],"parents":[2147483647,0,0,1,1,2,2,3,3,4,4,5,5,6,6],"right_children":[2,4,6,8,10,12,14,-1,-1,-1,-1,-1,-1,-1,-1],"split_conditions":[3.629583E-1,2.627185E-1,5.863944E-1,1.4691229E-1,3.3803013E-1,4.7509286E-1,7.2930574E-1,-6.690733E-3,-3.7851161E-3,-6.1272754E-4,1.7331959E-3,3.7967602E-3,6.881891E-3,1.0364575E-2,1.3536552E-2],"split_indices":[1,1,1,1,1,1,1,0,0,0,0,0,0,0,0],"split_type":[0,0,0,0,0,0,0,0,0,0,0,0,0,0,0],"sum_hessian":[5.21E2,3.81E2,1.4E2,3.22E2,5.9E1,3.6E1,1.04E2,4.7E1,2.75E2,5.2E1,7E0,2.3E1,1.3E1,6.1E1,4.3E1],"tree_param":{"num_deleted":"0","num_feature":"2","num_nodes":"15","size_leaf_vector":"1"}},{"base_weights":[-8.2427583E-4,-5.9971735E-2,1.6403939E-1,-7.8748785E-2,-2.8356016E-2,1.07633375E-1,1.1476755E-2,-5.7853325E-3,-3.860196E-3,-2.4165604E-3,-1.18121105E-4,4.0142504E-3,7.7536763E-3],"categories":[],"categories_nodes":[],"categories_segments":[],"categories_sizes":[],"default_left":[0,0,0,0,0,0,0,0,0,0,0,0,0],"id":15,"left_children":[1,3,5,7,9,11,-1,-1,-1,-1,-1,-1,-1],"loss_changes":[5.207263E0,2.3107135E-1,2.814145E-1,5.4327607E-2,5.5173762E-2,5.3399026E-2,0E0,0E0,0E0,0E0,0E0,0E0,0E0],"parents":[2147483647,0,0,1,1,2,2,3,3,4,4,5,5],"right_children":[2,4,6,8,10,12,-1,-1,-1,-1,-1,-1,-1],"split_conditions":[3.738418E-1,2.2434253E-1,6.3406146E-1,1.7825924E-1,2.9734543E-1,4.9604255E-1,1.1476755E-2,-5.7853325E-3,-3.860196E-3,-2.4165604E-3,-1.18121105E-4,4.0142504E-3,7.7536763E-3],"split_indices":[1,1,1,1,1,1,0,0,0,0,0,0,0],"split_type":[0,0,0,0,0,0,0,0,0,0,0,0,0],"sum_hessian":[5.32E2,3.92E2,1.4E2,2.45E2,1.47E2,5.8E1,8.2E1,7.5E1,1.7E2,9.5E1,5.2E1,2.7E1,3.1E1],"tree_param":{"num_deleted":"0","num_feature":"2","num_nodes":"13","size_leaf_vector":"1"}},{"base_weights":[-1.9011922E-3,-5.7447895E-2,1.5800753E-1,-7.587938E-2,-2.8685866E-2,9.939002E-2,1.9706547E-1,-6.055412E-3,-3.8733345E-3,-2.3558526E-3,-2.1038004E-4,3.821413E-3,7.3317518E-3,9.260757E-3,1.2335598E-2],"categories":[],"categories_nodes":[],"categories_segments":[],"categories_sizes":[],"default_left":[0,0,0,0,0,0,0,0,0,0,0,0,0,0,0],"id":16,"left_children":[1,3,5,7,9,11,13,-1,-1,-1,-1,-1,-1,-1,-1],"loss_changes":[4.8233395E0,2.1146464E-1,3.009405E-1,5.0435662E-2,5.0731853E-2,4.6667457E-2,2.1520853E-2,0E0,0E0,0E0,0E0,0E0,0E0,0E0,0E0],"parents":[2147483647,0,0,1,1,2,2,3,3,4,4,5,5,6,6],"right_children":[2,4,6,8,10,12,14,-1,-1,-1,-1,-1,-1,-1,-1],"split_conditions":[3.471889E-1,2.2434253E-1,6.3879085E-1,1.4691229E-1,2.924079E-1,4.9604255E-1,7.218743E-1,-6.055412E-3,-3.8733345E-3,-2.3558526E-3,-2.1038004E-4,3.821413E-3,7.3317518E-3,9.260757E-3,1.2335598E-2],"split_indices":[1,1,1,1,1,1,1,0,0,0,0,0,0,0,0],"split_type":[0,0,0,0,0,0,0,0,0,0,0,0,0,0,0],"sum_hessian":[5.41E2,4.02E2,1.39E2,2.44E2,1.58E2,5.7E1,8.2E1,4.6E1,1.98E2,1.04E2,5.4E1,2.9E1,2.8E1,3.4E1,4.8E1],"tree_param":{"num_deleted":"0","num_feature":"2","num_nodes":"15","size_leaf_vector":"1"}},{"base_weights":[-2.0122956E-4,-4.693556E-2,1.6756475E-1,-6.1594658E-2,1.3326019E-2,7.809191E-3,1.1055203E-2,-4.4619115E-3,-2.6450253E-3,-5.1234005E-4,2.6945886E-3],"categories":[],"categories_nodes":[],"categories_segments":[],"categories_sizes":[],"default_left":[0,0,0,0,0,0,0,0,0,0,0],"id":17,"left_children":[1,3,5,7,9,-1,-1,-1,-1,-1,-1],"loss_changes":[4.2103353E0,3.7184066E-1,6.86028E-2,8.254981E-2,6.375836E-2,0E0,0E0,0E0,0E0,0E0,0E0],"parents":[2147483647,0,0,1,1,2,2,3,3,4,4],"right_children":[2,4,6,8,10,-1,-1,-1,-1,-1,-1],"split_conditions":[4.390565E-1,1.9518761E-1,7.0752686E-1,9.585268E-2,2.7718598E-1,7.809191E-3,1.1055203E-2,-4.4619115E-3,-2.6450253E-3,-5.1234005E-4,2.6945886E-3],"split_indices":[0,0,0,0,0,0,0,0,0,0,0],"split_type":[0,0,0,0,0,0,0,0,0,0,0],"sum_hessian":[5.35E2,4.19E2,1.16E2,3.37E2,8.2E1,5.8E1,5.8E1,1.56E2,1.81E2,5E1,3.2E1],"tree_param":{"num_deleted":"0","num_feature":"2","num_nodes":"11","size_leaf_vector":"1"}},{"base_weights":[2.6278323E-3,-5.0135404E-2,1.3888635E-1,-7.0353545E-2,-2.9556481E-2,5.8829635E-2,1.6164787E-1,-5.37716E-3,-3.5819078E-3,-2.264027E-3,-2.545619E-4,2.905679E-3,4.6612667E-3,7.3067406E-3,1.0285653E-2],"categories":[],"categories_nodes":[],"categories_segments":[],"categories_sizes":[],"default_left":[0,0,0,0,0,0,0,0,0,0,0,0,0,0,0],"id":18,"left_children":[1,3,5,7,9,11,13,-1,-1,-1,-1,-1,-1,-1,-1],"loss_changes":[3.889261E0,1.6018695E-1,2.6564455E-1,2.8689623E-2,5.0294235E-2,2.0276532E-3,5.1955223E-2,0E0,0E0,0E0,0E0,0E0,0E0,0E0,0E0],"parents":[2147483647,0,0,1,1,2,2,3,3,4,4,5,5,6,6],"right_children":[2,4,6,8,10,12,14,-1,-1,-1,-1,-1,-1,-1,-1],"split_conditions":[3.471889E-1,2.1031825E-1,5.397891E-1,1.4691229E-1,2.924079E-1,4.7509286E-1,6.590105E-1,-5.37716E-3,-3.5819078E-3,-2.264027E-3,-2.545619E-4,2.905679E-3,4.6612667E-3,7.3067406E-3,1.0285653E-2],"split_indices":[1,1,1,1,1,1,1,0,0,0,0,0,0,0,0],"split_type":[0,0,0,0,0,0,0,0,0,0,0,0,0,0,0],"sum_hessian":[5.39E2,3.89E2,1.5E2,1.95E2,1.94E2,3.4E1,1.16E2,4.2E1,1.53E2,1.37E2,5.7E1,2.8E1,6E0,4.6E1,7E1],"tree_param":{"num_deleted":"0","num_feature":"2","num_nodes":"15","size_leaf_vector":"1"}},{"base_weights":[-1.9499584E-3,-4.8359703E-2,1.2967432E-1,-6.849904E-2,-2.8697759E-2,8.718369E-2,9.370196E-3,-5.1700845E-3,-3.4090902E-3,-2.2809694E-3,-5.646457E-4,2.8175828E-3,6.024739E-3],"categories":[],"categories_nodes":[],"categories_segments":[],"categories_sizes":[],"default_left":[0,0,0,0,0,0,0,0,0,0,0,0,0],"id":19,"left_children":[1,3,5,7,9,11,-1,-1,-1,-1,-1,-1,-1],"loss_changes":[3.1400077E0,1.4850616E-1,1.8704486E-1,3.0191839E-2,4.136522E-2,3.954172E-2,0E0,0E0,0E0,0E0,0E0,0E0,0E0],"parents":[2147483647,0,0,1,1,2,2,3,3,4,4,5,5],"right_children":[2,4,6,8,10,12,-1,-1,-1,-1,-1,-1,-1],"split_conditions":[3.471889E-1,2.0848267E-1,6.3879085E-1,1.4691229E-1,2.4355632E-1,4.537547E-1,9.370196E-3,-5.1700845E-3,-3.4090902E-3,-2.2809694E-3,-5.646457E-4,2.8175828E-3,6.024739E-3],"split_indices":[1,1,1,1,1,1,0,0,0,0,0,0,0],"split_type":[0,0,0,0,0,0,0,0,0,0,0,0,0],"sum_hessian":[5.12E2,3.79E2,1.33E2,1.86E2,1.93E2,6.2E1,7.1E1,4.8E1,1.38E2,1.19E2,7.4E1,2.2E1,4E1],"tree_param":{"num_deleted":"0","num_feature":"2","num_nodes":"13","size_leaf_vector":"1"}},{"base_weights":[-3.4051007E-4,-4.5018416E-2,1.20704174E-1,-6.0099684E-2,-2.0500062E-2,5.6669373E-2,1.4463249E-1,-4.875352E-3,-3.0606068E-3,-1.7586398E-3,-1.6580336E-4,2.5996594E-3,4.6088407E-3,6.9095083E-3,9.586853E-3],"categories":[],"categories_nodes":[],"categories_segments":[],"categories_sizes":[],"default_left":[0,0,0,0,0,0,0,0,0,0,0,0,0,0,0],"id":20,"left_children":[1,3,5,7,9,11,13,-1,-1,-1,-1,-1,-1,-1,-1],"loss_changes":[2.8284216E0,1.4001936E-1,2.0785046E-1,3.3016622E-2,2.6985943E-2,6.948188E-3,3.611803E-2,0E0,0E0,0E0,0E0,0E0,0E0,0E0,0E0],"parents":[2147483647,0,0,1,1,2,2,3,3,4,4,5,5,6,6],"right_children":[2,4,6,8,10,12,14,-1,-1,-1,-1,-1,-1,-1,-1],"split_conditions":[3.471889E-1,2.2619778E-1,5.551698E-1,1.4691229E-1,2.9734543E-1,4.537547E-1,7.2930574E-1,-4.875352E-3,-3.0606068E-3,-1.7586398E-3,-1.6580336E-4,2.5996594E-3,4.6088407E-3,6.9095083E-3,9.586853E-3],"split_indices":[1,1,1,1,1,1,1,0,0,0,0,0,0,0,0],"split_type":[0,0,0,0,0,0,0,0,0,0,0,0,0,0,0],"sum_hessian":[5.21E2,3.81E2,1.4E2,2.35E2,1.46E2,3.9E1,1.01E2,4.3E1,1.92E2,9.1E1,5.5E1,2.9E1,1E1,5.5E1,4.6E1],"tree_param":{"num_deleted":"0","num_feature":"2","num_nodes":"15","size_leaf_vector":"1"}},{"base_weights":[-2.7870408E-3,-4.3211747E-2,1.2095818E-1,-6.045517E-2,-2.5840404E-2,8.0302276E-2,1.4721717E-1,-4.6182526E-3,-3.0115338E-3,-1.9567325E-3,-7.203863E-6,2.8959366E-3,5.611586E-3,7.067199E-3,9.3813315E-3],"categories":[],"categories_nodes":[],"categories_segments":[],"categories_sizes":[],"default_left":[0,0,0,0,0,0,0,0,0,0,0,0,0,0,0],"id":21,"left_children":[1,3,5,7,9,11,13,-1,-1,-1,-1,-1,-1,-1,-1],"loss_changes":[2.6814916E0,1.19452536E-1,1.2909925E-1,2.6950777E-2,4.5025766E-2,2.4289101E-2,1.1808872E-2,0E0,0E0,0E0,0E0,0E0,0E0,0E0,0E0],"parents":[2147483647,0,0,1,1,2,2,3,3,4,4,5,5,6,6],"right_children":[2,4,6,8,10,12,14,-1,-1,-1,-1,-1,-1,-1,-1],"split_conditions":[3.629583E-1,2.0848267E-1,6.3879085E-1,1.4691229E-1,3.0621818E-1,4.9604255E-1,7.339251E-1,-4.6182526E-3,-3.0115338E-3,-1.9567325E-3,-7.203863E-6,2.8959366E-3,5.611586E-3,7.067199E-3,9.3813315E-3],"split_indices":[1,1,1,1,1,1,1,0,0,0,0,0,0,0,0],"split_type":[0,0,0,0,0,0,0,0,0,0,0,0,0,0,0],"sum_hessian":[5.34E2,4.03E2,1.31E2,2.01E2,2.02E2,5.3E1,7.8E1,5E1,1.51E2,1.51E2,5.1E1,2.2E1,3.1E1,3.8E1,4E1],"tree_param":{"num_deleted":"0","num_feature":"2","num_nodes":"15","size_leaf_vector":"1"}},{"base_weights":[-7.527554E-5,-4.026702E-2,1.0719963E-1,-5.4434888E-2,-2.1034168E-2,2.5093732E-3,1.2562704E-1,-4.0221643E-3,-2.732326E-3,-1.425694E-3,3.9546416E-4,6.194941E-3,8.737296E-3],"categories":[],"categories_nodes":[],"categories_segments":[],"categories_sizes":[],"default_left":[0,0,0,0,0,0,0,0,0,0,0,0,0],"id":22,"left_children":[1,3,5,7,9,-1,11,-1,-1,-1,-1,-1,-1],"loss_changes":[2.1989036E0,9.994829E-2,1.558106E-1,1.8637002E-2,1.8334314E-2,0E0,3.3145547E-2,0E0,0E0,0E0,0E0,0E0,0E0],"parents":[2147483647,0,0,1,1,2,2,3,3,4,4,6,6],"right_children":[2,4,6,8,10,-1,12,-1,-1,-1,-1,-1,-1],"split_conditions":[2.7718598E-1,1.11907676E-1,5.000804E-1,6.8905406E-2,2.5851694E-1,2.5093732E-3,7.363496E-1,-4.0221643E-3,-2.732326E-3,-1.425694E-3,3.9546416E-4,6.194941E-3,8.737296E-3],"split_indices":[0,0,0,0,0,0,0,0,0,0,0,0,0],"split_type":[0,0,0,0,0,0,0,0,0,0,0,0,0],"sum_hessian":[5.08E2,3.7E2,1.38E2,2.12E2,1.58E2,3.2E1,1.06E2,5.6E1,1.56E2,1.38E2,2E1,7E1,3.6E1],"tree_param":{"num_deleted":"0","num_feature":"2","num_nodes":"13","size_leaf_vector":"1"}},{"base_weights":[-2.5787344E-3,-3.8985364E-2,9.9849835E-2,-5.417038E-2,-2.2636108E-2,4.300519E-2,1.2319295E-1,-4.2042467E-3,-2.752682E-3,-1.5650396E-3,2.0136425E-4,2.2254551E-3,3.3664864E-3,5.705565E-3,8.445108E-3],"categories":[],"categories_nodes":[],"categories_segments":[],"categories_sizes":[],"default_left":[0,0,0,0,0,0,0,0,0,0,0,0,0,0,0],"id":23,"left_children":[1,3,5,7,9,11,13,-1,-1,-1,-1,-1,-1,-1,-1],"loss_changes":[1.9765755E0,9.5844924E-2,1.7914546E-1,1.9237101E-2,2.463089E-2,2.791509E-4,4.1899323E-2,0E0,0E0,0E0,0E0,0E0,0E0,0E0,0E0],"parents":[2147483647,0,0,1,1,2,2,3,3,4,4,5,5,6,6],"right_children":[2,4,6,8,10,12,14,-1,-1,-1,-1,-1,-1,-1,-1],"split_conditions":[2.7718598E-1,1.04868144E-1,5.58761E-1,3.9062846E-2,2.3017511E-1,4.7997227E-1,7.2788703E-1,-4.2042467E-3,-2.752682E-3,-1.5650396E-3,2.0136425E-4,2.2254551E-3,3.3664864E-3,5.705565E-3,8.445108E-3],"split_indices":[0,0,0,0,0,0,0,0,0,0,0,0,0,0,0],"split_type":[0,0,0,0,0,0,0,0,0,0,0,0,0,0,0],"sum_hessian":[5.28E2,3.9E2,1.38E2,2.01E2,1.89E2,4.1E1,9.7E1,4.2E1,1.59E2,1.59E2,3E1,3.6E1,5E0,5.4E1,4.3E1],"tree_param":{"num_deleted":"0","num_feature":"2","num_nodes":"15","size_leaf_vector":"1"}},{"base_weights":[2.9137188E-3,-3.4317743E-2,9.597295E-2,-4.8448797E-2,-1.6617874E-2,4.8624683E-2,1.17777765E-1,-4.1473983E-3,-2.5010004E-3,-1.2716939E-3,6.090689E-4,2.1018854E-3,4.1131387E-3,5.5938987E-3,7.945833E-3],"categories":[],"categories_nodes":[],"categories_segments":[],"categories_sizes":[],"default_left":[0,0,0,0,0,0,0,0,0,0,0,0,0,0,0],"id":24,"left_children":[1,3,5,7,9,11,13,-1,-1,-1,-1,-1,-1,-1,-1],"loss_changes":[1.8188125E0,9.298909E-2,1.4913619E-1,1.927343E-2,2.6806477E-2,1.0861553E-2,2.9754281E-2,0E0,0E0,0E0,0E0,0E0,0E0,0E0,0E0],"parents":[2147483647,0,0,1,1,2,2,3,3,4,4,5,5,6,6],"right_children":[2,4,6,8,10,12,14,-1,-1,-1,-1,-1,-1,-1,-1],"split_conditions":[3.629583E-1,2.1769938E-1,5.863944E-1,1.3011213E-1,3.2662317E-1,4.9604255E-1,7.218743E-1,-4.1473983E-3,-2.5010004E-3,-1.2716939E-3,6.090689E-4,2.1018854E-3,4.1131387E-3,5.5938987E-3,7.945833E-3],"split_indices":[1,1,1,1,1,1,1,0,0,0,0,0,0,0,0],"split_type":[0,0,0,0,0,0,0,0,0,0,0,0,0,0,0],"sum_hessian":[5.23E2,3.74E2,1.49E2,2.07E2,1.67E2,4.8E1,1.01E2,2.9E1,1.78E2,1.38E2,2.9E1,3.4E1,1.4E1,5.7E1,4.4E1],"tree_param":{"num_deleted":"0","num_feature":"2","num_nodes":"15","size_leaf_vector":"1"}},{"base_weights":[-8.3987846E-4,-3.39058E-2,9.5082946E-2,-4.6465915E-2,-1.5572903E-2,5.7444982E-2,1.14775896E-1,-3.5431965E-3,-2.3522112E-3,-1.1944951E-3,2.2315799E-4,2.3991019E-3,4.3050954E-3,5.7498473E-3,7.495966E-3],"categories":[],"categories_nodes":[],"categories_segments":[],"categories_sizes":[],"default_left":[0,0,0,0,0,0,0,0,0,0,0,0,0,0,0],"id":25,"left_children":[1,3,5,7,9,11,13,-1,-1,-1,-1,-1,-1,-1,-1],"loss_changes":[1.6208298E0,8.6776465E-2,9.050429E-2,1.5470415E-2,1.6718619E-2,9.919167E-3,6.427765E-3,0E0,0E0,0E0,0E0,0E0,0E0,0E0,0E0],"parents":[2147483647,0,0,1,1,2,2,3,3,4,4,5,5,6,6],"right_children":[2,4,6,8,10,12,14,-1,-1,-1,-1,-1,-1,-1,-1],"split_conditions":[2.9957518E-1,1.17832005E-1,6.373834E-1,5.4517776E-2,2.38037E-1,5.58761E-1,7.4926263E-1,-3.5431965E-3,-2.3522112E-3,-1.1944951E-3,2.2315799E-4,2.3991019E-3,4.3050954E-3,5.7498473E-3,7.495966E-3],"split_indices":[0,0,0,0,0,0,0,0,0,0,0,0,0,0,0],"split_type":[0,0,0,0,0,0,0,0,0,0,0,0,0,0,0],"sum_hessian":[5.09E2,3.79E2,1.3E2,2.24E2,1.55E2,4.6E1,8.4E1,5.1E1,1.73E2,1.21E2,3.4E1,2.7E1,1.9E1,5.1E1,3.3E1],"tree_param":{"num_deleted":"0","num_feature":"2","num_nodes":"15","size_leaf_vector":"1"}},{"base_weights":[2.4345554E-3,-3.0333694E-2,9.0891436E-2,-4.5954447E-2,-1.720759E-2,6.0031176E-2,1.1015359E-1,-3.7407174E-3,-2.3434148E-3,-1.3634153E-3,2.3214928E-4,1.8179493E-3,4.113383E-3,5.5555725E-3,7.0918747E-3],"categories":[],"categories_nodes":[],"categories_segments":[],"categories_sizes":[],"default_left":[0,0,0,0,0,0,0,0,0,0,0,0,0,0,0],"id":26,"left_children":[1,3,5,7,9,11,13,-1,-1,-1,-1,-1,-1,-1,-1],"loss_changes":[1.5013214E0,7.671425E-2,7.66083E-2,1.3314962E-2,3.0112948E-2,1.7167538E-2,3.2072067E-3,0E0,0E0,0E0,0E0,0E0,0E0,0E0,0E0],"parents":[2147483647,0,0,1,1,2,2,3,3,4,4,5,5,6,6],"right_children":[2,4,6,8,10,12,14,-1,-1,-1,-1,-1,-1,-1,-1],"split_conditions":[3.738418E-1,2.0722729E-1,6.3879085E-1,1.293872E-1,3.07098E-1,4.464149E-1,7.4533516E-1,-3.7407174E-3,-2.3434148E-3,-1.3634153E-3,2.3214928E-4,1.8179493E-3,4.113383E-3,5.5555725E-3,7.0918747E-3],"split_indices":[1,1,1,1,1,1,1,0,0,0,0,0,0,0,0],"split_type":[0,0,0,0,0,0,0,0,0,0,0,0,0,0,0],"sum_hessian":[5.16E2,3.77E2,1.39E2,1.71E2,2.06E2,5.5E1,8.4E1,3E1,1.41E2,1.56E2,5E1,1.8E1,3.7E1,5E1,3.4E1],"tree_param":{"num_deleted":"0","num_feature":"2","num_nodes":"15","size_leaf_vector":"1"}},{"base_weights":[-5.581324E-4,-3.1109845E-2,8.0293395E-2,-4.3510273E-2,-1.802715E-2,5.271572E-2,1.0273075E-1,-3.5483616E-3,-2.2422639E-3,-1.3640891E-3,-4.15059E-4,2.0066048E-3,3.8135329E-3,4.7852676E-3,6.396764E-3],"categories":[],"categories_nodes":[],"categories_segments":[],"categories_sizes":[],"default_left":[0,0,0,0,0,0,0,0,0,0,0,0,0,0,0],"id":27,"left_children":[1,3,5,7,9,11,13,-1,-1,-1,-1,-1,-1,-1,-1],"loss_changes":[1.3240294E0,6.232351E-2,8.554369E-2,1.2701035E-2,1.2106508E-2,1.47033185E-2,5.174637E-3,0E0,0E0,0E0,0E0,0E0,0E0,0E0,0E0],"parents":[2147483647,0,0,1,1,2,2,3,3,4,4,5,5,6,6],"right_children":[2,4,6,8,10,12,14,-1,-1,-1,-1,-1,-1,-1,-1],"split_conditions":[3.3972958E-1,2.088872E-1,6.3879085E-1,1.293872E-1,2.4445747E-1,4.9604255E-1,7.1871257E-1,-3.5483616E-3,-2.2422639E-3,-1.3640891E-3,-4.15059E-4,2.0066048E-3,3.8135329E-3,4.7852676E-3,6.396764E-3],"split_indices":[1,1,1,1,1,1,1,0,0,0,0,0,0,0,0],"split_type":[0,0,0,0,0,0,0,0,0,0,0,0,0,0,0],"sum_hessian":[5.34E2,3.88E2,1.46E2,1.98E2,1.9E2,6.7E1,7.9E1,3.2E1,1.66E2,1.21E2,6.9E1,3.2E1,3.5E1,3.1E1,4.8E1],"tree_param":{"num_deleted":"0","num_feature":"2","num_nodes":"15","size_leaf_vector":"1"}},{"base_weights":[-5.915873E-4,-2.867623E-2,7.789027E-2,-4.0500004E-2,-1.72373E-2,5.0802E-2,9.791005E-2,-3.0489182E-3,-2.0438859E-3,-1.2825674E-3,-1.8277158E-4,1.7312925E-3,3.668556E-3,4.935061E-3,6.256707E-3],"categories":[],"categories_nodes":[],"categories_segments":[],"categories_sizes":[],"default_left":[0,0,0,0,0,0,0,0,0,0,0,0,0,0,0],"id":28,"left_children":[1,3,5,7,9,11,13,-1,-1,-1,-1,-1,-1,-1,-1],"loss_changes":[1.1792417E0,5.2590877E-2,7.149041E-2,9.52968E-3,1.5089545E-2,1.5426084E-2,1.2241602E-3,0E0,0E0,0E0,0E0,0E0,0E0,0E0,0E0],"parents":[2147483647,0,0,1,1,2,2,3,3,4,4,5,5,6,6],"right_children":[2,4,6,8,10,12,14,-1,-1,-1,-1,-1,-1,-1,-1],"split_conditions":[3.471889E-1,2.0848267E-1,6.3879085E-1,1.4691229E-1,2.6525524E-1,4.9604255E-1,7.4533516E-1,-3.0489182E-3,-2.0438859E-3,-1.2825674E-3,-1.8277158E-4,1.7312925E-3,3.668556E-3,4.935061E-3,6.256707E-3],"split_indices":[1,1,1,1,1,1,1,0,0,0,0,0,0,0,0],"split_type":[0,0,0,0,0,0,0,0,0,0,0,0,0,0,0],"sum_hessian":[5.33E2,3.93E2,1.4E2,1.92E2,2.01E2,6.1E1,7.9E1,4.6E1,1.46E2,1.45E2,5.6E1,2.6E1,3.5E1,4.6E1,3.3E1],"tree_param":{"num_deleted":"0","num_feature":"2","num_nodes":"15","size_leaf_vector":"1"}},{"base_weights":[6.013088E-4,-2.7337635E-2,7.138849E-2,-4.0361933E-2,-1.7457403E-2,3.9855663E-2,9.12668E-2,-3.383965E-3,-2.1213656E-3,-1.2881987E-3,-2.8558265E-4,1.5428008E-3,3.1799206E-3,4.72881E-3,6.364982E-3],"categories":[],"categories_nodes":[],"categories_segments":[],"categories_sizes":[],"default_left":[0,0,0,0,0,0,0,0,0,0,0,0,0,0,0],"id":29,"left_children":[1,3,5,7,9,11,13,-1,-1,-1,-1,-1,-1,-1,-1],"loss_changes":[1.034321E0,4.7551513E-2,8.913183E-2,7.0522428E-3,1.3869368E-2,1.0565318E-2,5.6177974E-3,0E0,0E0,0E0,0E0,0E0,0E0,0E0,0E0],"parents":[2147483647,0,0,1,1,2,2,3,3,4,4,5,5,6,6],"right_children":[2,4,6,8,10,12,14,-1,-1,-1,-1,-1,-1,-1,-1],"split_conditions":[2.7718598E-1,9.585268E-2,6.373834E-1,3.4249555E-2,1.6209006E-1,5.000804E-1,7.6473737E-1,-3.383965E-3,-2.1213656E-3,-1.2881987E-3,-2.8558265E-4,1.5428008E-3,3.1799206E-3,4.72881E-3,6.364982E-3],"split_indices":[0,0,0,0,0,0,0,0,0,0,0,0,0,0,0],"split_type":[0,0,0,0,0,0,0,0,0,0,0,0,0,0,0],"sum_hessian":[5.21E2,3.74E2,1.47E2,1.6E2,2.14E2,5.8E1,8.9E1,1.9E1,1.41E2,1.5E2,6.4E1,3.4E1,2.4E1,6.8E1,2.1E1],"tree_param":{"num_deleted":"0","num_feature":"2","num_nodes":"15","size_leaf_vector":"1"}},{"base_weights":[-2.7610664E-3,-2.6070103E-2,6.557358E-2,-3.2881718E-2,-1.4373922E-2,3.944289E-2,5.0423173E-3,-2.807298E-3,-1.6412558E-3,-1.0984512E-3,-2.0272363E-4,1.4546647E-3,3.0021411E-3],"categories":[],"categories_nodes":[],"categories_segments":[],"categories_sizes":[],"default_left":[0,0,0,0,0,0,0,0,0,0,0,0,0],"id":30,"left_children":[1,3,5,7,9,11,-1,-1,-1,-1,-1,-1,-1],"loss_changes":[8.14045E-1,2.9881597E-2,7.545978E-2,1.4362544E-2,7.5625405E-3,1.0345146E-2,0E0,0E0,0E0,0E0,0E0,0E0,0E0],"parents":[2147483647,0,0,1,1,2,2,3,3,4,4,5,5],"right_children":[2,4,6,8,10,12,-1,-1,-1,-1,-1,-1,-1],"split_conditions":[3.3972958E-1,2.2434253E-1,6.416953E-1,1.4691229E-1,2.7918488E-1,4.7509286E-1,5.0423173E-3,-2.807298E-3,-1.6412558E-3,-1.0984512E-3,-2.0272363E-4,1.4546647E-3,3.0021411E-3],"split_indices":[1,1,1,1,1,1,0,0,0,0,0,0,0],"split_type":[0,0,0,0,0,0,0,0,0,0,0,0,0],"sum_hessian":[5.09E2,3.8E2,1.29E2,2.39E2,1.41E2,6.2E1,6.7E1,4.4E1,1.95E2,9.6E1,4.5E1,3.2E1,3E1],"tree_param":{"num_deleted":"0","num_feature":"2","num_nodes":"13","size_leaf_vector":"1"}},{"base_weights":[2.2155074E-3,-2.2709899E-2,6.6903956E-2,-3.1867653E-2,-8.823856E-3,4.252581E-2,8.594165E-2,-2.1499493E-3,-1.3351493E-3,-6.646075E-4,1.0382076E-3,1.6490904E-3,3.0448113E-3,4.20677E-3,5.8275172E-3],"categories":[],"categories_nodes":[],"categories_segments":[],"categories_sizes":[],"default_left":[0,0,0,0,0,0,0,0,0,0,0,0,0,0,0],"id":31,"left_children":[1,3,5,7,9,11,13,-1,-1,-1,-1,-1,-1,-1,-1],"loss_changes":[8.464095E-1,4.7914326E-2,6.410438E-2,1.05369985E-2,1.2094624E-2,8.322418E-3,8.4185E-3,0E0,0E0,0E0,0E0,0E0,0E0,0E0,0E0],"parents":[2147483647,0,0,1,1,2,2,3,3,4,4,5,5,6,6],"right_children":[2,4,6,8,10,12,14,-1,-1,-1,-1,-1,-1,-1,-1],"split_conditions":[3.4007815E-1,1.232786E-1,6.508298E-1,8.977525E-2,2.6929235E-1,5.000804E-1,7.515802E-1,-2.1499493E-3,-1.3351493E-3,-6.646075E-4,1.0382076E-3,1.6490904E-3,3.0448113E-3,4.20677E-3,5.8275172E-3],"split_indices":[0,0,0,0,0,0,0,0,0,0,0,0,0,0,0],"split_type":[0,0,0,0,0,0,0,0,0,0,0,0,0,0,0],"sum_hessian":[5.23E2,3.78E2,1.45E2,2.27E2,1.51E2,6.5E1,8E1,1.3E2,9.7E1,1.37E2,1.4E1,3.1E1,3.4E1,5E1,3E1],"tree_param":{"num_deleted":"0","num_feature":"2","num_nodes":"15","size_leaf_vector":"1"}},{"base_weights":[-3.398973E-4,-2.025065E-2,7.1206704E-2,-2.6755296E-2,6.7956126E-3,3.0826677E-3,4.656589E-3,-2.2926303E-3,-1.2418425E-3,-6.379328E-5,1.0689188E-3],"categories":[],"categories_nodes":[],"categories_segments":[],"categories_sizes":[],"default_left":[0,0,0,0,0,0,0,0,0,0,0],"id":32,"left_children":[1,3,5,7,9,-1,-1,-1,-1,-1,-1],"loss_changes":[7.7212167E-1,7.477461E-2,1.712662E-2,2.1865368E-2,7.930481E-3,0E0,0E0,0E0,0E0,0E0,0E0],"parents":[2147483647,0,0,1,1,2,2,3,3,4,4],"right_children":[2,4,6,8,10,-1,-1,-1,-1,-1,-1],"split_conditions":[4.7509286E-1,2.7918488E-1,6.590105E-1,1.8478756E-1,3.3803013E-1,3.0826677E-3,4.656589E-3,-2.2926303E-3,-1.2418425E-3,-6.379328E-5,1.0689188E-3],"split_indices":[1,1,1,1,1,0,0,0,0,0,0],"split_type":[0,0,0,0,0,0,0,0,0,0,0],"sum_hessian":[5.4E2,4.23E2,1.17E2,3.41E2,8.2E1,4.8E1,6.9E1,8.8E1,2.53E2,5E1,3.2E1],"tree_param":{"num_deleted":"0","num_feature":"2","num_nodes":"11","size_leaf_vector":"1"}},{"base_weights":[1.7053795E-4,-2.1749947E-2,5.3179745E-2,-3.5531137E-2,-1.6155394E-2,2.3384297E-2,6.282186E-2,-2.926793E-3,-1.7978125E-3,-1.1668955E-3,-2.922532E-4,1.4699367E-3,6.895987E-4,3.0591225E-3,4.407524E-3],"categories":[],"categories_nodes":[],"categories_segments":[],"categories_sizes":[],"default_left":[0,0,0,0,0,0,0,0,0,0,0,0,0,0,0],"id":33,"left_children":[1,3,5,7,9,11,13,-1,-1,-1,-1,-1,-1,-1,-1],"loss_changes":[6.077141E-1,2.7952835E-2,4.248649E-2,4.9291104E-3,1.2726091E-2,7.846691E-4,1.1041969E-2,0E0,0E0,0E0,0E0,0E0,0E0,0E0,0E0],"parents":[2147483647,0,0,1,1,2,2,3,3,4,4,5,5,6,6],"right_children":[2,4,6,8,10,12,14,-1,-1,-1,-1,-1,-1,-1,-1],"split_conditions":[3.3494616E-1,1.9118735E-1,4.9604255E-1,1.1773658E-1,2.4445747E-1,4.4954455E-1,7.2930574E-1,-2.926793E-3,-1.7978125E-3,-1.1668955E-3,-2.922532E-4,1.4699367E-3,6.895987E-4,3.0591225E-3,4.407524E-3],"split_indices":[1,1,1,1,1,1,1,0,0,0,0,0,0,0,0],"split_type":[0,0,0,0,0,0,0,0,0,0,0,0,0,0,0],"sum_hessian":[5.21E2,3.69E2,1.52E2,1.05E2,2.64E2,3.8E1,1.14E2,1.8E1,8.7E1,1.88E2,7.6E1,3E1,8E0,7.4E1,4E1],"tree_param":{"num_deleted":"0","num_feature":"2","num_nodes":"15","size_leaf_vector":"1"}},{"base_weights":[2.5811384E-4,-2.0630836E-2,5.3909473E-2,-3.0513957E-2,-1.1449243E-2,2.5580913E-2,6.627783E-2,-2.5475216E-3,-1.5522807E-3,-8.690099E-4,6.28612E-5,1.1087016E-3,2.0271193E-3,3.1659764E-3,4.55863E-3],"categories":[],"categories_nodes":[],"categories_segments":[],"categories_sizes":[],"default_left":[0,0,0,0,0,0,0,0,0,0,0,0,0,0,0],"id":34,"left_children":[1,3,5,7,9,11,13,-1,-1,-1,-1,-1,-1,-1,-1],"loss_changes":[5.838869E-1,3.3679172E-2,4.9459696E-2,6.9695264E-3,9.5119085E-3,2.1214616E-3,1.04056E-2,0E0,0E0,0E0,0E0,0E0,0E0,0E0,0E0],"parents":[2147483647,0,0,1,1,2,2,3,3,4,4,5,5,6,6],"right_children":[2,4,6,8,10,12,14,-1,-1,-1,-1,-1,-1,-1,-1],"split_conditions":[3.3972958E-1,2.0848267E-1,5.863944E-1,1.2852252E-1,2.924079E-1,4.7509286E-1,7.218743E-1,-2.5475216E-3,-1.5522807E-3,-8.690099E-4,6.28612E-5,1.1087016E-3,2.0271193E-3,3.1659764E-3,4.55863E-3],"split_indices":[1,1,1,1,1,1,1,0,0,0,0,0,0,0,0],"split_type":[0,0,0,0,0,0,0,0,0,0,0,0,0,0,0],"sum_hessian":[5.19E2,3.74E2,1.45E2,1.79E2,1.95E2,4.5E1,1E2,3E1,1.49E2,1.49E2,4.6E1,3E1,1.5E1,6E1,4E1],"tree_param":{"num_deleted":"0","num_feature":"2","num_nodes":"15","size_leaf_vector":"1"}},{"base_weights":[8.0796605E-4,-1.8028961E-2,5.1989414E-2,-2.471548E-2,-6.7568994E-3,2.311079E-2,5.913024E-2,-2.444683E-3,-1.2504243E-3,-6.1787793E-4,6.2847993E-4,1.6785555E-3,6.5288687E-4,2.8253796E-3,4.1193287E-3],"categories":[],"categories_nodes":[],"categories_segments":[],"categories_sizes":[],"default_left":[0,0,0,0,0,0,0,0,0,0,0,0,0,0,0],"id":35,"left_children":[1,3,5,7,9,11,13,-1,-1,-1,-1,-1,-1,-1,-1],"loss_changes":[4.9455717E-1,2.8097056E-2,2.7091414E-2,1.0648161E-2,1.0493826E-2,1.8338365E-3,1.0219812E-2,0E0,0E0,0E0,0E0,0E0,0E0,0E0,0E0],"parents":[2147483647,0,0,1,1,2,2,3,3,4,4,5,5,6,6],"right_children":[2,4,6,8,10,12,14,-1,-1,-1,-1,-1,-1,-1,-1],"split_conditions":[3.738418E-1,2.2619778E-1,4.9604255E-1,1.293872E-1,3.2483265E-1,4.410249E-1,7.218743E-1,-2.444683E-3,-1.2504243E-3,-6.1787793E-4,6.2847993E-4,1.6785555E-3,6.5288687E-4,2.8253796E-3,4.1193287E-3],"split_indices":[1,1,1,1,1,1,1,0,0,0,0,0,0,0,0],"split_type":[0,0,0,0,0,0,0,0,0,0,0,0,0,0,0],"sum_hessian":[5.11E2,3.74E2,1.37E2,2.34E2,1.4E2,2.8E1,1.09E2,2.8E1,2.06E2,1.14E2,2.6E1,1.7E1,1.1E1,6.7E1,4.2E1],"tree_param":{"num_deleted":"0","num_feature":"2","num_nodes":"15","size_leaf_vector":"1"}},{"base_weights":[1.5620122E-4,-1.5647488E-2,5.739346E-2,-1.984174E-2,8.713947E-3,4.6302363E-2,4.2352974E-3,-1.6864373E-3,-8.8733225E-4,5.680735E-4,-7.47932E-4,2.0774237E-3,2.8787109E-3],"categories":[],"categories_nodes":[],"categories_segments":[],"categories_sizes":[],"default_left":[0,0,0,0,0,0,0,0,0,0,0,0,0],"id":36,"left_children":[1,3,5,7,9,11,-1,-1,-1,-1,-1,-1,-1],"loss_changes":[4.9750146E-1,4.421161E-2,1.925981E-2,1.4824346E-2,1.9423896E-3,1.3522208E-3,0E0,0E0,0E0,0E0,0E0,0E0,0E0],"parents":[2147483647,0,0,1,1,2,2,3,3,4,4,5,5],"right_children":[2,4,6,8,10,12,-1,-1,-1,-1,-1,-1,-1],"split_conditions":[4.390565E-1,2.38037E-1,7.363496E-1,8.016156E-2,4.3684E-1,6.373834E-1,4.2352974E-3,-1.6864373E-3,-8.8733225E-4,5.680735E-4,-7.47932E-4,2.0774237E-3,2.8787109E-3],"split_indices":[0,0,0,0,0,0,0,0,0,0,0,0,0],"split_type":[0,0,0,0,0,0,0,0,0,0,0,0,0],"sum_hessian":[5.48E2,4.3E2,1.18E2,3.67E2,6.3E1,7.4E1,4.4E1,1.08E2,2.59E2,6E1,3E0,2.6E1,4.8E1],"tree_param":{"num_deleted":"0","num_feature":"2","num_nodes":"13","size_leaf_vector":"1"}},{"base_weights":[3.0755805E-4,-1.5159969E-2,5.326157E-2,-2.0060621E-2,4.938428E-3,3.725823E-2,6.261626E-2,-1.7760477E-3,-9.3045377E-4,-9.816163E-5,8.8183326E-4,1.4627257E-3,2.2343593E-3,3.1133376E-3,4.0524476E-3],"categories":[],"categories_nodes":[],"categories_segments":[],"categories_sizes":[],"default_left":[0,0,0,0,0,0,0,0,0,0,0,0,0,0,0],"id":37,"left_children":[1,3,5,7,9,11,13,-1,-1,-1,-1,-1,-1,-1,-1],"loss_changes":[4.2754167E-1,3.989114E-2,1.5332371E-2,1.287818E-2,5.6781014E-3,9.572506E-5,1.0613799E-3,0E0,0E0,0E0,0E0,0E0,0E0,0E0,0E0],"parents":[2147483647,0,0,1,1,2,2,3,3,4,4,5,5,6,6],"right_children":[2,4,6,8,10,12,14,-1,-1,-1,-1,-1,-1,-1,-1],"split_conditions":[4.7509286E-1,2.7918488E-1,6.590105E-1,1.8257685E-1,3.3972958E-1,5.551698E-1,7.519529E-1,-1.7760477E-3,-9.3045377E-4,-9.816163E-5,8.8183326E-4,1.4627257E-3,2.2343593E-3,3.1133376E-3,4.0524476E-3],"split_indices":[1,1,1,1,1,1,1,0,0,0,0,0,0,0,0],"split_type":[0,0,0,0,0,0,0,0,0,0,0,0,0,0,0],"sum_hessian":[5.2E2,4.03E2,1.17E2,3.24E2,7.9E1,4.5E1,7.2E1,7.8E1,2.46E2,4.9E1,3E1,9E0,3.6E1,4.2E1,3E1],"tree_param":{"num_deleted":"0","num_feature":"2","num_nodes":"15","size_leaf_vector":"1"}},{"base_weights":[1.06324645E-4,-1.667095E-2,4.2163692E-2,-1.9971186E-2,-1.3672758E-3,3.2751538E-2,3.5901072E-3,-2.2632412E-3,-1.0496599E-3,-3.823908E-4,1.1753991E-4,9.982116E-4,2.2333902E-3],"categories":[],"categories_nodes":[],"categories_segments":[],"categories_sizes":[],"default_left":[0,0,0,0,0,0,0,0,0,0,0,0,0],"id":38,"left_children":[1,3,5,7,9,11,-1,-1,-1,-1,-1,-1,-1],"loss_changes":[3.612686E-1,1.8457793E-2,2.6889205E-2,8.136556E-3,1.2319714E-3,9.602286E-3,0E0,0E0,0E0,0E0,0E0,0E0,0E0],"parents":[2147483647,0,0,1,1,2,2,3,3,4,4,5,5],"right_children":[2,4,6,8,10,12,-1,-1,-1,-1,-1,-1,-1],"split_conditions":[3.3803013E-1,2.4544245E-1,7.2930574E-1,1.1907666E-1,3.0621818E-1,4.9604255E-1,3.5901072E-3,-2.2632412E-3,-1.0496599E-3,-3.823908E-4,1.1753991E-4,9.982116E-4,2.2333902E-3],"split_indices":[1,1,1,1,1,1,0,0,0,0,0,0,0],"split_type":[0,0,0,0,0,0,0,0,0,0,0,0,0],"sum_hessian":[5.1E2,3.65E2,1.45E2,3E2,6.5E1,1.02E2,4.3E1,1.9E1,2.81E2,2.5E1,4E1,3.2E1,7E1],"tree_param":{"num_deleted":"0","num_feature":"2","num_nodes":"13","size_leaf_vector":"1"}},{"base_weights":[1.0365507E-3,-1.4750951E-2,4.3465108E-2,-1.8219804E-2,-4.475991E-4,2.757518E-2,5.5586632E-2,-1.624034E-3,-8.583134E-4,-1.4163191E-4,3.2459057E-4,1.1969588E-3,2.0777285E-3,2.9666873E-3,3.9638444E-3],"categories":[],"categories_nodes":[],"categories_segments":[],"categories_sizes":[],"default_left":[0,0,0,0,0,0,0,0,0,0,0,0,0,0,0],"id":39,"left_children":[1,3,5,7,9,11,13,-1,-1,-1,-1,-1,-1,-1,-1],"loss_changes":[3.4828857E-1,1.8796407E-2,2.5625229E-2,9.3913E-3,9.6085796E-4,2.9183738E-3,9.557605E-5,0E0,0E0,0E0,0E0,0E0,0E0,0E0,0E0],"parents":[2147483647,0,0,1,1,2,2,3,3,4,4,5,5,6,6],"right_children":[2,4,6,8,10,12,14,-1,-1,-1,-1,-1,-1,-1,-1],"split_conditions":[3.3972958E-1,2.4445747E-1,6.3879085E-1,1.7549554E-1,3.3129984E-1,5.4564416E-1,7.7011985E-1,-1.624034E-3,-8.583134E-4,-1.4163191E-4,3.2459057E-4,1.1969588E-3,2.0777285E-3,2.9666873E-3,3.9638444E-3],"split_indices":[1,1,1,1,1,1,1,0,0,0,0,0,0,0,0],"split_type":[0,0,0,0,0,0,0,0,0,0,0,0,0,0,0],"sum_hessian":[5.18E2,3.78E2,1.4E2,3.04E2,7.4E1,6.2E1,7.8E1,6.8E1,2.36E2,5.6E1,1.8E1,3.8E1,2.4E1,6.7E1,1.1E1],"tree_param":{"num_deleted":"0","num_feature":"2","num_nodes":"15","size_leaf_vector":"1"}},{"base_weights":[4.297624E-5,-1.5961688E-2,3.7157822E-2,-2.2166375E-2,-9.899338E-3,2.4559746E-2,4.9302757E-2,-2.128382E-3,-1.1407689E-3,-6.960663E-4,-3.4177533E-4,9.459712E-4,1.7788877E-3,2.599774E-3,4.8887674E-3],"categories":[],"categories_nodes":[],"categories_segments":[],"categories_sizes":[],"default_left":[0,0,0,0,0,0,0,0,0,0,0,0,0,0,0],"id":40,"left_children":[1,3,5,7,9,11,13,-1,-1,-1,-1,-1,-1,-1,-1],"loss_changes":[3.213589E-1,1.3999037E-2,2.372858E-2,5.1529333E-3,1.6942453E-3,3.8647614E-3,6.647527E-3,0E0,0E0,0E0,0E0,0E0,0E0,0E0,0E0],"parents":[2147483647,0,0,1,1,2,2,3,3,4,4,5,5,6,6],"right_children":[2,4,6,8,10,12,14,-1,-1,-1,-1,-1,-1,-1,-1],"split_conditions":[2.5851694E-1,9.6847296E-2,6.508298E-1,3.4249555E-2,1.4129776E-1,4.2976534E-1,7.8399587E-1,-2.128382E-3,-1.1407689E-3,-6.960663E-4,-3.4177533E-4,9.459712E-4,1.7788877E-3,2.599774E-3,4.8887674E-3],"split_indices":[0,0,0,0,0,0,0,0,0,0,0,0,0,0,0],"split_type":[0,0,0,0,0,0,0,0,0,0,0,0,0,0,0],"sum_hessian":[5.39E2,3.77E2,1.62E2,1.85E2,1.92E2,8.1E1,8.1E1,2E1,1.65E2,1.18E2,7.4E1,3.9E1,4.2E1,7.6E1,5E0],"tree_param":{"num_deleted":"0","num_feature":"2","num_nodes":"15","size_leaf_vector":"1"}},{"base_weights":[-5.8559555E-5,-1.4203216E-2,3.826284E-2,-2.3313064E-2,-9.1297645E-3,2.5198014E-2,2.673282E-3,-2.0818925E-3,-1.205038E-3,-6.8934285E-4,-5.7937934E-5,9.085484E-4,1.6950624E-3],"categories":[],"categories_nodes":[],"categories_segments":[],"categories_sizes":[],"default_left":[0,0,0,0,0,0,0,0,0,0,0,0,0],"id":41,"left_children":[1,3,5,7,9,11,-1,-1,-1,-1,-1,-1,-1],"loss_changes":[2.8348994E-1,1.7442577E-2,1.5072271E-2,3.0127838E-3,6.022088E-3,2.0499714E-3,0E0,0E0,0E0,0E0,0E0,0E0,0E0],"parents":[2147483647,0,0,1,1,2,2,3,3,4,4,5,5],"right_children":[2,4,6,8,10,12,-1,-1,-1,-1,-1,-1,-1],"split_conditions":[3.738418E-1,1.9579671E-1,6.3879085E-1,1.1773658E-1,2.5199664E-1,4.464149E-1,2.673282E-3,-2.0818925E-3,-1.205038E-3,-6.8934285E-4,-5.7937934E-5,9.085484E-4,1.6950624E-3],"split_indices":[1,1,1,1,1,1,0,0,0,0,0,0,0],"split_type":[0,0,0,0,0,0,0,0,0,0,0,0,0],"sum_hessian":[5.21E2,3.81E2,1.4E2,1.35E2,2.46E2,5.8E1,8.2E1,1.6E1,1.19E2,1.79E2,6.7E1,2.1E1,3.7E1],"tree_param":{"num_deleted":"0","num_feature":"2","num_nodes":"13","size_leaf_vector":"1"}},{"base_weights":[8.552783E-5,-1.33020105E-2,3.297752E-2,-2.106011E-2,-9.079469E-3,1.3788234E-2,4.0004548E-2,-1.9269917E-3,-1.068518E-3,-6.784678E-4,-1.2875977E-4,1.1348252E-3,4.714469E-4,1.629494E-3,2.4601792E-3],"categories":[],"categories_nodes":[],"categories_segments":[],"categories_sizes":[],"default_left":[0,0,0,0,0,0,0,0,0,0,0,0,0,0,0],"id":42,"left_children":[1,3,5,7,9,11,13,-1,-1,-1,-1,-1,-1,-1,-1],"loss_changes":[2.298573E-1,1.1962332E-2,1.9809783E-2,3.1102858E-3,4.7061555E-3,1.2622979E-3,2.8966814E-3,0E0,0E0,0E0,0E0,0E0,0E0,0E0,0E0],"parents":[2147483647,0,0,1,1,2,2,3,3,4,4,5,5,6,6],"right_children":[2,4,6,8,10,12,14,-1,-1,-1,-1,-1,-1,-1,-1],"split_conditions":[3.3972958E-1,1.9567157E-1,5.4564416E-1,1.1907666E-1,2.4267305E-1,4.336093E-1,6.3879085E-1,-1.9269917E-3,-1.068518E-3,-6.784678E-4,-1.2875977E-4,1.1348252E-3,4.714469E-4,1.629494E-3,2.4601792E-3],"split_indices":[1,1,1,1,1,1,1,0,0,0,0,0,0,0,0],"split_type":[0,0,0,0,0,0,0,0,0,0,0,0,0,0,0],"sum_hessian":[5.2E2,3.7E2,1.5E2,1.29E2,2.41E2,4.1E1,1.09E2,1.7E1,1.12E2,1.69E2,7.2E1,1.8E1,2.3E1,2.7E1,8.2E1],"tree_param":{"num_deleted":"0","num_feature":"2","num_nodes":"15","size_leaf_vector":"1"}},{"base_weights":[-2.7240056E-4,-1.1620447E-2,3.3115853E-2,-1.5729131E-2,-4.7235438E-3,1.667595E-2,3.9423738E-2,-1.3951316E-3,-7.781594E-4,-3.9016834E-4,-4.9857324E-5,1.1943857E-3,7.832221E-4,1.9244653E-3,3.0032708E-3],"categories":[],"categories_nodes":[],"categories_segments":[],"categories_sizes":[],"default_left":[0,0,0,0,0,0,0,0,0,0,0,0,0,0,0],"id":43,"left_children":[1,3,5,7,9,11,13,-1,-1,-1,-1,-1,-1,-1,-1],"loss_changes":[2.0612289E-1,1.14306025E-2,1.3653308E-2,4.2064562E-3,1.2583719E-3,2.1229312E-4,5.5787116E-3,0E0,0E0,0E0,0E0,0E0,0E0,0E0,0E0],"parents":[2147483647,0,0,1,1,2,2,3,3,4,4,5,5,6,6],"right_children":[2,4,6,8,10,12,14,-1,-1,-1,-1,-1,-1,-1,-1],"split_conditions":[3.629583E-1,2.2564304E-1,5.863944E-1,1.4691229E-1,3.0478147E-1,4.3505347E-1,7.4533516E-1,-1.3951316E-3,-7.781594E-4,-3.9016834E-4,-4.9857324E-5,1.1943857E-3,7.832221E-4,1.9244653E-3,3.0032708E-3],"split_indices":[1,1,1,1,1,1,1,0,0,0,0,0,0,0,0],"split_type":[0,0,0,0,0,0,0,0,0,0,0,0,0,0,0],"sum_hessian":[5.42E2,4.05E2,1.37E2,2.53E2,1.52E2,3.9E1,9.8E1,4.5E1,2.08E2,9.7E1,5.5E1,1.3E1,2.6E1,7.2E1,2.6E1],"tree_param":{"num_deleted":"0","num_feature":"2","num_nodes":"15","size_leaf_vector":"1"}},{"base_weights":[3.8631598E-4,-1.0050437E-2,3.6672033E-2,-1.5309587E-2,-2.2672026E-3,2.9070873E-2,2.4068132E-3,-1.5835156E-3,-7.724094E-4,-3.4394301E-4,3.127163E-4,1.72792E-3,6.0695404E-4],"categories":[],"categories_nodes":[],"categories_segments":[],"categories_sizes":[],"default_left":[0,0,0,0,0,0,0,0,0,0,0,0,0],"id":44,"left_children":[1,3,5,7,9,11,-1,-1,-1,-1,-1,-1,-1],"loss_changes":[1.8479796E-1,1.5478969E-2,3.509283E-3,4.4660904E-3,4.5731408E-3,9.2974305E-4,0E0,0E0,0E0,0E0,0E0,0E0,0E0],"parents":[2147483647,0,0,1,1,2,2,3,3,4,4,5,5],"right_children":[2,4,6,8,10,12,-1,-1,-1,-1,-1,-1,-1],"split_conditions":[4.537547E-1,2.2564304E-1,6.590105E-1,1.293872E-1,3.2483265E-1,6.5206254E-1,2.4068132E-3,-1.5835156E-3,-7.724094E-4,-3.4394301E-4,3.127163E-4,1.72792E-3,6.0695404E-4],"split_indices":[1,1,1,1,1,1,0,0,0,0,0,0,0],"split_type":[0,0,0,0,0,0,0,0,0,0,0,0,0],"sum_hessian":[4.86E2,3.78E2,1.08E2,2.25E2,1.53E2,4.9E1,5.9E1,2.5E1,2E2,1.03E2,5E1,4.5E1,4E0],"tree_param":{"num_deleted":"0","num_feature":"2","num_nodes":"13","size_leaf_vector":"1"}},{"base_weights":[4.8416722E-4,-1.0575345E-2,3.1119525E-2,-1.4653864E-2,-3.161176E-3,2.50674E-2,2.8734517E-3,-1.4052814E-3,-7.374021E-4,-3.1198602E-4,2.355917E-4,8.458869E-4,1.6759088E-3],"categories":[],"categories_nodes":[],"categories_segments":[],"categories_sizes":[],"default_left":[0,0,0,0,0,0,0,0,0,0,0,0,0],"id":45,"left_children":[1,3,5,7,9,11,-1,-1,-1,-1,-1,-1,-1],"loss_changes":[1.7244565E-1,1.1262998E-2,1.4659569E-2,3.7306175E-3,2.309713E-3,4.3141916E-3,0E0,0E0,0E0,0E0,0E0,0E0,0E0],"parents":[2147483647,0,0,1,1,2,2,3,3,4,4,5,5],"right_children":[2,4,6,8,10,12,-1,-1,-1,-1,-1,-1,-1],"split_conditions":[3.471889E-1,2.2716801E-1,7.4533516E-1,1.293872E-1,3.1381202E-1,5.397891E-1,2.8734517E-3,-1.4052814E-3,-7.374021E-4,-3.1198602E-4,2.355917E-4,8.458869E-4,1.6759088E-3],"split_indices":[1,1,1,1,1,1,0,0,0,0,0,0,0],"split_type":[0,0,0,0,0,0,0,0,0,0,0,0,0],"sum_hessian":[5.07E2,3.73E2,1.34E2,2.4E2,1.33E2,1.04E2,3E1,3.2E1,2.08E2,1.01E2,3.2E1,3.3E1,7.1E1],"tree_param":{"num_deleted":"0","num_feature":"2","num_nodes":"13","size_leaf_vector":"1"}},{"base_weights":[-8.170262E-4,-1.1218796E-2,2.6365181E-2,-1.9141264E-2,-8.904666E-3,2.0886576E-2,2.5722003E-3,-1.603667E-3,-9.767014E-4,-6.1346724E-4,-1.456977E-4,5.7994085E-4,1.410445E-3],"categories":[],"categories_nodes":[],"categories_segments":[],"categories_sizes":[],"default_left":[0,0,0,0,0,0,0,0,0,0,0,0,0],"id":46,"left_children":[1,3,5,7,9,11,-1,-1,-1,-1,-1,-1,-1],"loss_changes":[1.4506024E-1,6.6313297E-3,1.3790742E-2,9.781364E-4,3.4550484E-3,4.476551E-3,0E0,0E0,0E0,0E0,0E0,0E0,0E0],"parents":[2147483647,0,0,1,1,2,2,3,3,4,4,5,5],"right_children":[2,4,6,8,10,12,-1,-1,-1,-1,-1,-1,-1],"split_conditions":[3.3972958E-1,1.8478756E-1,7.4533516E-1,1.1565822E-1,2.4888141E-1,4.537547E-1,2.5722003E-3,-1.603667E-3,-9.767014E-4,-6.1346724E-4,-1.456977E-4,5.7994085E-4,1.410445E-3],"split_indices":[1,1,1,1,1,1,0,0,0,0,0,0,0],"split_type":[0,0,0,0,0,0,0,0,0,0,0,0,0],"sum_hessian":[5.11E2,3.7E2,1.41E2,8.2E1,2.88E2,1.11E2,3E1,1.2E1,7E1,2.21E2,6.7E1,3.1E1,8E1],"tree_param":{"num_deleted":"0","num_feature":"2","num_nodes":"13","size_leaf_vector":"1"}},{"base_weights":[1.2350401E-3,-7.856941E-3,3.1531353E-2,-1.372594E-2,-8.225212E-4,2.6129719E-2,4.6196375E-2,-1.4216448E-3,-7.247632E-4,-2.417992E-4,4.771169E-4,1.528017E-3,8.351824E-4,2.3481618E-3,3.8881213E-3],"categories":[],"categories_nodes":[],"categories_segments":[],"categories_sizes":[],"default_left":[0,0,0,0,0,0,0,0,0,0,0,0,0,0,0],"id":47,"left_children":[1,3,5,7,9,11,13,-1,-1,-1,-1,-1,-1,-1,-1],"loss_changes":[1.4320812E-1,1.6502712E-2,8.29871E-3,2.047252E-3,5.8386256E-3,4.1150302E-4,5.07921E-4,0E0,0E0,0E0,0E0,0E0,0E0,0E0,0E0],"parents":[2147483647,0,0,1,1,2,2,3,3,4,4,5,5,6,6],"right_children":[2,4,6,8,10,12,14,-1,-1,-1,-1,-1,-1,-1,-1],"split_conditions":[5.000804E-1,1.17832005E-1,7.560594E-1,3.393575E-2,2.5851694E-1,7.448872E-1,7.876702E-1,-1.4216448E-3,-7.247632E-4,-2.417992E-4,4.771169E-4,1.528017E-3,8.351824E-4,2.3481618E-3,3.8881213E-3],"split_indices":[0,0,0,0,0,0,0,0,0,0,0,0,0,0,0],"split_type":[0,0,0,0,0,0,0,0,0,0,0,0,0,0,0],"sum_hessian":[5.18E2,3.99E2,1.19E2,2.17E2,1.82E2,8.9E1,3E1,1.5E1,2.02E2,1.33E2,4.9E1,8.2E1,7E0,2.7E1,3E0],"tree_param":{"num_deleted":"0","num_feature":"2","num_nodes":"15","size_leaf_vector":"1"}},{"base_weights":[-5.39892E-5,-8.5353255E-3,2.956046E-2,-1.3463524E-2,-1.7212703E-3,2.476424E-2,2.3534186E-3,-1.0415126E-3,-6.193207E-4,-2.4297029E-4,4.584511E-4,1.0604396E-3,1.635718E-3],"categories":[],"categories_nodes":[],"categories_segments":[],"categories_sizes":[],"default_left":[0,0,0,0,0,0,0,0,0,0,0,0,0],"id":48,"left_children":[1,3,5,7,9,11,-1,-1,-1,-1,-1,-1,-1],"loss_changes":[1.3538182E-1,1.4047267E-2,5.8190376E-3,2.8304458E-3,4.471159E-3,1.6296022E-3,0E0,0E0,0E0,0E0,0E0,0E0,0E0],"parents":[2147483647,0,0,1,1,2,2,3,3,4,4,5,5],"right_children":[2,4,6,8,10,12,-1,-1,-1,-1,-1,-1,-1],"split_conditions":[4.7509286E-1,2.276637E-1,7.4533516E-1,1.8478756E-1,3.3803013E-1,6.3879085E-1,2.3534186E-3,-1.0415126E-3,-6.193207E-4,-2.4297029E-4,4.584511E-4,1.0604396E-3,1.635718E-3],"split_indices":[1,1,1,1,1,1,0,0,0,0,0,0,0],"split_type":[0,0,0,0,0,0,0,0,0,0,0,0,0],"sum_hessian":[5.37E2,4.18E2,1.19E2,2.42E2,1.76E2,8.7E1,3.2E1,8.1E1,1.61E2,1.4E2,3.6E1,3.7E1,5E1],"tree_param":{"num_deleted":"0","num_feature":"2","num_nodes":"13","size_leaf_vector":"1"}},{"base_weights":[3.6015277E-4,-7.64881E-3,2.8871715E-2,-1.1734654E-2,-1.3101858E-3,2.3456648E-2,2.1118594E-3,-1.3157009E-3,-6.0425716E-4,-1.8602132E-4,4.4789145E-4,1.4028674E-3,5.777126E-4],"categories":[],"categories_nodes":[],"categories_segments":[],"categories_sizes":[],"default_left":[0,0,0,0,0,0,0,0,0,0,0,0,0],"id":49,"left_children":[1,3,5,7,9,11,-1,-1,-1,-1,-1,-1,-1],"loss_changes":[1.207886E-1,1.0680759E-2,4.3585896E-3,2.8859898E-3,2.974714E-3,9.6459314E-4,0E0,0E0,0E0,0E0,0E0,0E0,0E0],"parents":[2147483647,0,0,1,1,2,2,3,3,4,4,5,5],"right_children":[2,4,6,8,10,12,-1,-1,-1,-1,-1,-1,-1],"split_conditions":[4.464149E-1,2.2619778E-1,7.218743E-1,1.1907666E-1,3.3803013E-1,7.138218E-1,2.1118594E-3,-1.3157009E-3,-6.0425716E-4,-1.8602132E-4,4.4789145E-4,1.4028674E-3,5.777126E-4],"split_indices":[1,1,1,1,1,1,0,0,0,0,0,0,0],"split_type":[0,0,0,0,0,0,0,0,0,0,0,0,0],"sum_hessian":[5.27E2,4.12E2,1.15E2,2.5E2,1.62E2,7.2E1,4.3E1,2E1,2.3E2,1.34E2,2.8E1,6.5E1,7E0],"tree_param":{"num_deleted":"0","num_feature":"2","num_nodes":"13","size_leaf_vector":"1"}},{"base_weights":[3.81215E-4,-8.01086E-3,2.0378035E-2,-9.740866E-3,-1.5807009E-3,1.7153379E-2,2.0206787E-3,-1.3130573E-3,-5.065972E-4,5.642311E-4,-1.2297659E-4,6.0356024E-4,1.1583741E-3],"categories":[],"categories_nodes":[],"categories_segments":[],"categories_sizes":[],"default_left":[0,0,0,0,0,0,0,0,0,0,0,0,0],"id":50,"left_children":[1,3,5,7,9,11,-1,-1,-1,-1,-1,-1,-1],"loss_changes":[8.742694E-2,4.06719E-3,6.9454163E-3,2.956042E-3,5.543424E-4,2.5181808E-3,0E0,0E0,0E0,0E0,0E0,0E0,0E0],"parents":[2147483647,0,0,1,1,2,2,3,3,4,4,5,5],"right_children":[2,4,6,8,10,12,-1,-1,-1,-1,-1,-1,-1],"split_conditions":[3.3803013E-1,2.4445747E-1,7.519529E-1,1.1773658E-1,2.4888141E-1,5.4564416E-1,2.0206787E-3,-1.3130573E-3,-5.065972E-4,5.642311E-4,-1.2297659E-4,6.0356024E-4,1.1583741E-3],"split_indices":[1,1,1,1,1,1,0,0,0,0,0,0,0],"split_type":[0,0,0,0,0,0,0,0,0,0,0,0,0],"sum_hessian":[5.19E2,3.66E2,1.53E2,2.88E2,7.8E1,1.28E2,2.5E1,1.5E1,2.73E2,3E0,7.5E1,4.4E1,8.4E1],"tree_param":{"num_deleted":"0","num_feature":"2","num_nodes":"13","size_leaf_vector":"1"}},{"base_weights":[-5.6508026E-4,-6.873611E-3,2.2533692E-2,-1.237673E-2,-3.0021197E-3,1.3844035E-2,2.568845E-2,-1.178495E-3,-6.416651E-4,-3.2341064E-4,5.002868E-5,8.338537E-4,4.3933524E-4,1.3068033E-3,1.7638515E-3],"categories":[],"categories_nodes":[],"categories_segments":[],"categories_sizes":[],"default_left":[0,0,0,0,0,0,0,0,0,0,0,0,0,0,0],"id":51,"left_children":[1,3,5,7,9,11,13,-1,-1,-1,-1,-1,-1,-1,-1],"loss_changes":[7.6074645E-2,8.698009E-3,2.714716E-3,1.2868065E-3,2.5373686E-3,5.1223673E-5,4.4840947E-4,0E0,0E0,0E0,0E0,0E0,0E0,0E0,0E0],"parents":[2147483647,0,0,1,1,2,2,3,3,4,4,5,5,6,6],"right_children":[2,4,6,8,10,12,14,-1,-1,-1,-1,-1,-1,-1,-1],"split_conditions":[4.464149E-1,2.0448945E-1,6.2150687E-1,1.1907666E-1,2.4445747E-1,6.1373687E-1,7.519529E-1,-1.178495E-3,-6.416651E-4,-3.2341064E-4,5.002868E-5,8.338537E-4,4.3933524E-4,1.3068033E-3,1.7638515E-3],"split_indices":[1,1,1,1,1,1,1,0,0,0,0,0,0,0,0],"split_type":[0,0,0,0,0,0,0,0,0,0,0,0,0,0,0],"sum_hessian":[5.2E2,4.09E2,1.11E2,1.68E2,2.41E2,3.1E1,8E1,1.7E1,1.51E2,1.42E2,9.9E1,2.6E1,5E0,5.7E1,2.3E1],"tree_param":{"num_deleted":"0","num_feature":"2","num_nodes":"15","size_leaf_vector":"1"}},{"base_weights":[-4.1855877E-4,-7.961008E-3,1.8994307E-2,-1.2257263E-2,-5.238412E-3,1.45247355E-2,3.2371134E-2,-1.0359585E-3,-6.106964E-4,-3.5951112E-4,-1.741129E-4,6.691819E-4,1.0973287E-3,1.6203066E-3,2.6186225E-3],"categories":[],"categories_nodes":[],"categories_segments":[],"categories_sizes":[],"default_left":[0,0,0,0,0,0,0,0,0,0,0,0,0,0,0],"id":52,"left_children":[1,3,5,7,9,11,13,-1,-1,-1,-1,-1,-1,-1,-1],"loss_changes":[7.482569E-2,4.2402726E-3,8.0796E-3,1.079794E-3,5.1995926E-4,1.2056213E-3,5.2737445E-4,0E0,0E0,0E0,0E0,0E0,0E0,0E0,0E0],"parents":[2147483647,0,0,1,1,2,2,3,3,4,4,5,5,6,6],"right_children":[2,4,6,8,10,12,14,-1,-1,-1,-1,-1,-1,-1,-1],"split_conditions":[2.6835272E-1,9.187204E-2,7.363496E-1,3.500878E-2,1.4294207E-1,6.508298E-1,7.785628E-1,-1.0359585E-3,-6.106964E-4,-3.5951112E-4,-1.741129E-4,6.691819E-4,1.0973287E-3,1.6203066E-3,2.6186225E-3],"split_indices":[0,0,0,0,0,0,0,0,0,0,0,0,0,0,0],"split_type":[0,0,0,0,0,0,0,0,0,0,0,0,0,0,0],"sum_hessian":[5.09E2,3.67E2,1.42E2,1.41E2,2.26E2,1.08E2,3.4E1,2.6E1,1.15E2,1.49E2,7.7E1,7.1E1,3.7E1,2.9E1,5E0],"tree_param":{"num_deleted":"0","num_feature":"2","num_nodes":"15","size_leaf_vector":"1"}},{"base_weights":[4.3341744E-5,-5.848613E-3,2.2151288E-2,-8.196692E-3,-5.0970056E-4,1.3628993E-2,3.1576075E-2,-8.19511E-4,-4.2646556E-4,7.372205E-4,-1.0863137E-4,8.3391415E-4,2.0752785E-4,1.4134045E-3,2.1927871E-3],"categories":[],"categories_nodes":[],"categories_segments":[],"categories_sizes":[],"default_left":[0,0,0,0,0,0,0,0,0,0,0,0,0,0,0],"id":53,"left_children":[1,3,5,7,9,11,13,-1,-1,-1,-1,-1,-1,-1,-1],"loss_changes":[6.747347E-2,5.1231226E-3,8.324619E-3,1.1046287E-3,2.411931E-3,5.701026E-4,1.4396533E-3,0E0,0E0,0E0,0E0,0E0,0E0,0E0,0E0],"parents":[2147483647,0,0,1,1,2,2,3,3,4,4,5,5,6,6],"right_children":[2,4,6,8,10,12,14,-1,-1,-1,-1,-1,-1,-1,-1],"split_conditions":[4.7997227E-1,1.4129776E-1,7.0752686E-1,3.500878E-2,1.4804254E-1,6.99674E-1,7.560594E-1,-8.19511E-4,-4.2646556E-4,7.372205E-4,-1.0863137E-4,8.3391415E-4,2.0752785E-4,1.4134045E-3,2.1927871E-3],"split_indices":[0,0,0,0,0,0,0,0,0,0,0,0,0,0,0],"split_type":[0,0,0,0,0,0,0,0,0,0,0,0,0,0,0],"sum_hessian":[5.16E2,4.08E2,1.08E2,2.83E2,1.25E2,5.8E1,5E1,2.6E1,2.57E2,1.1E1,1.14E2,5.2E1,6E0,2.8E1,2.2E1],"tree_param":{"num_deleted":"0","num_feature":"2","num_nodes":"15","size_leaf_vector":"1"}},{"base_weights":[2.730703E-4,-7.197553E-3,1.868618E-2,-1.0907991E-2,-4.5060106E-3,1.4430942E-2,2.8956305E-2,-1.0031328E-3,-5.581261E-4,-3.5104214E-4,-1.7320992E-4,4.506934E-4,1.0074122E-3,1.4792315E-3,2.9616933E-3],"categories":[],"categories_nodes":[],"categories_segments":[],"categories_sizes":[],"default_left":[0,0,0,0,0,0,0,0,0,0,0,0,0,0,0],"id":54,"left_children":[1,3,5,7,9,11,13,-1,-1,-1,-1,-1,-1,-1,-1],"loss_changes":[7.482816E-2,3.8157403E-3,6.4433217E-3,1.0058358E-3,5.327286E-4,2.2905022E-3,1.6701408E-3,0E0,0E0,0E0,0E0,0E0,0E0,0E0,0E0],"parents":[2147483647,0,0,1,1,2,2,3,3,4,4,5,5,6,6],"right_children":[2,4,6,8,10,12,14,-1,-1,-1,-1,-1,-1,-1,-1],"split_conditions":[2.650393E-1,9.585268E-2,7.363496E-1,3.4249555E-2,1.2923041E-1,4.390565E-1,7.876702E-1,-1.0031328E-3,-5.581261E-4,-3.5104214E-4,-1.7320992E-4,4.506934E-4,1.0074122E-3,1.4792315E-3,2.9616933E-3],"split_indices":[0,0,0,0,0,0,0,0,0,0,0,0,0,0,0],"split_type":[0,0,0,0,0,0,0,0,0,0,0,0,0,0,0],"sum_hessian":[5.42E2,3.86E2,1.56E2,1.61E2,2.25E2,1.12E2,4.4E1,2E1,1.41E2,1.03E2,1.22E2,3.9E1,7.3E1,4.1E1,3E0],"tree_param":{"num_deleted":"0","num_feature":"2","num_nodes":"15","size_leaf_vector":"1"}},{"base_weights":[7.2980346E-4,-4.7046244E-3,2.0922104E-2,-7.833536E-3,2.575725E-3,1.891481E-2,2.759987E-3,-5.956392E-4,-2.855245E-4,7.078695E-4,8.686485E-5,6.287912E-4,1.2235818E-3],"categories":[],"categories_nodes":[],"categories_segments":[],"categories_sizes":[],"default_left":[0,0,0,0,0,0,0,0,0,0,0,0,0],"id":55,"left_children":[1,3,5,7,9,11,-1,-1,-1,-1,-1,-1,-1],"loss_changes":[5.8476713E-2,9.587595E-3,5.362116E-3,2.1388754E-3,1.2946838E-3,1.9740425E-3,0E0,0E0,0E0,0E0,0E0,0E0,0E0],"parents":[2147483647,0,0,1,1,2,2,3,3,4,4,5,5],"right_children":[2,4,6,8,10,12,-1,-1,-1,-1,-1,-1,-1],"split_conditions":[5.000804E-1,1.4129776E-1,7.8399587E-1,9.29666E-2,1.4804254E-1,6.508298E-1,2.759987E-3,-5.956392E-4,-2.855245E-4,7.078695E-4,8.686485E-5,6.287912E-4,1.2235818E-3],"split_indices":[0,0,0,0,0,0,0,0,0,0,0,0,0],"split_type":[0,0,0,0,0,0,0,0,0,0,0,0,0],"sum_hessian":[5.31E2,4.19E2,1.12E2,2.93E2,1.26E2,1.06E2,6E0,1.49E2,1.44E2,1.1E1,1.15E2,2.8E1,7.8E1],"tree_param":{"num_deleted":"0","num_feature":"2","num_nodes":"13","size_leaf_vector":"1"}},{"base_weights":[-2.1243123E-4,-6.1321477E-3,1.507118E-2,-1.0830351E-2,-3.6596162E-3,9.496107E-3,2.1443633E-2,-1.0198138E-3,-5.628196E-4,5.984754E-4,-2.204907E-4,5.895809E-4,-1.5647996E-4,1.8551673E-3,1.0379673E-3],"categories":[],"categories_nodes":[],"categories_segments":[],"categories_sizes":[],"default_left":[0,0,0,0,0,0,0,0,0,0,0,0,0,0,0],"id":56,"left_children":[1,3,5,7,9,11,13,-1,-1,-1,-1,-1,-1,-1,-1],"loss_changes":[4.569164E-2,4.1887546E-3,4.8056617E-3,6.3910894E-4,8.052604E-4,8.674804E-4,1.710251E-3,0E0,0E0,0E0,0E0,0E0,0E0,0E0,0E0],"parents":[2147483647,0,0,1,1,2,2,3,3,4,4,5,5,6,6],"right_children":[2,4,6,8,10,12,14,-1,-1,-1,-1,-1,-1,-1,-1],"split_conditions":[3.3803013E-1,1.9639587E-1,6.590105E-1,1.1565822E-1,1.987672E-1,6.5206254E-1,7.138218E-1,-1.0198138E-3,-5.628196E-4,5.984754E-4,-2.204907E-4,5.895809E-4,-1.5647996E-4,1.8551673E-3,1.0379673E-3],"split_indices":[1,1,1,1,1,1,1,0,0,0,0,0,0,0,0],"split_type":[0,0,0,0,0,0,0,0,0,0,0,0,0,0,0],"sum_hessian":[5.03E2,3.63E2,1.4E2,1.24E2,2.39E2,7.6E1,6.4E1,1.2E1,1.12E2,3E0,2.36E2,7.1E1,5E0,1.2E1,5.2E1],"tree_param":{"num_deleted":"0","num_feature":"2","num_nodes":"15","size_leaf_vector":"1"}},{"base_weights":[-4.7669694E-4,-5.788856E-3,1.3408924E-2,-1.1266064E-2,-4.1428576E-3,8.062419E-3,1.7402576E-2,-9.5276E-4,-5.642471E-4,-2.6384695E-4,2.4722853E-5,5.4320844E-4,-1.4412678E-4,1.4219322E-3,8.501492E-4],"categories":[],"categories_nodes":[],"categories_segments":[],"categories_sizes":[],"default_left":[0,0,0,0,0,0,0,0,0,0,0,0,0,0,0],"id":57,"left_children":[1,3,5,7,9,11,13,-1,-1,-1,-1,-1,-1,-1,-1],"loss_changes":[3.9983205E-2,3.4873923E-3,3.0625053E-3,4.9205776E-4,7.0217624E-4,1.0780045E-3,1.202222E-3,0E0,0E0,0E0,0E0,0E0,0E0,0E0,0E0],"parents":[2147483647,0,0,1,1,2,2,3,3,4,4,5,5,6,6],"right_children":[2,4,6,8,10,12,14,-1,-1,-1,-1,-1,-1,-1,-1],"split_conditions":[3.3972958E-1,1.8478756E-1,6.3879085E-1,1.1773658E-1,3.1381202E-1,6.2452847E-1,6.84602E-1,-9.5276E-4,-5.642471E-4,-2.6384695E-4,2.4722853E-5,5.4320844E-4,-1.4412678E-4,1.4219322E-3,8.501492E-4],"split_indices":[1,1,1,1,1,1,1,0,0,0,0,0,0,0,0],"split_type":[0,0,0,0,0,0,0,0,0,0,0,0,0,0,0],"sum_hessian":[5.4E2,3.91E2,1.49E2,8.9E1,3.02E2,6.5E1,8.4E1,1.5E1,7.4E1,2.72E2,3E1,5.7E1,8E0,1.8E1,6.6E1],"tree_param":{"num_deleted":"0","num_feature":"2","num_nodes":"15","size_leaf_vector":"1"}},{"base_weights":[4.344122E-4,-4.710867E-3,1.4305928E-2,-1.0138887E-2,-3.054187E-3,9.943656E-3,1.7824488E-2,-7.185119E-4,-4.0660295E-4,-3.1088133E-4,-1.1694635E-4,6.3386187E-4,-2.6184374E-5,1.5438262E-3,9.3875785E-4],"categories":[],"categories_nodes":[],"categories_segments":[],"categories_sizes":[],"default_left":[0,0,0,0,0,0,0,0,0,0,0,0,0,0,0],"id":58,"left_children":[1,3,5,7,9,11,13,-1,-1,-1,-1,-1,-1,-1,-1],"loss_changes":[3.825185E-2,3.4850985E-3,2.0483527E-3,5.912818E-4,7.134897E-4,8.567539E-4,5.041342E-4,0E0,0E0,0E0,0E0,0E0,0E0,0E0,0E0],"parents":[2147483647,0,0,1,1,2,2,3,3,4,4,5,5,6,6],"right_children":[2,4,6,8,10,12,14,-1,-1,-1,-1,-1,-1,-1,-1],"split_conditions":[3.3972958E-1,1.8478756E-1,6.3879085E-1,1.4691229E-1,2.0544772E-1,6.2452847E-1,6.5206254E-1,-7.185119E-4,-4.0660295E-4,-3.1088133E-4,-1.1694635E-4,6.3386187E-4,-2.6184374E-5,1.5438262E-3,9.3875785E-4],"split_indices":[1,1,1,1,1,1,1,0,0,0,0,0,0,0,0],"split_type":[0,0,0,0,0,0,0,0,0,0,0,0,0,0,0],"sum_hessian":[5.34E2,3.9E2,1.44E2,9E1,3E2,6.6E1,7.8E1,4.7E1,4.3E1,8.6E1,2.14E2,5.9E1,7E0,7E0,7.1E1],"tree_param":{"num_deleted":"0","num_feature":"2","num_nodes":"15","size_leaf_vector":"1"}},{"base_weights":[-4.8850506E-4,-5.307874E-3,1.1883502E-2,-8.100666E-3,-3.4888121E-3,5.9352564E-3,1.4298265E-2,-7.983672E-4,-4.143352E-4,6.7509354E-5,-2.1474551E-4,6.81254E-4,-9.306165E-5,7.5005315E-4,1.24814E-3],"categories":[],"categories_nodes":[],"categories_segments":[],"categories_sizes":[],"default_left":[0,0,0,0,0,0,0,0,0,0,0,0,0,0,0],"id":59,"left_children":[1,3,5,7,9,11,13,-1,-1,-1,-1,-1,-1,-1,-1],"loss_changes":[3.0412339E-2,1.8361947E-3,1.9691307E-3,5.8619585E-4,3.124145E-4,1.9949933E-3,5.529877E-4,0E0,0E0,0E0,0E0,0E0,0E0,0E0,0E0],"parents":[2147483647,0,0,1,1,2,2,3,3,4,4,5,5,6,6],"right_children":[2,4,6,8,10,12,14,-1,-1,-1,-1,-1,-1,-1,-1],"split_conditions":[3.3972958E-1,2.0036049E-1,5.551698E-1,1.1907666E-1,2.0320718E-1,4.3757048E-1,7.7011985E-1,-7.983672E-4,-4.143352E-4,6.7509354E-5,-2.1474551E-4,6.81254E-4,-9.306165E-5,7.5005315E-4,1.24814E-3],"split_indices":[1,1,1,1,1,1,1,0,0,0,0,0,0,0,0],"split_type":[0,0,0,0,0,0,0,0,0,0,0,0,0,0,0],"sum_hessian":[5.08E2,3.66E2,1.42E2,1.43E2,2.23E2,4.2E1,1E2,1.5E1,1.28E2,1.3E1,2.1E2,2.3E1,1.9E1,9E1,1E1],"tree_param":{"num_deleted":"0","num_feature":"2","num_nodes":"15","size_leaf_vector":"1"}},{"base_weights":[4.6412722E-4,-4.9183834E-3,1.3332466E-2,-8.548894E-3,-2.21423E-3,1.2513363E-2,2.404472E-3,-4.2840876E-4,-5.996879E-4,-2.1895535E-4,3.9325594E-5,5.9618964E-4,9.451575E-4],"categories":[],"categories_nodes":[],"categories_segments":[],"categories_sizes":[],"default_left":[0,0,0,0,0,0,0,0,0,0,0,0,0],"id":60,"left_children":[1,3,5,7,9,11,-1,-1,-1,-1,-1,-1,-1],"loss_changes":[3.7814435E-2,3.7607923E-3,3.2972246E-3,2.5151484E-4,1.0626992E-3,1.139544E-3,0E0,0E0,0E0,0E0,0E0,0E0,0E0],"parents":[2147483647,0,0,1,1,2,2,3,3,4,4,5,5],"right_children":[2,4,6,8,10,12,-1,-1,-1,-1,-1,-1,-1],"split_conditions":[2.6929235E-1,9.585268E-2,7.876702E-1,8.330794E-2,1.4129776E-1,7.2788703E-1,2.404472E-3,-4.2840876E-4,-5.996879E-4,-2.1895535E-4,3.9325594E-5,5.9618964E-4,9.451575E-4],"split_indices":[0,0,0,0,0,0,0,0,0,0,0,0,0],"split_type":[0,0,0,0,0,0,0,0,0,0,0,0,0],"sum_hessian":[5.44E2,3.84E2,1.6E2,1.63E2,2.21E2,1.57E2,3E0,1.12E2,5.1E1,1.41E2,8E1,1.08E2,4.9E1],"tree_param":{"num_deleted":"0","num_feature":"2","num_nodes":"13","size_leaf_vector":"1"}},{"base_weights":[4.194603E-5,-4.283753E-3,1.5054314E-2,-7.373466E-3,-2.1562916E-3,1.1414348E-2,2.6476547E-2,-8.5759937E-4,-3.7624655E-4,-8.511169E-5,-7.345009E-4,6.8105676E-4,-2.4942769E-4,1.6748285E-3,3.7818047E-4],"categories":[],"categories_nodes":[],"categories_segments":[],"categories_sizes":[],"default_left":[0,0,0,0,0,0,0,0,0,0,0,0,0,0,0],"id":61,"left_children":[1,3,5,7,9,11,13,-1,-1,-1,-1,-1,-1,-1,-1],"loss_changes":[3.454709E-2,2.6988513E-3,4.645394E-3,8.690506E-4,1.7233719E-3,8.9944433E-4,1.481777E-3,0E0,0E0,0E0,0E0,0E0,0E0,0E0,0E0],"parents":[2147483647,0,0,1,1,2,2,3,3,4,4,5,5,6,6],"right_children":[2,4,6,8,10,12,14,-1,-1,-1,-1,-1,-1,-1,-1],"split_conditions":[4.9604255E-1,2.0688212E-1,7.519529E-1,1.1477264E-1,4.3757048E-1,7.498771E-1,7.8235465E-1,-8.5759937E-4,-3.7624655E-4,-8.511169E-5,-7.345009E-4,6.8105676E-4,-2.4942769E-4,1.6748285E-3,3.7818047E-4],"split_indices":[1,1,1,1,1,1,1,0,0,0,0,0,0,0,0],"split_type":[0,0,0,0,0,0,0,0,0,0,0,0,0,0,0],"sum_hessian":[5.3E2,4.12E2,1.18E2,1.67E2,2.45E2,9.1E1,2.7E1,1.3E1,1.54E2,2.32E2,1.3E1,8.8E1,3E0,2.3E1,4E0],"tree_param":{"num_deleted":"0","num_feature":"2","num_nodes":"15","size_leaf_vector":"1"}},{"base_weights":[-9.765275E-5,-4.828974E-3,1.1143624E-2,-8.660543E-3,-1.8137064E-3,8.231276E-3,2.7753338E-2,-7.1629975E-4,-4.4994516E-4,6.2543765E-4,-1.12976675E-4,4.9224054E-4,-4.7264522E-4,1.2532647E-3,2.133276E-3],"categories":[],"categories_nodes":[],"categories_segments":[],"categories_sizes":[],"default_left":[0,0,0,0,0,0,0,0,0,0,0,0,0,0,0],"id":62,"left_children":[1,3,5,7,9,11,13,-1,-1,-1,-1,-1,-1,-1,-1],"loss_changes":[2.8189255E-2,4.2936364E-3,7.366158E-3,3.7690531E-4,4.9704814E-4,1.0542311E-3,4.5325235E-4,0E0,0E0,0E0,0E0,0E0,0E0,0E0,0E0],"parents":[2147483647,0,0,1,1,2,2,3,3,4,4,5,5,6,6],"right_children":[2,4,6,8,10,12,14,-1,-1,-1,-1,-1,-1,-1,-1],"split_conditions":[2.6929235E-1,9.5579445E-2,7.6473737E-1,3.4249555E-2,9.613873E-2,7.585625E-1,7.8399587E-1,-7.1629975E-4,-4.4994516E-4,6.2543765E-4,-1.12976675E-4,4.9224054E-4,-4.7264522E-4,1.2532647E-3,2.133276E-3],"split_indices":[0,0,0,0,0,0,0,0,0,0,0,0,0,0,0],"split_type":[0,0,0,0,0,0,0,0,0,0,0,0,0,0,0],"sum_hessian":[5.28E2,3.72E2,1.56E2,1.63E2,2.09E2,1.34E2,2.2E1,2.3E1,1.4E2,2E0,2.07E2,1.31E2,3E0,1.6E1,6E0],"tree_param":{"num_deleted":"0","num_feature":"2","num_nodes":"15","size_leaf_vector":"1"}},{"base_weights":[9.852755E-5,-4.9048625E-3,1.15930345E-2,-5.857142E-3,-1.5172083E-3,1.03094345E-2,2.1464732E-3,-3.1892202E-4,-9.069375E-4,6.1599154E-4,-1.5051661E-4,4.9142184E-4,1.001589E-3],"categories":[],"categories_nodes":[],"categories_segments":[],"categories_sizes":[],"default_left":[0,0,0,0,0,0,0,0,0,0,0,0,0],"id":63,"left_children":[1,3,5,7,9,11,-1,-1,-1,-1,-1,-1,-1],"loss_changes":[2.9962843E-2,1.1621481E-3,4.9271043E-3,5.959049E-4,1.1648751E-3,1.6900338E-3,0E0,0E0,0E0,0E0,0E0,0E0,0E0],"parents":[2147483647,0,0,1,1,2,2,3,3,4,4,5,5],"right_children":[2,4,6,8,10,12,-1,-1,-1,-1,-1,-1,-1],"split_conditions":[2.6929235E-1,1.4129776E-1,7.8399587E-1,1.3887917E-1,1.4804254E-1,7.515802E-1,2.1464732E-3,-3.1892202E-4,-9.069375E-4,6.1599154E-4,-1.5051661E-4,4.9142184E-4,1.001589E-3],"split_indices":[0,0,0,0,0,0,0,0,0,0,0,0,0],"split_type":[0,0,0,0,0,0,0,0,0,0,0,0,0],"sum_hessian":[5.19E2,3.62E2,1.57E2,2.82E2,8E1,1.51E2,6E0,2.77E2,5E0,6E0,7.4E1,1.25E2,2.6E1],"tree_param":{"num_deleted":"0","num_feature":"2","num_nodes":"13","size_leaf_vector":"1"}},{"base_weights":[-7.524507E-4,-4.003371E-3,1.11839855E-2,-6.4572864E-3,-1.8851405E-3,7.3736235E-3,2.5607836E-2,-3.2574582E-4,-4.334846E-4,-7.9944024E-5,-1.0684781E-3,6.057071E-4,1.9035846E-4,1.15415E-3,2.3016261E-3],"categories":[],"categories_nodes":[],"categories_segments":[],"categories_sizes":[],"default_left":[0,0,0,0,0,0,0,0,0,0,0,0,0,0,0],"id":64,"left_children":[1,3,5,7,9,11,13,-1,-1,-1,-1,-1,-1,-1,-1],"loss_changes":[2.0300673E-2,2.124188E-3,5.966706E-3,1.1725444E-4,1.7667208E-3,1.1567608E-3,9.887004E-4,0E0,0E0,0E0,0E0,0E0,0E0,0E0,0E0],"parents":[2147483647,0,0,1,1,2,2,3,3,4,4,5,5,6,6],"right_children":[2,4,6,8,10,12,14,-1,-1,-1,-1,-1,-1,-1,-1],"split_conditions":[4.7997227E-1,9.924909E-2,7.64023E-1,8.354397E-2,4.3684E-1,6.99674E-1,7.8399587E-1,-3.2574582E-4,-4.334846E-4,-7.9944024E-5,-1.0684781E-3,6.057071E-4,1.9035846E-4,1.15415E-3,2.3016261E-3],"split_indices":[0,0,0,0,0,0,0,0,0,0,0,0,0,0,0],"split_type":[0,0,0,0,0,0,0,0,0,0,0,0,0,0,0],"sum_hessian":[5.21E2,4.1E2,1.11E2,1.89E2,2.21E2,8.9E1,2.2E1,1.21E2,6.8E1,2.16E2,5E0,4.8E1,4.1E1,1.8E1,4E0],"tree_param":{"num_deleted":"0","num_feature":"2","num_nodes":"15","size_leaf_vector":"1"}},{"base_weights":[2.9365078E-4,-3.9005277E-3,8.969574E-3,-6.432335E-3,-2.3528554E-3,7.6055615E-3,2.6054662E-3,-2.6300608E-4,-7.6786825E-4,-9.6384225E-5,-3.8160122E-4,3.2135993E-4,7.115474E-4],"categories":[],"categories_nodes":[],"categories_segments":[],"categories_sizes":[],"default_left":[0,0,0,0,0,0,0,0,0,0,0,0,0],"id":65,"left_children":[1,3,5,7,9,11,-1,-1,-1,-1,-1,-1,-1],"loss_changes":[1.9429987E-2,1.3954923E-3,8.414604E-3,1.6733934E-3,6.325372E-4,1.5488742E-3,0E0,0E0,0E0,0E0,0E0,0E0,0E0],"parents":[2147483647,0,0,1,1,2,2,3,3,4,4,5,5],"right_children":[2,4,6,8,10,12,-1,-1,-1,-1,-1,-1,-1],"split_conditions":[2.650393E-1,9.085074E-2,7.785628E-1,8.330794E-2,2.2010843E-1,7.2788703E-1,2.6054662E-3,-2.6300608E-4,-7.6786825E-4,-9.6384225E-5,-3.8160122E-4,3.2135993E-4,7.115474E-4],"split_indices":[0,0,0,0,0,0,0,0,0,0,0,0,0],"split_type":[0,0,0,0,0,0,0,0,0,0,0,0,0],"sum_hessian":[5.32E2,3.59E2,1.73E2,1.35E2,2.24E2,1.68E2,5E0,1.09E2,2.6E1,1.96E2,2.8E1,1.22E2,4.6E1],"tree_param":{"num_deleted":"0","num_feature":"2","num_nodes":"13","size_leaf_vector":"1"}},{"base_weights":[-6.1431994E-5,-2.7224459E-3,9.320291E-3,-2.4472498E-3,-2.4854112E-2,8.191905E-3,1.4439786E-2,-2.155352E-4,2.0256657E-4,-1.8575436E-3,-4.9411017E-4,5.382902E-4,-7.5968256E-4,1.2505229E-3,6.339125E-4],"categories":[],"categories_nodes":[],"categories_segments":[],"categories_sizes":[],"default_left":[0,0,0,0,0,0,0,0,0,0,0,0,0,0,0],"id":66,"left_children":[1,3,5,7,9,11,13,-1,-1,-1,-1,-1,-1,-1,-1],"loss_changes":[1.3331663E-2,2.472843E-3,5.6336913E-4,3.3576286E-3,3.5040756E-4,2.8817677E-3,2.5082845E-4,0E0,0E0,0E0,0E0,0E0,0E0,0E0,0E0],"parents":[2147483647,0,0,1,1,2,2,3,3,4,4,5,5,6,6],"right_children":[2,4,6,8,10,12,14,-1,-1,-1,-1,-1,-1,-1,-1],"split_conditions":[4.7509286E-1,4.4954455E-1,7.563703E-1,2.9734543E-1,4.537547E-1,7.498771E-1,7.60917E-1,-2.155352E-4,2.0256657E-4,-1.8575436E-3,-4.9411017E-4,5.382902E-4,-7.5968256E-4,1.2505229E-3,6.339125E-4],"split_indices":[1,1,1,1,1,1,1,0,0,0,0,0,0,0,0],"split_type":[0,0,0,0,0,0,0,0,0,0,0,0,0,0,0],"sum_hessian":[5.32E2,4.15E2,1.17E2,4.11E2,4E0,9.8E1,1.9E1,3.36E2,7.5E1,2E0,2E0,9.3E1,5E0,4E0,1.5E1],"tree_param":{"num_deleted":"0","num_feature":"2","num_nodes":"15","size_leaf_vector":"1"}},{"base_weights":[7.495579E-4,-3.660973E-3,6.8255616E-3,-7.0899413E-3,-2.556232E-3,3.4449722E-3,1.0559695E-2,-3.5098864E-4,-7.836218E-4,3.8527325E-4,-1.7313598E-4,1.1008658E-3,9.221864E-5,4.953222E-4,9.6994446E-4],"categories":[],"categories_nodes":[],"categories_segments":[],"categories_sizes":[],"default_left":[0,0,0,0,0,0,0,0,0,0,0,0,0,0,0],"id":67,"left_children":[1,3,5,7,9,11,13,-1,-1,-1,-1,-1,-1,-1,-1],"loss_changes":[1.4147745E-2,1.1410415E-3,2.766055E-3,3.654433E-4,1.0949591E-3,3.394226E-3,1.1080848E-3,0E0,0E0,0E0,0E0,0E0,0E0,0E0,0E0],"parents":[2147483647,0,0,1,1,2,2,3,3,4,4,5,5,6,6],"right_children":[2,4,6,8,10,12,14,-1,-1,-1,-1,-1,-1,-1,-1],"split_conditions":[1.4129776E-1,7.35034E-2,6.0179096E-1,7.1393974E-2,7.541046E-2,1.5672442E-1,7.64023E-1,-3.5098864E-4,-7.836218E-4,3.8527325E-4,-1.7313598E-4,1.1008658E-3,9.221864E-5,4.953222E-4,9.6994446E-4],"split_indices":[0,0,0,0,0,0,0,0,0,0,0,0,0,0,0],"split_type":[0,0,0,0,0,0,0,0,0,0,0,0,0,0,0],"sum_hessian":[5.26E2,3.05E2,2.21E2,7.3E1,2.32E2,1.17E2,1.04E2,6.6E1,7E0,1.1E1,2.21E2,1.1E1,1.06E2,8.3E1,2.1E1],"tree_param":{"num_deleted":"0","num_feature":"2","num_nodes":"15","size_leaf_vector":"1"}},{"base_weights":[4.8767863E-4,-3.19925E-3,8.837155E-3,-7.5265877E-3,-2.2603846E-3,6.1743483E-3,2.1922506E-2,-5.6950655E-4,-3.561703E-4,2.8093447E-4,-1.4470363E-4,3.9062276E-4,1.0171744E-6,9.996599E-4,2.1222E-3],"categories":[],"categories_nodes":[],"categories_segments":[],"categories_sizes":[],"default_left":[0,0,0,0,0,0,0,0,0,0,0,0,0,0,0],"id":68,"left_children":[1,3,5,7,9,11,13,-1,-1,-1,-1,-1,-1,-1,-1],"loss_changes":[1.6282184E-2,1.4740299E-3,5.5093328E-3,1.4105206E-4,6.4282364E-4,5.9126783E-4,1.1423668E-3,0E0,0E0,0E0,0E0,0E0,0E0,0E0,0E0],"parents":[2147483647,0,0,1,1,2,2,3,3,4,4,5,5,6,6],"right_children":[2,4,6,8,10,12,14,-1,-1,-1,-1,-1,-1,-1,-1],"split_conditions":[2.6929235E-1,7.383502E-2,7.614253E-1,3.4249555E-2,7.541046E-2,7.448872E-1,7.876702E-1,-5.6950655E-4,-3.561703E-4,2.8093447E-4,-1.4470363E-4,3.9062276E-4,1.0171744E-6,9.996599E-4,2.1222E-3],"split_indices":[0,0,0,0,0,0,0,0,0,0,0,0,0,0,0],"split_type":[0,0,0,0,0,0,0,0,0,0,0,0,0,0,0],"sum_hessian":[5.27E2,3.66E2,1.61E2,6.4E1,3.02E2,1.35E2,2.6E1,1.9E1,4.5E1,1.1E1,2.91E2,1.21E2,1.4E1,2.2E1,4E0],"tree_param":{"num_deleted":"0","num_feature":"2","num_nodes":"15","size_leaf_vector":"1"}},{"base_weights":[8.8463904E-4,-2.4740992E-3,7.4311635E-3,-6.072019E-4,-2.1303107E-3,4.47516E-3,1.0826559E-2,-1.5041491E-4,5.420297E-5,2.987781E-4,-3.7635694E-4,6.7595555E-4,-5.2412317E-5],"categories":[],"categories_nodes":[],"categories_segments":[],"categories_sizes":[],"default_left":[0,0,0,0,0,0,0,0,0,0,0,0,0],"id":69,"left_children":[1,3,5,-1,7,9,11,-1,-1,-1,-1,-1,-1],"loss_changes":[1.1803988E-2,9.806119E-4,1.7782459E-3,0E0,5.5032794E-4,9.0085506E-4,1.0770839E-3,0E0,0E0,0E0,0E0,0E0,0E0],"parents":[2147483647,0,0,1,1,2,2,4,4,5,5,6,6],"right_children":[2,4,6,-1,8,10,12,-1,-1,-1,-1,-1,-1],"split_conditions":[3.1381202E-1,1.1773658E-1,6.3879085E-1,-6.072019E-4,2.4325678E-1,6.2452847E-1,7.7551293E-1,-1.5041491E-4,5.420297E-5,2.987781E-4,-3.7635694E-4,6.7595555E-4,-5.2412317E-5],"split_indices":[1,1,1,0,1,1,1,0,0,0,0,0,0],"split_type":[0,0,0,0,0,0,0,0,0,0,0,0,0],"sum_hessian":[5.35E2,3.54E2,1.81E2,1.3E1,3.41E2,9.8E1,8.3E1,2.92E2,4.9E1,9.2E1,6E0,7.6E1,7E0],"tree_param":{"num_deleted":"0","num_feature":"2","num_nodes":"13","size_leaf_vector":"1"}},{"base_weights":[-1.9380297E-4,-3.260247E-3,8.262205E-3,-3.9837756E-3,1.818987E-4,5.2772136E-3,1.1008069E-2,-1.812567E-4,-4.7591914E-4,1.2671265E-4,-9.061077E-5,3.742256E-4,-5.4642506E-4,1.2200144E-3,4.3313127E-4],"categories":[],"categories_nodes":[],"categories_segments":[],"categories_sizes":[],"default_left":[0,0,0,0,0,0,0,0,0,0,0,0,0,0,0],"id":70,"left_children":[1,3,5,7,9,11,13,-1,-1,-1,-1,-1,-1,-1,-1],"loss_changes":[1.364012E-2,9.6205436E-4,1.0894015E-3,1.0833293E-3,2.5142392E-4,1.4152293E-3,2.3859106E-3,0E0,0E0,0E0,0E0,0E0,0E0,0E0,0E0],"parents":[2147483647,0,0,1,1,2,2,3,3,4,4,5,5,6,6],"right_children":[2,4,6,8,10,12,14,-1,-1,-1,-1,-1,-1,-1,-1],"split_conditions":[3.738418E-1,2.6525524E-1,6.590105E-1,2.3362392E-1,3.179645E-1,6.5206254E-1,7.138218E-1,-1.812567E-4,-4.7591914E-4,1.2671265E-4,-9.061077E-5,3.742256E-4,-5.4642506E-4,1.2200144E-3,4.3313127E-4],"split_indices":[1,1,1,1,1,1,1,0,0,0,0,0,0,0,0],"split_type":[0,0,0,0,0,0,0,0,0,0,0,0,0,0,0],"sum_hessian":[5.24E2,3.85E2,1.39E2,3.18E2,6.7E1,6.8E1,7.1E1,2.71E2,4.7E1,3.1E1,3.6E1,6.3E1,5E0,1.6E1,5.5E1],"tree_param":{"num_deleted":"0","num_feature":"2","num_nodes":"15","size_leaf_vector":"1"}},{"base_weights":[6.231909E-4,-1.5315781E-3,1.1882788E-2,-1.004647E-2,-1.2238282E-3,1.3137698E-2,1.4081716E-3,-6.041037E-4,-2.3395655E-4,-9.6948614E-5,1.8006659E-4,6.2710285E-4,9.979866E-4,-6.330405E-4,6.6077255E-4],"categories":[],"categories_nodes":[],"categories_segments":[],"categories_sizes":[],"default_left":[0,0,0,0,0,0,0,0,0,0,0,0,0,0,0],"id":71,"left_children":[1,3,5,7,9,11,13,-1,-1,-1,-1,-1,-1,-1,-1],"loss_changes":[1.2537303E-2,1.1249831E-3,1.0725111E-3,8.99611E-6,8.987511E-4,4.9323123E-4,1.4147048E-3,0E0,0E0,0E0,0E0,0E0,0E0,0E0,0E0],"parents":[2147483647,0,0,1,1,2,2,3,3,4,4,5,5,6,6],"right_children":[2,4,6,8,10,12,14,-1,-1,-1,-1,-1,-1,-1,-1],"split_conditions":[6.3879085E-1,1.1565822E-1,7.7551293E-1,1.1477264E-1,4.537547E-1,7.519529E-1,7.8106606E-1,-6.041037E-4,-2.3395655E-4,-9.6948614E-5,1.8006659E-4,6.2710285E-4,9.979866E-4,-6.330405E-4,6.6077255E-4],"split_indices":[1,1,1,1,1,1,1,0,0,0,0,0,0,0,0],"split_type":[0,0,0,0,0,0,0,0,0,0,0,0,0,0,0],"sum_hessian":[5.15E2,4.33E2,8.2E1,1.4E1,4.19E2,7.3E1,9E0,1.2E1,2E0,3.78E2,4.1E1,5.2E1,2.1E1,4E0,5E0],"tree_param":{"num_deleted":"0","num_feature":"2","num_nodes":"15","size_leaf_vector":"1"}},{"base_weights":[-3.6215447E-4,-2.066563E-3,5.66517E-3,-3.9778245E-3,-3.4835425E-4,4.9024587E-3,1.2272112E-3,-1.9857653E-4,-6.6108775E-4,2.54523E-5,-4.924468E-4,3.028239E-4,-3.0668723E-4],"categories":[],"categories_nodes":[],"categories_segments":[],"categories_sizes":[],"default_left":[0,0,0,0,0,0,0,0,0,0,0,0,0],"id":72,"left_children":[1,3,5,7,9,11,-1,-1,-1,-1,-1,-1,-1],"loss_changes":[5.4050446E-3,1.3450325E-3,1.3053438E-3,6.73176E-4,1.4432827E-3,5.270194E-4,0E0,0E0,0E0,0E0,0E0,0E0,0E0],"parents":[2147483647,0,0,1,1,2,2,3,3,4,4,5,5],"right_children":[2,4,6,8,10,12,-1,-1,-1,-1,-1,-1,-1],"split_conditions":[5.000804E-1,1.04868144E-1,7.8399587E-1,1.0110459E-1,4.1030294E-1,7.7601326E-1,1.2272112E-3,-1.9857653E-4,-6.6108775E-4,2.54523E-5,-4.924468E-4,3.028239E-4,-3.0668723E-4],"split_indices":[0,0,0,0,0,0,0,0,0,0,0,0,0],"split_type":[0,0,0,0,0,0,0,0,0,0,0,0,0],"sum_hessian":[5.24E2,4.09E2,1.15E2,1.93E2,2.16E2,1.11E2,4E0,1.83E2,1E1,1.98E2,1.8E1,1.07E2,4E0],"tree_param":{"num_deleted":"0","num_feature":"2","num_nodes":"13","size_leaf_vector":"1"}},{"base_weights":[6.165052E-4,-1.6397324E-3,6.44853E-3,-7.241946E-3,-1.1670134E-3,5.0079944E-3,1.0156101E-2,-5.1359105E-4,-2.7443425E-4,-6.110361E-5,-9.5477566E-4,3.4260566E-4,-2.2033339E-4,1.1699073E-3,3.4743428E-4],"categories":[],"categories_nodes":[],"categories_segments":[],"categories_sizes":[],"default_left":[0,0,0,0,0,0,0,0,0,0,0,0,0,0,0],"id":73,"left_children":[1,3,5,7,9,11,13,-1,-1,-1,-1,-1,-1,-1,-1],"loss_changes":[7.0766527E-3,1.0190784E-3,7.5027207E-4,8.663826E-5,4.9149117E-4,1.0275037E-3,1.6034115E-3,0E0,0E0,0E0,0E0,0E0,0E0,0E0,0E0],"parents":[2147483647,0,0,1,1,2,2,3,3,4,4,5,5,6,6],"right_children":[2,4,6,8,10,12,14,-1,-1,-1,-1,-1,-1,-1,-1],"split_conditions":[3.3745465E-1,1.2852252E-1,7.339251E-1,1.1565822E-1,3.3555394E-1,7.138218E-1,7.498771E-1,-5.1359105E-4,-2.7443425E-4,-6.110361E-5,-9.5477566E-4,3.4260566E-4,-2.2033339E-4,1.1699073E-3,3.4743428E-4],"split_indices":[1,1,1,1,1,1,1,0,0,0,0,0,0,0,0],"split_type":[0,0,0,0,0,0,0,0,0,0,0,0,0,0,0],"sum_hessian":[5.36E2,3.87E2,1.49E2,2.9E1,3.58E2,1.09E2,4E1,1.5E1,1.4E1,3.57E2,1E0,9.8E1,1.1E1,1E1,3E1],"tree_param":{"num_deleted":"0","num_feature":"2","num_nodes":"15","size_leaf_vector":"1"}},{"base_weights":[-5.199756E-5,-1.8556842E-3,7.5918627E-3,-4.130562E-3,-6.006765E-4,6.171077E-3,1.9095899E-3,-1.6678042E-4,-4.1993026E-4,-1.0194956E-5,-3.9912303E-4,1.0265611E-3,2.8633673E-4],"categories":[],"categories_nodes":[],"categories_segments":[],"categories_sizes":[],"default_left":[0,0,0,0,0,0,0,0,0,0,0,0,0],"id":74,"left_children":[1,3,5,7,9,11,-1,-1,-1,-1,-1,-1,-1],"loss_changes":[7.293692E-3,1.2194541E-3,3.5298453E-3,5.704714E-4,7.4872444E-4,1.2113582E-3,0E0,0E0,0E0,0E0,0E0,0E0,0E0],"parents":[2147483647,0,0,1,1,2,2,3,3,4,4,5,5],"right_children":[2,4,6,8,10,12,-1,-1,-1,-1,-1,-1,-1],"split_conditions":[6.0179096E-1,9.29666E-2,7.876702E-1,8.354397E-2,4.3684E-1,6.370763E-1,1.9095899E-3,-1.6678042E-4,-4.1993026E-4,-1.0194956E-5,-3.9912303E-4,1.0265611E-3,2.8633673E-4],"split_indices":[0,0,0,0,0,0,0,0,0,0,0,0,0],"split_type":[0,0,0,0,0,0,0,0,0,0,0,0,0],"sum_hessian":[5.27E2,4.27E2,1E2,1.51E2,2.76E2,9.6E1,4E0,1.12E2,3.9E1,2.6E2,1.6E1,7E0,8.9E1],"tree_param":{"num_deleted":"0","num_feature":"2","num_nodes":"13","size_leaf_vector":"1"}},{"base_weights":[-1.5517876E-4,-1.5995863E-3,1.0796865E-2,-2.7018373E-3,2.6120387E-3,1.33621935E-2,2.5864094E-3,-2.7130058E-4,-7.720647E-5,2.15335E-4,-3.5016015E-4,5.916169E-4,9.94721E-4,-3.1566687E-4,1.6132493E-3],"categories":[],"categories_nodes":[],"categories_segments":[],"categories_sizes":[],"default_left":[0,0,0,0,0,0,0,0,0,0,0,0,0,0,0],"id":75,"left_children":[1,3,5,7,9,11,13,-1,-1,-1,-1,-1,-1,-1,-1],"loss_changes":[8.417273E-3,2.1889238E-3,1.2713159E-3,1.0330903E-3,1.0395803E-3,3.92369E-4,3.5249535E-3,0E0,0E0,0E0,0E0,0E0,0E0,0E0,0E0],"parents":[2147483647,0,0,1,1,2,2,3,3,4,4,5,5,6,6],"right_children":[2,4,6,8,10,12,14,-1,-1,-1,-1,-1,-1,-1,-1],"split_conditions":[7.051983E-1,2.6393586E-1,7.676723E-1,9.020235E-2,6.6686E-1,7.515802E-1,7.876702E-1,-2.7130058E-4,-7.720647E-5,2.15335E-4,-3.5016015E-4,5.916169E-4,9.94721E-4,-3.1566687E-4,1.6132493E-3],"split_indices":[0,0,0,0,0,0,0,0,0,0,0,0,0,0,0],"split_type":[0,0,0,0,0,0,0,0,0,0,0,0,0,0,0],"sum_hessian":[5.3E2,4.69E2,6.1E1,3.72E2,9.7E1,4.6E1,1.5E1,1.45E2,2.27E2,8.6E1,1.1E1,2.9E1,1.7E1,1.2E1,3E0],"tree_param":{"num_deleted":"0","num_feature":"2","num_nodes":"15","size_leaf_vector":"1"}},{"base_weights":[4.7385675E-4,-2.1246485E-3,5.8253165E-3,-4.68145E-3,-1.5328161E-3,7.1520605E-3,-6.172992E-4,-2.3275397E-4,-1.271955E-3,5.098783E-4,-1.0065702E-4,3.200997E-4,1.2240495E-3,-1.7631726E-4,6.0652266E-4],"categories":[],"categories_nodes":[],"categories_segments":[],"categories_sizes":[],"default_left":[0,0,0,0,0,0,0,0,0,0,0,0,0,0,0],"id":76,"left_children":[1,3,5,7,9,11,13,-1,-1,-1,-1,-1,-1,-1,-1],"loss_changes":[7.744E-3,5.602734E-4,1.5600971E-3,6.2967197E-4,7.8879157E-4,3.1717326E-3,9.330875E-4,0E0,0E0,0E0,0E0,0E0,0E0,0E0,0E0],"parents":[2147483647,0,0,1,1,2,2,3,3,4,4,5,5,6,6],"right_children":[2,4,6,8,10,12,14,-1,-1,-1,-1,-1,-1,-1,-1],"split_conditions":[3.1381202E-1,1.7549554E-1,7.498771E-1,1.7505056E-1,1.7649443E-1,7.218743E-1,7.8106606E-1,-2.3275397E-4,-1.271955E-3,5.098783E-4,-1.0065702E-4,3.200997E-4,1.2240495E-3,-1.7631726E-4,6.0652266E-4],"split_indices":[1,1,1,1,1,1,1,0,0,0,0,0,0,0,0],"split_type":[0,0,0,0,0,0,0,0,0,0,0,0,0,0,0],"sum_hessian":[5.55E2,3.74E2,1.81E2,6.9E1,3.05E2,1.5E2,3.1E1,6.8E1,1E0,6E0,2.99E2,1.37E2,1.3E1,2.6E1,5E0],"tree_param":{"num_deleted":"0","num_feature":"2","num_nodes":"15","size_leaf_vector":"1"}},{"base_weights":[4.565765E-4,-2.3732875E-3,7.623755E-3,-3.895307E-3,-1.158866E-3,5.2838568E-3,1.7914267E-2,-1.6426532E-4,-3.498052E-4,9.126786E-4,-8.437973E-5,3.6382602E-4,-4.516035E-4,8.058341E-4,1.6218219E-3],"categories":[],"categories_nodes":[],"categories_segments":[],"categories_sizes":[],"default_left":[0,0,0,0,0,0,0,0,0,0,0,0,0,0,0],"id":77,"left_children":[1,3,5,7,9,11,13,-1,-1,-1,-1,-1,-1,-1,-1],"loss_changes":[1.0605371E-2,6.8862597E-4,3.4689987E-3,3.590805E-4,1.2090838E-3,1.867675E-3,6.6447724E-4,0E0,0E0,0E0,0E0,0E0,0E0,0E0,0E0],"parents":[2147483647,0,0,1,1,2,2,3,3,4,4,5,5,6,6],"right_children":[2,4,6,8,10,12,14,-1,-1,-1,-1,-1,-1,-1,-1],"split_conditions":[2.650393E-1,9.6847296E-2,7.560594E-1,8.492029E-2,9.802568E-2,7.448872E-1,7.8399587E-1,-1.6426532E-4,-3.498052E-4,9.126786E-4,-8.437973E-5,3.6382602E-4,-4.516035E-4,8.058341E-4,1.6218219E-3],"split_indices":[0,0,0,0,0,0,0,0,0,0,0,0,0,0,0],"split_type":[0,0,0,0,0,0,0,0,0,0,0,0,0,0,0],"sum_hessian":[5.21E2,3.74E2,1.47E2,1.65E2,2.09E2,1.21E2,2.6E1,1.16E2,4.9E1,3E0,2.06E2,1.12E2,9E0,2.1E1,5E0],"tree_param":{"num_deleted":"0","num_feature":"2","num_nodes":"15","size_leaf_vector":"1"}},{"base_weights":[1.878559E-4,-2.1700386E-3,5.245473E-3,-4.0250877E-3,-4.1463703E-4,4.2455182E-3,2.4338886E-2,-4.1500147E-4,-2.040154E-4,6.9624075E-5,-2.1100756E-4,4.820791E-4,1.6593921E-4,6.807802E-4,1.6661636E-3],"categories":[],"categories_nodes":[],"categories_segments":[],"categories_sizes":[],"default_left":[0,0,0,0,0,0,0,0,0,0,0,0,0,0,0],"id":78,"left_children":[1,3,5,7,9,11,13,-1,-1,-1,-1,-1,-1,-1,-1],"loss_changes":[6.188702E-3,1.151081E-3,3.0469382E-3,2.1749805E-4,9.962381E-4,8.6246873E-4,1.4293054E-4,0E0,0E0,0E0,0E0,0E0,0E0,0E0,0E0],"parents":[2147483647,0,0,1,1,2,2,3,3,4,4,5,5,6,6],"right_children":[2,4,6,8,10,12,14,-1,-1,-1,-1,-1,-1,-1,-1],"split_conditions":[2.522184E-1,1.0093732E-1,7.8399587E-1,3.393575E-2,1.4804254E-1,4.193454E-1,7.876702E-1,-4.1500147E-4,-2.040154E-4,6.9624075E-5,-2.1100756E-4,4.820791E-4,1.6593921E-4,6.807802E-4,1.6661636E-3],"split_indices":[0,0,0,0,0,0,0,0,0,0,0,0,0,0,0],"split_type":[0,0,0,0,0,0,0,0,0,0,0,0,0,0,0],"sum_hessian":[5.17E2,3.53E2,1.64E2,1.71E2,1.82E2,1.57E2,7E0,1.8E1,1.53E2,1.22E2,6E1,3.6E1,1.21E2,3E0,4E0],"tree_param":{"num_deleted":"0","num_feature":"2","num_nodes":"15","size_leaf_vector":"1"}},{"base_weights":[1.12107744E-4,-1.8901824E-3,3.3330591E-3,-4.9671845E-4,-1.6220226E-3,1.4655529E-2,2.91168E-3,-4.049677E-5,-1.8606284E-4,2.5697506E-4,1.1990401E-3,1.369415E-4,6.2976993E-4],"categories":[],"categories_nodes":[],"categories_segments":[],"categories_sizes":[],"default_left":[0,0,0,0,0,0,0,0,0,0,0,0,0],"id":79,"left_children":[1,3,5,-1,7,9,11,-1,-1,-1,-1,-1,-1],"loss_changes":[3.3986212E-3,5.83612E-4,9.210806E-4,0E0,4.6999526E-4,3.6279391E-4,7.742343E-4,0E0,0E0,0E0,0E0,0E0,0E0],"parents":[2147483647,0,0,1,1,2,2,4,4,5,5,6,6],"right_children":[2,4,6,-1,8,10,12,-1,-1,-1,-1,-1,-1],"split_conditions":[2.4445747E-1,1.1477264E-1,2.5084028E-1,-4.9671845E-4,2.1619178E-1,2.4544245E-1,7.7011985E-1,-4.049677E-5,-1.8606284E-4,2.5697506E-4,1.1990401E-3,1.369415E-4,6.2976993E-4],"split_indices":[1,1,1,0,1,1,1,0,0,0,0,0,0],"split_type":[0,0,0,0,0,0,0,0,0,0,0,0,0],"sum_hessian":[5.25E2,3.24E2,2.01E2,1.1E1,3.13E2,6E0,1.95E2,2.03E2,1.1E2,3E0,3E0,1.85E2,1E1],"tree_param":{"num_deleted":"0","num_feature":"2","num_nodes":"13","size_leaf_vector":"1"}}]},"name":"gbtree"},"learner_model_param":{"base_score":"2.7609447E-1","boost_from_average":"1","num_class":"0","num_feature":"2","num_target":"1"},"objective":{"name":"reg:squarederror","reg_loss_param":{"scale_pos_weight":"1"}}},"version":[2,1,4]}