{"learner":{"attributes":{"scikit_learn":"{\"_estimator_type\": \"regressor\"}"},"feature_names":[],"feature_types":[],"gradient_booster":{"model":{"gbtree_model_param":{"num_parallel_tree":"1","num_trees":"50"},"iteration_indptr":[0,1,2,3,4,5,6,7,8,9,10,11,12,13,14,15,16,17,18,19,20,21,22,23,24,25,26,27,28,29,30,31,32,33,34,35,36,37,38,39,40,41,42,43,44,45,46,47,48,49,50],"tree_info":[0,0,0,0,0,0,0,0,0,0,0,0,0,0,0,0,0,0,0,0,0,0,0,0,0,0,0,0,0,0,0,0,0,0,0,0,0,0,0,0,0,0,0,0,0,0,0,0,0,0],"trees":[{"base_weights":[1.1262089E-2,-1.4955963E-1,1.3584776E-1,-1.58074E-2,-1.04298085E-1,1.8381197E-2,1.8419842E-1,-6.547244E-3,-2.2628398E-3,1.4658129E-3,-0E0,7.7747903E-3,1.2809529E-2],"categories":[],"categories_nodes":[],"categories_segments":[],"categories_sizes":[],"default_left":[0,0,0,0,0,0,0,0,0,0,0,0,0],"id":0,"left_children":[1,3,5,-1,7,9,11,-1,-1,-1,-1,-1,-1],"loss_changes":[2.5835648E0,3.4722435E-1,3.9096594E-1,0E0,4.8823655E-2,6.839557E-3,2.4379373E-2,0E0,0E0,0E0,0E0,0E0,0E0],"parents":[2147483647,0,0,1,1,2,2,4,4,5,5,6,6],"right_children":[2,4,6,-1,8,10,12,-1,-1,-1,-1,-1,-1],"split_conditions":[1.4284984E0,1.21824E0,1.4648075E0,-1.58074E-2,1.3875167E0,1.4571474E0,1.540887E0,-6.547244E-3,-2.2628398E-3,1.4658129E-3,-0E0,7.7747903E-3,1.2809529E-2],"split_indices":[1,1,1,0,1,1,1,0,0,0,0,0,0],"split_type":[0,0,0,0,0,0,0,0,0,0,0,0,0],"sum_hessian":[1.27E2,5.5E1,7.2E1,1E1,4.5E1,2.2E1,5E1,2.9E1,1.6E1,1.6E1,6E0,3.9E1,1.1E1],"tree_param":{"num_deleted":"0","num_feature":"2","num_nodes":"13","size_leaf_vector":"1"}},{"base_weights":[-2.138283E-3,-1.041665E-1,1.6398934E-1,-2.0807502E-1,-5.4915857E-2,1.7968243E-2,1.7065798E-1,-1.3702509E-2,-7.557203E-3,-3.9424086E-3,1.483406E-4,1.7573697E-3,-0E0,7.2675245E-3,1.211457E-2],"categories":[],"categories_nodes":[],"categories_segments":[],"categories_sizes":[],"default_left":[0,0,0,0,0,0,0,0,0,0,0,0,0,0,0],"id":1,"left_children":[1,3,5,7,9,11,13,-1,-1,-1,-1,-1,-1,-1,-1],"loss_changes":[2.2823603E0,3.921494E-1,2.7732968E-2,1.371634E-2,8.955279E-2,2.4145874E-3,1.3035893E-2,0E0,0E0,0E0,0E0,0E0,0E0,0E0,0E0],"parents":[2147483647,0,0,1,1,2,2,3,3,4,4,5,5,6,6],"right_children":[2,4,6,8,10,12,14,-1,-1,-1,-1,-1,-1,-1,-1],"split_conditions":[1.4616392E0,1.3426571E0,1.4634384E0,1.21824E0,1.4284984E0,1.462771E0,1.540887E0,-1.3702509E-2,-7.557203E-3,-3.9424086E-3,1.483406E-4,1.7573697E-3,-0E0,7.2675245E-3,1.211457E-2],"split_indices":[1,1,1,1,1,1,1,0,0,0,0,0,0,0,0],"split_type":[0,0,0,0,0,0,0,0,0,0,0,0,0,0,0],"sum_hessian":[1.33E2,8.3E1,5E1,2.5E1,5.8E1,3E0,4.7E1,9E0,1.6E1,4.2E1,1.6E1,2E0,1E0,3.8E1,9E0],"tree_param":{"num_deleted":"0","num_feature":"2","num_nodes":"15","size_leaf_vector":"1"}},{"base_weights":[1.0458695E-3,-1.323703E-1,1.2270204E-1,-1.3580653E-2,-9.309094E-2,2.0101616E-2,1.6631648E-1,-5.8180015E-3,-2.0644418E-3,1.4372938E-3,-0E0,6.7428835E-3,1.0585896E-2],"categories":[],"categories_nodes":[],"categories_segments":[],"categories_sizes":[],"default_left":[0,0,0,0,0,0,0,0,0,0,0,0,0],"id":2,"left_children":[1,3,5,-1,7,9,11,-1,-1,-1,-1,-1,-1],"loss_changes":[2.1902158E0,2.882843E-1,2.9573E-1,0E0,4.211092E-2,4.7538085E-3,6.7760944E-3,0E0,0E0,0E0,0E0,0E0,0E0],"parents":[2147483647,0,0,1,1,2,2,4,4,5,5,6,6],"right_children":[2,4,6,-1,8,10,12,-1,-1,-1,-1,-1,-1],"split_conditions":[1.4284984E0,1.21824E0,1.4634384E0,-1.3580653E-2,1.3893398E0,1.4571474E0,1.5200474E0,-5.8180015E-3,-2.0644418E-3,1.4372938E-3,-0E0,6.7428835E-3,1.0585896E-2],"split_indices":[1,1,1,0,1,1,1,0,0,0,0,0,0],"split_type":[0,0,0,0,0,0,0,0,0,0,0,0,0],"sum_hessian":[1.33E2,6.3E1,7E1,1.2E1,5.1E1,2.2E1,4.8E1,3.3E1,1.8E1,1.6E1,6E0,3.2E1,1.6E1],"tree_param":{"num_deleted":"0","num_feature":"2","num_nodes":"13","size_leaf_vector":"1"}},{"base_weights":[-1.2339264E-3,-1.3689955E-1,1.3499938E-1,-1.384095E-2,-9.882821E-2,5.0257068E-2,8.212847E-3,-5.8977054E-3,-2.1246627E-4,-0E0,2.8601624E-3],"categories":[],"categories_nodes":[],"categories_segments":[],"categories_sizes":[],"default_left":[0,0,0,0,0,0,0,0,0,0,0],"id":3,"left_children":[1,3,5,-1,7,9,-1,-1,-1,-1,-1],"loss_changes":[2.4213543E0,2.8665435E-1,1.3145149E-1,0E0,8.495933E-2,1.0934845E-3,0E0,0E0,0E0,0E0,0E0],"parents":[2147483647,0,0,1,1,2,2,4,4,5,5],"right_children":[2,4,6,-1,8,10,-1,-1,-1,-1,-1],"split_conditions":[1.4775563E0,1.1894481E0,1.545183E0,-1.384095E-2,1.4433448E0,1.4955585E0,8.212847E-3,-5.8977054E-3,-2.1246627E-4,-0E0,2.8601624E-3],"split_indices":[0,0,0,0,0,0,0,0,0,0,0],"split_type":[0,0,0,0,0,0,0,0,0,0,0],"sum_hessian":[1.29E2,6.5E1,6.4E1,1.2E1,5.3E1,1.8E1,4.6E1,4.3E1,1E1,4E0,1.4E1],"tree_param":{"num_deleted":"0","num_feature":"2","num_nodes":"11","size_leaf_vector":"1"}},{"base_weights":[6.188843E-4,-1.4798513E-1,9.969233E-2,-1.3549514E-2,-1.07959084E-1,2.385147E-2,7.4593E-3,-6.483952E-3,-2.5608193E-3,-0E0,2.1541077E-3],"categories":[],"categories_nodes":[],"categories_segments":[],"categories_sizes":[],"default_left":[0,0,0,0,0,0,0,0,0,0,0],"id":4,"left_children":[1,3,5,-1,7,9,-1,-1,-1,-1,-1],"loss_changes":[1.8502625E0,1.7901981E-1,2.644148E-1,0E0,2.456671E-2,1.7060796E-2,0E0,0E0,0E0,0E0,0E0],"parents":[2147483647,0,0,1,1,2,2,4,4,5,5],"right_children":[2,4,6,-1,8,10,-1,-1,-1,-1,-1],"split_conditions":[1.4404697E0,1.1894481E0,1.545183E0,-1.3549514E-2,1.3897992E0,1.4775563E0,7.4593E-3,-6.483952E-3,-2.5608193E-3,-0E0,2.1541077E-3],"split_indices":[0,0,0,0,0,0,0,0,0,0,0],"split_type":[0,0,0,0,0,0,0,0,0,0,0],"sum_hessian":[1.24E2,4.9E1,7.5E1,1E1,3.9E1,3.1E1,4.4E1,2.6E1,1.3E1,1.3E1,1.8E1],"tree_param":{"num_deleted":"0","num_feature":"2","num_nodes":"11","size_leaf_vector":"1"}},{"base_weights":[4.0376834E-3,-1.32494E-1,1.0098075E-1,-1.1612162E-2,-1.0492724E-1,2.7962228E-2,7.3306523E-3,-6.015332E-3,-2.4700747E-3,-0E0,2.276474E-3],"categories":[],"categories_nodes":[],"categories_segments":[],"categories_sizes":[],"default_left":[0,0,0,0,0,0,0,0,0,0,0],"id":5,"left_children":[1,3,5,-1,7,9,-1,-1,-1,-1,-1],"loss_changes":[1.5720525E0,7.6652765E-2,2.1168303E-1,0E0,1.2097895E-2,1.0492232E-2,0E0,0E0,0E0,0E0,0E0],"parents":[2147483647,0,0,1,1,2,2,4,4,5,5],"right_children":[2,4,6,-1,8,10,-1,-1,-1,-1,-1],"split_conditions":[1.4433448E0,1.1894481E0,1.545183E0,-1.1612162E-2,1.3956922E0,1.4955585E0,7.3306523E-3,-6.015332E-3,-2.4700747E-3,-0E0,2.276474E-3],"split_indices":[0,0,0,0,0,0,0,0,0,0,0],"split_type":[0,0,0,0,0,0,0,0,0,0,0],"sum_hessian":[1.17E2,4.8E1,6.9E1,8E0,4E1,2.8E1,4.1E1,2.9E1,1.1E1,1.3E1,1.5E1],"tree_param":{"num_deleted":"0","num_feature":"2","num_nodes":"11","size_leaf_vector":"1"}},{"base_weights":[3.528721E-3,-1.326222E-1,9.616251E-2,-1.2501903E-2,-9.912741E-2,1.8055826E-2,1.2994145E-1,-5.5679246E-3,-2.5468257E-3,-0E0,1.7472869E-3,5.3927517E-3,9.312079E-3],"categories":[],"categories_nodes":[],"categories_segments":[],"categories_sizes":[],"default_left":[0,0,0,0,0,0,0,0,0,0,0,0,0],"id":6,"left_children":[1,3,5,-1,7,9,11,-1,-1,-1,-1,-1,-1],"loss_changes":[1.5982414E0,1.4087158E-1,1.8336946E-1,0E0,2.854228E-3,5.28293E-3,1.516366E-2,0E0,0E0,0E0,0E0,0E0,0E0],"parents":[2147483647,0,0,1,1,2,2,4,4,5,5,6,6],"right_children":[2,4,6,-1,8,10,12,-1,-1,-1,-1,-1,-1],"split_conditions":[1.4404697E0,1.1830851E0,1.5345407E0,-1.2501903E-2,1.3956922E0,1.4955585E0,1.6366844E0,-5.5679246E-3,-2.5468257E-3,-0E0,1.7472869E-3,5.3927517E-3,9.312079E-3],"split_indices":[0,0,0,0,0,0,0,0,0,0,0,0,0],"split_type":[0,0,0,0,0,0,0,0,0,0,0,0,0],"sum_hessian":[1.25E2,5E1,7.5E1,9E0,4.1E1,2.4E1,5.1E1,3E1,1.1E1,1.4E1,1E1,4E1,1.1E1],"tree_param":{"num_deleted":"0","num_feature":"2","num_nodes":"13","size_leaf_vector":"1"}},{"base_weights":[-1.0401314E-3,-1.3211273E-1,9.2512935E-2,-1.1440867E-2,-1.0046346E-1,1.706594E-2,6.7042406E-3,-5.789777E-3,-2.821754E-3,-0E0,1.4220317E-3],"categories":[],"categories_nodes":[],"categories_segments":[],"categories_sizes":[],"default_left":[0,0,0,0,0,0,0,0,0,0,0],"id":7,"left_children":[1,3,5,-1,7,9,-1,-1,-1,-1,-1],"loss_changes":[1.6102738E0,1.1241871E-1,2.209686E-1,0E0,5.9440434E-3,4.4957697E-3,0E0,0E0,0E0,0E0,0E0],"parents":[2147483647,0,0,1,1,2,2,4,4,5,5],"right_children":[2,4,6,-1,8,10,-1,-1,-1,-1,-1],"split_conditions":[1.4404697E0,1.1894481E0,1.5345439E0,-1.1440867E-2,1.3956922E0,1.4775563E0,6.7042406E-3,-5.789777E-3,-2.821754E-3,-0E0,1.4220317E-3],"split_indices":[0,0,0,0,0,0,0,0,0,0,0],"split_type":[0,0,0,0,0,0,0,0,0,0,0],"sum_hessian":[1.29E2,5.4E1,7.5E1,1.1E1,4.3E1,2.8E1,4.7E1,2.9E1,1.4E1,1.3E1,1.5E1],"tree_param":{"num_deleted":"0","num_feature":"2","num_nodes":"11","size_leaf_vector":"1"}},{"base_weights":[-9.635217E-3,-1.3035414E-1,8.0498494E-2,-1.0989112E-2,-4.934844E-3,2.0894082E-2,5.8111846E-3,-0E0,2.2109877E-3],"categories":[],"categories_nodes":[],"categories_segments":[],"categories_sizes":[],"default_left":[0,0,0,0,0,0,0,0,0],"id":8,"left_children":[1,3,5,-1,-1,7,-1,-1,-1],"loss_changes":[1.4191079E0,1.04999006E-1,1.4143392E-1,0E0,0E0,1.8189307E-2,0E0,0E0,0E0],"parents":[2147483647,0,0,1,1,2,2,5,5],"right_children":[2,4,6,-1,-1,8,-1,-1,-1],"split_conditions":[1.4404697E0,1.1894481E0,1.545183E0,-1.0989112E-2,-4.934844E-3,1.4955585E0,5.8111846E-3,-0E0,2.2109877E-3],"split_indices":[0,0,0,0,0,0,0,0,0],"split_type":[0,0,0,0,0,0,0,0,0],"sum_hessian":[1.28E2,5.5E1,7.3E1,1.2E1,4.3E1,2.9E1,4.4E1,1.4E1,1.5E1],"tree_param":{"num_deleted":"0","num_feature":"2","num_nodes":"9","size_leaf_vector":"1"}},{"base_weights":[-0E0,-6.629074E-2,1.1544904E-1,-1.2452805E-1,-3.8961654E-3,4.6738475E-3,8.760045E-3,-1.0065287E-2,-4.4445978E-3,4.7319251E-4,-4.4661388E-4],"categories":[],"categories_nodes":[],"categories_segments":[],"categories_sizes":[],"default_left":[0,0,0,0,0,0,0,0,0,0,0],"id":9,"left_children":[1,3,5,7,9,-1,-1,-1,-1,-1,-1],"loss_changes":[9.602726E-1,2.7373403E-1,1.7147183E-2,6.2528074E-2,2.7226782E-3,0E0,0E0,0E0,0E0,0E0,0E0],"parents":[2147483647,0,0,1,1,2,2,3,3,4,4],"right_children":[2,4,6,8,10,-1,-1,-1,-1,-1,-1],"split_conditions":[1.4634384E0,1.3885885E0,1.540887E0,1.1951884E0,1.3961796E0,4.6738475E-3,8.760045E-3,-1.0065287E-2,-4.4445978E-3,4.7319251E-4,-4.4661388E-4],"split_indices":[1,1,1,1,1,0,0,0,0,0,0],"split_type":[0,0,0,0,0,0,0,0,0,0,0],"sum_hessian":[1.23E2,7.8E1,4.5E1,3.9E1,3.9E1,3.6E1,9E0,1E1,2.9E1,5E0,3.4E1],"tree_param":{"num_deleted":"0","num_feature":"2","num_nodes":"11","size_leaf_vector":"1"}},{"base_weights":[2.8816997E-3,-1.1272647E-1,8.021758E-2,-1.0456745E-2,-8.402377E-2,2.3157408E-2,5.73767E-3,-4.8862887E-3,-1.9651048E-3,-0E0,1.4035929E-3],"categories":[],"categories_nodes":[],"categories_segments":[],"categories_sizes":[],"default_left":[0,0,0,0,0,0,0,0,0,0,0],"id":10,"left_children":[1,3,5,-1,7,9,-1,-1,-1,-1,-1],"loss_changes":[1.1233741E0,9.147096E-2,1.3331863E-1,0E0,7.5802207E-3,2.2884663E-3,0E0,0E0,0E0,0E0,0E0],"parents":[2147483647,0,0,1,1,2,2,4,4,5,5],"right_children":[2,4,6,-1,8,10,-1,-1,-1,-1,-1],"split_conditions":[1.4404697E0,1.1830851E0,1.545183E0,-1.0456745E-2,1.3914421E0,1.4668291E0,5.73767E-3,-4.8862887E-3,-1.9651048E-3,-0E0,1.4035929E-3],"split_indices":[0,0,0,0,0,0,0,0,0,0,0],"split_type":[0,0,0,0,0,0,0,0,0,0,0],"sum_hessian":[1.24E2,4.9E1,7.5E1,9E0,4E1,3E1,4.5E1,2.8E1,1.2E1,7E0,2.3E1],"tree_param":{"num_deleted":"0","num_feature":"2","num_nodes":"11","size_leaf_vector":"1"}},{"base_weights":[-2.7295998E-3,-1.06243476E-1,6.810576E-2,-9.357362E-3,-7.949147E-2,1.684741E-2,4.7749323E-3,-4.884135E-3,-2.2575639E-3,-0E0,1.4249542E-3],"categories":[],"categories_nodes":[],"categories_segments":[],"categories_sizes":[],"default_left":[0,0,0,0,0,0,0,0,0,0,0],"id":11,"left_children":[1,3,5,-1,7,9,-1,-1,-1,-1,-1],"loss_changes":[9.862644E-1,7.74982E-2,9.80815E-2,0E0,8.79246E-3,6.916702E-3,0E0,0E0,0E0,0E0,0E0],"parents":[2147483647,0,0,1,1,2,2,4,4,5,5],"right_children":[2,4,6,-1,8,10,-1,-1,-1,-1,-1],"split_conditions":[1.4404697E0,1.1894481E0,1.5345439E0,-9.357362E-3,1.3897992E0,1.4701873E0,4.7749323E-3,-4.884135E-3,-2.2575639E-3,-0E0,1.4249542E-3],"split_indices":[0,0,0,0,0,0,0,0,0,0,0],"split_type":[0,0,0,0,0,0,0,0,0,0,0],"sum_hessian":[1.32E2,5.4E1,7.8E1,1.1E1,4.3E1,2.9E1,4.9E1,2.5E1,1.8E1,1.1E1,1.8E1],"tree_param":{"num_deleted":"0","num_feature":"2","num_nodes":"11","size_leaf_vector":"1"}},{"base_weights":[3.2435744E-3,-8.371215E-2,9.175989E-2,-9.613495E-3,-5.9763294E-2,4.8667427E-2,5.5102804E-3,-3.8655796E-3,-0E0,2.6904612E-3,-0E0],"categories":[],"categories_nodes":[],"categories_segments":[],"categories_sizes":[],"default_left":[0,0,0,0,0,0,0,0,0,0,0],"id":12,"left_children":[1,3,5,-1,7,9,-1,-1,-1,-1,-1],"loss_changes":[9.5521724E-1,1.24495745E-1,2.803135E-2,0E0,4.9785748E-2,5.801238E-3,0E0,0E0,0E0,0E0,0E0],"parents":[2147483647,0,0,1,1,2,2,4,4,5,5],"right_children":[2,4,6,-1,8,10,-1,-1,-1,-1,-1],"split_conditions":[1.4775563E0,1.1830851E0,1.5579355E0,-9.613495E-3,1.4404697E0,1.5527322E0,5.5102804E-3,-3.8655796E-3,-0E0,2.6904612E-3,-0E0],"split_indices":[0,0,0,0,0,0,0,0,0,0,0],"split_type":[0,0,0,0,0,0,0,0,0,0,0],"sum_hessian":[1.22E2,6.1E1,6.1E1,9E0,5.2E1,2.1E1,4E1,3.9E1,1.3E1,1.9E1,2E0],"tree_param":{"num_deleted":"0","num_feature":"2","num_nodes":"11","size_leaf_vector":"1"}},{"base_weights":[3.4782037E-3,-5.487337E-2,9.944642E-2,-1.02395706E-1,-4.526007E-3,4.083348E-3,8.059527E-3,-7.701271E-3,-3.3726213E-3,5.773586E-4,-5.1707774E-4],"categories":[],"categories_nodes":[],"categories_segments":[],"categories_sizes":[],"default_left":[0,0,0,0,0,0,0,0,0,0,0],"id":13,"left_children":[1,3,5,7,9,-1,-1,-1,-1,-1,-1],"loss_changes":[6.76302E-1,1.6589858E-1,1.3048083E-2,3.4214973E-2,3.550879E-3,0E0,0E0,0E0,0E0,0E0,0E0],"parents":[2147483647,0,0,1,1,2,2,3,3,4,4],"right_children":[2,4,6,8,10,-1,-1,-1,-1,-1,-1],"split_conditions":[1.4616392E0,1.3885885E0,1.540887E0,1.3235276E0,1.3961796E0,4.083348E-3,8.059527E-3,-7.701271E-3,-3.3726213E-3,5.773586E-4,-5.1707774E-4],"split_indices":[1,1,1,1,1,0,0,0,0,0,0],"split_type":[0,0,0,0,0,0,0,0,0,0,0],"sum_hessian":[1.18E2,7.3E1,4.5E1,3.6E1,3.7E1,3.8E1,7E0,1.2E1,2.4E1,5E0,3.2E1],"tree_param":{"num_deleted":"0","num_feature":"2","num_nodes":"11","size_leaf_vector":"1"}},{"base_weights":[-1.119751E-2,-6.916602E-2,4.543204E-3,-1.3183822E-1,-3.4046862E-2,-8.342971E-3,-4.3015312E-3,-2.0756687E-3,-0E0],"categories":[],"categories_nodes":[],"categories_segments":[],"categories_sizes":[],"default_left":[0,0,0,0,0,0,0,0,0],"id":14,"left_children":[1,3,-1,5,7,-1,-1,-1,-1],"loss_changes":[7.259106E-1,1.5280136E-1,0E0,3.6703944E-3,1.2667466E-2,0E0,0E0,0E0,0E0],"parents":[2147483647,0,0,1,1,3,3,4,4],"right_children":[2,4,-1,6,8,-1,-1,-1,-1],"split_conditions":[1.4616392E0,1.3412931E0,4.543204E-3,1.21824E0,1.442928E0,-8.342971E-3,-4.3015312E-3,-2.0756687E-3,-0E0],"split_indices":[1,1,0,1,1,0,0,0,0],"split_type":[0,0,0,0,0,0,0,0,0],"sum_hessian":[1.21E2,7.8E1,4.3E1,2.6E1,5.2E1,1.2E1,1.4E1,4.2E1,1E1],"tree_param":{"num_deleted":"0","num_feature":"2","num_nodes":"9","size_leaf_vector":"1"}},{"base_weights":[6.474989E-3,-5.758605E-2,7.913844E-2,-6.107782E-3,-3.0962816E-2,6.0691338E-2,7.5867325E-3,-2.5494872E-3,-4.202194E-4,4.7002544E-4,3.5759937E-3],"categories":[],"categories_nodes":[],"categories_segments":[],"categories_sizes":[],"default_left":[0,0,0,0,0,0,0,0,0,0,0],"id":15,"left_children":[1,3,5,-1,7,9,-1,-1,-1,-1,-1],"loss_changes":[6.2115884E-1,1.0123944E-1,5.3917438E-2,0E0,1.7124392E-2,2.0672113E-2,0E0,0E0,0E0,0E0,0E0],"parents":[2147483647,0,0,1,1,2,2,4,4,5,5],"right_children":[2,4,6,-1,8,10,-1,-1,-1,-1,-1],"split_conditions":[1.443467E0,1.3320093E0,1.540887E0,-6.107782E-3,1.3893398E0,1.4621831E0,7.5867325E-3,-2.5494872E-3,-4.202194E-4,4.7002544E-4,3.5759937E-3],"split_indices":[1,1,1,0,1,1,0,0,0,0,0],"split_type":[0,0,0,0,0,0,0,0,0,0,0],"sum_hessian":[1.31E2,6.9E1,6.2E1,1.8E1,5.1E1,5.2E1,1E1,2.4E1,2.7E1,1.1E1,4.1E1],"tree_param":{"num_deleted":"0","num_feature":"2","num_nodes":"11","size_leaf_vector":"1"}},{"base_weights":[-7.2692474E-3,-5.620593E-2,7.934309E-2,-1.020082E-1,-1.4227144E-2,-0E0,4.1672154E-3,-7.367802E-3,-3.4513895E-3,-1.827801E-3,-2.6109E-4,7.52358E-4,-0E0],"categories":[],"categories_nodes":[],"categories_segments":[],"categories_sizes":[],"default_left":[0,0,0,0,0,0,0,0,0,0,0,0,0],"id":16,"left_children":[1,3,5,7,9,11,-1,-1,-1,-1,-1,-1,-1],"loss_changes":[5.107683E-1,1.3689764E-1,7.1519017E-3,2.2031218E-2,4.277736E-3,6.792511E-4,0E0,0E0,0E0,0E0,0E0,0E0,0E0],"parents":[2147483647,0,0,1,1,2,2,3,3,4,4,5,5],"right_children":[2,4,6,8,10,12,-1,-1,-1,-1,-1,-1,-1],"split_conditions":[1.4616392E0,1.3731983E0,1.4634384E0,1.21824E0,1.3893398E0,1.462771E0,4.1672154E-3,-7.367802E-3,-3.4513895E-3,-1.827801E-3,-2.6109E-4,7.52358E-4,-0E0],"split_indices":[1,1,1,1,1,1,0,0,0,0,0,0,0],"split_type":[0,0,0,0,0,0,0,0,0,0,0,0,0],"sum_hessian":[1.19E2,7.7E1,4.2E1,3.5E1,4.2E1,3E0,3.9E1,1.2E1,2.3E1,8E0,3.4E1,2E0,1E0],"tree_param":{"num_deleted":"0","num_feature":"2","num_nodes":"13","size_leaf_vector":"1"}},{"base_weights":[2.376295E-3,-7.650167E-2,5.5201933E-2,-7.3979194E-3,-5.5285744E-2,4.984703E-3,6.646792E-2,-3.3450865E-3,-6.1686494E-4,5.017975E-4,-0E0,2.6900545E-3,5.3214813E-3],"categories":[],"categories_nodes":[],"categories_segments":[],"categories_sizes":[],"default_left":[0,0,0,0,0,0,0,0,0,0,0,0,0],"id":17,"left_children":[1,3,5,-1,7,9,11,-1,-1,-1,-1,-1,-1],"loss_changes":[5.354408E-1,4.8812628E-2,3.665167E-2,0E0,1.2204036E-2,1.1891207E-3,9.634525E-3,0E0,0E0,0E0,0E0,0E0,0E0],"parents":[2147483647,0,0,1,1,2,2,4,4,5,5,6,6],"right_children":[2,4,6,-1,8,10,12,-1,-1,-1,-1,-1,-1],"split_conditions":[1.43915E0,1.1894481E0,1.4955585E0,-7.3979194E-3,1.3956922E0,1.4950707E0,1.6366844E0,-3.3450865E-3,-6.1686494E-4,5.017975E-4,-0E0,2.6900545E-3,5.3214813E-3],"split_indices":[0,0,0,0,0,0,0,0,0,0,0,0,0],"split_type":[0,0,0,0,0,0,0,0,0,0,0,0,0],"sum_hessian":[1.27E2,5E1,7.7E1,9E0,4.1E1,1.6E1,6.1E1,3E1,1.1E1,1.5E1,1E0,5E1,1.1E1],"tree_param":{"num_deleted":"0","num_feature":"2","num_nodes":"13","size_leaf_vector":"1"}},{"base_weights":[1.6021245E-3,-6.0252167E-2,6.305466E-2,-5.730493E-3,-3.0552022E-2,8.744908E-3,7.245201E-2,-1.6495831E-3,-0E0,7.9449866E-4,-0E0,2.968673E-3,6.2231193E-3],"categories":[],"categories_nodes":[],"categories_segments":[],"categories_sizes":[],"default_left":[0,0,0,0,0,0,0,0,0,0,0,0,0],"id":18,"left_children":[1,3,5,-1,7,9,11,-1,-1,-1,-1,-1,-1],"loss_changes":[4.7161508E-1,8.046253E-2,2.339989E-2,0E0,1.068756E-3,1.8597224E-3,9.598106E-3,0E0,0E0,0E0,0E0,0E0,0E0],"parents":[2147483647,0,0,1,1,2,2,4,4,5,5,6,6],"right_children":[2,4,6,-1,8,10,12,-1,-1,-1,-1,-1,-1],"split_conditions":[1.442928E0,1.3412931E0,1.4634384E0,-5.730493E-3,1.4291877E0,1.462771E0,1.540887E0,-1.6495831E-3,-0E0,7.9449866E-4,-0E0,2.968673E-3,6.2231193E-3],"split_indices":[1,1,1,0,1,1,1,0,0,0,0,0,0],"split_type":[0,0,0,0,0,0,0,0,0,0,0,0,0],"sum_hessian":[1.22E2,6E1,6.2E1,1.9E1,4.1E1,1.1E1,5.1E1,3.6E1,5E0,1E1,1E0,4.4E1,7E0],"tree_param":{"num_deleted":"0","num_feature":"2","num_nodes":"13","size_leaf_vector":"1"}},{"base_weights":[-3.8333838E-3,-6.482428E-2,5.95035E-2,-5.82768E-3,-3.983656E-2,4.3231107E-2,6.5712035E-3,-2.7339887E-3,-8.48871E-4,4.700457E-4,2.6718786E-3],"categories":[],"categories_nodes":[],"categories_segments":[],"categories_sizes":[],"default_left":[0,0,0,0,0,0,0,0,0,0,0],"id":19,"left_children":[1,3,5,-1,7,9,-1,-1,-1,-1,-1],"loss_changes":[5.0271297E-1,6.632191E-2,5.0583035E-2,0E0,8.192509E-3,1.1859268E-2,0E0,0E0,0E0,0E0,0E0],"parents":[2147483647,0,0,1,1,2,2,4,4,5,5],"right_children":[2,4,6,-1,8,10,-1,-1,-1,-1,-1],"split_conditions":[1.4402039E0,1.3320093E0,1.540887E0,-5.82768E-3,1.3893398E0,1.4634384E0,6.5712035E-3,-2.7339887E-3,-8.48871E-4,4.700457E-4,2.6718786E-3],"split_indices":[1,1,1,0,1,1,0,0,0,0,0],"split_type":[0,0,0,0,0,0,0,0,0,0,0],"sum_hessian":[1.28E2,6.6E1,6.2E1,1.9E1,4.7E1,5.3E1,9E0,2.5E1,2.2E1,1.5E1,3.8E1],"tree_param":{"num_deleted":"0","num_feature":"2","num_nodes":"11","size_leaf_vector":"1"}},{"base_weights":[-1.1337685E-3,-7.673477E-2,4.204599E-2,-6.1409506E-3,-2.6280412E-3,-0E0,7.3082864E-2,1.0676245E-4,-4.2896374E-4,2.814214E-3,5.8964686E-3],"categories":[],"categories_nodes":[],"categories_segments":[],"categories_sizes":[],"default_left":[0,0,0,0,0,0,0,0,0,0,0],"id":20,"left_children":[1,3,5,-1,-1,7,9,-1,-1,-1,-1],"loss_changes":[4.1801378E-1,2.8366327E-2,1.0426162E-1,0E0,0E0,6.4744696E-4,1.0595545E-2,0E0,0E0,0E0,0E0],"parents":[2147483647,0,0,1,1,2,2,5,5,6,6],"right_children":[2,4,6,-1,-1,8,10,-1,-1,-1,-1],"split_conditions":[1.3893398E0,1.21824E0,1.4648075E0,-6.1409506E-3,-2.6280412E-3,1.4559196E0,1.540887E0,1.0676245E-4,-4.2896374E-4,2.814214E-3,5.8964686E-3],"split_indices":[1,1,1,0,0,1,1,0,0,0,0],"split_type":[0,0,0,0,0,0,0,0,0,0,0],"sum_hessian":[1.25E2,4.6E1,7.9E1,1.3E1,3.3E1,3.4E1,4.5E1,2.8E1,6E0,3.6E1,9E0],"tree_param":{"num_deleted":"0","num_feature":"2","num_nodes":"11","size_leaf_vector":"1"}},{"base_weights":[-7.602224E-3,-5.733656E-2,5.219683E-2,-5.855835E-3,-4.1037243E-2,3.219616E-2,4.9468204E-3,-2.5244418E-3,-1.0703695E-3,-0E0,2.0559654E-3],"categories":[],"categories_nodes":[],"categories_segments":[],"categories_sizes":[],"default_left":[0,0,0,0,0,0,0,0,0,0,0],"id":21,"left_children":[1,3,5,-1,7,9,-1,-1,-1,-1,-1],"loss_changes":[3.9905754E-1,5.1482275E-2,3.979075E-2,0E0,3.0470788E-3,9.149652E-3,0E0,0E0,0E0,0E0,0E0],"parents":[2147483647,0,0,1,1,2,2,4,4,5,5],"right_children":[2,4,6,-1,8,10,-1,-1,-1,-1,-1],"split_conditions":[1.442928E0,1.21824E0,1.5225062E0,-5.855835E-3,1.3893398E0,1.4634384E0,4.9468204E-3,-2.5244418E-3,-1.0703695E-3,-0E0,2.0559654E-3],"split_indices":[1,1,1,0,1,1,0,0,0,0,0],"split_type":[0,0,0,0,0,0,0,0,0,0,0],"sum_hessian":[1.32E2,7.3E1,5.9E1,1.3E1,6E1,4.4E1,1.5E1,3.6E1,2.4E1,1.2E1,3.2E1],"tree_param":{"num_deleted":"0","num_feature":"2","num_nodes":"11","size_leaf_vector":"1"}},{"base_weights":[3.630303E-4,-6.98372E-2,5.0363682E-2,-6.1250594E-3,-2.682003E-3,2.0656789E-2,6.366414E-2,-0E0,1.1502266E-3,2.4253877E-3,4.54737E-3],"categories":[],"categories_nodes":[],"categories_segments":[],"categories_sizes":[],"default_left":[0,0,0,0,0,0,0,0,0,0,0],"id":22,"left_children":[1,3,5,-1,-1,7,9,-1,-1,-1,-1],"loss_changes":[4.4383708E-1,2.0171225E-2,1.9886464E-2,0E0,0E0,1.709233E-3,1.9050837E-3,0E0,0E0,0E0,0E0],"parents":[2147483647,0,0,1,1,2,2,5,5,6,6],"right_children":[2,4,6,-1,-1,8,10,-1,-1,-1,-1],"split_conditions":[1.4433448E0,1.1830851E0,1.545183E0,-6.1250594E-3,-2.682003E-3,1.4659601E0,1.6366844E0,-0E0,1.1502266E-3,2.4253877E-3,4.54737E-3],"split_indices":[0,0,0,0,0,0,0,0,0,0,0],"split_type":[0,0,0,0,0,0,0,0,0,0,0],"sum_hessian":[1.25E2,5.1E1,7.4E1,9E0,4.2E1,2.6E1,4.8E1,2E0,2.4E1,3.5E1,1.3E1],"tree_param":{"num_deleted":"0","num_feature":"2","num_nodes":"11","size_leaf_vector":"1"}},{"base_weights":[-1.5349641E-3,-6.493178E-2,4.4116378E-2,-6.1839856E-3,-4.9256545E-2,1.21427085E-2,6.009842E-2,-0E0,-2.4930378E-3,7.5567985E-4,-0E0,2.2440178E-3,4.747371E-3],"categories":[],"categories_nodes":[],"categories_segments":[],"categories_sizes":[],"default_left":[0,0,0,0,0,0,0,0,0,0,0,0,0],"id":23,"left_children":[1,3,5,-1,7,9,11,-1,-1,-1,-1,-1,-1],"loss_changes":[3.89868E-1,2.9104903E-2,3.1393483E-2,0E0,3.8852543E-4,2.1198671E-3,7.7423155E-3,0E0,0E0,0E0,0E0,0E0,0E0],"parents":[2147483647,0,0,1,1,2,2,4,4,5,5,6,6],"right_children":[2,4,6,-1,8,10,12,-1,-1,-1,-1,-1,-1],"split_conditions":[1.4404697E0,1.1830851E0,1.5345439E0,-6.1839856E-3,1.1855925E0,1.5345407E0,1.6366844E0,-0E0,-2.4930378E-3,7.5567985E-4,-0E0,2.2440178E-3,4.747371E-3],"split_indices":[0,0,0,0,0,0,0,0,0,0,0,0,0],"split_type":[0,0,0,0,0,0,0,0,0,0,0,0,0],"sum_hessian":[1.32E2,5.6E1,7.6E1,9E0,4.7E1,2.8E1,4.8E1,1E0,4.6E1,2.7E1,1E0,3.7E1,1.1E1],"tree_param":{"num_deleted":"0","num_feature":"2","num_nodes":"13","size_leaf_vector":"1"}},{"base_weights":[-4.5262603E-3,-5.025024E-2,4.822341E-2,-4.402043E-3,-3.212899E-2,4.385115E-3,6.1088275E-2,-2.1554632E-3,-7.135404E-4,6.6808076E-4,-0E0,2.2837468E-3,5.156518E-3],"categories":[],"categories_nodes":[],"categories_segments":[],"categories_sizes":[],"default_left":[0,0,0,0,0,0,0,0,0,0,0,0,0],"id":24,"left_children":[1,3,5,-1,7,9,11,-1,-1,-1,-1,-1,-1],"loss_changes":[3.0652845E-1,3.2406464E-2,2.5895253E-2,0E0,3.4511723E-3,1.2991271E-3,8.273393E-3,0E0,0E0,0E0,0E0,0E0,0E0],"parents":[2147483647,0,0,1,1,2,2,4,4,5,5,6,6],"right_children":[2,4,6,-1,8,10,12,-1,-1,-1,-1,-1,-1],"split_conditions":[1.442928E0,1.3320093E0,1.4648075E0,-4.402043E-3,1.3893398E0,1.4571474E0,1.540887E0,-2.1554632E-3,-7.135404E-4,6.6808076E-4,-0E0,2.2837468E-3,5.156518E-3],"split_indices":[1,1,1,0,1,1,1,0,0,0,0,0,0],"split_type":[0,0,0,0,0,0,0,0,0,0,0,0,0],"sum_hessian":[1.25E2,6.8E1,5.7E1,1.9E1,4.9E1,1.5E1,4.2E1,2.6E1,2.3E1,8E0,7E0,3.4E1,8E0],"tree_param":{"num_deleted":"0","num_feature":"2","num_nodes":"13","size_leaf_vector":"1"}},{"base_weights":[-4.604921E-3,-6.48201E-2,4.181015E-2,-5.6592277E-3,-5.0409783E-2,1.37531245E-2,2.9878162E-3,-0E0,-2.5590723E-3,-0E0,1.0630066E-3],"categories":[],"categories_nodes":[],"categories_segments":[],"categories_sizes":[],"default_left":[0,0,0,0,0,0,0,0,0,0,0],"id":25,"left_children":[1,3,5,-1,7,9,-1,-1,-1,-1,-1],"loss_changes":[3.431931E-1,1.5570089E-2,2.6066318E-2,0E0,9.08196E-4,2.4614236E-3,0E0,0E0,0E0,0E0,0E0],"parents":[2147483647,0,0,1,1,2,2,4,4,5,5],"right_children":[2,4,6,-1,8,10,-1,-1,-1,-1,-1],"split_conditions":[1.4404697E0,1.1830851E0,1.5579355E0,-5.6592277E-3,1.1855925E0,1.4775563E0,2.9878162E-3,-0E0,-2.5590723E-3,-0E0,1.0630066E-3],"split_indices":[0,0,0,0,0,0,0,0,0,0,0],"split_type":[0,0,0,0,0,0,0,0,0,0,0],"sum_hessian":[1.2E2,5.3E1,6.7E1,9E0,4.4E1,2.9E1,3.8E1,1E0,4.3E1,1.2E1,1.7E1],"tree_param":{"num_deleted":"0","num_feature":"2","num_nodes":"11","size_leaf_vector":"1"}},{"base_weights":[-2.6269744E-3,-3.3759046E-2,5.3028673E-2,-4.719785E-3,-2.0199703E-2,3.3500366E-2,4.617588E-3,-1.7692096E-3,-1.9092644E-4,-0E0,1.7320287E-3],"categories":[],"categories_nodes":[],"categories_segments":[],"categories_sizes":[],"default_left":[0,0,0,0,0,0,0,0,0,0,0],"id":26,"left_children":[1,3,5,-1,7,9,-1,-1,-1,-1,-1],"loss_changes":[2.1124968E-1,5.240915E-2,1.7341234E-2,0E0,1.285892E-2,8.62889E-5,0E0,0E0,0E0,0E0,0E0],"parents":[2147483647,0,0,1,1,2,2,4,4,5,5],"right_children":[2,4,6,-1,8,10,-1,-1,-1,-1,-1],"split_conditions":[1.4616392E0,1.21824E0,1.5344999E0,-4.719785E-3,1.3893398E0,1.4634384E0,4.617588E-3,-1.7692096E-3,-1.9092644E-4,-0E0,1.7320287E-3],"split_indices":[1,1,1,0,1,1,0,0,0,0,0],"split_type":[0,0,0,0,0,0,0,0,0,0,0],"sum_hessian":[1.21E2,7.9E1,4.2E1,1.2E1,6.7E1,3.1E1,1.1E1,3.1E1,3.6E1,2E0,2.9E1],"tree_param":{"num_deleted":"0","num_feature":"2","num_nodes":"11","size_leaf_vector":"1"}},{"base_weights":[-5.277662E-5,-3.3823483E-2,4.5625493E-2,-3.4936839E-3,-1.1679912E-2,3.322916E-2,4.3423222E-3,-6.9414167E-4,-0E0,1.6863532E-3,-0E0],"categories":[],"categories_nodes":[],"categories_segments":[],"categories_sizes":[],"default_left":[0,0,0,0,0,0,0,0,0,0,0],"id":27,"left_children":[1,3,5,-1,7,9,-1,-1,-1,-1,-1],"loss_changes":[1.993568E-1,5.1697813E-2,1.2699991E-2,0E0,1.0810369E-3,3.626868E-4,0E0,0E0,0E0,0E0,0E0],"parents":[2147483647,0,0,1,1,2,2,4,4,5,5],"right_children":[2,4,6,-1,8,10,-1,-1,-1,-1,-1],"split_conditions":[1.4518756E0,1.3426571E0,1.540887E0,-3.4936839E-3,1.425731E0,1.5403508E0,4.3423222E-3,-6.9414167E-4,-0E0,1.6863532E-3,-0E0],"split_indices":[1,1,1,0,1,1,0,0,0,0,0],"split_type":[0,0,0,0,0,0,0,0,0,0,0],"sum_hessian":[1.28E2,7.5E1,5.3E1,2.6E1,4.9E1,4.4E1,9E0,4E1,9E0,4.3E1,1E0],"tree_param":{"num_deleted":"0","num_feature":"2","num_nodes":"11","size_leaf_vector":"1"}},{"base_weights":[-3.3813217E-3,-4.017988E-2,3.8351182E-2,-4.3829777E-3,-1.1733323E-3,2.544279E-2,4.194733E-3,-0E0,1.2994753E-3],"categories":[],"categories_nodes":[],"categories_segments":[],"categories_sizes":[],"default_left":[0,0,0,0,0,0,0,0,0],"id":28,"left_children":[1,3,5,-1,-1,7,-1,-1,-1],"loss_changes":[1.8447164E-1,3.8410336E-2,1.9265853E-2,0E0,0E0,6.180145E-4,0E0,0E0,0E0],"parents":[2147483647,0,0,1,1,2,2,5,5],"right_children":[2,4,6,-1,-1,8,-1,-1,-1],"split_conditions":[1.442928E0,1.3235276E0,1.540887E0,-4.3829777E-3,-1.1733323E-3,1.443467E0,4.194733E-3,-0E0,1.2994753E-3],"split_indices":[1,1,1,0,0,1,0,0,0],"split_type":[0,0,0,0,0,0,0,0,0],"sum_hessian":[1.18E2,6.4E1,5.4E1,1.4E1,5E1,4.5E1,9E0,1E0,4.4E1],"tree_param":{"num_deleted":"0","num_feature":"2","num_nodes":"9","size_leaf_vector":"1"}},{"base_weights":[-0E0,-4.748229E-2,3.5909683E-2,-4.886113E-3,-3.335442E-2,-0E0,1.9266326E-3,-0E0,-1.7004925E-3,9.2704875E-5,-0E0],"categories":[],"categories_nodes":[],"categories_segments":[],"categories_sizes":[],"default_left":[0,0,0,0,0,0,0,0,0,0,0],"id":29,"left_children":[1,3,5,-1,7,9,-1,-1,-1,-1,-1],"loss_changes":[2.168456E-1,2.2670962E-2,5.150117E-3,0E0,8.7434053E-4,1.37507095E-5,0E0,0E0,0E0,0E0,0E0],"parents":[2147483647,0,0,1,1,2,2,4,4,5,5],"right_children":[2,4,6,-1,8,10,-1,-1,-1,-1,-1],"split_conditions":[1.4433448E0,1.1830851E0,1.4668291E0,-4.886113E-3,1.1855925E0,1.4591639E0,1.9266326E-3,-0E0,-1.7004925E-3,9.2704875E-5,-0E0],"split_indices":[0,0,0,0,0,0,0,0,0,0,0],"split_type":[0,0,0,0,0,0,0,0,0,0,0],"sum_hessian":[1.25E2,5.4E1,7.1E1,9E0,4.5E1,6E0,6.5E1,1E0,4.4E1,3E0,3E0],"tree_param":{"num_deleted":"0","num_feature":"2","num_nodes":"11","size_leaf_vector":"1"}},{"base_weights":[-8.5938565E-4,-2.2435749E-2,5.4607816E-2,-6.28715E-2,-5.769139E-3,3.5831295E-2,4.075976E-3,-4.374219E-3,-1.6981977E-3,-1.0409312E-3,-0E0,1.8457471E-3,-0E0],"categories":[],"categories_nodes":[],"categories_segments":[],"categories_sizes":[],"default_left":[0,0,0,0,0,0,0,0,0,0,0,0,0],"id":30,"left_children":[1,3,5,7,9,11,-1,-1,-1,-1,-1,-1,-1],"loss_changes":[1.4760552E-1,5.47745E-2,2.5244504E-3,2.6713014E-3,6.405059E-3,5.292371E-4,0E0,0E0,0E0,0E0,0E0,0E0,0E0],"parents":[2147483647,0,0,1,1,2,2,3,3,4,4,5,5],"right_children":[2,4,6,8,10,12,-1,-1,-1,-1,-1,-1,-1],"split_conditions":[1.4854108E0,1.3426571E0,1.5344999E0,1.21824E0,1.3893398E0,1.5266309E0,4.075976E-3,-4.374219E-3,-1.6981977E-3,-1.0409312E-3,-0E0,1.8457471E-3,-0E0],"split_indices":[1,1,1,1,1,1,0,0,0,0,0,0,0],"split_type":[0,0,0,0,0,0,0,0,0,0,0,0,0],"sum_hessian":[1.24E2,9.1E1,3.3E1,2.4E1,6.7E1,2.3E1,1E1,1E1,1.4E1,1.9E1,4.8E1,2.2E1,1E0],"tree_param":{"num_deleted":"0","num_feature":"2","num_nodes":"13","size_leaf_vector":"1"}},{"base_weights":[1.0392434E-3,-4.5592483E-2,3.9619356E-2,-4.662191E-3,-3.3341248E-2,3.0108083E-2,3.6376868E-3,-0E0,-1.732074E-3,1.799202E-3,2.0131007E-4],"categories":[],"categories_nodes":[],"categories_segments":[],"categories_sizes":[],"default_left":[0,0,0,0,0,0,0,0,0,0,0],"id":31,"left_children":[1,3,5,-1,7,9,-1,-1,-1,-1,-1],"loss_changes":[2.0270346E-1,1.3422027E-2,7.3778033E-3,0E0,2.600871E-3,3.9766617E-3,0E0,0E0,0E0,0E0,0E0],"parents":[2147483647,0,0,1,1,2,2,4,4,5,5],"right_children":[2,4,6,-1,8,10,-1,-1,-1,-1,-1],"split_conditions":[1.4433448E0,1.1830851E0,1.6366844E0,-4.662191E-3,1.2121115E0,1.5959064E0,3.6376868E-3,-0E0,-1.732074E-3,1.799202E-3,2.0131007E-4],"split_indices":[0,0,0,0,0,0,0,0,0,0,0],"split_type":[0,0,0,0,0,0,0,0,0,0,0],"sum_hessian":[1.11E2,4.9E1,6.2E1,7E0,4.2E1,5.2E1,1E1,1E0,4.1E1,3.9E1,1.3E1],"tree_param":{"num_deleted":"0","num_feature":"2","num_nodes":"11","size_leaf_vector":"1"}},{"base_weights":[1.7283898E-4,-3.7283212E-2,3.4239218E-2,-2.9091162E-3,-1.6034443E-2,3.8150195E-3,4.6020824E-2,-0E0,-1.0319811E-3,6.2367663E-4,-7.3944175E-5,1.6832807E-3,3.771393E-3],"categories":[],"categories_nodes":[],"categories_segments":[],"categories_sizes":[],"default_left":[0,0,0,0,0,0,0,0,0,0,0,0,0],"id":32,"left_children":[1,3,5,-1,7,9,11,-1,-1,-1,-1,-1,-1],"loss_changes":[1.668511E-1,1.8734306E-2,1.9932061E-2,0E0,3.1863162E-3,2.1721704E-3,3.9911717E-3,0E0,0E0,0E0,0E0,0E0,0E0],"parents":[2147483647,0,0,1,1,2,2,4,4,5,5,6,6],"right_children":[2,4,6,-1,8,10,12,-1,-1,-1,-1,-1,-1],"split_conditions":[1.4150128E0,1.3426571E0,1.4634384E0,-2.9091162E-3,1.3604391E0,1.4554734E0,1.5266309E0,-0E0,-1.0319811E-3,6.2367663E-4,-7.3944175E-5,1.6832807E-3,3.771393E-3],"split_indices":[1,1,1,0,1,1,1,0,0,0,0,0,0],"split_type":[0,0,0,0,0,0,0,0,0,0,0,0,0],"sum_hessian":[1.29E2,6E1,6.9E1,2.7E1,3.3E1,2.2E1,4.7E1,6E0,2.7E1,1.5E1,7E0,3.7E1,1E1],"tree_param":{"num_deleted":"0","num_feature":"2","num_nodes":"13","size_leaf_vector":"1"}},{"base_weights":[-5.9923997E-5,-2.3741988E-2,3.8438838E-2,-2.9378862E-3,-1.0007709E-2,2.5287822E-2,3.6626854E-3,-8.519973E-4,-9.850261E-6,1.5849427E-3,2.674176E-4],"categories":[],"categories_nodes":[],"categories_segments":[],"categories_sizes":[],"default_left":[0,0,0,0,0,0,0,0,0,0,0],"id":33,"left_children":[1,3,5,-1,7,9,-1,-1,-1,-1,-1],"loss_changes":[1.12497464E-1,3.0527785E-2,9.354554E-3,0E0,2.4124188E-3,8.5555017E-4,0E0,0E0,0E0,0E0,0E0],"parents":[2147483647,0,0,1,1,2,2,4,4,5,5],"right_children":[2,4,6,-1,8,10,-1,-1,-1,-1,-1],"split_conditions":[1.4616392E0,1.3320093E0,1.540887E0,-2.9378862E-3,1.3893398E0,1.5122676E0,3.6626854E-3,-8.519973E-4,-9.850261E-6,1.5849427E-3,2.674176E-4],"split_indices":[1,1,1,0,1,1,0,0,0,0,0],"split_type":[0,0,0,0,0,0,0,0,0,0,0],"sum_hessian":[1.23E2,7.8E1,4.5E1,1.9E1,5.9E1,3.6E1,9E0,2.8E1,3.1E1,2.3E1,1.3E1],"tree_param":{"num_deleted":"0","num_feature":"2","num_nodes":"11","size_leaf_vector":"1"}},{"base_weights":[-0E0,-4.004159E-2,2.193372E-2,-3.6155812E-3,-2.2555586E-2,-0E0,3.7391722E-2,-6.417266E-4,-2.2937201E-3,1.3572844E-3,-3.3062766E-4,1.1753299E-3,3.454075E-3],"categories":[],"categories_nodes":[],"categories_segments":[],"categories_sizes":[],"default_left":[0,0,0,0,0,0,0,0,0,0,0,0,0],"id":34,"left_children":[1,3,5,-1,7,9,11,-1,-1,-1,-1,-1,-1],"loss_changes":[1.0710916E-1,1.3710305E-2,2.6353646E-2,0E0,7.942002E-4,5.6019286E-3,8.918062E-3,0E0,0E0,0E0,0E0,0E0,0E0],"parents":[2147483647,0,0,1,1,2,2,4,4,5,5,6,6],"right_children":[2,4,6,-1,8,10,12,-1,-1,-1,-1,-1,-1],"split_conditions":[1.3893398E0,1.21824E0,1.4634384E0,-3.6155812E-3,1.3749962E0,1.3999573E0,1.540887E0,-6.417266E-4,-2.2937201E-3,1.3572844E-3,-3.3062766E-4,1.1753299E-3,3.454075E-3],"split_indices":[1,1,1,0,1,1,1,0,0,0,0,0,0],"split_type":[0,0,0,0,0,0,0,0,0,0,0,0,0],"sum_hessian":[1.18E2,4.3E1,7.5E1,1.2E1,3.1E1,3.1E1,4.4E1,2.6E1,5E0,5E0,2.6E1,3.4E1,1E1],"tree_param":{"num_deleted":"0","num_feature":"2","num_nodes":"13","size_leaf_vector":"1"}},{"base_weights":[-2.872081E-3,-3.9848175E-2,1.5784262E-2,-2.718906E-3,-1.6583087E-2,-0E0,3.0190153E-2,-0E0,-2.4087855E-3,1.1418448E-3,-4.128661E-4,8.9888676E-4,2.3094004E-3],"categories":[],"categories_nodes":[],"categories_segments":[],"categories_sizes":[],"default_left":[0,0,0,0,0,0,0,0,0,0,0,0,0],"id":35,"left_children":[1,3,5,-1,7,9,11,-1,-1,-1,-1,-1,-1],"loss_changes":[8.9265205E-2,6.8759024E-3,1.7850986E-2,0E0,1.0471321E-2,8.303788E-3,9.5871463E-4,0E0,0E0,0E0,0E0,0E0,0E0],"parents":[2147483647,0,0,1,1,2,2,4,4,5,5,6,6],"right_children":[2,4,6,-1,8,10,12,-1,-1,-1,-1,-1,-1],"split_conditions":[1.3893398E0,1.3412931E0,1.4634384E0,-2.718906E-3,1.3749962E0,1.4115232E0,1.5200474E0,-0E0,-2.4087855E-3,1.1418448E-3,-4.128661E-4,8.9888676E-4,2.3094004E-3],"split_indices":[1,1,1,0,1,1,1,0,0,0,0,0,0],"split_type":[0,0,0,0,0,0,0,0,0,0,0,0,0],"sum_hessian":[1.24E2,4.3E1,8.1E1,2.3E1,2E1,4E1,4.1E1,1.4E1,6E0,1.1E1,2.9E1,2.8E1,1.3E1],"tree_param":{"num_deleted":"0","num_feature":"2","num_nodes":"13","size_leaf_vector":"1"}},{"base_weights":[-0E0,-4.3071877E-2,2.9251203E-2,-3.6630419E-3,-3.2959115E-2,1.3733999E-4,1.6542748E-3,-0E0,-1.7010426E-3,5.817121E-4,-0E0],"categories":[],"categories_nodes":[],"categories_segments":[],"categories_sizes":[],"default_left":[0,0,0,0,0,0,0,0,0,0,0],"id":36,"left_children":[1,3,5,-1,7,9,-1,-1,-1,-1,-1],"loss_changes":[1.642086E-1,3.1439662E-3,5.2687675E-3,0E0,1.9716397E-3,2.7046597E-4,0E0,0E0,0E0,0E0,0E0],"parents":[2147483647,0,0,1,1,2,2,4,4,5,5],"right_children":[2,4,6,-1,8,10,-1,-1,-1,-1,-1],"split_conditions":[1.4404697E0,1.1830851E0,1.4701873E0,-3.6630419E-3,1.1855925E0,1.44241E0,1.6542748E-3,-0E0,-1.7010426E-3,5.817121E-4,-0E0],"split_indices":[0,0,0,0,0,0,0,0,0,0,0],"split_type":[0,0,0,0,0,0,0,0,0,0,0],"sum_hessian":[1.28E2,5.2E1,7.6E1,9E0,4.3E1,1.2E1,6.4E1,1E0,4.2E1,1E0,1.1E1],"tree_param":{"num_deleted":"0","num_feature":"2","num_nodes":"11","size_leaf_vector":"1"}},{"base_weights":[1.087554E-3,-2.461344E-2,2.5438638E-2,-1.9232467E-3,-3.5611687E-3,7.4125836E-3,2.0501993E-3,8.4157224E-4,-5.207034E-4,6.166558E-4,-0E0],"categories":[],"categories_nodes":[],"categories_segments":[],"categories_sizes":[],"default_left":[0,0,0,0,0,0,0,0,0,0,0],"id":37,"left_children":[1,3,5,-1,7,9,-1,-1,-1,-1,-1],"loss_changes":[7.080352E-2,1.1115499E-2,1.1689309E-2,0E0,3.027259E-3,2.3485706E-3,0E0,0E0,0E0,0E0,0E0],"parents":[2147483647,0,0,1,1,2,2,4,4,5,5],"right_children":[2,4,6,-1,8,10,-1,-1,-1,-1,-1],"split_conditions":[1.425731E0,1.3544437E0,1.4828342E0,-1.9232467E-3,1.3604391E0,1.4760389E0,2.0501993E-3,8.4157224E-4,-5.207034E-4,6.166558E-4,-0E0],"split_indices":[1,1,1,0,1,1,0,0,0,0,0],"split_type":[0,0,0,0,0,0,0,0,0,0,0],"sum_hessian":[1.11E2,5.2E1,5.9E1,2.8E1,2.4E1,3.1E1,2.8E1,2E0,2.2E1,2.6E1,5E0],"tree_param":{"num_deleted":"0","num_feature":"2","num_nodes":"11","size_leaf_vector":"1"}},{"base_weights":[-3.2181372E-3,-2.2618975E-2,1.9171722E-2,-3.002385E-3,-1.2030761E-2,5.317172E-3,2.0750335E-3,-2.809495E-4,-1.3746615E-3,5.5050076E-4,-6.090226E-4],"categories":[],"categories_nodes":[],"categories_segments":[],"categories_sizes":[],"default_left":[0,0,0,0,0,0,0,0,0,0,0],"id":38,"left_children":[1,3,5,-1,7,9,-1,-1,-1,-1,-1],"loss_changes":[5.1166695E-2,1.7829448E-2,1.1184137E-2,0E0,1.887951E-3,3.6030672E-3,0E0,0E0,0E0,0E0,0E0],"parents":[2147483647,0,0,1,1,2,2,4,4,5,5],"right_children":[2,4,6,-1,8,10,-1,-1,-1,-1,-1],"split_conditions":[1.442928E0,1.21824E0,1.5168513E0,-3.002385E-3,1.4102025E0,1.5122676E0,2.0750335E-3,-2.809495E-4,-1.3746615E-3,5.5050076E-4,-6.090226E-4],"split_indices":[1,1,1,0,1,1,0,0,0,0,0],"split_type":[0,0,0,0,0,0,0,0,0,0,0],"sum_hessian":[1.15E2,6.4E1,5.1E1,1.1E1,5.3E1,3.5E1,1.6E1,4.3E1,1E1,3.1E1,4E0],"tree_param":{"num_deleted":"0","num_feature":"2","num_nodes":"11","size_leaf_vector":"1"}},{"base_weights":[-1.10004396E-4,-2.8115517E-2,2.673608E-2,-2.1646498E-3,-1.3577478E-2,3.338368E-3,3.467139E-2,-0E0,-1.1006052E-3,3.049896E-4,-0E0,1.2602403E-3,3.0218544E-3],"categories":[],"categories_nodes":[],"categories_segments":[],"categories_sizes":[],"default_left":[0,0,0,0,0,0,0,0,0,0,0,0,0],"id":39,"left_children":[1,3,5,-1,7,9,11,-1,-1,-1,-1,-1,-1],"loss_changes":[9.4117604E-2,7.6261424E-3,7.594697E-3,0E0,3.8388479E-3,3.7242533E-4,4.0077046E-4,0E0,0E0,0E0,0E0,0E0,0E0],"parents":[2147483647,0,0,1,1,2,2,4,4,5,5,6,6],"right_children":[2,4,6,-1,8,10,12,-1,-1,-1,-1,-1,-1],"split_conditions":[1.425731E0,1.3426571E0,1.4596235E0,-2.1646498E-3,1.3749962E0,1.4554734E0,1.540887E0,-0E0,-1.1006052E-3,3.049896E-4,-0E0,1.2602403E-3,3.0218544E-3],"split_indices":[1,1,1,0,1,1,1,0,0,0,0,0,0],"split_type":[0,0,0,0,0,0,0,0,0,0,0,0,0],"sum_hessian":[1.23E2,6.2E1,6.1E1,2.6E1,3.6E1,1.9E1,4.2E1,1.5E1,2.1E1,1.5E1,4E0,3.5E1,7E0],"tree_param":{"num_deleted":"0","num_feature":"2","num_nodes":"13","size_leaf_vector":"1"}},{"base_weights":[-7.049416E-4,-3.279582E-2,2.065023E-2,-2.0787902E-3,-8.708711E-3,2.6135808E-3,1.1824896E-3,-0E0,-1.5142455E-3,4.952601E-4,-0E0],"categories":[],"categories_nodes":[],"categories_segments":[],"categories_sizes":[],"default_left":[0,0,0,0,0,0,0,0,0,0,0],"id":40,"left_children":[1,3,5,-1,7,9,-1,-1,-1,-1,-1],"loss_changes":[9.235223E-2,6.2411204E-3,1.5318133E-3,0E0,3.1448877E-3,1.1593457E-3,0E0,0E0,0E0,0E0,0E0],"parents":[2147483647,0,0,1,1,2,2,4,4,5,5],"right_children":[2,4,6,-1,8,10,-1,-1,-1,-1,-1],"split_conditions":[1.4404697E0,1.3897992E0,1.4955585E0,-2.0787902E-3,1.429155E0,1.4766096E0,1.1824896E-3,-0E0,-1.5142455E-3,4.952601E-4,-0E0],"split_indices":[0,0,0,0,0,0,0,0,0,0,0],"split_type":[0,0,0,0,0,0,0,0,0,0,0],"sum_hessian":[1.31E2,5.4E1,7.7E1,3.6E1,1.8E1,1.6E1,6.1E1,1.4E1,4E0,1.2E1,4E0],"tree_param":{"num_deleted":"0","num_feature":"2","num_nodes":"11","size_leaf_vector":"1"}},{"base_weights":[-4.5354622E-3,-1.7607193E-2,2.7096957E-2,-2.1425455E-3,-9.08005E-3,1.3540851E-2,2.4816568E-3,-6.2219996E-4,-0E0,1.31573E-3,-0E0],"categories":[],"categories_nodes":[],"categories_segments":[],"categories_sizes":[],"default_left":[0,0,0,0,0,0,0,0,0,0,0],"id":41,"left_children":[1,3,5,-1,7,9,-1,-1,-1,-1,-1],"loss_changes":[5.1627923E-2,1.4221439E-2,3.7031267E-3,0E0,1.8788553E-3,5.619653E-3,0E0,0E0,0E0,0E0,0E0],"parents":[2147483647,0,0,1,1,2,2,4,4,5,5],"right_children":[2,4,6,-1,8,10,-1,-1,-1,-1,-1],"split_conditions":[1.4854108E0,1.3320093E0,1.5344999E0,-2.1425455E-3,1.442928E0,1.5122676E0,2.4816568E-3,-6.2219996E-4,-0E0,1.31573E-3,-0E0],"split_indices":[1,1,1,0,1,1,0,0,0,0,0],"split_type":[0,0,0,0,0,0,0,0,0,0,0],"sum_hessian":[1.25E2,9.1E1,3.4E1,1.9E1,7.2E1,2.5E1,9E0,5E1,2.2E1,1.4E1,1.1E1],"tree_param":{"num_deleted":"0","num_feature":"2","num_nodes":"11","size_leaf_vector":"1"}},{"base_weights":[-1.1483504E-4,-2.159196E-2,2.0137163E-2,-1.6099168E-3,-9.3757585E-3,3.8947694E-3,1.6123422E-3,8.700136E-4,-7.2018843E-4,6.037988E-4,-6.381624E-4],"categories":[],"categories_nodes":[],"categories_segments":[],"categories_sizes":[],"default_left":[0,0,0,0,0,0,0,0,0,0,0],"id":42,"left_children":[1,3,5,-1,7,9,-1,-1,-1,-1,-1],"loss_changes":[5.625448E-2,3.962729E-3,8.848419E-3,0E0,4.7976645E-3,4.446447E-3,0E0,0E0,0E0,0E0,0E0],"parents":[2147483647,0,0,1,1,2,2,4,4,5,5],"right_children":[2,4,6,-1,8,10,-1,-1,-1,-1,-1],"split_conditions":[1.425731E0,1.3544437E0,1.4854108E0,-1.6099168E-3,1.3604391E0,1.4760389E0,1.6123422E-3,8.700136E-4,-7.2018843E-4,6.037988E-4,-6.381624E-4],"split_indices":[1,1,1,0,1,1,0,0,0,0,0],"split_type":[0,0,0,0,0,0,0,0,0,0,0],"sum_hessian":[1.27E2,6.4E1,6.3E1,2.9E1,3.5E1,3.1E1,3.2E1,2E0,3.3E1,2.5E1,6E0],"tree_param":{"num_deleted":"0","num_feature":"2","num_nodes":"11","size_leaf_vector":"1"}},{"base_weights":[1.8601688E-4,-1.3920711E-2,2.3380408E-2,-1.8451953E-3,-6.16162E-3,1.4582488E-2,2.8296856E-3,-5.6713546E-4,-1.7003588E-6,1.0540931E-3,-0E0],"categories":[],"categories_nodes":[],"categories_segments":[],"categories_sizes":[],"default_left":[0,0,0,0,0,0,0,0,0,0,0],"id":43,"left_children":[1,3,5,-1,7,9,-1,-1,-1,-1,-1],"loss_changes":[4.707902E-2,1.0623999E-2,8.420749E-3,0E0,1.0207868E-3,4.015087E-3,0E0,0E0,0E0,0E0,0E0],"parents":[2147483647,0,0,1,1,2,2,4,4,5,5],"right_children":[2,4,6,-1,8,10,-1,-1,-1,-1,-1],"split_conditions":[1.4616392E0,1.3320093E0,1.5525804E0,-1.8451953E-3,1.3885885E0,1.5122676E0,2.8296856E-3,-5.6713546E-4,-1.7003588E-6,1.0540931E-3,-0E0],"split_indices":[1,1,1,0,1,1,0,0,0,0,0],"split_type":[0,0,0,0,0,0,0,0,0,0,0],"sum_hessian":[1.39E2,8.4E1,5.5E1,1.7E1,6.7E1,4.7E1,8E0,2.7E1,4E1,3.1E1,1.6E1],"tree_param":{"num_deleted":"0","num_feature":"2","num_nodes":"11","size_leaf_vector":"1"}},{"base_weights":[-3.566663E-3,-1.7715322E-2,1.8814715E-2,-2.123543E-3,-7.328438E-3,1.040894E-2,2.0085077E-3,-0E0,-6.7036686E-4,1.1469246E-3,-0E0],"categories":[],"categories_nodes":[],"categories_segments":[],"categories_sizes":[],"default_left":[0,0,0,0,0,0,0,0,0,0,0],"id":44,"left_children":[1,3,5,-1,7,9,-1,-1,-1,-1,-1],"loss_changes":[3.885668E-2,1.476519E-2,2.6018675E-3,0E0,1.5050196E-3,5.9885094E-3,0E0,0E0,0E0,0E0,0E0],"parents":[2147483647,0,0,1,1,2,2,4,4,5,5],"right_children":[2,4,6,-1,8,10,-1,-1,-1,-1,-1],"split_conditions":[1.4616392E0,1.3320093E0,1.540887E0,-2.123543E-3,1.4115232E0,1.4984528E0,2.0085077E-3,-0E0,-6.7036686E-4,1.1469246E-3,-0E0],"split_indices":[1,1,1,0,1,1,0,0,0,0,0],"split_type":[0,0,0,0,0,0,0,0,0,0,0],"sum_hessian":[1.21E2,7.7E1,4.4E1,1.9E1,5.8E1,3.6E1,8E0,3.3E1,2.5E1,1.8E1,1.8E1],"tree_param":{"num_deleted":"0","num_feature":"2","num_nodes":"11","size_leaf_vector":"1"}},{"base_weights":[-0E0,-2.197449E-2,1.2215961E-2,-1.6257588E-3,-9.580351E-3,6.6012586E-3,2.0990844E-3,-0E0,-6.2297675E-4,1.5461363E-3,5.676925E-5],"categories":[],"categories_nodes":[],"categories_segments":[],"categories_sizes":[],"default_left":[0,0,0,0,0,0,0,0,0,0,0],"id":45,"left_children":[1,3,5,-1,7,9,-1,-1,-1,-1,-1],"loss_changes":[3.3483475E-2,1.2272187E-3,8.568877E-3,0E0,8.736786E-4,6.4635575E-3,0E0,0E0,0E0,0E0,0E0],"parents":[2147483647,0,0,1,1,2,2,4,4,5,5],"right_children":[2,4,6,-1,8,10,-1,-1,-1,-1,-1],"split_conditions":[1.3893398E0,1.3320093E0,1.540887E0,-1.6257588E-3,1.3409929E0,1.4115232E0,2.0990844E-3,-0E0,-6.2297675E-4,1.5461363E-3,5.676925E-5],"split_indices":[1,1,1,0,1,1,0,0,0,0,0],"split_type":[0,0,0,0,0,0,0,0,0,0,0],"sum_hessian":[1.24E2,4.3E1,8.1E1,1.8E1,2.5E1,7.2E1,9E0,5E0,2E1,9E0,6.3E1],"tree_param":{"num_deleted":"0","num_feature":"2","num_nodes":"11","size_leaf_vector":"1"}},{"base_weights":[-7.3344534E-4,-1.4362776E-2,2.0063376E-2,-1.6059021E-3,-6.957649E-3,2.2133957E-3,1.4262692E-3,-0E0,-5.942466E-4,5.2922097E-4,-4.4584004E-4],"categories":[],"categories_nodes":[],"categories_segments":[],"categories_sizes":[],"default_left":[0,0,0,0,0,0,0,0,0,0,0],"id":46,"left_children":[1,3,5,-1,7,9,-1,-1,-1,-1,-1],"loss_changes":[3.5148952E-2,6.2558837E-3,3.962176E-3,0E0,1.5671102E-3,2.1245636E-3,0E0,0E0,0E0,0E0,0E0],"parents":[2147483647,0,0,1,1,2,2,4,4,5,5],"right_children":[2,4,6,-1,8,10,-1,-1,-1,-1,-1],"split_conditions":[1.4616392E0,1.3320093E0,1.5055317E0,-1.6059021E-3,1.3999573E0,1.4984528E0,1.4262692E-3,-0E0,-5.942466E-4,5.2922097E-4,-4.4584004E-4],"split_indices":[1,1,1,0,1,1,0,0,0,0,0],"split_type":[0,0,0,0,0,0,0,0,0,0,0],"sum_hessian":[1.24E2,7.8E1,4.6E1,1.8E1,6E1,1.9E1,2.7E1,2.9E1,3.1E1,1.6E1,3E0],"tree_param":{"num_deleted":"0","num_feature":"2","num_nodes":"11","size_leaf_vector":"1"}},{"base_weights":[6.5798657E-3,-2.0723825E-2,2.52008E-2,-1.3628206E-3,-0E0,-0E0,1.2963995E-3,-0E0,-8.8684197E-4,5.643254E-4,-0E0],"categories":[],"categories_nodes":[],"categories_segments":[],"categories_sizes":[],"default_left":[0,0,0,0,0,0,0,0,0,0,0],"id":47,"left_children":[1,3,5,-1,7,9,-1,-1,-1,-1,-1],"loss_changes":[5.9438277E-2,3.7038103E-3,6.2303245E-4,0E0,9.4378646E-4,2.5477054E-4,0E0,0E0,0E0,0E0,0E0],"parents":[2147483647,0,0,1,1,2,2,4,4,5,5],"right_children":[2,4,6,-1,8,10,-1,-1,-1,-1,-1],"split_conditions":[1.4404697E0,1.3897992E0,1.4450263E0,-1.3628206E-3,1.429155E0,1.44241E0,1.2963995E-3,-0E0,-8.8684197E-4,5.643254E-4,-0E0],"split_indices":[0,0,0,0,0,0,0,0,0,0,0],"split_type":[0,0,0,0,0,0,0,0,0,0,0],"sum_hessian":[1.14E2,4.4E1,7E1,3E1,1.4E1,3E0,6.7E1,1.2E1,2E0,1E0,2E0],"tree_param":{"num_deleted":"0","num_feature":"2","num_nodes":"11","size_leaf_vector":"1"}},{"base_weights":[-0E0,-1.3678939E-2,1.7931815E-2,-1.6607031E-3,-4.6721273E-3,6.931558E-3,1.5994254E-3,-0E0,-4.0259195E-4,6.3903263E-4,-8.297044E-4],"categories":[],"categories_nodes":[],"categories_segments":[],"categories_sizes":[],"default_left":[0,0,0,0,0,0,0,0,0,0,0],"id":48,"left_children":[1,3,5,-1,7,9,-1,-1,-1,-1,-1],"loss_changes":[3.107565E-2,9.25239E-3,4.081508E-3,0E0,1.0467123E-3,4.64687E-3,0E0,0E0,0E0,0E0,0E0],"parents":[2147483647,0,0,1,1,2,2,4,4,5,5],"right_children":[2,4,6,-1,8,10,-1,-1,-1,-1,-1],"split_conditions":[1.4518756E0,1.3320093E0,1.5142901E0,-1.6607031E-3,1.3749962E0,1.5122676E0,1.5994254E-3,-0E0,-4.0259195E-4,6.3903263E-4,-8.297044E-4],"split_indices":[1,1,1,0,1,1,0,0,0,0,0],"split_type":[0,0,0,0,0,0,0,0,0,0,0],"sum_hessian":[1.26E2,7.4E1,5.2E1,1.9E1,5.5E1,3.4E1,1.8E1,2.1E1,3.4E1,3.1E1,3E0],"tree_param":{"num_deleted":"0","num_feature":"2","num_nodes":"11","size_leaf_vector":"1"}},{"base_weights":[5.8990886E-4,-8.646025E-3,1.2247178E-3,-1.639412E-2,-0E0,-1.4843632E-3,-4.4453642E-4,6.243473E-4,-2.750122E-4],"categories":[],"categories_nodes":[],"categories_segments":[],"categories_sizes":[],"default_left":[0,0,0,0,0,0,0,0,0],"id":49,"left_children":[1,3,-1,5,7,-1,-1,-1,-1],"loss_changes":[2.8510978E-2,5.740453E-3,0E0,3.6672503E-4,2.9043374E-3,0E0,0E0,0E0,0E0],"parents":[2147483647,0,0,1,1,3,3,4,4],"right_children":[2,4,-1,6,8,-1,-1,-1,-1],"split_conditions":[1.4634384E0,1.3893398E0,1.2247178E-3,1.21824E0,1.4115232E0,-1.4843632E-3,-4.4453642E-4,6.243473E-4,-2.750122E-4],"split_indices":[1,1,0,1,1,0,0,0,0],"split_type":[0,0,0,0,0,0,0,0,0],"sum_hessian":[1.2E2,8.4E1,3.6E1,4.4E1,4E1,1E1,3.4E1,1.2E1,2.8E1],"tree_param":{"num_deleted":"0","num_feature":"2","num_nodes":"9","size_leaf_vector":"1"}}]},"name":"gbtree"},"learner_model_param":{"base_score":"1.5287305E0","boost_from_average":"1","num_class":"0","num_feature":"2","num_target":"1"},"objective":{"name":"reg:squarederror","reg_loss_param":{"scale_pos_weight":"1"}}},"version":[2,1,4]}