{"learner":{"attributes":{"best_iteration":"36","best_score":"0.07141995779601909","scikit_learn":"{\"_estimator_type\": \"regressor\"}"},"feature_names":[],"feature_types":[],"gradient_booster":{"model":{"gbtree_model_param":{"num_parallel_tree":"1","num_trees":"47"},"iteration_indptr":[0,1,2,3,4,5,6,7,8,9,10,11,12,13,14,15,16,17,18,19,20,21,22,23,24,25,26,27,28,29,30,31,32,33,34,35,36,37,38,39,40,41,42,43,44,45,46,47],"tree_info":[0,0,0,0,0,0,0,0,0,0,0,0,0,0,0,0,0,0,0,0,0,0,0,0,0,0,0,0,0,0,0,0,0,0,0,0,0,0,0,0,0,0,0,0,0,0,0],"trees":[{"base_weights":[3.601376E-3,-1.2055069E-1,4.640685E-1,-1.527112E-1,2.5814973E-2,1.2637357E-2,5.425993E-1,-9.742707E-3,-5.888206E-3,-2.4411436E-4,3.3549971E-3,2.2818109E-2,3.128917E-2],"categories":[],"categories_nodes":[],"categories_segments":[],"categories_sizes":[],"default_left":[0,0,0,0,0,0,0,0,0,0,0,0,0],"id":0,"left_children":[1,3,5,7,9,-1,11,-1,-1,-1,-1,-1,-1],"loss_changes":[3.256169E1,2.1254554E0,1.7913494E0,4.8777103E-1,1.0920353E-1,0E0,2.303009E-1,0E0,0E0,0E0,0E0,0E0,0E0],"parents":[2147483647,0,0,1,1,2,2,3,3,4,4,6,6],"right_children":[2,4,6,8,10,-1,12,-1,-1,-1,-1,-1,-1],"split_conditions":[4.592721E-1,2.1750434E-1,6.0745233E-1,1.19584054E-1,3.0069324E-1,1.2637357E-2,7.0747054E-1,-9.742707E-3,-5.888206E-3,-2.4411436E-4,3.3549971E-3,2.2818109E-2,3.128917E-2],"split_indices":[64,64,12,64,64,0,60,0,0,0,0,0,0],"split_type":[0,0,0,0,0,0,0,0,0,0,0,0,0],"sum_hessian":[5.67E2,4.47E2,1.2E2,3.67E2,8E1,3.4E1,8.6E1,1.63E2,2.04E2,4.5E1,3.5E1,4.6E1,4E1],"tree_param":{"num_deleted":"0","num_feature":"70","num_nodes":"13","size_leaf_vector":"1"}},{"base_weights":[-5.3843195E-3,-1.2045062E-1,4.1347417E-1,-1.5373671E-1,-5.252892E-3,2.2334492E-1,5.2472377E-1,-9.493673E-3,-5.858638E-3,-2.6435591E-3,1.5992428E-3,1.4138298E-2,9.112277E-3,2.1343607E-2,2.9951492E-2],"categories":[],"categories_nodes":[],"categories_segments":[],"categories_sizes":[],"default_left":[0,0,0,0,0,0,0,0,0,0,0,0,0,0,0],"id":1,"left_children":[1,3,5,7,9,11,13,-1,-1,-1,-1,-1,-1,-1,-1],"loss_changes":[2.662497E1,1.6474586E0,2.3250637E0,3.9100552E-1,1.793263E-1,1.430583E-2,1.7975235E-1,0E0,0E0,0E0,0E0,0E0,0E0,0E0,0E0],"parents":[2147483647,0,0,1,1,2,2,3,3,4,4,5,5,6,6],"right_children":[2,4,6,8,10,12,14,-1,-1,-1,-1,-1,-1,-1,-1],"split_conditions":[3.4835356E-1,1.9064125E-1,6.0745233E-1,1.19584054E-1,2.5996533E-1,6.8311507E-1,6.5506274E-1,-9.493673E-3,-5.858638E-3,-2.6435591E-3,1.5992428E-3,1.4138298E-2,9.112277E-3,2.1343607E-2,2.9951492E-2],"split_indices":[13,64,12,64,64,2,4,0,0,0,0,0,0,0,0],"split_type":[0,0,0,0,0,0,0,0,0,0,0,0,0,0,0],"sum_hessian":[5.51E2,4.33E2,1.18E2,3.35E2,9.8E1,4.5E1,7.3E1,1.65E2,1.7E2,4.4E1,5.4E1,1.5E1,3E1,3.5E1,3.8E1],"tree_param":{"num_deleted":"0","num_feature":"70","num_nodes":"15","size_leaf_vector":"1"}},{"base_weights":[-3.8478193E-3,-1.0754714E-1,4.1191685E-1,-1.3783596E-1,1.6353825E-2,1.0976743E-2,4.9208978E-1,-9.684639E-3,-5.6784744E-3,-4.7817928E-4,2.9496653E-3,2.0413514E-2,2.7971184E-2],"categories":[],"categories_nodes":[],"categories_segments":[],"categories_sizes":[],"default_left":[0,0,0,0,0,0,0,0,0,0,0,0,0],"id":2,"left_children":[1,3,5,7,9,-1,11,-1,-1,-1,-1,-1,-1],"loss_changes":[2.4847824E1,1.7482028E0,1.5945492E0,4.515028E-1,1.0607171E-1,0E0,1.2634659E-1,0E0,0E0,0E0,0E0,0E0,0E0],"parents":[2147483647,0,0,1,1,2,2,3,3,4,4,6,6],"right_children":[2,4,6,8,10,-1,12,-1,-1,-1,-1,-1,-1],"split_conditions":[4.3674177E-1,2.1750434E-1,2.4960381E-1,1.02253035E-1,3.0069324E-1,1.0976743E-2,4.5800316E-1,-9.684639E-3,-5.6784744E-3,-4.7817928E-4,2.9496653E-3,2.0413514E-2,2.7971184E-2],"split_indices":[64,64,61,64,64,0,47,0,0,0,0,0,0],"split_type":[0,0,0,0,0,0,0,0,0,0,0,0,0],"sum_hessian":[5.75E2,4.61E2,1.14E2,3.71E2,9E1,3.5E1,7.9E1,1.09E2,2.62E2,5.5E1,3.5E1,3.9E1,4E1],"tree_param":{"num_deleted":"0","num_feature":"70","num_nodes":"13","size_leaf_vector":"1"}},{"base_weights":[-0E0,-1.0603577E-1,3.8785645E-1,-1.3753055E-1,-0E0,9.951646E-3,4.5903048E-1,-1.026991E-2,-6.0126456E-3,-1.7959254E-3,2.4310853E-3,1.9747766E-2,2.6912779E-2],"categories":[],"categories_nodes":[],"categories_segments":[],"categories_sizes":[],"default_left":[0,0,0,0,0,0,0,0,0,0,0,0,0],"id":3,"left_children":[1,3,5,7,9,-1,11,-1,-1,-1,-1,-1,-1],"loss_changes":[2.2987848E1,1.4572186E0,1.4555511E0,3.3907127E-1,1.7906338E-1,0E0,1.306591E-1,0E0,0E0,0E0,0E0,0E0,0E0],"parents":[2147483647,0,0,1,1,2,2,3,3,4,4,6,6],"right_children":[2,4,6,8,10,-1,12,-1,-1,-1,-1,-1,-1],"split_conditions":[4.3674177E-1,1.9064125E-1,6.013865E-1,8.1455804E-2,2.8249568E-1,9.951646E-3,7.030549E-1,-1.026991E-2,-6.0126456E-3,-1.7959254E-3,2.4310853E-3,1.9747766E-2,2.6912779E-2],"split_indices":[64,64,12,64,64,0,4,0,0,0,0,0,0],"split_type":[0,0,0,0,0,0,0,0,0,0,0,0,0],"sum_hessian":[5.57E2,4.38E2,1.19E2,3.37E2,1.01E2,3.4E1,8.5E1,6.5E1,2.72E2,5.9E1,4.2E1,5.1E1,3.4E1],"tree_param":{"num_deleted":"0","num_feature":"70","num_nodes":"13","size_leaf_vector":"1"}},{"base_weights":[1.6668113E-4,-9.9597886E-2,3.700261E-1,-1.2988636E-1,-8.050348E-3,1.9601473E-1,4.4433692E-1,-7.9088565E-3,-4.7939736E-3,9.681294E-4,-2.5125623E-3,1.2134386E-2,7.628274E-3,1.8793337E-2,2.5825044E-2],"categories":[],"categories_nodes":[],"categories_segments":[],"categories_sizes":[],"default_left":[0,0,0,0,0,0,0,0,0,0,0,0,0,0,0],"id":4,"left_children":[1,3,5,7,9,11,13,-1,-1,-1,-1,-1,-1,-1,-1],"loss_changes":[2.1354544E1,1.2468E0,1.4393711E0,2.87498E-1,1.3709967E-1,2.5372505E-3,1.3661957E-1,0E0,0E0,0E0,0E0,0E0,0E0,0E0,0E0],"parents":[2147483647,0,0,1,1,2,2,3,3,4,4,5,5,6,6],"right_children":[2,4,6,8,10,12,14,-1,-1,-1,-1,-1,-1,-1,-1],"split_conditions":[3.4835356E-1,1.8977469E-1,2.3771791E-1,1.2738301E-1,1.5451664E-1,6.8311507E-1,7.030549E-1,-7.9088565E-3,-4.7939736E-3,9.681294E-4,-2.5125623E-3,1.2134386E-2,7.628274E-3,1.8793337E-2,2.5825044E-2],"split_indices":[13,64,61,64,5,2,4,0,0,0,0,0,0,0,0],"split_type":[0,0,0,0,0,0,0,0,0,0,0,0,0,0,0],"sum_hessian":[5.76E2,4.54E2,1.22E2,3.4E2,1.14E2,3.8E1,8.4E1,1.82E2,1.58E2,6.8E1,4.6E1,1.5E1,2.3E1,4.7E1,3.7E1],"tree_param":{"num_deleted":"0","num_feature":"70","num_nodes":"15","size_leaf_vector":"1"}},{"base_weights":[-3.3745382E-3,-9.320057E-2,3.3624658E-1,-1.19841926E-1,-0E0,8.2822805E-3,4.1300204E-1,-7.4068583E-3,-4.3950933E-3,-1.5200458E-3,1.3799093E-3,1.7180296E-2,2.4176894E-2],"categories":[],"categories_nodes":[],"categories_segments":[],"categories_sizes":[],"default_left":[0,0,0,0,0,0,0,0,0,0,0,0,0],"id":5,"left_children":[1,3,5,7,9,-1,11,-1,-1,-1,-1,-1,-1],"loss_changes":[1.7365414E1,1.1235502E0,1.4319763E0,2.805915E-1,8.5491985E-2,0E0,1.4762592E-1,0E0,0E0,0E0,0E0,0E0,0E0],"parents":[2147483647,0,0,1,1,2,2,3,3,4,4,6,6],"right_children":[2,4,6,8,10,-1,12,-1,-1,-1,-1,-1,-1],"split_conditions":[3.630849E-1,1.9757366E-1,5.918544E-1,1.2911612E-1,2.746967E-1,8.2822805E-3,4.8811412E-1,-7.4068583E-3,-4.3950933E-3,-1.5200458E-3,1.3799093E-3,1.7180296E-2,2.4176894E-2],"split_indices":[8,64,8,64,64,0,33,0,0,0,0,0,0],"split_type":[0,0,0,0,0,0,0,0,0,0,0,0,0],"sum_hessian":[5.68E2,4.5E2,1.18E2,3.5E2,1E2,3.8E1,8E1,1.82E2,1.68E2,4.7E1,5.3E1,4.4E1,3.6E1],"tree_param":{"num_deleted":"0","num_feature":"70","num_nodes":"13","size_leaf_vector":"1"}},{"base_weights":[1.9477344E-3,-9.005976E-2,3.3663663E-1,-1.1249507E-1,1.3859754E-2,1.8451361E-1,4.056891E-1,-6.7565204E-3,-3.6733635E-3,-4.2981995E-4,2.642904E-3,7.2016953E-3,1.1920475E-2,1.7097836E-2,2.3394711E-2],"categories":[],"categories_nodes":[],"categories_segments":[],"categories_sizes":[],"default_left":[0,0,0,0,0,0,0,0,0,0,0,0,0,0,0],"id":6,"left_children":[1,3,5,7,9,11,13,-1,-1,-1,-1,-1,-1,-1,-1],"loss_changes":[1.7699871E1,1.0605829E0,1.1686783E0,2.9695654E-1,7.494074E-2,1.686585E-2,9.203243E-2,0E0,0E0,0E0,0E0,0E0,0E0,0E0,0E0],"parents":[2147483647,0,0,1,1,2,2,3,3,4,4,5,5,6,6],"right_children":[2,4,6,8,10,12,14,-1,-1,-1,-1,-1,-1,-1,-1],"split_conditions":[4.3067592E-1,2.1750434E-1,6.0745233E-1,1.4211439E-1,3.0415943E-1,6.00765E-1,7.0432484E-1,-6.7565204E-3,-3.6733635E-3,-4.2981995E-4,2.642904E-3,7.2016953E-3,1.1920475E-2,1.7097836E-2,2.3394711E-2],"split_indices":[64,64,12,64,50,14,18,0,0,0,0,0,0,0,0],"split_type":[0,0,0,0,0,0,0,0,0,0,0,0,0,0,0],"sum_hessian":[5.72E2,4.49E2,1.23E2,3.7E2,7.9E1,4E1,8.3E1,2.31E2,1.39E2,4.9E1,3E1,2.6E1,1.4E1,4.5E1,3.8E1],"tree_param":{"num_deleted":"0","num_feature":"70","num_nodes":"15","size_leaf_vector":"1"}},{"base_weights":[-2.6424031E-3,-8.545702E-2,3.112418E-1,1.4355422E-2,-1.0603727E-1,7.88921E-3,3.713975E-1,-0E0,2.2092236E-3,-8.519151E-3,-4.567641E-3,1.5729673E-2,2.1537239E-2],"categories":[],"categories_nodes":[],"categories_segments":[],"categories_sizes":[],"default_left":[0,0,0,0,0,0,0,0,0,0,0,0,0],"id":7,"left_children":[1,3,5,7,9,-1,11,-1,-1,-1,-1,-1,-1],"loss_changes":[1.49506855E1,9.473891E-1,9.962425E-1,3.663713E-2,3.1637192E-1,0E0,7.6506615E-2,0E0,0E0,0E0,0E0,0E0,0E0],"parents":[2147483647,0,0,1,1,2,2,3,3,4,4,6,6],"right_children":[2,4,6,8,10,-1,12,-1,-1,-1,-1,-1,-1],"split_conditions":[3.6135182E-1,3.0066913E-1,2.2583202E-1,3.7624308E-1,8.232236E-2,7.88921E-3,4.8811412E-1,-0E0,2.2092236E-3,-8.519151E-3,-4.567641E-3,1.5729673E-2,2.1537239E-2],"split_indices":[13,45,61,14,65,0,33,0,0,0,0,0,0],"split_type":[0,0,0,0,0,0,0,0,0,0,0,0,0],"sum_hessian":[5.74E2,4.55E2,1.19E2,7.7E1,3.78E2,3.5E1,8.4E1,5.1E1,2.6E1,6.7E1,3.11E2,4.7E1,3.7E1],"tree_param":{"num_deleted":"0","num_feature":"70","num_nodes":"13","size_leaf_vector":"1"}},{"base_weights":[1.2404514E-3,-8.305895E-2,3.0204433E-1,-1.14867344E-1,-1.9493094E-2,1.6498514E-1,3.6905098E-1,-8.447795E-3,-4.967727E-3,-2.513592E-3,8.627994E-4,6.415013E-3,1.1034459E-2,1.5490815E-2,2.1498574E-2],"categories":[],"categories_nodes":[],"categories_segments":[],"categories_sizes":[],"default_left":[0,0,0,0,0,0,0,0,0,0,0,0,0,0,0],"id":8,"left_children":[1,3,5,7,9,11,13,-1,-1,-1,-1,-1,-1,-1,-1],"loss_changes":[1.4703671E1,8.982363E-1,1.0520611E0,2.0810175E-1,1.7722593E-1,2.6700258E-2,9.593296E-2,0E0,0E0,0E0,0E0,0E0,0E0,0E0,0E0],"parents":[2147483647,0,0,1,1,2,2,3,3,4,4,5,5,6,6],"right_children":[2,4,6,8,10,12,14,-1,-1,-1,-1,-1,-1,-1,-1],"split_conditions":[3.4835356E-1,1.6897747E-1,2.4960381E-1,7.712305E-2,2.4783362E-1,3.4045723E-1,7.295124E-1,-8.447795E-3,-4.967727E-3,-2.513592E-3,8.627994E-4,6.415013E-3,1.1034459E-2,1.5490815E-2,2.1498574E-2],"split_indices":[13,64,47,64,65,4,4,0,0,0,0,0,0,0,0],"split_type":[0,0,0,0,0,0,0,0,0,0,0,0,0,0,0],"sum_hessian":[5.77E2,4.51E2,1.26E2,2.99E2,1.52E2,4.3E1,8.3E1,6.3E1,2.36E2,8.4E1,6.8E1,2.9E1,1.4E1,4.6E1,3.7E1],"tree_param":{"num_deleted":"0","num_feature":"70","num_nodes":"15","size_leaf_vector":"1"}},{"base_weights":[7.02465E-3,-7.887144E-2,2.920971E-1,-1.0327871E-1,-1.1166336E-2,1.5514846E-1,3.4474498E-1,-7.867507E-3,-4.5417105E-3,-1.6210156E-3,1.4294712E-3,5.8644246E-3,9.799582E-3,1.4586158E-2,2.0186557E-2],"categories":[],"categories_nodes":[],"categories_segments":[],"categories_sizes":[],"default_left":[0,0,0,0,0,0,0,0,0,0,0,0,0,0,0],"id":9,"left_children":[1,3,5,7,9,11,13,-1,-1,-1,-1,-1,-1,-1,-1],"loss_changes":[1.3952753E1,7.095437E-1,8.4825134E-1,1.7621446E-1,1.0101618E-1,5.9909225E-3,1.06666565E-1,0E0,0E0,0E0,0E0,0E0,0E0,0E0,0E0],"parents":[2147483647,0,0,1,1,2,2,3,3,4,4,5,5,6,6],"right_children":[2,4,6,8,10,12,14,-1,-1,-1,-1,-1,-1,-1,-1],"split_conditions":[3.4835356E-1,1.7850953E-1,2.3771791E-1,7.712305E-2,2.8249568E-1,5.960051E-1,8.2062393E-1,-7.867507E-3,-4.5417105E-3,-1.6210156E-3,1.4294712E-3,5.8644246E-3,9.799582E-3,1.4586158E-2,2.0186557E-2],"split_indices":[13,64,61,64,64,0,36,0,0,0,0,0,0,0,0],"split_type":[0,0,0,0,0,0,0,0,0,0,0,0,0,0,0],"sum_hessian":[5.67E2,4.36E2,1.31E2,3.19E2,1.17E2,3.8E1,9.3E1,5.6E1,2.63E2,7.8E1,3.9E1,2.3E1,1.5E1,5.3E1,4E1],"tree_param":{"num_deleted":"0","num_feature":"70","num_nodes":"15","size_leaf_vector":"1"}},{"base_weights":[-6.140607E-6,-7.205399E-2,2.7402523E-1,-9.493746E-2,-0E0,7.098113E-3,3.2839033E-1,-6.731763E-3,-3.9118486E-3,-9.38049E-4,2.0953503E-3,1.3475813E-2,1.8728174E-2],"categories":[],"categories_nodes":[],"categories_segments":[],"categories_sizes":[],"default_left":[0,0,0,0,0,0,0,0,0,0,0,0,0],"id":10,"left_children":[1,3,5,7,9,-1,11,-1,-1,-1,-1,-1,-1],"loss_changes":[1.1292755E1,7.5245976E-1,7.6072025E-1,1.969049E-1,8.8216946E-2,0E0,6.0268402E-2,0E0,0E0,0E0,0E0,0E0,0E0],"parents":[2147483647,0,0,1,1,2,2,3,3,4,4,6,6],"right_children":[2,4,6,8,10,-1,12,-1,-1,-1,-1,-1,-1],"split_conditions":[4.592721E-1,1.8977469E-1,2.282092E-1,9.878683E-2,3.0069324E-1,7.098113E-3,7.9549396E-1,-6.731763E-3,-3.9118486E-3,-9.38049E-4,2.0953503E-3,1.3475813E-2,1.8728174E-2],"split_indices":[64,64,61,64,64,0,64,0,0,0,0,0,0],"split_type":[0,0,0,0,0,0,0,0,0,0,0,0,0],"sum_hessian":[5.71E2,4.53E2,1.18E2,3.44E2,1.09E2,3.6E1,8.2E1,9.8E1,2.46E2,7.5E1,3.4E1,4E1,4.2E1],"tree_param":{"num_deleted":"0","num_feature":"70","num_nodes":"13","size_leaf_vector":"1"}},{"base_weights":[-9.1437565E-4,-7.153282E-2,2.6292378E-1,-1.01945125E-1,-2.4608986E-2,6.6952812E-3,3.1389675E-1,-7.3776036E-3,-4.4669476E-3,8.5036893E-4,-2.338072E-3,1.350407E-2,1.8372318E-2],"categories":[],"categories_nodes":[],"categories_segments":[],"categories_sizes":[],"default_left":[0,0,0,0,0,0,0,0,0,0,0,0,0],"id":11,"left_children":[1,3,5,7,9,-1,11,-1,-1,-1,-1,-1,-1],"loss_changes":[1.0508026E1,6.2130547E-1,6.9578457E-1,1.177845E-1,1.6786973E-1,0E0,3.4095764E-2,0E0,0E0,0E0,0E0,0E0,0E0],"parents":[2147483647,0,0,1,1,2,2,3,3,4,4,6,6],"right_children":[2,4,6,8,10,-1,12,-1,-1,-1,-1,-1,-1],"split_conditions":[3.630849E-1,1.6117851E-1,5.9965336E-1,5.5459272E-2,1.4817749E-1,6.6952812E-3,7.295124E-1,-7.3776036E-3,-4.4669476E-3,8.5036893E-4,-2.338072E-3,1.350407E-2,1.8372318E-2],"split_indices":[8,64,10,64,19,0,4,0,0,0,0,0,0],"split_type":[0,0,0,0,0,0,0,0,0,0,0,0,0],"sum_hessian":[5.63E2,4.45E2,1.18E2,2.68E2,1.77E2,3.5E1,8.3E1,5.4E1,2.14E2,6E1,1.17E2,5E1,3.3E1],"tree_param":{"num_deleted":"0","num_feature":"70","num_nodes":"13","size_leaf_vector":"1"}},{"base_weights":[2.4747273E-3,-6.809533E-2,2.48293E-1,-9.856396E-2,-2.6799582E-2,6.1059087E-3,2.976969E-1,-7.0911497E-3,-4.373321E-3,5.582929E-4,-2.3254077E-3,1.1979359E-2,1.7181791E-2],"categories":[],"categories_nodes":[],"categories_segments":[],"categories_sizes":[],"default_left":[0,0,0,0,0,0,0,0,0,0,0,0,0],"id":12,"left_children":[1,3,5,7,9,-1,11,-1,-1,-1,-1,-1,-1],"loss_changes":[9.870908E0,5.3969955E-1,7.133231E-1,8.564353E-2,1.4621998E-1,0E0,9.9601746E-2,0E0,0E0,0E0,0E0,0E0,0E0],"parents":[2147483647,0,0,1,1,2,2,3,3,4,4,6,6],"right_children":[2,4,6,8,10,-1,12,-1,-1,-1,-1,-1,-1],"split_conditions":[3.6221838E-1,1.559792E-1,5.918544E-1,3.9943874E-1,1.5451664E-1,6.1059087E-3,6.4918804E-1,-7.0911497E-3,-4.373321E-3,5.582929E-4,-2.3254077E-3,1.1979359E-2,1.7181791E-2],"split_indices":[36,64,11,2,19,0,60,0,0,0,0,0,0],"split_type":[0,0,0,0,0,0,0,0,0,0,0,0,0],"sum_hessian":[5.66E2,4.4E2,1.26E2,2.51E2,1.89E2,3.7E1,8.9E1,4.7E1,2.04E2,6.3E1,1.26E2,4.3E1,4.6E1],"tree_param":{"num_deleted":"0","num_feature":"70","num_nodes":"13","size_leaf_vector":"1"}},{"base_weights":[1.0246749E-4,-6.342307E-2,2.326333E-1,-9.0321764E-2,-2.276487E-2,2.790475E-1,5.561292E-3,-6.7498544E-3,-4.056825E-3,-2.1365632E-3,5.4274115E-4,1.1337682E-2,1.5927695E-2],"categories":[],"categories_nodes":[],"categories_segments":[],"categories_sizes":[],"default_left":[0,0,0,0,0,0,0,0,0,0,0,0,0],"id":13,"left_children":[1,3,5,7,9,11,-1,-1,-1,-1,-1,-1,-1],"loss_changes":[8.3924265E0,4.733106E-1,6.174083E-1,7.658768E-2,1.2447899E-1,5.297327E-2,0E0,0E0,0E0,0E0,0E0,0E0,0E0],"parents":[2147483647,0,0,1,1,2,2,3,3,4,4,5,5],"right_children":[2,4,6,8,10,12,-1,-1,-1,-1,-1,-1,-1],"split_conditions":[3.4835356E-1,1.6117851E-1,6.465154E-1,3.8400373E-1,2.4783362E-1,6.3878095E-1,5.561292E-3,-6.7498544E-3,-4.056825E-3,-2.1365632E-3,5.4274115E-4,1.1337682E-2,1.5927695E-2],"split_indices":[25,50,30,2,50,4,0,0,0,0,0,0,0],"split_type":[0,0,0,0,0,0,0,0,0,0,0,0,0],"sum_hessian":[5.65E2,4.44E2,1.21E2,2.65E2,1.79E2,8.6E1,3.5E1,4.1E1,2.24E2,1.14E2,6.5E1,4.1E1,4.5E1],"tree_param":{"num_deleted":"0","num_feature":"70","num_nodes":"13","size_leaf_vector":"1"}},{"base_weights":[2.2801687E-3,-5.9532266E-2,2.3386092E-1,-7.845065E-2,4.4305944E-3,1.4328718E-1,1.4154861E-2,-5.2338145E-3,-2.941949E-3,-4.8316192E-4,1.8611323E-3,8.904764E-3,4.8950687E-3],"categories":[],"categories_nodes":[],"categories_segments":[],"categories_sizes":[],"default_left":[0,0,0,0,0,0,0,0,0,0,0,0,0],"id":14,"left_children":[1,3,5,7,9,11,-1,-1,-1,-1,-1,-1,-1],"loss_changes":[8.1477165E0,5.498626E-1,4.519391E-1,1.5596151E-1,5.025653E-2,2.6055336E-2,0E0,0E0,0E0,0E0,0E0,0E0,0E0],"parents":[2147483647,0,0,1,1,2,2,3,3,4,4,5,5],"right_children":[2,4,6,8,10,12,-1,-1,-1,-1,-1,-1,-1],"split_conditions":[4.592721E-1,1.9757366E-1,7.2357017E-1,1.1611785E-1,3.0415943E-1,1.6449542E-1,1.4154861E-2,-5.2338145E-3,-2.941949E-3,-4.8316192E-4,1.8611323E-3,8.904764E-3,4.8950687E-3],"split_indices":[64,64,64,64,50,31,0,0,0,0,0,0,0],"split_type":[0,0,0,0,0,0,0,0,0,0,0,0,0],"sum_hessian":[5.66E2,4.47E2,1.19E2,3.46E2,1.01E2,4.4E1,7.5E1,1.44E2,2.02E2,6.9E1,3.2E1,2.2E1,2.2E1],"tree_param":{"num_deleted":"0","num_feature":"70","num_nodes":"13","size_leaf_vector":"1"}},{"base_weights":[-2.98178E-3,-5.9632666E-2,2.053311E-1,-8.5384175E-2,-2.4789436E-2,4.63982E-3,2.4615563E-1,-6.0846875E-3,-3.7137829E-3,3.2630397E-4,-2.0753758E-3,1.0350595E-2,1.51638985E-2],"categories":[],"categories_nodes":[],"categories_segments":[],"categories_sizes":[],"default_left":[0,0,0,0,0,0,0,0,0,0,0,0,0],"id":15,"left_children":[1,3,5,7,9,-1,11,-1,-1,-1,-1,-1,-1],"loss_changes":[6.795114E0,3.9422464E-1,5.083461E-1,7.583082E-2,1.0638194E-1,0E0,8.519125E-2,0E0,0E0,0E0,0E0,0E0,0E0],"parents":[2147483647,0,0,1,1,2,2,3,3,4,4,6,6],"right_children":[2,4,6,8,10,-1,12,-1,-1,-1,-1,-1,-1],"split_conditions":[3.5355285E-1,1.542461E-1,3.493126E-1,7.192374E-2,3.0066913E-1,4.63982E-3,7.295124E-1,-6.0846875E-3,-3.7137829E-3,3.2630397E-4,-2.0753758E-3,1.0350595E-2,1.51638985E-2],"split_indices":[9,50,4,50,45,0,4,0,0,0,0,0,0],"split_type":[0,0,0,0,0,0,0,0,0,0,0,0,0],"sum_hessian":[5.75E2,4.53E2,1.22E2,2.58E2,1.95E2,3.4E1,8.8E1,5.6E1,2.02E2,6.6E1,1.29E2,5.6E1,3.2E1],"tree_param":{"num_deleted":"0","num_feature":"70","num_nodes":"13","size_leaf_vector":"1"}},{"base_weights":[1.8246557E-3,-5.5598844E-2,2.0561463E-1,-8.052375E-2,-1.9711949E-2,5.0582113E-3,2.4472508E-1,-5.92263E-3,-3.518446E-3,4.7427282E-4,-1.8271322E-3,1.0217829E-2,1.4326582E-2],"categories":[],"categories_nodes":[],"categories_segments":[],"categories_sizes":[],"default_left":[0,0,0,0,0,0,0,0,0,0,0,0,0],"id":16,"left_children":[1,3,5,7,9,-1,11,-1,-1,-1,-1,-1,-1],"loss_changes":[6.755275E0,3.9000964E-1,4.5946217E-1,7.407975E-2,9.49465E-2,0E0,4.59342E-2,0E0,0E0,0E0,0E0,0E0,0E0],"parents":[2147483647,0,0,1,1,2,2,3,3,4,4,6,6],"right_children":[2,4,6,8,10,-1,12,-1,-1,-1,-1,-1,-1],"split_conditions":[3.4835356E-1,1.6031195E-1,2.3058636E-1,3.9943874E-1,1.5451664E-1,5.0582113E-3,8.240901E-1,-5.92263E-3,-3.518446E-3,4.7427282E-4,-1.8271322E-3,1.0217829E-2,1.4326582E-2],"split_indices":[10,50,47,2,19,0,50,0,0,0,0,0,0],"split_type":[0,0,0,0,0,0,0,0,0,0,0,0,0],"sum_hessian":[5.74E2,4.48E2,1.26E2,2.62E2,1.86E2,3.6E1,9E1,5.1E1,2.11E2,6.6E1,1.2E2,5E1,4E1],"tree_param":{"num_deleted":"0","num_feature":"70","num_nodes":"13","size_leaf_vector":"1"}},{"base_weights":[-2.6009143E-3,-4.7088772E-2,2.1506678E-1,2.4286387E-2,-6.3756995E-2,1.7221452E-1,1.3359164E-2,-0E0,2.9521745E-3,-4.1062897E-3,-2.0830506E-3,3.973926E-3,9.196569E-3],"categories":[],"categories_nodes":[],"categories_segments":[],"categories_sizes":[],"default_left":[0,0,0,0,0,0,0,0,0,0,0,0,0],"id":17,"left_children":[1,3,5,7,9,11,-1,-1,-1,-1,-1,-1,-1],"loss_changes":[5.4258122E0,5.6108415E-1,1.2221193E-1,7.010977E-2,1.3843286E-1,1.988852E-2,0E0,0E0,0E0,0E0,0E0,0E0,0E0],"parents":[2147483647,0,0,1,1,2,2,3,3,4,4,5,5],"right_children":[2,4,6,8,10,12,-1,-1,-1,-1,-1,-1,-1],"split_conditions":[4.930676E-1,3.0066913E-1,6.4918804E-1,3.2322356E-1,1.3604853E-1,3.493126E-1,1.3359164E-2,-0E0,2.9521745E-3,-4.1062897E-3,-2.0830506E-3,3.973926E-3,9.196569E-3],"split_indices":[64,45,60,64,64,4,0,0,0,0,0,0,0],"split_type":[0,0,0,0,0,0,0,0,0,0,0,0,0],"sum_hessian":[5.6E2,4.66E2,9.4E1,8.7E1,3.79E2,5.5E1,3.9E1,5.3E1,3.4E1,2.03E2,1.76E2,8E0,4.7E1],"tree_param":{"num_deleted":"0","num_feature":"70","num_nodes":"13","size_leaf_vector":"1"}},{"base_weights":[3.369042E-3,-4.8993573E-2,1.8181664E-1,-7.523112E-2,-2.1973746E-2,4.4999085E-3,2.1827817E-1,-5.309796E-3,-3.3172194E-3,3.2526915E-4,-1.8223567E-3,9.1163125E-3,1.2760601E-2],"categories":[],"categories_nodes":[],"categories_segments":[],"categories_sizes":[],"default_left":[0,0,0,0,0,0,0,0,0,0,0,0,0],"id":18,"left_children":[1,3,5,7,9,-1,11,-1,-1,-1,-1,-1,-1],"loss_changes":[5.432357E0,3.0622888E-1,3.9144278E-1,3.761494E-2,9.556173E-2,0E0,3.32036E-2,0E0,0E0,0E0,0E0,0E0,0E0],"parents":[2147483647,0,0,1,1,2,2,3,3,4,4,6,6],"right_children":[2,4,6,8,10,-1,12,-1,-1,-1,-1,-1,-1],"split_conditions":[3.4835356E-1,1.4471404E-1,5.918544E-1,3.9943874E-1,3.0066913E-1,4.4999085E-3,4.7305864E-1,-5.309796E-3,-3.3172194E-3,3.2526915E-4,-1.8223567E-3,9.1163125E-3,1.2760601E-2],"split_indices":[8,64,26,2,45,0,5,0,0,0,0,0,0],"split_type":[0,0,0,0,0,0,0,0,0,0,0,0,0],"sum_hessian":[5.78E2,4.47E2,1.31E2,2.24E2,2.23E2,3.9E1,9.2E1,4.5E1,1.79E2,7.3E1,1.5E2,5.1E1,4.1E1],"tree_param":{"num_deleted":"0","num_feature":"70","num_nodes":"13","size_leaf_vector":"1"}},{"base_weights":[3.2778195E-4,-4.8823044E-2,1.7334966E-1,-7.291452E-2,-2.085151E-2,1.0731642E-1,1.0953903E-2,-4.8686485E-3,-3.0260885E-3,-1.6510686E-3,4.8929354E-4,3.6003308E-3,6.9363373E-3],"categories":[],"categories_nodes":[],"categories_segments":[],"categories_sizes":[],"default_left":[0,0,0,0,0,0,0,0,0,0,0,0,0],"id":19,"left_children":[1,3,5,7,9,11,-1,-1,-1,-1,-1,-1,-1],"loss_changes":[4.8002586E0,2.842605E-1,3.212993E-1,4.8941255E-2,7.945434E-2,2.8828442E-2,0E0,0E0,0E0,0E0,0E0,0E0,0E0],"parents":[2147483647,0,0,1,1,2,2,3,3,4,4,5,5],"right_children":[2,4,6,8,10,12,-1,-1,-1,-1,-1,-1,-1],"split_conditions":[3.4835356E-1,1.4558059E-1,7.2357017E-1,8.7521665E-2,2.5389948E-1,3.38187E-1,1.0953903E-2,-4.8686485E-3,-3.0260885E-3,-1.6510686E-3,4.8929354E-4,3.6003308E-3,6.9363373E-3],"split_indices":[10,64,64,64,64,4,0,0,0,0,0,0,0],"split_type":[0,0,0,0,0,0,0,0,0,0,0,0,0],"sum_hessian":[5.61E2,4.37E2,1.24E2,2.32E2,2.05E2,5.3E1,7.1E1,7.3E1,1.59E2,1.49E2,5.6E1,2.8E1,2.5E1],"tree_param":{"num_deleted":"0","num_feature":"70","num_nodes":"13","size_leaf_vector":"1"}},{"base_weights":[-1.0783105E-3,-4.6312127E-2,1.5826623E-1,-6.9818124E-2,-2.010746E-2,6.926471E-2,1.9275248E-1,-4.9768616E-3,-3.0091049E-3,-1.7046145E-3,7.6182645E-5,-0E0,3.6288619E-3,7.917217E-3,1.1379182E-2],"categories":[],"categories_nodes":[],"categories_segments":[],"categories_sizes":[],"default_left":[0,0,0,0,0,0,0,0,0,0,0,0,0,0,0],"id":20,"left_children":[1,3,5,7,9,11,13,-1,-1,-1,-1,-1,-1,-1,-1],"loss_changes":[4.046897E0,2.6001292E-1,3.4104395E-1,4.3617368E-2,6.713787E-2,1.5822798E-3,3.0836582E-2,0E0,0E0,0E0,0E0,0E0,0E0,0E0,0E0],"parents":[2147483647,0,0,1,1,2,2,3,3,4,4,5,5,6,6],"right_children":[2,4,6,8,10,12,14,-1,-1,-1,-1,-1,-1,-1,-1],"split_conditions":[3.5355285E-1,1.4558059E-1,1.9096673E-1,4.0867633E-1,2.1750434E-1,4.3581616E-2,7.9549396E-1,-4.9768616E-3,-3.0091049E-3,-1.7046145E-3,7.6182645E-5,-0E0,3.6288619E-3,7.917217E-3,1.1379182E-2],"split_indices":[22,64,19,30,64,33,64,0,0,0,0,0,0,0,0],"split_type":[0,0,0,0,0,0,0,0,0,0,0,0,0,0,0],"sum_hessian":[5.61E2,4.38E2,1.23E2,2.28E2,2.1E2,3.6E1,8.7E1,5.1E1,1.77E2,1.3E2,8E1,3E0,3.3E1,4.8E1,3.9E1],"tree_param":{"num_deleted":"0","num_feature":"70","num_nodes":"15","size_leaf_vector":"1"}},{"base_weights":[-3.2116272E-3,-4.1994903E-2,1.6646677E-1,-6.0119838E-2,-6.9715753E-3,1.1115254E-1,1.0131266E-2,-4.4878246E-3,-2.552278E-3,-1.0090196E-3,1.0906154E-3,3.3515606E-3,6.4558103E-3],"categories":[],"categories_nodes":[],"categories_segments":[],"categories_sizes":[],"default_left":[0,0,0,0,0,0,0,0,0,0,0,0,0],"id":21,"left_children":[1,3,5,7,9,11,-1,-1,-1,-1,-1,-1,-1],"loss_changes":[3.8245018E0,2.9439962E-1,1.621089E-1,6.497562E-2,6.301015E-2,8.189142E-3,0E0,0E0,0E0,0E0,0E0,0E0,0E0],"parents":[2147483647,0,0,1,1,2,2,3,3,4,4,5,5],"right_children":[2,4,6,8,10,12,-1,-1,-1,-1,-1,-1,-1],"split_conditions":[4.8353553E-1,1.6897747E-1,4.0412045E-1,7.712305E-2,2.8249568E-1,3.4045723E-1,1.0131266E-2,-4.4878246E-3,-2.552278E-3,-1.0090196E-3,1.0906154E-3,3.3515606E-3,6.4558103E-3],"split_indices":[64,64,33,50,64,4,0,0,0,0,0,0,0],"split_type":[0,0,0,0,0,0,0,0,0,0,0,0,0],"sum_hessian":[5.81E2,4.74E2,1.07E2,3.1E2,1.64E2,4.5E1,6.2E1,6.8E1,2.42E2,1.15E2,4.9E1,1.6E1,2.9E1],"tree_param":{"num_deleted":"0","num_feature":"70","num_nodes":"13","size_leaf_vector":"1"}},{"base_weights":[-2.1366439E-4,-4.136506E-2,1.4902936E-1,-6.1428215E-2,-1.7084025E-2,3.8725105E-3,1.7793778E-1,-4.3577263E-3,-2.7000569E-3,-1.3719929E-3,3.811706E-4,7.6368335E-3,1.1042307E-2],"categories":[],"categories_nodes":[],"categories_segments":[],"categories_sizes":[],"default_left":[0,0,0,0,0,0,0,0,0,0,0,0,0],"id":22,"left_children":[1,3,5,7,9,-1,11,-1,-1,-1,-1,-1,-1],"loss_changes":[3.3855383E0,2.025243E-1,2.069192E-1,2.6079714E-2,5.336403E-2,0E0,1.8661737E-2,0E0,0E0,0E0,0E0,0E0,0E0],"parents":[2147483647,0,0,1,1,2,2,3,3,4,4,6,6],"right_children":[2,4,6,8,10,-1,12,-1,-1,-1,-1,-1,-1],"split_conditions":[4.003466E-1,1.4558059E-1,2.3058636E-1,3.9943874E-1,2.5303292E-1,3.8725105E-3,7.5920606E-1,-4.3577263E-3,-2.7000569E-3,-1.3719929E-3,3.811706E-4,7.6368335E-3,1.1042307E-2],"split_indices":[64,64,47,2,50,0,32,0,0,0,0,0,0],"split_type":[0,0,0,0,0,0,0,0,0,0,0,0,0],"sum_hessian":[5.51E2,4.33E2,1.18E2,2.34E2,1.99E2,3.6E1,8.2E1,4.7E1,1.87E2,1.43E2,5.6E1,5.6E1,2.6E1],"tree_param":{"num_deleted":"0","num_feature":"70","num_nodes":"13","size_leaf_vector":"1"}},{"base_weights":[-0E0,-3.8728964E-2,1.460371E-1,-5.424312E-2,-5.9483647E-3,8.8931166E-2,9.049906E-3,-3.868427E-3,-2.2316563E-3,-8.960872E-4,1.096853E-3,5.5377292E-3,2.9775251E-3],"categories":[],"categories_nodes":[],"categories_segments":[],"categories_sizes":[],"default_left":[0,0,0,0,0,0,0,0,0,0,0,0,0],"id":23,"left_children":[1,3,5,7,9,11,-1,-1,-1,-1,-1,-1,-1],"loss_changes":[3.2660165E0,2.2607166E-1,1.9848466E-1,5.2795053E-2,5.0074033E-2,7.792145E-3,0E0,0E0,0E0,0E0,0E0,0E0,0E0],"parents":[2147483647,0,0,1,1,2,2,3,3,4,4,5,5],"right_children":[2,4,6,8,10,12,-1,-1,-1,-1,-1,-1,-1],"split_conditions":[4.592721E-1,1.6897747E-1,7.2357017E-1,9.0121314E-2,2.9029462E-1,6.8311507E-1,9.049906E-3,-3.868427E-3,-2.2316563E-3,-8.960872E-4,1.096853E-3,5.5377292E-3,2.9775251E-3],"split_indices":[64,64,64,64,64,2,0,0,0,0,0,0,0],"split_type":[0,0,0,0,0,0,0,0,0,0,0,0,0],"sum_hessian":[5.76E2,4.56E2,1.2E2,3.07E2,1.49E2,4.8E1,7.2E1,8.5E1,2.22E2,1.07E2,4.2E1,2.4E1,2.4E1],"tree_param":{"num_deleted":"0","num_feature":"70","num_nodes":"13","size_leaf_vector":"1"}},{"base_weights":[1.7424534E-3,-3.771126E-2,1.3310252E-1,-5.5542305E-2,-1.4147979E-2,5.7205517E-2,1.5992634E-1,-4.135744E-3,-2.4274932E-3,-1.1485384E-3,3.768824E-4,-0E0,3.002201E-3,6.6212015E-3,1.0383387E-2],"categories":[],"categories_nodes":[],"categories_segments":[],"categories_sizes":[],"default_left":[0,0,0,0,0,0,0,0,0,0,0,0,0,0,0],"id":24,"left_children":[1,3,5,7,9,11,13,-1,-1,-1,-1,-1,-1,-1,-1],"loss_changes":[2.9582994E0,1.7585427E-1,2.3786998E-1,2.9598355E-2,3.8451374E-2,1.4982298E-3,6.453848E-2,0E0,0E0,0E0,0E0,0E0,0E0,0E0,0E0],"parents":[2147483647,0,0,1,1,2,2,3,3,4,4,5,5,6,6],"right_children":[2,4,6,8,10,12,14,-1,-1,-1,-1,-1,-1,-1,-1],"split_conditions":[3.6221838E-1,1.559792E-1,1.9096673E-1,2.0486435E-1,2.660312E-1,4.3581616E-2,7.5920606E-1,-4.135744E-3,-2.4274932E-3,-1.1485384E-3,3.768824E-4,-0E0,3.002201E-3,6.6212015E-3,1.0383387E-2],"split_indices":[64,64,19,2,64,33,32,0,0,0,0,0,0,0,0],"split_type":[0,0,0,0,0,0,0,0,0,0,0,0,0,0,0],"sum_hessian":[5.67E2,4.36E2,1.31E2,2.45E2,1.91E2,3.6E1,9.5E1,4.5E1,2E2,1.39E2,5.2E1,3E0,3.3E1,6.4E1,3.1E1],"tree_param":{"num_deleted":"0","num_feature":"70","num_nodes":"15","size_leaf_vector":"1"}},{"base_weights":[-7.599916E-5,-3.593567E-2,1.3057676E-1,-5.4098256E-2,-1.3971972E-2,8.08099E-2,8.298741E-3,-3.7175247E-3,-2.2905583E-3,-1.2426282E-3,9.0879534E-5,5.095195E-3,2.5569524E-3],"categories":[],"categories_nodes":[],"categories_segments":[],"categories_sizes":[],"default_left":[0,0,0,0,0,0,0,0,0,0,0,0,0],"id":25,"left_children":[1,3,5,7,9,11,-1,-1,-1,-1,-1,-1,-1],"loss_changes":[2.6142356E0,1.6796082E-1,1.7330718E-1,2.4521768E-2,3.722402E-2,1.2655914E-2,0E0,0E0,0E0,0E0,0E0,0E0,0E0],"parents":[2147483647,0,0,1,1,2,2,3,3,4,4,5,5],"right_children":[2,4,6,8,10,12,-1,-1,-1,-1,-1,-1,-1],"split_conditions":[3.5355285E-1,1.4818025E-1,4.0412045E-1,8.1455804E-2,2.1750434E-1,6.8311507E-1,8.298741E-3,-3.7175247E-3,-2.2905583E-3,-1.2426282E-3,9.0879534E-5,5.095195E-3,2.5569524E-3],"split_indices":[22,64,33,64,64,2,0,0,0,0,0,0,0],"split_type":[0,0,0,0,0,0,0,0,0,0,0,0,0],"sum_hessian":[5.58E2,4.39E2,1.19E2,2.37E2,2.02E2,5.2E1,6.7E1,6.3E1,1.74E2,1.23E2,7.9E1,2.7E1,2.5E1],"tree_param":{"num_deleted":"0","num_feature":"70","num_nodes":"13","size_leaf_vector":"1"}},{"base_weights":[1.4973144E-3,-3.299034E-2,1.266545E-1,-5.16122E-2,-1.3214134E-2,7.856859E-2,8.004648E-3,-3.6310714E-3,-2.2081274E-3,-1.1789463E-3,1.9827127E-4,2.4153157E-3,4.714239E-3],"categories":[],"categories_nodes":[],"categories_segments":[],"categories_sizes":[],"default_left":[0,0,0,0,0,0,0,0,0,0,0,0,0],"id":26,"left_children":[1,3,5,7,9,11,-1,-1,-1,-1,-1,-1,-1],"loss_changes":[2.3746035E0,1.5082309E-1,1.5489793E-1,1.9233882E-2,3.9804116E-2,5.9179366E-3,0E0,0E0,0E0,0E0,0E0,0E0,0E0],"parents":[2147483647,0,0,1,1,2,2,3,3,4,4,5,5],"right_children":[2,4,6,8,10,12,-1,-1,-1,-1,-1,-1,-1],"split_conditions":[3.6135182E-1,1.4471404E-1,7.37435E-1,3.9943874E-1,2.1750434E-1,5.051993E-1,8.004648E-3,-3.6310714E-3,-2.2081274E-3,-1.1789463E-3,1.9827127E-4,2.4153157E-3,4.714239E-3],"split_indices":[8,64,64,2,64,50,0,0,0,0,0,0,0],"split_type":[0,0,0,0,0,0,0,0,0,0,0,0,0],"sum_hessian":[5.46E2,4.28E2,1.18E2,2.17E2,2.11E2,5.1E1,6.7E1,5.1E1,1.66E2,1.35E2,7.6E1,2.1E1,3E1],"tree_param":{"num_deleted":"0","num_feature":"70","num_nodes":"13","size_leaf_vector":"1"}},{"base_weights":[1.8010734E-3,-3.3519346E-2,1.1569788E-1,-5.2649543E-2,-1.7748293E-2,6.9537796E-2,1.4844027E-1,-3.6400983E-3,-2.2905837E-3,9.9964374E-5,-1.2424694E-3,2.4622492E-3,4.598897E-3,5.9702047E-3,9.069324E-3],"categories":[],"categories_nodes":[],"categories_segments":[],"categories_sizes":[],"default_left":[0,0,0,0,0,0,0,0,0,0,0,0,0,0,0],"id":27,"left_children":[1,3,5,7,9,11,13,-1,-1,-1,-1,-1,-1,-1,-1],"loss_changes":[2.3252537E0,1.2447348E-1,1.7494082E-1,1.1674404E-2,3.6690913E-2,8.670688E-3,2.2879839E-2,0E0,0E0,0E0,0E0,0E0,0E0,0E0,0E0],"parents":[2147483647,0,0,1,1,2,2,3,3,4,4,5,5,6,6],"right_children":[2,4,6,8,10,12,14,-1,-1,-1,-1,-1,-1,-1,-1],"split_conditions":[3.6135182E-1,1.3084923E-1,7.209705E-1,4.5060657E-2,3.0066913E-1,5.268631E-1,7.5920606E-1,-3.6400983E-3,-2.2905837E-3,9.9964374E-5,-1.2424694E-3,2.4622492E-3,4.598897E-3,5.9702047E-3,9.069324E-3],"split_indices":[50,36,50,36,45,36,32,0,0,0,0,0,0,0,0],"split_type":[0,0,0,0,0,0,0,0,0,0,0,0,0,0,0],"sum_hessian":[5.74E2,4.38E2,1.36E2,1.94E2,2.44E2,5.9E1,7.7E1,4.3E1,1.51E2,6.1E1,1.83E2,3.5E1,2.4E1,4.5E1,3.2E1],"tree_param":{"num_deleted":"0","num_feature":"70","num_nodes":"15","size_leaf_vector":"1"}},{"base_weights":[4.2203258E-4,-3.0883567E-2,1.1041259E-1,-4.8545014E-2,-1.5427143E-2,7.2994925E-2,7.2821765E-3,-3.4979412E-3,-2.1236446E-3,8.323822E-5,-1.1600093E-3,2.1823258E-3,4.5264494E-3],"categories":[],"categories_nodes":[],"categories_segments":[],"categories_sizes":[],"default_left":[0,0,0,0,0,0,0,0,0,0,0,0,0],"id":28,"left_children":[1,3,5,7,9,11,-1,-1,-1,-1,-1,-1,-1],"loss_changes":[1.9396224E0,1.1187437E-1,1.3228738E-1,1.1790931E-2,3.367907E-2,1.5565395E-2,0E0,0E0,0E0,0E0,0E0,0E0,0E0],"parents":[2147483647,0,0,1,1,2,2,3,3,4,4,5,5],"right_children":[2,4,6,8,10,12,-1,-1,-1,-1,-1,-1,-1],"split_conditions":[3.4835356E-1,1.3604853E-1,7.4176776E-1,4.2461004E-2,3.0066913E-1,5.121317E-1,7.2821765E-3,-3.4979412E-3,-2.1236446E-3,8.323822E-5,-1.1600093E-3,2.1823258E-3,4.5264494E-3],"split_indices":[50,64,64,64,59,64,0,0,0,0,0,0,0],"split_type":[0,0,0,0,0,0,0,0,0,0,0,0,0],"sum_hessian":[5.59E2,4.35E2,1.24E2,1.99E2,2.36E2,6.3E1,6.1E1,3.8E1,1.61E2,7E1,1.66E2,2.7E1,3.6E1],"tree_param":{"num_deleted":"0","num_feature":"70","num_nodes":"13","size_leaf_vector":"1"}},{"base_weights":[1.5716985E-3,-2.5714835E-2,1.1852311E-1,-3.5314832E-2,1.30370045E-2,9.395331E-2,8.27857E-3,-2.4218264E-3,-1.168266E-3,-0E0,1.7179583E-3,2.2419158E-3,5.149975E-3],"categories":[],"categories_nodes":[],"categories_segments":[],"categories_sizes":[],"default_left":[0,0,0,0,0,0,0,0,0,0,0,0,0],"id":29,"left_children":[1,3,5,7,9,11,-1,-1,-1,-1,-1,-1,-1],"loss_changes":[1.802591E0,1.7195618E-1,8.218002E-2,4.923287E-2,2.1470368E-2,1.3476312E-2,0E0,0E0,0E0,0E0,0E0,0E0,0E0],"parents":[2147483647,0,0,1,1,2,2,3,3,4,4,5,5],"right_children":[2,4,6,8,10,12,-1,-1,-1,-1,-1,-1,-1],"split_conditions":[4.8786828E-1,2.322357E-1,7.5920606E-1,1.2478336E-1,3.3448875E-1,3.493126E-1,8.27857E-3,-2.4218264E-3,-1.168266E-3,-0E0,1.7179583E-3,2.2419158E-3,5.149975E-3],"split_indices":[50,24,32,50,50,18,0,0,0,0,0,0,0],"split_type":[0,0,0,0,0,0,0,0,0,0,0,0,0],"sum_hessian":[5.6E2,4.54E2,1.06E2,3.66E2,8.8E1,7.3E1,3.3E1,1.69E2,1.97E2,5.8E1,3E1,1.4E1,5.9E1],"tree_param":{"num_deleted":"0","num_feature":"70","num_nodes":"13","size_leaf_vector":"1"}},{"base_weights":[-1.2592601E-3,-2.8435472E-2,9.47118E-2,-3.762798E-2,-6.5537556E-3,4.3303534E-2,1.1516299E-1,-2.9997888E-3,-1.6144369E-3,-6.281127E-4,4.5931307E-4,-0E0,2.27378E-3,4.739973E-3,7.4235313E-3],"categories":[],"categories_nodes":[],"categories_segments":[],"categories_sizes":[],"default_left":[0,0,0,0,0,0,0,0,0,0,0,0,0,0,0],"id":30,"left_children":[1,3,5,7,9,11,13,-1,-1,-1,-1,-1,-1,-1,-1],"loss_changes":[1.4566184E0,8.343798E-2,1.0848367E-1,2.5259614E-2,1.3125898E-2,1.1236072E-3,1.9928575E-2,0E0,0E0,0E0,0E0,0E0,0E0,0E0,0E0],"parents":[2147483647,0,0,1,1,2,2,3,3,4,4,5,5,6,6],"right_children":[2,4,6,8,10,12,14,-1,-1,-1,-1,-1,-1,-1,-1],"split_conditions":[3.6135182E-1,1.6897747E-1,1.8858954E-1,5.285962E-2,2.8076255E-1,1.7476444E-1,7.5920606E-1,-2.9997888E-3,-1.6144369E-3,-6.281127E-4,4.5931307E-4,-0E0,2.27378E-3,4.739973E-3,7.4235313E-3],"split_indices":[50,50,19,50,50,17,32,0,0,0,0,0,0,0,0],"split_type":[0,0,0,0,0,0,0,0,0,0,0,0,0,0,0],"sum_hessian":[5.59E2,4.37E2,1.22E2,3.04E2,1.33E2,3.7E1,8.5E1,5.3E1,2.51E2,1.01E2,3.2E1,3E0,3.4E1,5.7E1,2.8E1],"tree_param":{"num_deleted":"0","num_feature":"70","num_nodes":"15","size_leaf_vector":"1"}},{"base_weights":[1.4225774E-3,-2.6774732E-2,9.252893E-2,-3.766827E-2,-7.4412953E-3,5.8490694E-2,1.23185575E-1,-2.4876737E-3,-1.4644911E-3,1.11342175E-4,-7.069026E-4,3.6991783E-3,1.9396002E-3,4.8862523E-3,7.4864775E-3],"categories":[],"categories_nodes":[],"categories_segments":[],"categories_sizes":[],"default_left":[0,0,0,0,0,0,0,0,0,0,0,0,0,0,0],"id":31,"left_children":[1,3,5,7,9,11,13,-1,-1,-1,-1,-1,-1,-1,-1],"loss_changes":[1.4322535E0,8.4296584E-2,1.1236882E-1,1.7673522E-2,1.1387598E-2,5.9949756E-3,5.9024096E-3,0E0,0E0,0E0,0E0,0E0,0E0,0E0,0E0],"parents":[2147483647,0,0,1,1,2,2,3,3,4,4,5,5,6,6],"right_children":[2,4,6,8,10,12,14,-1,-1,-1,-1,-1,-1,-1,-1],"split_conditions":[3.5355285E-1,1.6551127E-1,4.0412045E-1,1.0138648E-1,1.822504E-1,6.8311507E-1,7.5920606E-1,-2.4876737E-3,-1.4644911E-3,1.11342175E-4,-7.069026E-4,3.6991783E-3,1.9396002E-3,4.8862523E-3,7.4864775E-3],"split_indices":[64,64,33,64,5,2,32,0,0,0,0,0,0,0,0],"split_type":[0,0,0,0,0,0,0,0,0,0,0,0,0,0,0],"sum_hessian":[5.53E2,4.22E2,1.31E2,2.66E2,1.56E2,6.5E1,6.6E1,1.02E2,1.64E2,5.8E1,9.8E1,3.2E1,3.3E1,3.8E1,2.8E1],"tree_param":{"num_deleted":"0","num_feature":"70","num_nodes":"15","size_leaf_vector":"1"}},{"base_weights":[-3.6364E-5,-2.335183E-2,9.915331E-2,-3.3361454E-2,1.1002288E-3,7.451822E-2,6.578987E-3,-2.4887528E-3,-1.3360321E-3,-2.9296795E-4,1.1905236E-3,7.019974E-4,3.880297E-3],"categories":[],"categories_nodes":[],"categories_segments":[],"categories_sizes":[],"default_left":[0,0,0,0,0,0,0,0,0,0,0,0,0],"id":32,"left_children":[1,3,5,7,9,11,-1,-1,-1,-1,-1,-1,-1],"loss_changes":[1.3268237E0,1.1780861E-1,5.6657314E-2,2.753526E-2,2.3113852E-2,2.0707548E-3,0E0,0E0,0E0,0E0,0E0,0E0,0E0],"parents":[2147483647,0,0,1,1,2,2,3,3,4,4,5,5],"right_children":[2,4,6,8,10,12,-1,-1,-1,-1,-1,-1,-1],"split_conditions":[4.8786828E-1,1.8024263E-1,4.7305864E-1,9.532063E-2,3.1802428E-1,4.6793762E-1,6.578987E-3,-2.4887528E-3,-1.3360321E-3,-2.9296795E-4,1.1905236E-3,7.019974E-4,3.880297E-3],"split_indices":[64,64,5,64,64,36,0,0,0,0,0,0,0],"split_type":[0,0,0,0,0,0,0,0,0,0,0,0,0],"sum_hessian":[5.75E2,4.67E2,1.08E2,3.34E2,1.33E2,6.5E1,4.3E1,9E1,2.44E2,9.9E1,3.4E1,5E0,6E1],"tree_param":{"num_deleted":"0","num_feature":"70","num_nodes":"13","size_leaf_vector":"1"}},{"base_weights":[1.2349667E-3,-2.4453472E-2,8.311123E-2,-4.1133523E-2,-1.4174846E-2,3.8434897E-2,1.0187594E-1,-2.892082E-3,-1.7553533E-3,-1.0075634E-3,7.805117E-6,-0E0,2.029232E-3,4.1743186E-3,6.4736158E-3],"categories":[],"categories_nodes":[],"categories_segments":[],"categories_sizes":[],"default_left":[0,0,0,0,0,0,0,0,0,0,0,0,0,0,0],"id":33,"left_children":[1,3,5,7,9,11,13,-1,-1,-1,-1,-1,-1,-1,-1],"loss_changes":[1.2130736E0,6.863746E-2,9.774399E-2,4.986346E-3,2.555582E-2,2.5330111E-3,1.610607E-2,0E0,0E0,0E0,0E0,0E0,0E0,0E0,0E0],"parents":[2147483647,0,0,1,1,2,2,3,3,4,4,5,5,6,6],"right_children":[2,4,6,8,10,12,14,-1,-1,-1,-1,-1,-1,-1,-1],"split_conditions":[3.5355285E-1,1.2218371E-1,3.5620773E-1,3.72617E-2,2.1230502E-1,4.3581616E-2,8.795494E-1,-2.892082E-3,-1.7553533E-3,-1.0075634E-3,7.805117E-6,-0E0,2.029232E-3,4.1743186E-3,6.4736158E-3],"split_indices":[64,64,18,64,64,33,64,0,0,0,0,0,0,0,0],"split_type":[0,0,0,0,0,0,0,0,0,0,0,0,0,0,0],"sum_hessian":[5.72E2,4.35E2,1.37E2,1.61E2,2.74E2,4.3E1,9.4E1,3.6E1,1.25E2,1.98E2,7.6E1,3E0,4E1,6.1E1,3.3E1],"tree_param":{"num_deleted":"0","num_feature":"70","num_nodes":"15","size_leaf_vector":"1"}},{"base_weights":[7.675173E-4,-2.3417171E-2,7.97893E-2,-3.532135E-2,-1.002539E-2,4.8213862E-2,1.0535929E-1,-2.732204E-3,-1.5309067E-3,1.5138793E-4,-7.7030313E-4,-0E0,2.5076913E-3,4.1622086E-3,6.434861E-3],"categories":[],"categories_nodes":[],"categories_segments":[],"categories_sizes":[],"default_left":[0,0,0,0,0,0,0,0,0,0,0,0,0,0,0],"id":34,"left_children":[1,3,5,7,9,11,13,-1,-1,-1,-1,-1,-1,-1,-1],"loss_changes":[1.0987537E0,6.477694E-2,8.855963E-2,1.0430187E-2,1.6104E-2,4.666865E-3,5.253315E-3,0E0,0E0,0E0,0E0,0E0,0E0,0E0,0E0],"parents":[2147483647,0,0,1,1,2,2,3,3,4,4,5,5,6,6],"right_children":[2,4,6,8,10,12,14,-1,-1,-1,-1,-1,-1,-1,-1],"split_conditions":[3.4142116E-1,1.4384748E-1,7.270364E-1,4.2461004E-2,1.6640253E-1,4.5166403E-2,7.572921E-1,-2.732204E-3,-1.5309067E-3,1.5138793E-4,-7.7030313E-4,-0E0,2.5076913E-3,4.1622086E-3,6.434861E-3],"split_indices":[64,64,50,64,5,33,18,0,0,0,0,0,0,0,0],"split_type":[0,0,0,0,0,0,0,0,0,0,0,0,0,0,0],"sum_hessian":[5.7E2,4.36E2,1.34E2,2.26E2,2.1E2,6.3E1,7.1E1,3.8E1,1.88E2,5.6E1,1.54E2,3E0,6E1,4.1E1,3E1],"tree_param":{"num_deleted":"0","num_feature":"70","num_nodes":"15","size_leaf_vector":"1"}},{"base_weights":[4.5597085E-4,-2.2456823E-2,7.4344546E-2,-3.2364976E-2,-9.313777E-3,3.2618478E-2,9.2405446E-2,-2.5564586E-3,-1.3881335E-3,-6.8760227E-4,4.4572047E-5,1.718182E-3,-0E0,3.883188E-3,5.915208E-3],"categories":[],"categories_nodes":[],"categories_segments":[],"categories_sizes":[],"default_left":[0,0,0,0,0,0,0,0,0,0,0,0,0,0,0],"id":35,"left_children":[1,3,5,7,9,11,13,-1,-1,-1,-1,-1,-1,-1,-1],"loss_changes":[9.633997E-1,5.16569E-2,8.622086E-2,1.1503756E-2,9.949379E-3,1.6007759E-3,6.3399673E-3,0E0,0E0,0E0,0E0,0E0,0E0,0E0,0E0],"parents":[2147483647,0,0,1,1,2,2,3,3,4,4,5,5,6,6],"right_children":[2,4,6,8,10,12,14,-1,-1,-1,-1,-1,-1,-1,-1],"split_conditions":[3.3448875E-1,1.4644714E-1,3.4967083E-1,1.7200655E-1,2.3310225E-1,5.1473135E-1,7.5920606E-1,-2.5564586E-3,-1.3881335E-3,-6.8760227E-4,4.4572047E-5,1.718182E-3,-0E0,3.883188E-3,5.915208E-3],"split_indices":[50,9,18,2,10,27,32,0,0,0,0,0,0,0,0],"split_type":[0,0,0,0,0,0,0,0,0,0,0,0,0,0,0],"sum_hessian":[5.64E2,4.3E2,1.34E2,2.4E2,1.9E2,4.3E1,9.1E1,4.1E1,1.99E2,1.39E2,5.1E1,4E1,3E0,6.3E1,2.8E1],"tree_param":{"num_deleted":"0","num_feature":"70","num_nodes":"15","size_leaf_vector":"1"}},{"base_weights":[-0E0,-2.107652E-2,7.177755E-2,-3.2940075E-2,-1.0472272E-2,3.171929E-2,8.881852E-2,-2.234313E-3,-1.3398178E-3,-7.834853E-4,-0E0,-0E0,1.6655239E-3,3.2289468E-3,5.191661E-3],"categories":[],"categories_nodes":[],"categories_segments":[],"categories_sizes":[],"default_left":[0,0,0,0,0,0,0,0,0,0,0,0,0,0,0],"id":36,"left_children":[1,3,5,7,9,11,13,-1,-1,-1,-1,-1,-1,-1,-1],"loss_changes":[8.8467294E-1,5.1799834E-2,7.591897E-2,6.592512E-3,1.4355682E-2,1.1206493E-3,9.572744E-3,0E0,0E0,0E0,0E0,0E0,0E0,0E0,0E0],"parents":[2147483647,0,0,1,1,2,2,3,3,4,4,5,5,6,6],"right_children":[2,4,6,8,10,12,14,-1,-1,-1,-1,-1,-1,-1,-1],"split_conditions":[3.5355285E-1,1.3604853E-1,3.6905608E-1,8.058926E-2,2.0710573E-1,4.5166403E-2,1.853885E-1,-2.234313E-3,-1.3398178E-3,-7.834853E-4,-0E0,-0E0,1.6655239E-3,3.2289468E-3,5.191661E-3],"split_indices":[64,64,4,36,64,47,17,0,0,0,0,0,0,0,0],"split_type":[0,0,0,0,0,0,0,0,0,0,0,0,0,0,0],"sum_hessian":[5.8E2,4.48E2,1.32E2,2.06E2,2.42E2,4.2E1,9E1,6.3E1,1.43E2,1.66E2,7.6E1,3E0,3.9E1,3.9E1,5.1E1],"tree_param":{"num_deleted":"0","num_feature":"70","num_nodes":"15","size_leaf_vector":"1"}},{"base_weights":[8.5916347E-4,-1.673036E-2,8.258649E-2,-2.3336368E-2,9.871425E-3,3.024729E-3,5.2041933E-3,-1.8720934E-3,-8.8485394E-4,8.199229E-6,1.201634E-3],"categories":[],"categories_nodes":[],"categories_segments":[],"categories_sizes":[],"default_left":[0,0,0,0,0,0,0,0,0,0,0],"id":37,"left_children":[1,3,5,7,9,-1,-1,-1,-1,-1,-1],"loss_changes":[8.1011736E-1,8.2237676E-2,2.4737477E-2,2.3334667E-2,9.81118E-3,0E0,0E0,0E0,0E0,0E0,0E0],"parents":[2147483647,0,0,1,1,2,2,3,3,4,4],"right_children":[2,4,6,8,10,-1,-1,-1,-1,-1,-1],"split_conditions":[5.121317E-1,2.4263431E-1,6.4918804E-1,1.0138648E-1,1.2720352E-1,3.024729E-3,5.2041933E-3,-1.8720934E-3,-8.8485394E-4,8.199229E-6,1.201634E-3],"split_indices":[64,64,60,64,32,0,0,0,0,0,0],"split_type":[0,0,0,0,0,0,0,0,0,0,0],"sum_hessian":[5.57E2,4.58E2,9.9E1,3.7E2,8.8E1,5.3E1,4.6E1,9.9E1,2.71E2,5.7E1,3.1E1],"tree_param":{"num_deleted":"0","num_feature":"70","num_nodes":"11","size_leaf_vector":"1"}},{"base_weights":[1.5486611E-4,-1.934769E-2,6.697333E-2,-3.081034E-2,-9.988325E-3,3.0671474E-2,8.1004776E-2,-2.3119978E-3,-1.3290921E-3,-7.2169845E-4,5.543094E-5,-0E0,1.6105473E-3,3.2752973E-3,5.233184E-3],"categories":[],"categories_nodes":[],"categories_segments":[],"categories_sizes":[],"default_left":[0,0,0,0,0,0,0,0,0,0,0,0,0,0,0],"id":38,"left_children":[1,3,5,7,9,11,13,-1,-1,-1,-1,-1,-1,-1,-1],"loss_changes":[7.3059905E-1,4.1744128E-2,5.103749E-2,3.754571E-3,1.3336474E-2,6.627925E-4,8.761883E-3,0E0,0E0,0E0,0E0,0E0,0E0,0E0,0E0],"parents":[2147483647,0,0,1,1,2,2,3,3,4,4,5,5,6,6],"right_children":[2,4,6,8,10,12,14,-1,-1,-1,-1,-1,-1,-1,-1],"split_conditions":[3.5355285E-1,1.3258232E-1,5.372617E-1,3.72617E-2,2.235702E-1,4.8335973E-2,7.5920606E-1,-2.3119978E-3,-1.3290921E-3,-7.2169845E-4,5.543094E-5,-0E0,1.6105473E-3,3.2752973E-3,5.233184E-3],"split_indices":[64,64,12,64,9,33,32,0,0,0,0,0,0,0,0],"split_type":[0,0,0,0,0,0,0,0,0,0,0,0,0,0,0],"sum_hessian":[5.55E2,4.29E2,1.26E2,1.87E2,2.42E2,3.8E1,8.8E1,3.3E1,1.54E2,1.79E2,6.3E1,3E0,3.5E1,5.8E1,3E1],"tree_param":{"num_deleted":"0","num_feature":"70","num_nodes":"15","size_leaf_vector":"1"}},{"base_weights":[-0E0,-1.774045E-2,6.2323518E-2,-2.7400676E-2,-6.391404E-3,3.046852E-2,7.72302E-2,-2.0931507E-3,-1.1718113E-3,-5.1210023E-4,2.567218E-4,-0E0,1.6113911E-3,3.2643515E-3,5.269626E-3],"categories":[],"categories_nodes":[],"categories_segments":[],"categories_sizes":[],"default_left":[0,0,0,0,0,0,0,0,0,0,0,0,0,0,0],"id":39,"left_children":[1,3,5,7,9,11,13,-1,-1,-1,-1,-1,-1,-1,-1],"loss_changes":[6.152934E-1,4.4355884E-2,4.5283943E-2,5.7333857E-3,9.750294E-3,1.6270764E-3,3.2954216E-3,0E0,0E0,0E0,0E0,0E0,0E0,0E0,0E0],"parents":[2147483647,0,0,1,1,2,2,3,3,4,4,5,5,6,6],"right_children":[2,4,6,8,10,12,14,-1,-1,-1,-1,-1,-1,-1,-1],"split_conditions":[3.6135182E-1,1.4384748E-1,2.3771791E-1,4.5060657E-2,2.746967E-1,4.5166403E-2,8.2168883E-1,-2.0931507E-3,-1.1718113E-3,-5.1210023E-4,2.567218E-4,-0E0,1.6113911E-3,3.2643515E-3,5.269626E-3],"split_indices":[50,64,61,36,64,33,46,0,0,0,0,0,0,0,0],"split_type":[0,0,0,0,0,0,0,0,0,0,0,0,0,0,0],"sum_hessian":[5.58E2,4.36E2,1.22E2,2.3E2,2.06E2,4.2E1,8E1,4.2E1,1.88E2,1.61E2,4.5E1,3E0,3.9E1,6.1E1,1.9E1],"tree_param":{"num_deleted":"0","num_feature":"70","num_nodes":"15","size_leaf_vector":"1"}},{"base_weights":[1.660044E-5,-1.7844236E-2,5.897031E-2,-2.4905866E-2,-5.4358435E-3,3.454776E-2,7.908997E-2,-2.131432E-3,-1.0949875E-3,-5.041689E-4,-0E0,1.987659E-3,7.2948734E-4,3.207034E-3,5.157597E-3],"categories":[],"categories_nodes":[],"categories_segments":[],"categories_sizes":[],"default_left":[0,0,0,0,0,0,0,0,0,0,0,0,0,0,0],"id":40,"left_children":[1,3,5,7,9,11,13,-1,-1,-1,-1,-1,-1,-1,-1],"loss_changes":[6.095654E-1,3.538479E-2,5.223927E-2,7.2646886E-3,4.245673E-3,7.3854625E-4,2.1938384E-3,0E0,0E0,0E0,0E0,0E0,0E0,0E0,0E0],"parents":[2147483647,0,0,1,1,2,2,3,3,4,4,5,5,6,6],"right_children":[2,4,6,8,10,12,14,-1,-1,-1,-1,-1,-1,-1,-1],"split_conditions":[3.3448875E-1,1.6117851E-1,7.209705E-1,3.72617E-2,1.9757366E-1,2.0081934E-1,7.882135E-1,-2.131432E-3,-1.0949875E-3,-5.041689E-4,-0E0,1.987659E-3,7.2948734E-4,3.207034E-3,5.157597E-3],"split_indices":[50,64,50,64,64,59,18,0,0,0,0,0,0,0,0],"split_type":[0,0,0,0,0,0,0,0,0,0,0,0,0,0,0],"sum_hessian":[5.73E2,4.39E2,1.34E2,2.74E2,1.65E2,6.4E1,7E1,3.3E1,2.41E2,8.9E1,7.6E1,4.6E1,1.8E1,4.8E1,2.2E1],"tree_param":{"num_deleted":"0","num_feature":"70","num_nodes":"15","size_leaf_vector":"1"}},{"base_weights":[3.5939654E-5,-1.6909728E-2,5.5738285E-2,-2.3991067E-2,-5.5419183E-3,3.2705814E-2,3.805127E-3,-1.8814731E-3,-1.0350993E-3,-4.7306257E-4,-0E0,1.7127258E-3,-0E0],"categories":[],"categories_nodes":[],"categories_segments":[],"categories_sizes":[],"default_left":[0,0,0,0,0,0,0,0,0,0,0,0,0],"id":41,"left_children":[1,3,5,7,9,11,-1,-1,-1,-1,-1,-1,-1],"loss_changes":[5.32473E-1,3.136746E-2,4.8543334E-2,4.961163E-3,3.968175E-3,2.1508262E-3,0E0,0E0,0E0,0E0,0E0,0E0,0E0],"parents":[2147483647,0,0,1,1,2,2,3,3,4,4,5,5],"right_children":[2,4,6,8,10,12,-1,-1,-1,-1,-1,-1,-1],"split_conditions":[3.3448875E-1,1.5857886E-1,4.0649763E-1,1.7200655E-1,2.1143848E-1,9.291394E-1,3.805127E-3,-1.8814731E-3,-1.0350993E-3,-4.7306257E-4,-0E0,1.7127258E-3,-0E0],"split_indices":[50,9,47,2,50,2,0,0,0,0,0,0,0],"split_type":[0,0,0,0,0,0,0,0,0,0,0,0,0],"sum_hessian":[5.58E2,4.27E2,1.31E2,2.57E2,1.7E2,6.5E1,6.6E1,4.2E1,2.15E2,1.02E2,6.8E1,6.1E1,4E0],"tree_param":{"num_deleted":"0","num_feature":"70","num_nodes":"13","size_leaf_vector":"1"}},{"base_weights":[2.7012857E-4,-1.3471033E-2,6.354054E-2,-2.0534292E-2,3.4886647E-3,2.2060103E-3,3.7790395E-3,-1.4176371E-3,-7.1152503E-4,-6.7757355E-5,8.048309E-4],"categories":[],"categories_nodes":[],"categories_segments":[],"categories_sizes":[],"default_left":[0,0,0,0,0,0,0,0,0,0,0],"id":42,"left_children":[1,3,5,7,9,-1,-1,-1,-1,-1,-1],"loss_changes":[5.005566E-1,5.7718486E-2,8.779317E-3,1.1799693E-2,9.679415E-3,0E0,0E0,0E0,0E0,0E0,0E0],"parents":[2147483647,0,0,1,1,2,2,3,3,4,4],"right_children":[2,4,6,8,10,-1,-1,-1,-1,-1,-1],"split_conditions":[5.0606585E-1,1.8024263E-1,7.556326E-1,1.135182E-1,3.1802428E-1,2.2060103E-3,3.7790395E-3,-1.4176371E-3,-7.1152503E-4,-6.7757355E-5,8.048309E-4],"split_indices":[64,64,64,64,64,0,0,0,0,0,0],"split_type":[0,0,0,0,0,0,0,0,0,0,0],"sum_hessian":[5.68E2,4.66E2,1.02E2,3.33E2,1.33E2,4.4E1,5.8E1,1.4E2,1.93E2,9.1E1,4.2E1],"tree_param":{"num_deleted":"0","num_feature":"70","num_nodes":"11","size_leaf_vector":"1"}},{"base_weights":[2.7137253E-4,-1.3692615E-2,5.6024015E-2,-2.1803373E-2,-3.8676485E-3,4.3617487E-2,4.0860805E-3,-1.5757151E-3,-8.997743E-4,-3.6700116E-4,3.8527304E-4,-0E0,2.2709172E-3],"categories":[],"categories_nodes":[],"categories_segments":[],"categories_sizes":[],"default_left":[0,0,0,0,0,0,0,0,0,0,0,0,0],"id":43,"left_children":[1,3,5,7,9,11,-1,-1,-1,-1,-1,-1,-1],"loss_changes":[4.495404E-1,3.3686265E-2,2.0884484E-2,3.5045668E-3,8.5796695E-3,5.056992E-3,0E0,0E0,0E0,0E0,0E0,0E0,0E0],"parents":[2147483647,0,0,1,1,2,2,3,3,4,4,5,5],"right_children":[2,4,6,8,10,12,-1,-1,-1,-1,-1,-1,-1],"split_conditions":[4.3067592E-1,1.4818025E-1,8.240901E-1,7.97227E-2,2.9029462E-1,4.8335973E-2,4.0860805E-3,-1.5757151E-3,-8.997743E-4,-3.6700116E-4,3.8527304E-4,-0E0,2.2709172E-3],"split_indices":[64,64,50,64,64,47,0,0,0,0,0,0,0],"split_type":[0,0,0,0,0,0,0,0,0,0,0,0,0],"sum_hessian":[5.7E2,4.55E2,1.15E2,2.43E2,2.12E2,8.2E1,3.3E1,5.9E1,1.84E2,1.7E2,4.2E1,4E0,7.8E1],"tree_param":{"num_deleted":"0","num_feature":"70","num_nodes":"13","size_leaf_vector":"1"}},{"base_weights":[4.2016862E-4,-1.2057376E-2,5.7689697E-2,-1.793351E-2,4.792773E-3,4.9540106E-2,4.556439E-3,-1.219416E-3,-5.698181E-4,-1.8242556E-5,7.243405E-4,-0E0,2.5312323E-3],"categories":[],"categories_nodes":[],"categories_segments":[],"categories_sizes":[],"default_left":[0,0,0,0,0,0,0,0,0,0,0,0,0],"id":44,"left_children":[1,3,5,7,9,11,-1,-1,-1,-1,-1,-1,-1],"loss_changes":[3.9827955E-1,4.605522E-2,8.670032E-3,1.0448061E-2,7.067277E-3,1.5451908E-3,0E0,0E0,0E0,0E0,0E0,0E0,0E0],"parents":[2147483647,0,0,1,1,2,2,3,3,4,4,5,5],"right_children":[2,4,6,8,10,12,-1,-1,-1,-1,-1,-1,-1],"split_conditions":[5.0606585E-1,1.9757366E-1,9.159445E-1,1.21317156E-1,3.1802428E-1,2.3967291E-1,4.556439E-3,-1.219416E-3,-5.698181E-4,-1.8242556E-5,7.243405E-4,-0E0,2.5312323E-3],"split_indices":[64,64,64,64,64,4,0,0,0,0,0,0,0],"split_type":[0,0,0,0,0,0,0,0,0,0,0,0,0],"sum_hessian":[5.49E2,4.5E2,9.9E1,3.38E2,1.12E2,8.4E1,1.5E1,1.61E2,1.77E2,6.7E1,4.5E1,3E0,8.1E1],"tree_param":{"num_deleted":"0","num_feature":"70","num_nodes":"13","size_leaf_vector":"1"}},{"base_weights":[6.673587E-4,-1.2981516E-2,4.9812004E-2,-1.8571356E-2,-1.2194223E-3,5.9461273E-2,1.895606E-2,-1.3794311E-3,-7.1057794E-4,-2.563082E-4,3.2358256E-4,2.416685E-3,4.1229813E-3,1.1722761E-3,-0E0],"categories":[],"categories_nodes":[],"categories_segments":[],"categories_sizes":[],"default_left":[0,0,0,0,0,0,0,0,0,0,0,0,0,0,0],"id":45,"left_children":[1,3,5,7,9,11,13,-1,-1,-1,-1,-1,-1,-1,-1],"loss_changes":[3.7526503E-1,2.6401512E-2,2.7355045E-2,6.7108646E-3,4.2854934E-3,5.967498E-3,1.3346532E-3,0E0,0E0,0E0,0E0,0E0,0E0,0E0,0E0],"parents":[2147483647,0,0,1,1,2,2,3,3,4,4,5,5,6,6],"right_children":[2,4,6,8,10,12,14,-1,-1,-1,-1,-1,-1,-1,-1],"split_conditions":[3.4835356E-1,1.6811092E-1,6.5458375E-1,9.532063E-2,2.8076255E-1,7.9722387E-1,4.913345E-1,-1.3794311E-3,-7.1057794E-4,-2.563082E-4,3.2358256E-4,2.416685E-3,4.1229813E-3,1.1722761E-3,-0E0],"split_indices":[8,65,44,65,65,46,9,0,0,0,0,0,0,0,0],"split_type":[0,0,0,0,0,0,0,0,0,0,0,0,0,0,0],"sum_hessian":[5.52E2,4.31E2,1.21E2,2.86E2,1.45E2,8.9E1,3.2E1,8.4E1,2.02E2,1.05E2,4E1,6.5E1,2.4E1,2.3E1,9E0],"tree_param":{"num_deleted":"0","num_feature":"70","num_nodes":"15","size_leaf_vector":"1"}},{"base_weights":[3.1560005E-4,-1.3292078E-2,4.385278E-2,-2.0754317E-2,-6.733396E-3,3.4028016E-2,7.8915596E-2,-1.770938E-3,-9.045657E-4,-4.4692913E-4,-0E0,8.3722407E-4,2.1060465E-3,4.2671394E-3,6.78369E-4],"categories":[],"categories_nodes":[],"categories_segments":[],"categories_sizes":[],"default_left":[0,0,0,0,0,0,0,0,0,0,0,0,0,0,0],"id":46,"left_children":[1,3,5,7,9,11,13,-1,-1,-1,-1,-1,-1,-1,-1],"loss_changes":[3.3955243E-1,1.8205673E-2,3.321457E-2,1.5842095E-3,4.070485E-3,8.9342E-3,2.912581E-4,0E0,0E0,0E0,0E0,0E0,0E0,0E0,0E0],"parents":[2147483647,0,0,1,1,2,2,3,3,4,4,5,5,6,6],"right_children":[2,4,6,8,10,12,14,-1,-1,-1,-1,-1,-1,-1,-1],"split_conditions":[3.2322356E-1,1.2911612E-1,7.882135E-1,3.119584E-2,2.322357E-1,3.38187E-1,4.630616E-1,-1.770938E-3,-9.045657E-4,-4.4692913E-4,-0E0,8.3722407E-4,2.1060465E-3,4.2671394E-3,6.78369E-4],"split_indices":[64,64,60,64,9,4,31,0,0,0,0,0,0,0,0],"split_type":[0,0,0,0,0,0,0,0,0,0,0,0,0,0,0],"sum_hessian":[5.66E2,4.3E2,1.36E2,1.93E2,2.37E2,1.1E2,2.6E1,2.2E1,1.71E2,1.85E2,5.2E1,4E1,7E1,2.2E1,4E0],"tree_param":{"num_deleted":"0","num_feature":"70","num_nodes":"15","size_leaf_vector":"1"}}]},"name":"gbtree"},"learner_model_param":{"base_score":"2.7717257E-1","boost_from_average":"1","num_class":"0","num_feature":"70","num_target":"1"},"objective":{"name":"reg:squarederror","reg_loss_param":{"scale_pos_weight":"1"}}},"version":[2,1,4]}