{"learner":{"attributes":{"best_iteration":"51","best_score":"0.05716177442875561","scikit_learn":"{\"_estimator_type\": \"regressor\"}"},"feature_names":[],"feature_types":[],"gradient_booster":{"model":{"gbtree_model_param":{"num_parallel_tree":"1","num_trees":"62"},"iteration_indptr":[0,1,2,3,4,5,6,7,8,9,10,11,12,13,14,15,16,17,18,19,20,21,22,23,24,25,26,27,28,29,30,31,32,33,34,35,36,37,38,39,40,41,42,43,44,45,46,47,48,49,50,51,52,53,54,55,56,57,58,59,60,61,62],"tree_info":[0,0,0,0,0,0,0,0,0,0,0,0,0,0,0,0,0,0,0,0,0,0,0,0,0,0,0,0,0,0,0,0,0,0,0,0,0,0,0,0,0,0,0,0,0,0,0,0,0,0,0,0,0,0,0,0,0,0,0,0,0,0],"trees":[{"base_weights":[3.601376E-3,-1.223963E-1,4.5654786E-1,-1.5180233E-1,2.3364201E-2,2.448893E-1,5.425993E-1,-9.296513E-3,-5.639059E-3,2.825707E-3,-1.4711025E-5,9.620316E-3,1.52934715E-2,2.299938E-2,3.1495836E-2],"categories":[],"categories_nodes":[],"categories_segments":[],"categories_sizes":[],"default_left":[0,0,0,0,0,0,0,0,0,0,0,0,0,0,0],"id":0,"left_children":[1,3,5,7,9,11,13,-1,-1,-1,-1,-1,-1,-1,-1],"loss_changes":[3.2505173E1,1.9237666E0,2.0468502E0,4.4322395E-1,6.4459264E-2,1.29368305E-2,2.2882462E-1,0E0,0E0,0E0,0E0,0E0,0E0,0E0,0E0],"parents":[2147483647,0,0,1,1,2,2,3,3,4,4,5,5,6,6],"right_children":[2,4,6,8,10,12,14,-1,-1,-1,-1,-1,-1,-1,-1],"split_conditions":[3.0321544E-1,2.8376183E-1,8.150753E-1,-3.4204295E-1,-3.0693162E-2,5.244639E-1,1.2138476E0,-9.296513E-3,-5.639059E-3,2.825707E-3,-1.4711025E-5,9.620316E-3,1.52934715E-2,2.299938E-2,3.1495836E-2],"split_indices":[0,1,0,0,3,0,0,0,0,0,0,0,0,0,0],"split_type":[0,0,0,0,0,0,0,0,0,0,0,0,0,0,0],"sum_hessian":[5.67E2,4.44E2,1.23E2,3.7E2,7.4E1,3.7E1,8.6E1,1.94E2,1.76E2,3.2E1,4.2E1,2.3E1,1.4E1,4.8E1,3.8E1],"tree_param":{"num_deleted":"0","num_feature":"30","num_nodes":"15","size_leaf_vector":"1"}},{"base_weights":[-5.294175E-3,-1.8168742E-2,2.8362105E-2,-3.0356046E-2,2.1781083E-2,-2.7337917E-3,8.2968315E-3],"categories":[],"categories_nodes":[],"categories_segments":[],"categories_sizes":[],"default_left":[0,0,0,0,0,0,0],"id":1,"left_children":[1,3,-1,5,-1,-1,-1],"loss_changes":[4.024277E0,2.9646876E0,0E0,2.5185106E0,0E0,0E0,0E0],"parents":[2147483647,0,0,1,1,3,3],"right_children":[2,4,-1,6,-1,-1,-1],"split_conditions":[2.2276709E-2,7.004836E-3,2.8362105E-2,2.1370193E-2,2.1781083E-2,-2.7337917E-3,8.2968315E-3],"split_indices":[14,26,0,9,0,0,0],"split_type":[0,0,0,0,0,0,0],"sum_hessian":[5.51E2,5.4E2,1.1E1,5.27E2,1.3E1,4.7E2,5.7E1],"tree_param":{"num_deleted":"0","num_feature":"30","num_nodes":"7","size_leaf_vector":"1"}},{"base_weights":[-3.9071296E-3,-1.1363221E-1,4.1758862E-1,-1.4125355E-1,1.7394276E-2,2.2571087E-1,5.142717E-1,-9.033899E-3,-5.3569586E-3,2.4029287E-3,-1.5154194E-4,9.122726E-3,1.46024125E-2,2.168863E-2,2.9248044E-2],"categories":[],"categories_nodes":[],"categories_segments":[],"categories_sizes":[],"default_left":[0,0,0,0,0,0,0,0,0,0,0,0,0,0,0],"id":2,"left_children":[1,3,5,7,9,11,13,-1,-1,-1,-1,-1,-1,-1,-1],"loss_changes":[2.6656282E1,1.6724033E0,2.0175323E0,4.6159267E-1,5.4754168E-2,1.9783735E-2,8.823967E-2,0E0,0E0,0E0,0E0,0E0,0E0,0E0,0E0],"parents":[2147483647,0,0,1,1,2,2,3,3,4,4,5,5,6,6],"right_children":[2,4,6,8,10,12,14,-1,-1,-1,-1,-1,-1,-1,-1],"split_conditions":[2.413951E-1,2.8376183E-1,8.150753E-1,-3.5701838E-1,-3.2157894E-2,5.244639E-1,1.1707908E0,-9.033899E-3,-5.3569586E-3,2.4029287E-3,-1.5154194E-4,9.122726E-3,1.46024125E-2,2.168863E-2,2.9248044E-2],"split_indices":[0,1,0,0,3,0,0,0,0,0,0,0,0,0,0],"split_type":[0,0,0,0,0,0,0,0,0,0,0,0,0,0,0],"sum_hessian":[5.75E2,4.57E2,1.18E2,3.78E2,7.9E1,4.1E1,7.7E1,1.72E2,2.06E2,3.3E1,4.6E1,2.8E1,1.3E1,4E1,3.7E1],"tree_param":{"num_deleted":"0","num_feature":"30","num_nodes":"15","size_leaf_vector":"1"}},{"base_weights":[1.8703543E-4,-1.1214938E-1,3.9507535E-1,-1.3597998E-1,1.6994916E-2,1.0399255E-2,4.8049948E-1,-1.0648145E-2,-5.967969E-3,2.3170323E-3,-3.070897E-4,2.0750972E-2,2.7872836E-2],"categories":[],"categories_nodes":[],"categories_segments":[],"categories_sizes":[],"default_left":[0,0,0,0,0,0,0,0,0,0,0,0,0],"id":3,"left_children":[1,3,5,7,9,-1,11,-1,-1,-1,-1,-1,-1],"loss_changes":[2.4825668E1,1.3529601E0,1.8129864E0,4.122057E-1,5.0474033E-2,0E0,9.468651E-2,0E0,0E0,0E0,0E0,0E0,0E0],"parents":[2147483647,0,0,1,1,2,2,3,3,4,4,6,6],"right_children":[2,4,6,8,10,-1,12,-1,-1,-1,-1,-1,-1],"split_conditions":[2.413951E-1,-1.1865732E-1,8.150753E-1,-4.3279895E-1,-3.0693162E-2,1.0399255E-2,1.2138476E0,-1.0648145E-2,-5.967969E-3,2.3170323E-3,-3.070897E-4,2.0750972E-2,2.7872836E-2],"split_indices":[0,0,0,0,3,0,0,0,0,0,0,0,0],"split_type":[0,0,0,0,0,0,0,0,0,0,0,0,0],"sum_hessian":[5.57E2,4.34E2,1.23E2,3.67E2,6.7E1,4E1,8.3E1,6.2E1,3.05E2,3.1E1,3.6E1,4.9E1,3.4E1],"tree_param":{"num_deleted":"0","num_feature":"30","num_nodes":"13","size_leaf_vector":"1"}},{"base_weights":[3.694571E-4,-1.0248629E-1,3.8563055E-1,-1.3295625E-1,-3.3483543E-3,2.130345E-1,4.6600622E-1,-8.677109E-3,-5.4344414E-3,-2.5869776E-3,1.2559489E-3,8.351274E-3,1.3411726E-2,1.9784274E-2,2.6541475E-2],"categories":[],"categories_nodes":[],"categories_segments":[],"categories_sizes":[],"default_left":[0,0,0,0,0,0,0,0,0,0,0,0,0,0,0],"id":4,"left_children":[1,3,5,7,9,11,13,-1,-1,-1,-1,-1,-1,-1,-1],"loss_changes":[2.293222E1,1.3633771E0,1.5252686E0,2.9566622E-1,1.5411666E-1,1.5799522E-2,7.109642E-2,0E0,0E0,0E0,0E0,0E0,0E0,0E0,0E0],"parents":[2147483647,0,0,1,1,2,2,3,3,4,4,5,5,6,6],"right_children":[2,4,6,8,10,12,14,-1,-1,-1,-1,-1,-1,-1,-1],"split_conditions":[3.0321544E-1,-1.6026743E-1,8.150753E-1,-3.8996634E-1,2.5511704E-2,5.244639E-1,1.1707908E0,-8.677109E-3,-5.4344414E-3,-2.5869776E-3,1.2559489E-3,8.351274E-3,1.3411726E-2,1.9784274E-2,2.6541475E-2],"split_indices":[0,0,0,0,0,0,0,0,0,0,0,0,0,0,0],"split_type":[0,0,0,0,0,0,0,0,0,0,0,0,0,0,0],"sum_hessian":[5.76E2,4.55E2,1.21E2,3.47E2,1.08E2,4E1,8.1E1,1.26E2,2.21E2,4.1E1,6.7E1,2.5E1,1.5E1,4.3E1,3.8E1],"tree_param":{"num_deleted":"0","num_feature":"30","num_nodes":"15","size_leaf_vector":"1"}},{"base_weights":[-3.1979529E-3,-9.624071E-2,3.4861282E-1,-1.2427922E-1,-0E0,8.763802E-3,4.2967355E-1,-7.619073E-3,-4.588933E-3,1.286779E-3,-2.1845188E-3,1.824856E-2,2.5176821E-2],"categories":[],"categories_nodes":[],"categories_segments":[],"categories_sizes":[],"default_left":[0,0,0,0,0,0,0,0,0,0,0,0,0],"id":5,"left_children":[1,3,5,7,9,-1,11,-1,-1,-1,-1,-1,-1],"loss_changes":[1.8633642E1,1.2131324E0,1.5362396E0,2.8035402E-1,1.1749591E-1,0E0,1.1170006E-1,0E0,0E0,0E0,0E0,0E0,0E0],"parents":[2147483647,0,0,1,1,2,2,3,3,4,4,6,6],"right_children":[2,4,6,8,10,-1,12,-1,-1,-1,-1,-1,-1],"split_conditions":[2.413951E-1,-1.4393954E-1,7.4318075E-1,-3.4402466E-1,2.3107817E-2,8.763802E-3,1.2138476E0,-7.619073E-3,-4.588933E-3,1.286779E-3,-2.1845188E-3,1.824856E-2,2.5176821E-2],"split_indices":[0,0,0,0,5,0,0,0,0,0,0,0,0],"split_type":[0,0,0,0,0,0,0,0,0,0,0,0,0],"sum_hessian":[5.68E2,4.5E2,1.18E2,3.48E2,1.02E2,3.9E1,7.9E1,1.83E2,1.65E2,6.4E1,3.8E1,4.6E1,3.3E1],"tree_param":{"num_deleted":"0","num_feature":"30","num_nodes":"13","size_leaf_vector":"1"}},{"base_weights":[2.0028355E-3,-9.4676696E-2,3.4305596E-1,-1.1958982E-1,-5.555349E-5,1.8702626E-1,4.2231238E-1,-9.660239E-3,-5.366238E-3,1.3507799E-3,-2.20024E-3,7.3699565E-3,1.2169399E-2,1.782144E-2,2.393352E-2],"categories":[],"categories_nodes":[],"categories_segments":[],"categories_sizes":[],"default_left":[0,0,0,0,0,0,0,0,0,0,0,0,0,0,0],"id":6,"left_children":[1,3,5,7,9,11,13,-1,-1,-1,-1,-1,-1,-1,-1],"loss_changes":[1.8950766E1,1.0417461E0,1.4306097E0,2.6793242E-1,1.1591463E-1,2.5551438E-2,5.406189E-2,0E0,0E0,0E0,0E0,0E0,0E0,0E0,0E0],"parents":[2147483647,0,0,1,1,2,2,3,3,4,4,5,5,6,6],"right_children":[2,4,6,8,10,12,14,-1,-1,-1,-1,-1,-1,-1,-1],"split_conditions":[2.413951E-1,-1.6026743E-1,8.150753E-1,-3.0543602E-1,5.437634E-2,5.244639E-1,1.1707908E0,-9.660239E-3,-5.366238E-3,1.3507799E-3,-2.20024E-3,7.3699565E-3,1.2169399E-2,1.782144E-2,2.393352E-2],"split_indices":[0,0,0,1,5,0,0,0,0,0,0,0,0,0,0],"split_type":[0,0,0,0,0,0,0,0,0,0,0,0,0,0,0],"sum_hessian":[5.72E2,4.46E2,1.26E2,3.52E2,9.4E1,4.4E1,8.2E1,4.7E1,3.05E2,5.7E1,3.7E1,2.9E1,1.5E1,4.2E1,4E1],"tree_param":{"num_deleted":"0","num_feature":"30","num_nodes":"15","size_leaf_vector":"1"}},{"base_weights":[-2.306706E-3,2.2127492E-2,-1.7656738E-2,-3.0398855E-2,2.5071147E-1,4.326684E-3,-3.371786E-3,1.938406E-2,-3.8154672E-3],"categories":[],"categories_nodes":[],"categories_segments":[],"categories_sizes":[],"default_left":[0,0,0,0,0,0,0,0,0],"id":7,"left_children":[1,-1,3,5,7,-1,-1,-1,-1],"loss_changes":[3.8917482E0,0E0,1.8902955E0,2.3122494E0,1.1805193E0,0E0,0E0,0E0,0E0],"parents":[2147483647,0,0,2,2,3,3,4,4],"right_children":[2,-1,4,6,8,-1,-1,-1,-1],"split_conditions":[-2.4706466E-1,2.2127492E-2,1.0870358E-2,-1.0669839E-1,-1.7951505E-1,4.326684E-3,-3.371786E-3,1.938406E-2,-3.8154672E-3],"split_indices":[2,0,16,3,1,0,0,0,0],"split_type":[0,0,0,0,0,0,0,0,0],"sum_hessian":[5.74E2,1.8E1,5.56E2,5.32E2,2.4E1,1.27E2,4.05E2,1.7E1,7E0],"tree_param":{"num_deleted":"0","num_feature":"30","num_nodes":"9","size_leaf_vector":"1"}},{"base_weights":[1.7141002E-3,-8.704186E-2,3.2486206E-1,-1.2580045E-1,-2.3374029E-2,1.8097164E-1,3.9428887E-1,-9.082152E-3,-5.5482117E-3,-2.8930658E-3,1.2448848E-3,6.987419E-3,1.177758E-2,1.678675E-2,2.2608114E-2],"categories":[],"categories_nodes":[],"categories_segments":[],"categories_sizes":[],"default_left":[0,0,0,0,0,0,0,0,0,0,0,0,0,0,0],"id":8,"left_children":[1,3,5,7,9,11,13,-1,-1,-1,-1,-1,-1,-1,-1],"loss_changes":[1.6629856E1,1.1024668E0,1.1198502E0,1.8338966E-1,2.944053E-1,2.630043E-2,5.066681E-2,0E0,0E0,0E0,0E0,0E0,0E0,0E0,0E0],"parents":[2147483647,0,0,1,1,2,2,3,3,4,4,5,5,6,6],"right_children":[2,4,6,8,10,12,14,-1,-1,-1,-1,-1,-1,-1,-1],"split_conditions":[3.0321544E-1,-2.5718442E-1,8.150753E-1,-3.0543602E-1,-7.224354E-3,5.244639E-1,1.3055643E0,-9.082152E-3,-5.5482117E-3,-2.8930658E-3,1.2448848E-3,6.987419E-3,1.177758E-2,1.678675E-2,2.2608114E-2],"split_indices":[0,0,0,1,0,0,0,0,0,0,0,0,0,0,0],"split_type":[0,0,0,0,0,0,0,0,0,0,0,0,0,0,0],"sum_hessian":[5.77E2,4.53E2,1.24E2,2.8E2,1.73E2,4.2E1,8.2E1,5.5E1,2.25E2,1.02E2,7.1E1,2.7E1,1.5E1,4.5E1,3.7E1],"tree_param":{"num_deleted":"0","num_feature":"30","num_nodes":"15","size_leaf_vector":"1"}},{"base_weights":[7.7707246E-3,-8.411145E-2,3.096719E-1,-1.067733E-1,-5.907563E-4,1.7197205E-1,3.70237E-1,-6.3650953E-3,-3.6806208E-3,1.0763615E-3,-1.7020584E-3,6.61185E-3,1.1225506E-2,1.61041E-2,2.1314656E-2],"categories":[],"categories_nodes":[],"categories_segments":[],"categories_sizes":[],"default_left":[0,0,0,0,0,0,0,0,0,0,0,0,0,0,0],"id":9,"left_children":[1,3,5,7,9,11,13,-1,-1,-1,-1,-1,-1,-1,-1],"loss_changes":[1.5804547E1,8.144326E-1,9.9130154E-1,2.0335293E-1,7.22705E-2,2.4403691E-2,3.350544E-2,0E0,0E0,0E0,0E0,0E0,0E0,0E0,0E0],"parents":[2147483647,0,0,1,1,2,2,3,3,4,4,5,5,6,6],"right_children":[2,4,6,8,10,12,14,-1,-1,-1,-1,-1,-1,-1,-1],"split_conditions":[2.413951E-1,-1.6026743E-1,8.150753E-1,-3.3178613E-1,2.3107817E-2,5.244639E-1,1.3055643E0,-6.3650953E-3,-3.6806208E-3,1.0763615E-3,-1.7020584E-3,6.61185E-3,1.1225506E-2,1.61041E-2,2.1314656E-2],"split_indices":[0,0,0,0,5,0,0,0,0,0,0,0,0,0,0],"split_type":[0,0,0,0,0,0,0,0,0,0,0,0,0,0,0],"sum_hessian":[5.67E2,4.35E2,1.32E2,3.41E2,9.4E1,4.2E1,9E1,2.07E2,1.34E2,5.5E1,3.9E1,2.7E1,1.5E1,5.3E1,3.7E1],"tree_param":{"num_deleted":"0","num_feature":"30","num_nodes":"15","size_leaf_vector":"1"}},{"base_weights":[-0E0,-7.752011E-2,2.8681436E-1,-1.1250814E-1,-2.4153935E-2,7.5229816E-3,3.502745E-1,-8.287317E-3,-5.0221398E-3,-2.5615632E-3,1.1143668E-3,1.51041215E-2,2.0034214E-2],"categories":[],"categories_nodes":[],"categories_segments":[],"categories_sizes":[],"default_left":[0,0,0,0,0,0,0,0,0,0,0,0,0],"id":10,"left_children":[1,3,5,7,9,-1,11,-1,-1,-1,-1,-1,-1],"loss_changes":[1.2746248E1,8.2571316E-1,9.529009E-1,1.3080668E-1,2.3164469E-1,0E0,7.890701E-3,0E0,0E0,0E0,0E0,0E0,0E0],"parents":[2147483647,0,0,1,1,2,2,3,3,4,4,6,6],"right_children":[2,4,6,8,10,-1,12,-1,-1,-1,-1,-1,-1],"split_conditions":[3.0321544E-1,-2.7937195E-1,8.150753E-1,-4.1798976E-1,2.0508261E-2,7.5229816E-3,1.3055643E0,-8.287317E-3,-5.0221398E-3,-2.5615632E-3,1.1143668E-3,1.51041215E-2,2.0034214E-2],"split_indices":[0,0,0,1,0,0,0,0,0,0,0,0,0],"split_type":[0,0,0,0,0,0,0,0,0,0,0,0,0],"sum_hessian":[5.71E2,4.5E2,1.21E2,2.7E2,1.8E2,4E1,8.1E1,4.6E1,2.24E2,1.15E2,6.5E1,4.6E1,3.5E1],"tree_param":{"num_deleted":"0","num_feature":"30","num_nodes":"13","size_leaf_vector":"1"}},{"base_weights":[-8.0990634E-4,-7.5845E-2,2.7958053E-1,-1.0771426E-1,-2.4353549E-2,1.5096107E-1,1.6841112E-2,-7.8582475E-3,-4.7486406E-3,-2.4686565E-3,1.0961442E-3,5.97977E-3,9.840025E-3],"categories":[],"categories_nodes":[],"categories_segments":[],"categories_sizes":[],"default_left":[0,0,0,0,0,0,0,0,0,0,0,0,0],"id":11,"left_children":[1,3,5,7,9,11,-1,-1,-1,-1,-1,-1,-1],"loss_changes":[1.1866896E1,7.160537E-1,7.7649975E-1,1.3249993E-1,2.0412976E-1,8.9758635E-4,0E0,0E0,0E0,0E0,0E0,0E0,0E0],"parents":[2147483647,0,0,1,1,2,2,3,3,4,4,5,5],"right_children":[2,4,6,8,10,12,-1,-1,-1,-1,-1,-1,-1],"split_conditions":[2.413951E-1,-2.7209222E-1,8.150753E-1,-3.0543602E-1,2.0508261E-2,5.244639E-1,1.6841112E-2,-7.8582475E-3,-4.7486406E-3,-2.4686565E-3,1.0961442E-3,5.97977E-3,9.840025E-3],"split_indices":[0,0,0,1,0,0,0,0,0,0,0,0,0],"split_type":[0,0,0,0,0,0,0,0,0,0,0,0,0],"sum_hessian":[5.63E2,4.45E2,1.18E2,2.73E2,1.72E2,3.8E1,8E1,5.2E1,2.21E2,1.13E2,5.9E1,2.6E1,1.2E1],"tree_param":{"num_deleted":"0","num_feature":"30","num_nodes":"13","size_leaf_vector":"1"}},{"base_weights":[2.832925E-3,-7.174818E-2,2.6522988E-1,-9.2181906E-2,-8.5627614E-4,6.586802E-3,3.1605256E-1,-5.93188E-3,-3.5558583E-3,8.8148064E-4,-1.5388906E-3,1.3274031E-2,1.8506525E-2],"categories":[],"categories_nodes":[],"categories_segments":[],"categories_sizes":[],"default_left":[0,0,0,0,0,0,0,0,0,0,0,0,0],"id":12,"left_children":[1,3,5,7,9,-1,11,-1,-1,-1,-1,-1,-1],"loss_changes":[1.1134486E1,6.3089204E-1,7.684336E-1,1.6317797E-1,5.772317E-2,0E0,8.4311485E-2,0E0,0E0,0E0,0E0,0E0,0E0],"parents":[2147483647,0,0,1,1,2,2,3,3,4,4,6,6],"right_children":[2,4,6,8,10,-1,12,-1,-1,-1,-1,-1,-1],"split_conditions":[2.413951E-1,-1.8360311E-1,7.699555E-1,-3.7499326E-1,2.3107817E-2,6.586802E-3,1.2138476E0,-5.93188E-3,-3.5558583E-3,8.8148064E-4,-1.5388906E-3,1.3274031E-2,1.8506525E-2],"split_indices":[0,0,0,0,5,0,0,0,0,0,0,0,0],"split_type":[0,0,0,0,0,0,0,0,0,0,0,0,0],"sum_hessian":[5.66E2,4.41E2,1.25E2,3.41E2,1E2,3.6E1,8.9E1,1.47E2,1.94E2,6E1,4E1,5E1,3.9E1],"tree_param":{"num_deleted":"0","num_feature":"30","num_nodes":"13","size_leaf_vector":"1"}},{"base_weights":[5.732918E-4,-6.7493714E-2,2.4708693E-1,-9.567171E-2,-2.1363512E-2,5.8361213E-3,2.9647368E-1,-7.171323E-3,-4.29886E-3,-2.1861938E-3,6.252583E-4,1.1574884E-2,1.629979E-2],"categories":[],"categories_nodes":[],"categories_segments":[],"categories_sizes":[],"default_left":[0,0,0,0,0,0,0,0,0,0,0,0,0],"id":13,"left_children":[1,3,5,7,9,-1,11,-1,-1,-1,-1,-1,-1],"loss_changes":[9.531802E0,5.633893E-1,7.1598434E-1,9.157872E-2,1.3316965E-1,0E0,3.7587166E-2,0E0,0E0,0E0,0E0,0E0,0E0],"parents":[2147483647,0,0,1,1,2,2,3,3,4,4,6,6],"right_children":[2,4,6,8,10,-1,12,-1,-1,-1,-1,-1,-1],"split_conditions":[1.8507E-1,-2.5718442E-1,6.7161965E-1,-3.0543602E-1,-7.224354E-3,5.8361213E-3,1.0604777E0,-7.171323E-3,-4.29886E-3,-2.1861938E-3,6.252583E-4,1.1574884E-2,1.629979E-2],"split_indices":[0,0,0,1,0,0,0,0,0,0,0,0,0],"split_type":[0,0,0,0,0,0,0,0,0,0,0,0,0],"sum_hessian":[5.65E2,4.43E2,1.22E2,2.73E2,1.7E2,3.5E1,8.7E1,4.2E1,2.31E2,1.04E2,6.6E1,3.1E1,5.6E1],"tree_param":{"num_deleted":"0","num_feature":"30","num_nodes":"13","size_leaf_vector":"1"}},{"base_weights":[2.8501402E-3,1.7929174E-1,-9.617087E-3,2.8322878E-1,2.8356053E-2,-2.0313226E-2,1.724201E-1,4.9134903E-3,1.5099878E-2,4.6650707E-3,-1.4314436E-3,-1.3575518E-3,1.156449E-2,1.1821904E-2,-6.34093E-4],"categories":[],"categories_nodes":[],"categories_segments":[],"categories_sizes":[],"default_left":[0,0,0,0,0,0,0,0,0,0,0,0,0,0,0],"id":14,"left_children":[1,3,5,7,9,11,13,-1,-1,-1,-1,-1,-1,-1,-1],"loss_changes":[1.2659429E0,5.569471E-1,1.020252E0,6.668091E-3,7.2053775E-2,8.495135E-1,3.690198E-1,0E0,0E0,0E0,0E0,0E0,0E0,0E0,0E0],"parents":[2147483647,0,0,1,1,2,2,3,3,4,4,5,5,6,6],"right_children":[2,4,6,8,10,12,14,-1,-1,-1,-1,-1,-1,-1,-1],"split_conditions":[-6.6930144E-3,-1.7951505E-1,7.31573E-3,-9.9826284E-2,4.023033E-2,1.3461714E-2,3.5094634E-2,4.9134903E-3,1.5099878E-2,4.6650707E-3,-1.4314436E-3,-1.3575518E-3,1.156449E-2,1.1821904E-2,-6.34093E-4],"split_indices":[19,1,19,5,5,15,8,0,0,0,0,0,0,0,0],"split_type":[0,0,0,0,0,0,0,0,0,0,0,0,0,0,0],"sum_hessian":[5.66E2,3.7E1,5.29E2,2.1E1,1.6E1,5.01E2,2.8E1,3E0,1.8E1,8E0,8E0,4.89E2,1.2E1,2.1E1,7E0],"tree_param":{"num_deleted":"0","num_feature":"30","num_nodes":"15","size_leaf_vector":"1"}},{"base_weights":[-3.1413708E-3,-1.6025363E-2,1.6293085E-1,2.143344E-1,-2.2352345E-2,2.5352353E-1,6.8622455E-2,1.3775768E-2,-0E0,-6.7733536E-3,-5.475182E-4,1.4926071E-2,-0E0,7.1469853E-3,-0E0],"categories":[],"categories_nodes":[],"categories_segments":[],"categories_sizes":[],"default_left":[0,0,0,0,0,0,0,0,0,0,0,0,0,0,0],"id":15,"left_children":[1,3,5,7,9,11,13,-1,-1,-1,-1,-1,-1,-1,-1],"loss_changes":[1.2203722E0,7.6680297E-1,3.0067766E-1,1.9184649E-1,6.584046E-1,2.2947192E-1,1.0071868E-1,0E0,0E0,0E0,0E0,0E0,0E0,0E0,0E0],"parents":[2147483647,0,0,1,1,2,2,3,3,4,4,5,5,6,6],"right_children":[2,4,6,8,10,12,14,-1,-1,-1,-1,-1,-1,-1,-1],"split_conditions":[4.851901E-3,-5.8862953E-3,-1.7951505E-1,-9.9025756E-2,-4.3298247E-1,4.5330874E-3,-3.0718746E-3,1.3775768E-2,-0E0,-6.7733536E-3,-5.475182E-4,1.4926071E-2,-0E0,7.1469853E-3,-0E0],"split_indices":[24,25,1,1,1,13,11,0,0,0,0,0,0,0,0],"split_type":[0,0,0,0,0,0,0,0,0,0,0,0,0,0,0],"sum_hessian":[5.75E2,5.35E2,4E1,1.3E1,5.22E2,1.9E1,2.1E1,1E1,3E0,4.6E1,4.76E2,1.6E1,3E0,9E0,1.2E1],"tree_param":{"num_deleted":"0","num_feature":"30","num_nodes":"15","size_leaf_vector":"1"}},{"base_weights":[2.3908522E-3,-6.321631E-2,2.3277849E-1,-9.265178E-2,-2.1482946E-2,1.4375405E-2,1.425493E-1,-6.528118E-3,-4.11735E-3,-2.079443E-3,6.5695465E-4,5.1213647E-3,9.1296155E-3],"categories":[],"categories_nodes":[],"categories_segments":[],"categories_sizes":[],"default_left":[0,0,0,0,0,0,0,0,0,0,0,0,0],"id":16,"left_children":[1,3,5,7,9,-1,11,-1,-1,-1,-1,-1,-1],"loss_changes":[8.722843E0,5.369377E-1,5.4810095E-1,6.9919825E-2,1.3425969E-1,0E0,3.473258E-2,0E0,0E0,0E0,0E0,0E0,0E0],"parents":[2147483647,0,0,1,1,2,2,3,3,4,4,6,6],"right_children":[2,4,6,8,10,-1,12,-1,-1,-1,-1,-1,-1],"split_conditions":[1.8507E-1,-2.9386902E-1,-4.48903E-2,-4.1798976E-1,-7.224354E-3,1.4375405E-2,5.244639E-1,-6.528118E-3,-4.11735E-3,-2.079443E-3,6.5695465E-4,5.1213647E-3,9.1296155E-3],"split_indices":[0,0,1,1,0,0,0,0,0,0,0,0,0],"split_type":[0,0,0,0,0,0,0,0,0,0,0,0,0],"sum_hessian":[5.74E2,4.47E2,1.27E2,2.6E2,1.87E2,7.7E1,5E1,5.1E1,2.09E2,1.2E2,6.7E1,2.8E1,2.2E1],"tree_param":{"num_deleted":"0","num_feature":"30","num_nodes":"13","size_leaf_vector":"1"}},{"base_weights":[-2.4936383E-3,1.3464703E-2,-1.1665853E-2,-1.9382536E-2,1.9731525E-1,1.7564343E-3,-2.2896377E-3,1.231303E-2,-1.139745E-3],"categories":[],"categories_nodes":[],"categories_segments":[],"categories_sizes":[],"default_left":[0,0,0,0,0,0,0,0,0],"id":17,"left_children":[1,-1,3,5,7,-1,-1,-1,-1],"loss_changes":[1.3758928E0,0E0,8.6330783E-1,7.5993264E-1,2.3265398E-1,0E0,0E0,0E0,0E0],"parents":[2147483647,0,0,2,2,3,3,4,4],"right_children":[2,-1,4,6,8,-1,-1,-1,-1],"split_conditions":[-2.3656046E-1,1.3464703E-2,1.194874E-2,-7.2442055E-2,-1.7951505E-1,1.7564343E-3,-2.2896377E-3,1.231303E-2,-1.139745E-3],"split_indices":[2,0,16,3,1,0,0,0,0],"split_type":[0,0,0,0,0,0,0,0,0],"sum_hessian":[5.6E2,1.7E1,5.43E2,5.25E2,1.8E1,1.7E2,3.55E2,1.5E1,3E0],"tree_param":{"num_deleted":"0","num_feature":"30","num_nodes":"9","size_leaf_vector":"1"}},{"base_weights":[4.521349E-3,-5.6970987E-2,2.1394594E-1,-8.261924E-2,-1.704038E-2,1.0042441E-1,2.5128582E-1,-3.3488118E-3,-5.183172E-3,-1.9043069E-3,7.6542585E-4,1.1264688E-3,5.326141E-3,1.51466755E-2,1.0877607E-2],"categories":[],"categories_nodes":[],"categories_segments":[],"categories_sizes":[],"default_left":[0,0,0,0,0,0,0,0,0,0,0,0,0,0,0],"id":18,"left_children":[1,3,5,7,9,11,13,-1,-1,-1,-1,-1,-1,-1,-1],"loss_changes":[7.484253E0,4.474455E-1,4.9912643E-1,6.520486E-2,1.2404447E-1,1.3211668E-3,5.278921E-2,0E0,0E0,0E0,0E0,0E0,0E0,0E0,0E0],"parents":[2147483647,0,0,1,1,2,2,3,3,4,4,5,5,6,6],"right_children":[2,4,6,8,10,12,14,-1,-1,-1,-1,-1,-1,-1,-1],"split_conditions":[1.8507E-1,-2.5718442E-1,6.7161965E-1,-1.9248676E-2,-7.224354E-3,-6.2376585E-2,-2.4804153E-1,-3.3488118E-3,-5.183172E-3,-1.9043069E-3,7.6542585E-4,1.1264688E-3,5.326141E-3,1.51466755E-2,1.0877607E-2],"split_indices":[0,0,0,2,0,9,1,0,0,0,0,0,0,0,0],"split_type":[0,0,0,0,0,0,0,0,0,0,0,0,0,0,0],"sum_hessian":[5.78E2,4.47E2,1.31E2,2.7E2,1.77E2,3.4E1,9.7E1,1.6E2,1.1E2,1.09E2,6.8E1,4E0,3E1,3.4E1,6.3E1],"tree_param":{"num_deleted":"0","num_feature":"30","num_nodes":"15","size_leaf_vector":"1"}},{"base_weights":[1.217774E-3,-5.689341E-2,2.0354609E-1,-8.653594E-2,-2.4844281E-2,4.9498407E-3,2.4002086E-1,-5.831649E-3,-3.800118E-3,-2.019966E-3,7.373413E-4,9.619546E-3,1.3551819E-2],"categories":[],"categories_nodes":[],"categories_segments":[],"categories_sizes":[],"default_left":[0,0,0,0,0,0,0,0,0,0,0,0,0],"id":19,"left_children":[1,3,5,7,9,-1,11,-1,-1,-1,-1,-1,-1],"loss_changes":[6.6339817E0,4.0186965E-1,4.2282677E-1,4.320371E-2,1.3433519E-1,0E0,3.7421227E-2,0E0,0E0,0E0,0E0,0E0,0E0],"parents":[2147483647,0,0,1,1,2,2,3,3,4,4,6,6],"right_children":[2,4,6,8,10,-1,12,-1,-1,-1,-1,-1,-1],"split_conditions":[1.8507E-1,-3.2373872E-1,6.7161965E-1,-4.5491254E-1,2.0508261E-2,4.9498407E-3,1.0780007E0,-5.831649E-3,-3.800118E-3,-2.019966E-3,7.373413E-4,9.619546E-3,1.3551819E-2],"split_indices":[0,0,0,0,0,0,0,0,0,0,0,0,0],"split_type":[0,0,0,0,0,0,0,0,0,0,0,0,0],"sum_hessian":[5.61E2,4.36E2,1.25E2,2.24E2,2.12E2,3.4E1,9.1E1,5.3E1,1.71E2,1.54E2,5.8E1,4E1,5.1E1],"tree_param":{"num_deleted":"0","num_feature":"30","num_nodes":"13","size_leaf_vector":"1"}},{"base_weights":[-4.3066687E-4,-5.3619534E-2,1.870721E-1,-7.751804E-2,-1.475944E-2,4.5075007E-3,2.276871E-1,-5.6041884E-3,-3.4150071E-3,-1.5948737E-3,5.938671E-4,9.934779E-3,1.3592404E-2],"categories":[],"categories_nodes":[],"categories_segments":[],"categories_sizes":[],"default_left":[0,0,0,0,0,0,0,0,0,0,0,0,0],"id":20,"left_children":[1,3,5,7,9,-1,11,-1,-1,-1,-1,-1,-1],"loss_changes":[5.6015453E0,3.973267E-1,4.3581486E-1,6.0334563E-2,7.9986215E-2,0E0,9.036064E-3,0E0,0E0,0E0,0E0,0E0,0E0],"parents":[2147483647,0,0,1,1,2,2,3,3,4,4,6,6],"right_children":[2,4,6,8,10,-1,12,-1,-1,-1,-1,-1,-1],"split_conditions":[1.6375686E-1,-2.5718442E-1,6.7161965E-1,-3.0543602E-1,2.0508261E-2,4.5075007E-3,1.3540157E0,-5.6041884E-3,-3.4150071E-3,-1.5948737E-3,5.938671E-4,9.934779E-3,1.3592404E-2],"split_indices":[0,0,0,1,0,0,0,0,0,0,0,0,0],"split_type":[0,0,0,0,0,0,0,0,0,0,0,0,0],"sum_hessian":[5.61E2,4.38E2,1.23E2,2.69E2,1.69E2,3.8E1,8.5E1,5.2E1,2.17E2,1.05E2,6.4E1,5.6E1,2.9E1],"tree_param":{"num_deleted":"0","num_feature":"30","num_nodes":"13","size_leaf_vector":"1"}},{"base_weights":[-3.2248395E-3,-5.0574422E-2,1.8656379E-1,-7.393762E-2,-1.5289204E-2,4.671273E-3,2.1538661E-1,-2.8622407E-3,-4.492693E-3,-1.5932268E-3,6.274995E-4,8.471049E-3,1.2057192E-2],"categories":[],"categories_nodes":[],"categories_segments":[],"categories_sizes":[],"default_left":[0,0,0,0,0,0,0,0,0,0,0,0,0],"id":21,"left_children":[1,3,5,7,9,-1,11,-1,-1,-1,-1,-1,-1],"loss_changes":[5.225929E0,3.7493026E-1,2.6039934E-1,5.427313E-2,8.954424E-2,0E0,2.1091938E-2,0E0,0E0,0E0,0E0,0E0,0E0],"parents":[2147483647,0,0,1,1,2,2,3,3,4,4,6,6],"right_children":[2,4,6,8,10,-1,12,-1,-1,-1,-1,-1,-1],"split_conditions":[2.413951E-1,-2.9386902E-1,6.7161965E-1,-2.6152162E-2,-7.224354E-3,4.671273E-3,1.0692812E0,-2.8622407E-3,-4.492693E-3,-1.5932268E-3,6.274995E-4,8.471049E-3,1.2057192E-2],"split_indices":[0,0,0,2,0,0,0,0,0,0,0,0,0],"split_type":[0,0,0,0,0,0,0,0,0,0,0,0,0],"sum_hessian":[5.81E2,4.66E2,1.15E2,2.78E2,1.88E2,2.9E1,8.6E1,1.41E2,1.37E2,1.2E2,6.8E1,3.5E1,5.1E1],"tree_param":{"num_deleted":"0","num_feature":"30","num_nodes":"13","size_leaf_vector":"1"}},{"base_weights":[-4.5651055E-4,-4.7848057E-2,1.752971E-1,-6.852943E-2,-1.2176011E-2,1.0714832E-2,1.1052553E-1,-2.9819019E-3,-4.7066016E-3,-1.2660521E-3,1.3188992E-3,2.5988213E-4,5.7658064E-3],"categories":[],"categories_nodes":[],"categories_segments":[],"categories_sizes":[],"default_left":[0,0,0,0,0,0,0,0,0,0,0,0,0],"id":22,"left_children":[1,3,5,7,9,-1,11,-1,-1,-1,-1,-1,-1],"loss_changes":[4.5933805E0,3.1275266E-1,2.3938179E-1,4.1383266E-2,8.316955E-2,0E0,1.1064649E-2,0E0,0E0,0E0,0E0,0E0,0E0],"parents":[2147483647,0,0,1,1,2,2,3,3,4,4,6,6],"right_children":[2,4,6,8,10,-1,12,-1,-1,-1,-1,-1,-1],"split_conditions":[3.0321544E-1,-2.5718442E-1,-4.48903E-2,9.822918E-2,6.894389E-2,1.0714832E-2,-6.2376585E-2,-2.9819019E-3,-4.7066016E-3,-1.2660521E-3,1.3188992E-3,2.5988213E-4,5.7658064E-3],"split_indices":[0,0,1,2,0,0,9,0,0,0,0,0,0],"split_type":[0,0,0,0,0,0,0,0,0,0,0,0,0],"sum_hessian":[5.51E2,4.35E2,1.16E2,2.73E2,1.62E2,7E1,4.6E1,2.08E2,6.5E1,1.23E2,3.9E1,3E0,4.3E1],"tree_param":{"num_deleted":"0","num_feature":"30","num_nodes":"13","size_leaf_vector":"1"}},{"base_weights":[9.08542E-5,-4.7128092E-2,1.6358314E-1,-6.921219E-2,-1.8389529E-2,8.406813E-2,2.0076795E-1,-4.8471014E-3,-3.0213024E-3,-1.5914369E-3,5.692234E-4,7.813228E-5,4.381399E-3,1.1913028E-2,8.579586E-3],"categories":[],"categories_nodes":[],"categories_segments":[],"categories_sizes":[],"default_left":[0,0,0,0,0,0,0,0,0,0,0,0,0,0,0],"id":23,"left_children":[1,3,5,7,9,11,13,-1,-1,-1,-1,-1,-1,-1,-1],"loss_changes":[4.473757E0,2.7429712E-1,3.3901548E-1,3.955853E-2,8.1634305E-2,3.8671196E-3,1.330018E-2,0E0,0E0,0E0,0E0,0E0,0E0,0E0,0E0],"parents":[2147483647,0,0,1,1,2,2,3,3,4,4,5,5,6,6],"right_children":[2,4,6,8,10,12,14,-1,-1,-1,-1,-1,-1,-1,-1],"split_conditions":[1.6375686E-1,-3.1352034E-1,7.699555E-1,-3.0543602E-1,-7.224354E-3,-6.2376585E-2,-2.4034354E-1,-4.8471014E-3,-3.0213024E-3,-1.5914369E-3,5.692234E-4,7.813228E-5,4.381399E-3,1.1913028E-2,8.579586E-3],"split_indices":[0,0,0,1,0,9,1,0,0,0,0,0,0,0,0],"split_type":[0,0,0,0,0,0,0,0,0,0,0,0,0,0,0],"sum_hessian":[5.76E2,4.47E2,1.29E2,2.5E2,1.97E2,4.3E1,8.6E1,5.5E1,1.95E2,1.38E2,5.9E1,3E0,4E1,3.3E1,5.3E1],"tree_param":{"num_deleted":"0","num_feature":"30","num_nodes":"15","size_leaf_vector":"1"}},{"base_weights":[2.3948972E-3,-4.2406105E-2,1.6068418E-1,-6.350875E-2,-9.7687505E-3,7.403664E-2,1.8712667E-1,-2.4476012E-3,-3.8963195E-3,-1.0875105E-3,1.3439996E-3,5.027442E-4,3.9623184E-3,7.88122E-3,1.1624001E-2],"categories":[],"categories_nodes":[],"categories_segments":[],"categories_sizes":[],"default_left":[0,0,0,0,0,0,0,0,0,0,0,0,0,0,0],"id":24,"left_children":[1,3,5,7,9,11,13,-1,-1,-1,-1,-1,-1,-1,-1],"loss_changes":[4.046624E0,2.9716122E-1,2.4871731E-1,3.9533734E-2,7.779333E-2,9.395331E-4,5.1457644E-2,0E0,0E0,0E0,0E0,0E0,0E0,0E0,0E0],"parents":[2147483647,0,0,1,1,2,2,3,3,4,4,5,5,6,6],"right_children":[2,4,6,8,10,12,14,-1,-1,-1,-1,-1,-1,-1,-1],"split_conditions":[3.0321544E-1,-2.4823831E-1,6.2708145E-1,-3.0088281E-2,7.9567954E-2,-6.2376585E-2,1.3540157E0,-2.4476012E-3,-3.8963195E-3,-1.0875105E-3,1.3439996E-3,5.027442E-4,3.9623184E-3,7.88122E-3,1.1624001E-2],"split_indices":[0,0,0,2,0,9,0,0,0,0,0,0,0,0,0],"split_type":[0,0,0,0,0,0,0,0,0,0,0,0,0,0,0],"sum_hessian":[5.67E2,4.42E2,1.25E2,2.66E2,1.76E2,3.1E1,9.4E1,1.38E2,1.28E2,1.35E2,4.1E1,4E0,2.7E1,6.1E1,3.3E1],"tree_param":{"num_deleted":"0","num_feature":"30","num_nodes":"15","size_leaf_vector":"1"}},{"base_weights":[-0E0,-4.1063853E-2,1.5775709E-1,-6.2826045E-2,-1.3203623E-2,9.562331E-3,9.844589E-2,-4.390796E-3,-2.759946E-3,-1.3620546E-3,5.44044E-4,5.9345597E-3,3.1102358E-3],"categories":[],"categories_nodes":[],"categories_segments":[],"categories_sizes":[],"default_left":[0,0,0,0,0,0,0,0,0,0,0,0,0],"id":25,"left_children":[1,3,5,7,9,-1,11,-1,-1,-1,-1,-1,-1],"loss_changes":[3.6356175E0,2.6076466E-1,1.8261456E-1,2.7929544E-2,6.887335E-2,0E0,7.5443387E-3,0E0,0E0,0E0,0E0,0E0,0E0],"parents":[2147483647,0,0,1,1,2,2,3,3,4,4,6,6],"right_children":[2,4,6,8,10,-1,12,-1,-1,-1,-1,-1,-1],"split_conditions":[3.0321544E-1,-3.0393082E-1,-5.0802354E-2,-3.0543602E-1,-7.224354E-3,9.562331E-3,1.4581563E-1,-4.390796E-3,-2.759946E-3,-1.3620546E-3,5.44044E-4,5.9345597E-3,3.1102358E-3],"split_indices":[0,0,1,1,0,0,1,0,0,0,0,0,0],"split_type":[0,0,0,0,0,0,0,0,0,0,0,0,0],"sum_hessian":[5.58E2,4.43E2,1.15E2,2.46E2,1.97E2,7.1E1,4.4E1,5.2E1,1.94E2,1.27E2,7E1,2.5E1,1.9E1],"tree_param":{"num_deleted":"0","num_feature":"30","num_nodes":"13","size_leaf_vector":"1"}},{"base_weights":[1.8652474E-3,-2.6414823E-3,1.8077442E-1,-4.138206E-3,5.6000385E-3,1.0590753E-2,1.260955E-3,6.724139E-3,-6.0141616E-4],"categories":[],"categories_nodes":[],"categories_segments":[],"categories_sizes":[],"default_left":[0,0,0,0,0,0,0,0,0],"id":26,"left_children":[1,3,5,-1,7,-1,-1,-1,-1],"loss_changes":[4.593343E-1,3.6079738E-1,3.855428E-2,0E0,1.113507E0,0E0,0E0,0E0,0E0],"parents":[2147483647,0,0,1,1,2,2,4,4],"right_children":[2,4,6,-1,8,-1,-1,-1,-1],"split_conditions":[2.2276709E-2,-4.1798976E-1,2.834465E-2,-4.138206E-3,-2.0229708E-1,1.0590753E-2,1.260955E-3,6.724139E-3,-6.0141616E-4],"split_indices":[14,1,6,0,1,0,0,0,0],"split_type":[0,0,0,0,0,0,0,0,0],"sum_hessian":[5.46E2,5.33E2,1.3E1,5E1,4.83E2,1E1,3E0,5.8E1,4.25E2],"tree_param":{"num_deleted":"0","num_feature":"30","num_nodes":"9","size_leaf_vector":"1"}},{"base_weights":[2.5273303E-3,-3.9600004E-2,1.4086531E-1,-6.0335137E-2,-1.6856031E-2,3.2782827E-3,1.6457444E-1,-3.8004692E-3,-2.542168E-3,-1.3550927E-3,5.375038E-4,7.0029744E-3,1.01971915E-2],"categories":[],"categories_nodes":[],"categories_segments":[],"categories_sizes":[],"default_left":[0,0,0,0,0,0,0,0,0,0,0,0,0],"id":27,"left_children":[1,3,5,7,9,-1,11,-1,-1,-1,-1,-1,-1],"loss_changes":[3.3666956E0,1.9923913E-1,2.0720983E-1,1.7371237E-2,6.2455844E-2,0E0,3.4514427E-2,0E0,0E0,0E0,0E0,0E0,0E0],"parents":[2147483647,0,0,1,1,2,2,3,3,4,4,6,6],"right_children":[2,4,6,8,10,-1,12,-1,-1,-1,-1,-1,-1],"split_conditions":[1.6375686E-1,-3.2373872E-1,5.244639E-1,-4.1658932E-1,2.0508261E-2,3.2782827E-3,1.3540157E0,-3.8004692E-3,-2.542168E-3,-1.3550927E-3,5.375038E-4,7.0029744E-3,1.01971915E-2],"split_indices":[0,0,0,0,0,0,0,0,0,0,0,0,0],"split_type":[0,0,0,0,0,0,0,0,0,0,0,0,0],"sum_hessian":[5.74E2,4.4E2,1.34E2,2.27E2,2.13E2,3.4E1,1E2,7.9E1,1.48E2,1.58E2,5.5E1,6.6E1,3.4E1],"tree_param":{"num_deleted":"0","num_feature":"30","num_nodes":"13","size_leaf_vector":"1"}},{"base_weights":[1.0159648E-3,-3.620634E-2,1.3436843E-1,-5.681609E-2,-1.5071148E-2,3.076592E-3,1.5413572E-1,-1.8175145E-3,-3.1840743E-3,-1.2936265E-3,4.5044656E-4,9.541646E-3,6.590813E-3],"categories":[],"categories_nodes":[],"categories_segments":[],"categories_sizes":[],"default_left":[0,0,0,0,0,0,0,0,0,0,0,0,0],"id":28,"left_children":[1,3,5,7,9,-1,11,-1,-1,-1,-1,-1,-1],"loss_changes":[2.7943454E0,1.827439E-1,1.4604235E-1,1.8452704E-2,5.914103E-2,0E0,2.0390987E-2,0E0,0E0,0E0,0E0,0E0,0E0],"parents":[2147483647,0,0,1,1,2,2,3,3,4,4,6,6],"right_children":[2,4,6,8,10,-1,12,-1,-1,-1,-1,-1,-1],"split_conditions":[1.6375686E-1,-3.2373872E-1,5.244639E-1,-5.527192E-2,2.0508261E-2,3.076592E-3,-2.4034354E-1,-1.8175145E-3,-3.1840743E-3,-1.2936265E-3,4.5044656E-4,9.541646E-3,6.590813E-3],"split_indices":[0,0,0,5,0,0,1,0,0,0,0,0,0],"split_type":[0,0,0,0,0,0,0,0,0,0,0,0,0],"sum_hessian":[5.59E2,4.37E2,1.22E2,2.18E2,2.19E2,2.8E1,9.4E1,6E1,1.58E2,1.54E2,6.5E1,3.1E1,6.3E1],"tree_param":{"num_deleted":"0","num_feature":"30","num_nodes":"13","size_leaf_vector":"1"}},{"base_weights":[2.3002508E-3,-3.4331672E-2,1.2854108E-1,-4.7170077E-2,-1.3150694E-3,6.487803E-2,7.848745E-3,-3.306857E-3,-1.8831728E-3,-5.463349E-4,1.0427798E-3,1.2808734E-4,3.4369323E-3],"categories":[],"categories_nodes":[],"categories_segments":[],"categories_sizes":[],"default_left":[0,0,0,0,0,0,0,0,0,0,0,0,0],"id":29,"left_children":[1,3,5,7,9,11,-1,-1,-1,-1,-1,-1,-1],"loss_changes":[2.6081474E0,1.7947745E-1,1.9752383E-1,4.3206215E-2,2.5872014E-2,2.7981997E-3,0E0,0E0,0E0,0E0,0E0,0E0,0E0],"parents":[2147483647,0,0,1,1,2,2,3,3,4,4,5,5],"right_children":[2,4,6,8,10,12,-1,-1,-1,-1,-1,-1,-1],"split_conditions":[1.6375686E-1,-2.208267E-1,7.699555E-1,-3.9829177E-1,8.85879E-2,-6.2376585E-2,7.848745E-3,-3.306857E-3,-1.8831728E-3,-5.463349E-4,1.0427798E-3,1.2808734E-4,3.4369323E-3],"split_indices":[0,0,0,0,0,9,0,0,0,0,0,0,0],"split_type":[0,0,0,0,0,0,0,0,0,0,0,0,0],"sum_hessian":[5.6E2,4.34E2,1.26E2,3.1E2,1.24E2,4.1E1,8.5E1,9.8E1,2.12E2,9E1,3.4E1,4E0,3.7E1],"tree_param":{"num_deleted":"0","num_feature":"30","num_nodes":"13","size_leaf_vector":"1"}},{"base_weights":[-1.5969945E-3,-3.489467E-2,1.11417085E-1,-4.3460187E-2,-5.6136935E-4,2.7493788E-3,1.3747652E-1,-1.8531634E-3,-3.3108206E-3,5.13893E-4,-6.4122246E-4,5.8391313E-3,8.326549E-3],"categories":[],"categories_nodes":[],"categories_segments":[],"categories_sizes":[],"default_left":[0,0,0,0,0,0,0,0,0,0,0,0,0],"id":30,"left_children":[1,3,5,7,9,-1,11,-1,-1,-1,-1,-1,-1],"loss_changes":[2.1035752E0,1.23205245E-1,1.5995026E-1,3.7439346E-2,1.2349477E-2,0E0,3.3268929E-3,0E0,0E0,0E0,0E0,0E0,0E0],"parents":[2147483647,0,0,1,1,2,2,3,3,4,4,6,6],"right_children":[2,4,6,8,10,-1,12,-1,-1,-1,-1,-1,-1],"split_conditions":[1.4592388E-1,-1.9073854E-1,6.2708145E-1,9.525641E-2,9.035574E-2,2.7493788E-3,1.3540157E0,-1.8531634E-3,-3.3108206E-3,5.13893E-4,-6.4122246E-4,5.8391313E-3,8.326549E-3],"split_indices":[0,0,0,2,3,0,0,0,0,0,0,0,0],"split_type":[0,0,0,0,0,0,0,0,0,0,0,0,0],"sum_hessian":[5.59E2,4.33E2,1.26E2,3.44E2,8.9E1,4.2E1,8.4E1,2.74E2,7E1,4.3E1,4.6E1,5.4E1,3E1],"tree_param":{"num_deleted":"0","num_feature":"30","num_nodes":"13","size_leaf_vector":"1"}},{"base_weights":[2.2795626E-3,-3.126068E-2,1.1493116E-1,-4.5915626E-2,-7.3398636E-3,1.427826E-1,7.2268404E-2,-1.7976112E-3,-2.8829002E-3,-7.5405865E-4,7.0952496E-4,8.390879E-3,5.8367825E-3,-0E0,3.7478537E-3],"categories":[],"categories_nodes":[],"categories_segments":[],"categories_sizes":[],"default_left":[0,0,0,0,0,0,0,0,0,0,0,0,0,0,0],"id":31,"left_children":[1,3,5,7,9,11,13,-1,-1,-1,-1,-1,-1,-1,-1],"loss_changes":[2.1051724E0,1.440258E-1,1.20268345E-1,1.9218445E-2,2.7970824E-2,8.6069107E-4,4.519701E-3,0E0,0E0,0E0,0E0,0E0,0E0,0E0,0E0],"parents":[2147483647,0,0,1,1,2,2,3,3,4,4,5,5,6,6],"right_children":[2,4,6,8,10,12,14,-1,-1,-1,-1,-1,-1,-1,-1],"split_conditions":[1.8507E-1,-2.4823831E-1,-2.4817249E-2,-2.1959769E-2,6.717811E-2,-2.4034354E-1,-6.2376585E-2,-1.7976112E-3,-2.8829002E-3,-7.5405865E-4,7.0952496E-4,8.390879E-3,5.8367825E-3,-0E0,3.7478537E-3],"split_indices":[0,0,1,2,0,1,9,0,0,0,0,0,0,0,0],"split_type":[0,0,0,0,0,0,0,0,0,0,0,0,0,0,0],"sum_hessian":[5.53E2,4.26E2,1.27E2,2.61E2,1.65E2,7.4E1,5.3E1,1.48E2,1.13E2,1.25E2,4E1,3.3E1,4.1E1,3E0,5E1],"tree_param":{"num_deleted":"0","num_feature":"30","num_nodes":"15","size_leaf_vector":"1"}},{"base_weights":[6.201744E-4,-2.9907217E-2,1.11802265E-1,-4.636532E-2,-1.12475995E-2,4.7327366E-2,1.297444E-1,-1.4371913E-3,-2.6346915E-3,-1.0035842E-3,4.2303614E-4,4.64032E-4,2.7077736E-3,5.4331864E-3,8.183308E-3],"categories":[],"categories_nodes":[],"categories_segments":[],"categories_sizes":[],"default_left":[0,0,0,0,0,0,0,0,0,0,0,0,0,0,0],"id":32,"left_children":[1,3,5,7,9,11,13,-1,-1,-1,-1,-1,-1,-1,-1],"loss_changes":[1.9665344E0,1.3252723E-1,1.2075448E-1,1.6771376E-2,3.889503E-2,9.474009E-4,2.3631334E-2,0E0,0E0,0E0,0E0,0E0,0E0,0E0,0E0],"parents":[2147483647,0,0,1,1,2,2,3,3,4,4,5,5,6,6],"right_children":[2,4,6,8,10,12,14,-1,-1,-1,-1,-1,-1,-1,-1],"split_conditions":[1.8507E-1,-3.21906E-1,5.244639E-1,-5.6157816E-2,-7.224354E-3,-3.7304834E-2,1.3540157E0,-1.4371913E-3,-2.6346915E-3,-1.0035842E-3,4.2303614E-4,4.64032E-4,2.7077736E-3,5.4331864E-3,8.183308E-3],"split_indices":[0,0,0,5,0,9,0,0,0,0,0,0,0,0,0],"split_type":[0,0,0,0,0,0,0,0,0,0,0,0,0,0,0],"sum_hessian":[5.75E2,4.51E2,1.24E2,2.36E2,2.15E2,2.9E1,9.5E1,6.8E1,1.68E2,1.52E2,6.3E1,7E0,2.2E1,6.3E1,3.2E1],"tree_param":{"num_deleted":"0","num_feature":"30","num_nodes":"15","size_leaf_vector":"1"}},{"base_weights":[1.7358133E-3,-2.9947985E-2,9.7917505E-2,-4.4683415E-2,-1.3751732E-2,2.22305E-3,1.1945919E-1,-1.3321099E-3,-2.5218362E-3,-1.0230077E-3,8.468285E-5,7.4983137E-3,4.959333E-3],"categories":[],"categories_nodes":[],"categories_segments":[],"categories_sizes":[],"default_left":[0,0,0,0,0,0,0,0,0,0,0,0,0],"id":33,"left_children":[1,3,5,7,9,-1,11,-1,-1,-1,-1,-1,-1],"loss_changes":[1.7558903E0,9.6403986E-2,1.4296734E-1,1.3991237E-2,2.3670278E-2,0E0,2.2055626E-2,0E0,0E0,0E0,0E0,0E0,0E0],"parents":[2147483647,0,0,1,1,2,2,3,3,4,4,6,6],"right_children":[2,4,6,8,10,-1,12,-1,-1,-1,-1,-1,-1],"split_conditions":[1.4021318E-1,-3.2373872E-1,5.244639E-1,-5.6157816E-2,3.084617E-1,2.22305E-3,-2.4034354E-1,-1.3321099E-3,-2.5218362E-3,-1.0230077E-3,8.468285E-5,7.4983137E-3,4.959333E-3],"split_indices":[0,0,0,5,1,0,1,0,0,0,0,0,0],"split_type":[0,0,0,0,0,0,0,0,0,0,0,0,0],"sum_hessian":[5.72E2,4.3E2,1.42E2,2.21E2,2.09E2,4.3E1,9.9E1,5.9E1,1.62E2,1.5E2,5.9E1,3.5E1,6.4E1],"tree_param":{"num_deleted":"0","num_feature":"30","num_nodes":"13","size_leaf_vector":"1"}},{"base_weights":[1.2408315E-3,-2.7881082E-2,9.716738E-2,-4.3355625E-2,-1.1163973E-2,2.1579596E-3,1.15546316E-1,-2.7611058E-3,-1.7976415E-3,-9.5813174E-4,2.8343996E-4,7.1679773E-3,4.884088E-3],"categories":[],"categories_nodes":[],"categories_segments":[],"categories_sizes":[],"default_left":[0,0,0,0,0,0,0,0,0,0,0,0,0],"id":34,"left_children":[1,3,5,7,9,-1,11,-1,-1,-1,-1,-1,-1],"loss_changes":[1.6047632E0,1.0737008E-1,1.12152815E-1,8.574426E-3,3.040553E-2,0E0,1.05855465E-2,0E0,0E0,0E0,0E0,0E0,0E0],"parents":[2147483647,0,0,1,1,2,2,3,3,4,4,6,6],"right_children":[2,4,6,8,10,-1,12,-1,-1,-1,-1,-1,-1],"split_conditions":[1.4592388E-1,-3.2373872E-1,5.244639E-1,-4.1855595E-1,2.8376183E-1,2.1579596E-3,-2.4034354E-1,-2.7611058E-3,-1.7976415E-3,-9.5813174E-4,2.8343996E-4,7.1679773E-3,4.884088E-3],"split_indices":[0,0,0,0,1,0,1,0,0,0,0,0,0],"split_type":[0,0,0,0,0,0,0,0,0,0,0,0,0],"sum_hessian":[5.7E2,4.37E2,1.33E2,2.23E2,2.14E2,3.6E1,9.7E1,7.8E1,1.45E2,1.49E2,6.5E1,3.3E1,6.4E1],"tree_param":{"num_deleted":"0","num_feature":"30","num_nodes":"13","size_leaf_vector":"1"}},{"base_weights":[1.0192811E-3,-2.4792347E-2,9.676437E-2,-3.973812E-2,-8.588548E-3,2.0650807E-3,5.522813E-3,-1.7366214E-3,-2.9070463E-3,-7.342903E-4,9.466391E-4],"categories":[],"categories_nodes":[],"categories_segments":[],"categories_sizes":[],"default_left":[0,0,0,0,0,0,0,0,0,0,0],"id":35,"left_children":[1,3,5,7,9,-1,-1,-1,-1,-1,-1],"loss_changes":[1.4059014E0,1.0259539E-1,7.214844E-2,9.696364E-3,3.643475E-2,0E0,0E0,0E0,0E0,0E0,0E0],"parents":[2147483647,0,0,1,1,2,2,3,3,4,4],"right_children":[2,4,6,8,10,-1,-1,-1,-1,-1,-1],"split_conditions":[3.0321544E-1,-3.2373872E-1,5.244639E-1,2.4777898E-1,7.9567954E-2,2.0650807E-3,5.522813E-3,-1.7366214E-3,-2.9070463E-3,-7.342903E-4,9.466391E-4],"split_indices":[0,0,0,2,0,0,0,0,0,0,0],"split_type":[0,0,0,0,0,0,0,0,0,0,0],"sum_hessian":[5.64E2,4.44E2,1.2E2,2.27E2,2.17E2,2.6E1,9.4E1,1.85E2,4.2E1,1.81E2,3.6E1],"tree_param":{"num_deleted":"0","num_feature":"30","num_nodes":"11","size_leaf_vector":"1"}},{"base_weights":[5.2556366E-4,-2.5365254E-2,8.454729E-2,-4.0673453E-2,-1.3679235E-2,1.7703299E-3,1.0463585E-1,-0E0,-2.0748863E-3,-1.0380376E-3,-0E0,3.986852E-3,6.0336567E-3],"categories":[],"categories_nodes":[],"categories_segments":[],"categories_sizes":[],"default_left":[0,0,0,0,0,0,0,0,0,0,0,0,0],"id":36,"left_children":[1,3,5,7,9,-1,11,-1,-1,-1,-1,-1,-1],"loss_changes":[1.271965E0,7.343635E-2,1.185199E-1,5.845219E-3,2.6474297E-2,0E0,8.6705685E-3,0E0,0E0,0E0,0E0,0E0,0E0],"parents":[2147483647,0,0,1,1,2,2,3,3,4,4,6,6],"right_children":[2,4,6,8,10,-1,12,-1,-1,-1,-1,-1,-1],"split_conditions":[1.4481577E-1,-3.4663898E-1,5.244639E-1,-1.0734709E-2,-1.4827125E-1,1.7703299E-3,1.0780007E0,-0E0,-2.0748863E-3,-1.0380376E-3,-0E0,3.986852E-3,6.0336567E-3],"split_indices":[0,0,0,16,0,0,0,0,0,0,0,0,0],"split_type":[0,0,0,0,0,0,0,0,0,0,0,0,0],"sum_hessian":[5.8E2,4.43E2,1.37E2,1.87E2,2.56E2,4.2E1,9.5E1,4E0,1.83E2,1.72E2,8.4E1,4.2E1,5.3E1],"tree_param":{"num_deleted":"0","num_feature":"30","num_nodes":"13","size_leaf_vector":"1"}},{"base_weights":[8.876735E-4,8.208877E-2,-3.854874E-3,5.682094E-3,-7.1379123E-4,-1.0374486E-2,4.539568E-2,7.99846E-4,-8.5238414E-4,8.272698E-4,5.0758794E-3],"categories":[],"categories_nodes":[],"categories_segments":[],"categories_sizes":[],"default_left":[0,0,0,0,0,0,0,0,0,0,0],"id":37,"left_children":[1,3,5,-1,-1,7,9,-1,-1,-1,-1],"loss_changes":[2.2302565E-1,1.0885824E-1,1.6618565E-1,0E0,0E0,8.273716E-2,8.366205E-2,0E0,0E0,0E0,0E0],"parents":[2147483647,0,0,1,1,2,2,5,5,6,6],"right_children":[2,4,6,-1,-1,8,10,-1,-1,-1,-1],"split_conditions":[-2.210726E-1,-6.715997E-2,2.4700575E-2,5.682094E-3,-7.1379123E-4,-6.731353E-3,2.7494729E-3,7.99846E-4,-8.5238414E-4,8.272698E-4,5.0758794E-3],"split_indices":[2,4,9,0,0,14,19,0,0,0,0],"split_type":[0,0,0,0,0,0,0,0,0,0,0],"sum_hessian":[5.57E2,3.1E1,5.26E2,2.4E1,7E0,4.67E2,5.9E1,9.1E1,3.76E2,4.1E1,1.8E1],"tree_param":{"num_deleted":"0","num_feature":"30","num_nodes":"11","size_leaf_vector":"1"}},{"base_weights":[4.7035952E-4,-2.3521712E-2,8.3328396E-2,-3.052742E-2,1.8900253E-3,1.04534805E-1,5.1265508E-2,-2.155558E-3,-1.1568719E-3,8.7685295E-4,-2.0493504E-4,1.2181577E-3,5.3690034E-3,2.6389929E-3,-0E0],"categories":[],"categories_nodes":[],"categories_segments":[],"categories_sizes":[],"default_left":[0,0,0,0,0,0,0,0,0,0,0,0,0,0,0],"id":38,"left_children":[1,3,5,7,9,11,13,-1,-1,-1,-1,-1,-1,-1,-1],"loss_changes":[1.1132331E0,7.965115E-2,6.473321E-2,2.4088502E-2,9.942943E-3,8.6158514E-4,1.5115738E-4,0E0,0E0,0E0,0E0,0E0,0E0,0E0,0E0],"parents":[2147483647,0,0,1,1,2,2,3,3,4,4,5,5,6,6],"right_children":[2,4,6,8,10,12,14,-1,-1,-1,-1,-1,-1,-1,-1],"split_conditions":[1.6375686E-1,-1.8360311E-1,-4.48903E-2,-3.9035988E-1,-3.337299E-2,-2.0772288E-2,7.448283E-2,-2.155558E-3,-1.1568719E-3,8.7685295E-4,-2.0493504E-4,1.2181577E-3,5.3690034E-3,2.6389929E-3,-0E0],"split_indices":[0,0,1,0,3,12,7,0,0,0,0,0,0,0,0],"split_type":[0,0,0,0,0,0,0,0,0,0,0,0,0,0,0],"sum_hessian":[5.55E2,4.3E2,1.25E2,3.4E2,9E1,7.2E1,5.3E1,1.19E2,2.21E2,2.9E1,6.1E1,4E0,6.8E1,5E1,3E0],"tree_param":{"num_deleted":"0","num_feature":"30","num_nodes":"15","size_leaf_vector":"1"}},{"base_weights":[-4.4255456E-5,-2.171602E-2,7.694162E-2,-2.8682554E-2,2.0393499E-3,3.4538522E-2,9.05234E-2,-1.0310063E-3,-1.9933167E-3,8.910872E-4,-2.0642338E-4,-0E0,1.8219026E-3,5.7647433E-3,3.8548007E-3],"categories":[],"categories_nodes":[],"categories_segments":[],"categories_sizes":[],"default_left":[0,0,0,0,0,0,0,0,0,0,0,0,0,0,0],"id":39,"left_children":[1,3,5,7,9,11,13,-1,-1,-1,-1,-1,-1,-1,-1],"loss_changes":[9.28795E-1,7.5208575E-2,5.4628253E-2,2.3966879E-2,1.0885169E-2,4.659295E-4,1.8075109E-3,0E0,0E0,0E0,0E0,0E0,0E0,0E0,0E0],"parents":[2147483647,0,0,1,1,2,2,3,3,4,4,5,5,6,6],"right_children":[2,4,6,8,10,12,14,-1,-1,-1,-1,-1,-1,-1,-1],"split_conditions":[1.6375686E-1,-1.9073854E-1,5.244639E-1,-3.0088281E-2,-3.0693162E-2,-6.2376585E-2,-2.5045475E-1,-1.0310063E-3,-1.9933167E-3,8.910872E-4,-2.0642338E-4,-0E0,1.8219026E-3,5.7647433E-3,3.8548007E-3],"split_indices":[0,0,0,2,3,9,1,0,0,0,0,0,0,0,0],"split_type":[0,0,0,0,0,0,0,0,0,0,0,0,0,0,0],"sum_hessian":[5.58E2,4.37E2,1.21E2,3.41E2,9.6E1,3.2E1,8.9E1,2.05E2,1.36E2,3.1E1,6.5E1,3E0,2.9E1,2.6E1,6.3E1],"tree_param":{"num_deleted":"0","num_feature":"30","num_nodes":"15","size_leaf_vector":"1"}},{"base_weights":[2.4960688E-4,-2.19451E-2,7.193597E-2,-3.1662945E-2,-7.814687E-3,3.6674526E-2,8.825852E-2,-9.2972995E-4,-1.8324923E-3,-6.846568E-4,4.7201844E-5,1.9212383E-3,-0E0,7.472678E-4,4.5154016E-3],"categories":[],"categories_nodes":[],"categories_segments":[],"categories_sizes":[],"default_left":[0,0,0,0,0,0,0,0,0,0,0,0,0,0,0],"id":40,"left_children":[1,3,5,7,9,11,13,-1,-1,-1,-1,-1,-1,-1,-1],"loss_changes":[9.1984487E-1,5.5949718E-2,6.312108E-2,1.0412574E-2,1.0761575E-2,1.7483756E-3,1.7982721E-3,0E0,0E0,0E0,0E0,0E0,0E0,0E0,0E0],"parents":[2147483647,0,0,1,1,2,2,3,3,4,4,5,5,6,6],"right_children":[2,4,6,8,10,12,14,-1,-1,-1,-1,-1,-1,-1,-1],"split_conditions":[1.4021318E-1,-3.1284663E-1,6.2708145E-1,-5.6157816E-2,-4.1415825E-2,8.3302865E-3,-2.0772288E-2,-9.2972995E-4,-1.8324923E-3,-6.846568E-4,4.7201844E-5,1.9212383E-3,-0E0,7.472678E-4,4.5154016E-3],"split_indices":[0,0,0,5,2,23,12,0,0,0,0,0,0,0,0],"split_type":[0,0,0,0,0,0,0,0,0,0,0,0,0,0,0],"sum_hessian":[5.73E2,4.37E2,1.36E2,2.54E2,1.83E2,4.6E1,9E1,7.7E1,1.77E2,1.16E2,6.7E1,4.3E1,3E0,4E0,8.6E1],"tree_param":{"num_deleted":"0","num_feature":"30","num_nodes":"15","size_leaf_vector":"1"}},{"base_weights":[-0E0,4.512169E-3,-2.7192633E-3,-8.532381E-3,3.6541957E-2,-2.1852995E-3,-2.0333425E-4,7.36172E-4,4.3386347E-3],"categories":[],"categories_nodes":[],"categories_segments":[],"categories_sizes":[],"default_left":[0,0,0,0,0,0,0,0,0],"id":41,"left_children":[1,-1,3,5,7,-1,-1,-1,-1],"loss_changes":[1.424609E-1,0E0,1.2143976E-1,6.981252E-2,6.3098066E-2,0E0,0E0,0E0,0E0],"parents":[2147483647,0,0,2,2,3,3,4,4],"right_children":[2,-1,4,6,8,-1,-1,-1,-1],"split_conditions":[-2.515465E-1,4.512169E-3,2.427275E-2,-4.1798976E-1,2.9782043E-3,-2.1852995E-3,-2.0333425E-4,7.36172E-4,4.3386347E-3],"split_indices":[2,0,9,1,19,0,0,0,0],"split_type":[0,0,0,0,0,0,0,0,0],"sum_hessian":[5.58E2,1.6E1,5.42E2,4.75E2,6.7E1,5E1,4.25E2,4.9E1,1.8E1],"tree_param":{"num_deleted":"0","num_feature":"30","num_nodes":"9","size_leaf_vector":"1"}},{"base_weights":[6.0787756E-4,-2.0613592E-2,6.7124754E-2,-3.0845122E-2,-8.803208E-3,8.953477E-2,3.7901543E-2,-9.0077287E-4,-1.7809909E-3,-5.886919E-5,-8.6642004E-4,3.0422612E-4,4.5755506E-3,-0E0,1.9593192E-3],"categories":[],"categories_nodes":[],"categories_segments":[],"categories_sizes":[],"default_left":[0,0,0,0,0,0,0,0,0,0,0,0,0,0,0],"id":42,"left_children":[1,3,5,7,9,11,13,-1,-1,-1,-1,-1,-1,-1,-1],"loss_changes":[8.0922717E-1,4.784493E-2,7.489294E-2,7.839009E-3,1.1521412E-2,2.217412E-3,1.7322078E-3,0E0,0E0,0E0,0E0,0E0,0E0,0E0,0E0],"parents":[2147483647,0,0,1,1,2,2,3,3,4,4,5,5,6,6],"right_children":[2,4,6,8,10,12,14,-1,-1,-1,-1,-1,-1,-1,-1],"split_conditions":[1.4021318E-1,-3.2373872E-1,-4.48903E-2,-4.2964153E-2,2.034038E-2,-5.803232E-2,-6.2376585E-2,-9.0077287E-4,-1.7809909E-3,-5.886919E-5,-8.6642004E-4,3.0422612E-4,4.5755506E-3,-0E0,1.9593192E-3],"split_indices":[0,0,1,5,5,9,9,0,0,0,0,0,0,0,0],"split_type":[0,0,0,0,0,0,0,0,0,0,0,0,0,0,0],"sum_hessian":[5.68E2,4.3E2,1.38E2,2.25E2,2.05E2,7.5E1,6.3E1,6.8E1,1.57E2,1.15E2,9E1,3E0,7.2E1,3E0,6E1],"tree_param":{"num_deleted":"0","num_feature":"30","num_nodes":"15","size_leaf_vector":"1"}},{"base_weights":[5.234596E-4,-1.7324261E-2,7.078149E-2,-2.6747774E-2,-3.3909176E-3,4.314009E-3,4.3734934E-2,-9.589744E-4,-1.7382995E-3,-4.3259189E-4,7.2505645E-4,-0E0,2.284891E-3],"categories":[],"categories_nodes":[],"categories_segments":[],"categories_sizes":[],"default_left":[0,0,0,0,0,0,0,0,0,0,0,0,0],"id":43,"left_children":[1,3,5,7,9,-1,11,-1,-1,-1,-1,-1,-1],"loss_changes":[7.2257507E-1,5.6637406E-2,3.2269776E-2,1.0141328E-2,1.733084E-2,0E0,1.9858181E-3,0E0,0E0,0E0,0E0,0E0,0E0],"parents":[2147483647,0,0,1,1,2,2,3,3,4,4,6,6],"right_children":[2,4,6,8,10,-1,12,-1,-1,-1,-1,-1,-1],"split_conditions":[3.0321544E-1,-2.9386902E-1,-4.48903E-2,-2.6152162E-2,7.9567954E-2,4.314009E-3,-6.2376585E-2,-9.589744E-4,-1.7382995E-3,-4.3259189E-4,7.2505645E-4,-0E0,2.284891E-3],"split_indices":[0,0,1,2,0,0,9,0,0,0,0,0,0],"split_type":[0,0,0,0,0,0,0,0,0,0,0,0,0],"sum_hessian":[5.7E2,4.54E2,1.16E2,2.66E2,1.88E2,7E1,4.6E1,1.45E2,1.21E2,1.5E2,3.8E1,3E0,4.3E1],"tree_param":{"num_deleted":"0","num_feature":"30","num_nodes":"13","size_leaf_vector":"1"}},{"base_weights":[9.797005E-4,-3.9562605E-2,4.8687425E-3,-2.07637E-3,-0E0,6.355411E-2,-4.963632E-3,-1.9558403E-4,3.8491623E-3,-8.65242E-4,6.6946744E-4],"categories":[],"categories_nodes":[],"categories_segments":[],"categories_sizes":[],"default_left":[0,0,0,0,0,0,0,0,0,0,0],"id":44,"left_children":[1,3,5,-1,-1,7,9,-1,-1,-1,-1],"loss_changes":[8.344214E-2,4.3085217E-4,2.9756784E-1,0E0,0E0,7.465279E-2,9.847036E-2,0E0,0E0,0E0,0E0],"parents":[2147483647,0,0,1,1,2,2,5,5,6,6],"right_children":[2,4,6,-1,-1,8,10,-1,-1,-1,-1],"split_conditions":[-4.3298247E-1,-4.6551424E-1,-1.7951505E-1,-2.07637E-3,-0E0,-7.06262E-2,2.4700107E-2,-1.9558403E-4,3.8491623E-3,-8.65242E-4,6.6946744E-4],"split_indices":[1,1,1,0,0,5,2,0,0,0,0],"split_type":[0,0,0,0,0,0,0,0,0,0,0],"sum_hessian":[5.49E2,4.5E1,5.04E2,4.1E1,4E0,7.3E1,4.31E2,1.1E1,6.2E1,2.61E2,1.7E2],"tree_param":{"num_deleted":"0","num_feature":"30","num_nodes":"11","size_leaf_vector":"1"}},{"base_weights":[1.08466E-3,-1.7548187E-2,6.080905E-2,-2.9947972E-2,-8.800709E-3,2.6615024E-2,7.467144E-2,-0E0,-1.5380759E-3,-6.546014E-4,2.215351E-4,-0E0,1.386772E-3,-0E0,3.813117E-3],"categories":[],"categories_nodes":[],"categories_segments":[],"categories_sizes":[],"default_left":[0,0,0,0,0,0,0,0,0,0,0,0,0,0,0],"id":45,"left_children":[1,3,5,7,9,11,13,-1,-1,-1,-1,-1,-1,-1,-1],"loss_changes":[6.207912E-1,4.152611E-2,5.092743E-2,3.6155134E-3,1.5289528E-2,2.4983846E-4,4.6432614E-3,0E0,0E0,0E0,0E0,0E0,0E0,0E0,0E0],"parents":[2147483647,0,0,1,1,2,2,3,3,4,4,5,5,6,6],"right_children":[2,4,6,8,10,12,14,-1,-1,-1,-1,-1,-1,-1,-1],"split_conditions":[1.4021318E-1,-3.535579E-1,4.9734968E-1,-1.0734709E-2,2.6173142E-1,-1.786038E-1,-1.7622683E-2,-0E0,-1.5380759E-3,-6.546014E-4,2.215351E-4,-0E0,1.386772E-3,-0E0,3.813117E-3],"split_indices":[0,0,0,16,1,4,17,0,0,0,0,0,0,0,0],"split_type":[0,0,0,0,0,0,0,0,0,0,0,0,0,0,0],"sum_hessian":[5.52E2,4.2E2,1.32E2,1.68E2,2.52E2,4.1E1,9.1E1,5E0,1.63E2,1.96E2,5.6E1,3E0,3.8E1,3E0,8.8E1],"tree_param":{"num_deleted":"0","num_feature":"30","num_nodes":"15","size_leaf_vector":"1"}},{"base_weights":[5.197505E-4,-1.0215429E-3,8.022304E-2,-4.1028415E-3,3.105596E-2,5.0736684E-3,-0E0,1.913522E-3,-3.4695698E-4,2.654387E-3,2.2407551E-4],"categories":[],"categories_nodes":[],"categories_segments":[],"categories_sizes":[],"default_left":[0,0,0,0,0,0,0,0,0,0,0],"id":46,"left_children":[1,3,5,7,9,-1,-1,-1,-1,-1,-1],"loss_changes":[7.7655874E-2,5.238735E-2,1.5442774E-2,5.8546074E-2,2.0937353E-2,0E0,0E0,0E0,0E0,0E0,0E0],"parents":[2147483647,0,0,1,1,2,2,3,3,4,4],"right_children":[2,4,6,8,10,-1,-1,-1,-1,-1,-1],"split_conditions":[2.2552583E-2,3.2797633E-3,3.1460475E-3,-3.585469E-3,1.7262303E-3,5.0736684E-3,-0E0,1.913522E-3,-3.4695698E-4,2.654387E-3,2.2407551E-4],"split_indices":[14,29,15,29,12,0,0,0,0,0,0],"split_type":[0,0,0,0,0,0,0,0,0,0,0],"sum_hessian":[5.66E2,5.55E2,1.1E1,5.1E2,4.5E1,8E0,3E0,2.9E1,4.81E2,2.2E1,2.3E1],"tree_param":{"num_deleted":"0","num_feature":"30","num_nodes":"11","size_leaf_vector":"1"}},{"base_weights":[1.2236694E-3,-1.6527506E-2,5.5464536E-2,-2.429765E-2,-5.7018236E-3,6.765917E-2,2.3119431E-2,-8.223021E-4,-1.542041E-3,-0E0,-6.4556353E-4,4.4057346E-3,2.7504694E-3,1.2437905E-3,-0E0],"categories":[],"categories_nodes":[],"categories_segments":[],"categories_sizes":[],"default_left":[0,0,0,0,0,0,0,0,0,0,0,0,0,0,0],"id":47,"left_children":[1,3,5,7,9,11,13,-1,-1,-1,-1,-1,-1,-1,-1],"loss_changes":[5.2955776E-1,3.1349547E-2,4.3001294E-2,6.7343265E-3,7.215749E-3,5.6812167E-3,9.809881E-4,0E0,0E0,0E0,0E0,0E0,0E0,0E0,0E0],"parents":[2147483647,0,0,1,1,2,2,3,3,4,4,5,5,6,6],"right_children":[2,4,6,8,10,12,14,-1,-1,-1,-1,-1,-1,-1,-1],"split_conditions":[1.4021318E-1,-3.10228E-1,1.3195245E-1,-4.6179496E-2,2.034038E-2,-2.4034354E-1,5.921015E-3,-8.223021E-4,-1.542041E-3,-0E0,-6.4556353E-4,4.4057346E-3,2.7504694E-3,1.2437905E-3,-0E0],"split_indices":[0,0,1,2,5,1,23,0,0,0,0,0,0,0,0],"split_type":[0,0,0,0,0,0,0,0,0,0,0,0,0,0,0],"sum_hessian":[5.44E2,4.09E2,1.35E2,2.32E2,1.77E2,9.5E1,4E1,1.14E2,1.18E2,1E2,7.7E1,3.1E1,6.4E1,3.6E1,4E0],"tree_param":{"num_deleted":"0","num_feature":"30","num_nodes":"15","size_leaf_vector":"1"}},{"base_weights":[2.5612416E-4,-1.653443E-2,5.3398892E-2,-2.2765966E-2,-1.8233556E-3,1.2398021E-3,6.533288E-2,-1.5706795E-3,-8.2595256E-4,6.4345193E-4,-4.2611043E-4,3.8252797E-3,2.3156297E-3],"categories":[],"categories_nodes":[],"categories_segments":[],"categories_sizes":[],"default_left":[0,0,0,0,0,0,0,0,0,0,0,0,0],"id":48,"left_children":[1,3,5,7,9,-1,11,-1,-1,-1,-1,-1,-1],"loss_changes":[5.149629E-1,3.7285455E-2,3.6814272E-2,1.0894105E-2,1.2961985E-2,0E0,4.3632984E-3,0E0,0E0,0E0,0E0,0E0,0E0],"parents":[2147483647,0,0,1,1,2,2,3,3,4,4,6,6],"right_children":[2,4,6,8,10,-1,12,-1,-1,-1,-1,-1,-1],"split_conditions":[1.4481577E-1,-2.3835786E-1,6.2708145E-1,-3.9441702E-1,-3.2157894E-2,1.2398021E-3,1.0130202E-1,-1.5706795E-3,-8.2595256E-4,6.4345193E-4,-4.2611043E-4,3.8252797E-3,2.3156297E-3],"split_indices":[0,0,0,0,3,0,2,0,0,0,0,0,0],"split_type":[0,0,0,0,0,0,0,0,0,0,0,0,0],"sum_hessian":[5.71E2,4.33E2,1.38E2,2.99E2,1.34E2,4.4E1,9.4E1,1.17E2,1.82E2,3.7E1,9.7E1,5.4E1,4E1],"tree_param":{"num_deleted":"0","num_feature":"30","num_nodes":"13","size_leaf_vector":"1"}},{"base_weights":[1.0575268E-3,-1.4255366E-2,5.4830253E-2,-2.205069E-2,-2.046076E-3,6.618249E-2,2.524495E-2,-5.1645574E-4,-1.317815E-3,1.718168E-4,-3.6235363E-4,-0E0,3.387592E-3,-0E0,1.341742E-3],"categories":[],"categories_nodes":[],"categories_segments":[],"categories_sizes":[],"default_left":[0,0,0,0,0,0,0,0,0,0,0,0,0,0,0],"id":49,"left_children":[1,3,5,7,9,11,13,-1,-1,-1,-1,-1,-1,-1,-1],"loss_changes":[4.667755E-1,3.904167E-2,3.150475E-2,9.231508E-3,5.4244427E-3,4.7257543E-3,1.0689218E-3,0E0,0E0,0E0,0E0,0E0,0E0,0E0,0E0],"parents":[2147483647,0,0,1,1,2,2,3,3,4,4,5,5,6,6],"right_children":[2,4,6,8,10,12,14,-1,-1,-1,-1,-1,-1,-1,-1],"split_conditions":[1.6375686E-1,-2.9386902E-1,1.05311364E-1,-5.6157816E-2,2.1881616E-2,-5.803232E-2,-6.2376585E-2,-5.1645574E-4,-1.317815E-3,1.718168E-4,-3.6235363E-4,-0E0,3.387592E-3,-0E0,1.341742E-3],"split_indices":[0,0,1,5,3,9,9,0,0,0,0,0,0,0,0],"split_type":[0,0,0,0,0,0,0,0,0,0,0,0,0,0,0],"sum_hessian":[5.6E2,4.35E2,1.25E2,2.6E2,1.75E2,8.7E1,3.8E1,7.7E1,1.83E2,7.6E1,9.9E1,3E0,8.4E1,3E0,3.5E1],"tree_param":{"num_deleted":"0","num_feature":"30","num_nodes":"15","size_leaf_vector":"1"}},{"base_weights":[5.689125E-4,-1.4525447E-2,4.835891E-2,-1.9409636E-2,-5.276917E-4,6.356972E-2,2.8137341E-2,-1.3351373E-3,-6.918201E-4,5.8406324E-4,-3.5909735E-4,-0E0,3.2839377E-3,1.4448862E-3,-0E0],"categories":[],"categories_nodes":[],"categories_segments":[],"categories_sizes":[],"default_left":[0,0,0,0,0,0,0,0,0,0,0,0,0,0,0],"id":50,"left_children":[1,3,5,7,9,11,13,-1,-1,-1,-1,-1,-1,-1,-1],"loss_changes":[4.0732569E-1,2.698391E-2,3.0872375E-2,8.136295E-3,9.057977E-3,7.23055E-3,2.2697821E-4,0E0,0E0,0E0,0E0,0E0,0E0,0E0,0E0],"parents":[2147483647,0,0,1,1,2,2,3,3,4,4,5,5,6,6],"right_children":[2,4,6,8,10,12,14,-1,-1,-1,-1,-1,-1,-1,-1],"split_conditions":[1.4481577E-1,-2.208267E-1,-4.48903E-2,-4.8137624E-3,-7.4686105E-3,-2.0772288E-2,7.448283E-2,-1.3351373E-3,-6.918201E-4,5.8406324E-4,-3.5909735E-4,-0E0,3.2839377E-3,1.4448862E-3,-0E0],"split_indices":[0,0,1,9,3,12,7,0,0,0,0,0,0,0,0],"split_type":[0,0,0,0,0,0,0,0,0,0,0,0,0,0,0],"sum_hessian":[5.58E2,4.23E2,1.35E2,3.08E2,1.15E2,7.3E1,6.2E1,1.24E2,1.84E2,3.5E1,8E1,3E0,7E1,5.9E1,3E0],"tree_param":{"num_deleted":"0","num_feature":"30","num_nodes":"15","size_leaf_vector":"1"}},{"base_weights":[-0E0,-1.3865836E-2,4.4256806E-2,-1.7287383E-2,2.6748796E-5,6.103112E-2,2.8026551E-2,-2.9304082E-4,-1.068626E-3,2.5119478E-4,-2.7431498E-4,-0E0,3.1580497E-3,1.5265205E-3,-0E0],"categories":[],"categories_nodes":[],"categories_segments":[],"categories_sizes":[],"default_left":[0,0,0,0,0,0,0,0,0,0,0,0,0,0,0],"id":51,"left_children":[1,3,5,7,9,11,13,-1,-1,-1,-1,-1,-1,-1,-1],"loss_changes":[3.4885854E-1,2.2118658E-2,2.6409954E-2,1.348909E-2,2.1852832E-3,4.696399E-3,2.4608E-3,0E0,0E0,0E0,0E0,0E0,0E0,0E0,0E0],"parents":[2147483647,0,0,1,1,2,2,3,3,4,4,5,5,6,6],"right_children":[2,4,6,8,10,12,14,-1,-1,-1,-1,-1,-1,-1,-1],"split_conditions":[1.3724287E-1,-1.6026743E-1,-4.48903E-2,-5.857132E-2,1.08493425E-1,-5.803232E-2,4.4101903E-1,-2.9304082E-4,-1.068626E-3,2.5119478E-4,-2.7431498E-4,-0E0,3.1580497E-3,1.5265205E-3,-0E0],"split_indices":[0,0,1,5,5,9,1,0,0,0,0,0,0,0,0],"split_type":[0,0,0,0,0,0,0,0,0,0,0,0,0,0,0],"sum_hessian":[5.63E2,4.28E2,1.35E2,3.49E2,7.9E1,6.2E1,7.3E1,9.9E1,2.5E2,5.1E1,2.8E1,3E0,5.9E1,6.4E1,9E0],"tree_param":{"num_deleted":"0","num_feature":"30","num_nodes":"15","size_leaf_vector":"1"}},{"base_weights":[1.314723E-4,-1.3278164E-2,4.1181237E-2,-2.2516552E-2,-7.6426887E-3,3.660934E-3,3.182782E-2,-1.6886173E-3,-9.1652357E-4,-5.4640265E-4,-0E0,1.9324062E-3,8.6609425E-4],"categories":[],"categories_nodes":[],"categories_segments":[],"categories_sizes":[],"default_left":[0,0,0,0,0,0,0,0,0,0,0,0,0],"id":52,"left_children":[1,3,5,7,9,-1,11,-1,-1,-1,-1,-1,-1],"loss_changes":[3.071924E-1,1.8418022E-2,2.8517976E-2,1.2383088E-3,6.9141546E-3,0E0,4.7153085E-3,0E0,0E0,0E0,0E0,0E0,0E0],"parents":[2147483647,0,0,1,1,2,2,3,3,4,4,6,6],"right_children":[2,4,6,8,10,-1,12,-1,-1,-1,-1,-1,-1],"split_conditions":[1.3724287E-1,-3.6848027E-1,-2.4034354E-1,-5.1765496E-1,1.1361528E-3,3.660934E-3,1.6906728E-1,-1.6886173E-3,-9.1652357E-4,-5.4640265E-4,-0E0,1.9324062E-3,8.6609425E-4],"split_indices":[0,0,1,1,23,0,1,0,0,0,0,0,0],"split_type":[0,0,0,0,0,0,0,0,0,0,0,0,0],"sum_hessian":[5.51E2,4.14E2,1.37E2,1.49E2,2.65E2,2.7E1,1.1E2,3.2E1,1.17E2,1.87E2,7.8E1,6.9E1,4.1E1],"tree_param":{"num_deleted":"0","num_feature":"30","num_nodes":"13","size_leaf_vector":"1"}},{"base_weights":[-2.787351E-7,-1.2518888E-2,3.866123E-2,-1.5668117E-2,-0E0,1.5513434E-2,4.8121896E-2,-1.0924361E-3,-5.4146134E-4,7.16396E-4,-2.8398176E-4,8.677655E-4,-0E0,1.3288773E-3,2.7727594E-3],"categories":[],"categories_nodes":[],"categories_segments":[],"categories_sizes":[],"default_left":[0,0,0,0,0,0,0,0,0,0,0,0,0,0,0],"id":53,"left_children":[1,3,5,7,9,11,13,-1,-1,-1,-1,-1,-1,-1,-1],"loss_changes":[2.703552E-1,1.737126E-2,2.2673056E-2,6.783694E-3,7.2730165E-3,1.1577327E-3,5.016029E-3,0E0,0E0,0E0,0E0,0E0,0E0,0E0,0E0],"parents":[2147483647,0,0,1,1,2,2,3,3,4,4,5,5,6,6],"right_children":[2,4,6,8,10,12,14,-1,-1,-1,-1,-1,-1,-1,-1],"split_conditions":[1.3724287E-1,-1.8360311E-1,5.244639E-1,-4.8137624E-3,2.1881616E-2,8.3302865E-3,-2.2468938E-2,-1.0924361E-3,-5.4146134E-4,7.16396E-4,-2.8398176E-4,8.677655E-4,-0E0,1.3288773E-3,2.7727594E-3],"split_indices":[0,0,0,9,3,23,9,0,0,0,0,0,0,0,0],"split_type":[0,0,0,0,0,0,0,0,0,0,0,0,0,0,0],"sum_hessian":[5.62E2,4.27E2,1.35E2,3.43E2,8.4E1,4.3E1,9.2E1,1.4E2,2.03E2,2.5E1,5.9E1,3.8E1,5E0,2.8E1,6.4E1],"tree_param":{"num_deleted":"0","num_feature":"30","num_nodes":"15","size_leaf_vector":"1"}},{"base_weights":[2.2391092E-4,-1.1296052E-2,3.964148E-2,-2.1675337E-2,-5.7840953E-3,3.0969197E-3,2.8549891E-2,-1.224758E-3,-4.9636717E-4,-4.337433E-4,1.303991E-4,1.7746566E-3,7.4674294E-4],"categories":[],"categories_nodes":[],"categories_segments":[],"categories_sizes":[],"default_left":[0,0,0,0,0,0,0,0,0,0,0,0,0],"id":54,"left_children":[1,3,5,7,9,-1,11,-1,-1,-1,-1,-1,-1],"loss_changes":[2.6392937E-1,2.2472784E-2,2.1827519E-2,1.1842921E-3,7.834404E-3,0E0,3.218636E-3,0E0,0E0,0E0,0E0,0E0,0E0],"parents":[2147483647,0,0,1,1,2,2,3,3,4,4,6,6],"right_children":[2,4,6,8,10,-1,12,-1,-1,-1,-1,-1,-1],"split_conditions":[1.4481577E-1,-3.7499326E-1,-2.294312E-1,8.777645E-3,2.4801514E-1,3.0969197E-3,1.6906728E-1,-1.224758E-3,-4.9636717E-4,-4.337433E-4,1.303991E-4,1.7746566E-3,7.4674294E-4],"split_indices":[0,0,1,9,1,0,1,0,0,0,0,0,0],"split_type":[0,0,0,0,0,0,0,0,0,0,0,0,0],"sum_hessian":[5.73E2,4.42E2,1.31E2,1.46E2,2.96E2,3.9E1,9.2E1,1.1E2,3.6E1,2.29E2,6.7E1,5.5E1,3.7E1],"tree_param":{"num_deleted":"0","num_feature":"30","num_nodes":"13","size_leaf_vector":"1"}},{"base_weights":[-0E0,-1.2410153E-2,3.3353243E-2,-2.2433357E-2,-8.517917E-3,5.0289202E-2,1.8972477E-2,-1.2348056E-3,-1.4929553E-4,-1.1167278E-3,-2.838952E-4,7.702607E-4,2.83341E-3,1.136986E-3,-0E0],"categories":[],"categories_nodes":[],"categories_segments":[],"categories_sizes":[],"default_left":[0,0,0,0,0,0,0,0,0,0,0,0,0,0,0],"id":55,"left_children":[1,3,5,7,9,11,13,-1,-1,-1,-1,-1,-1,-1,-1],"loss_changes":[2.3285162E-1,1.2865029E-2,2.9139623E-2,1.910571E-3,9.118447E-3,6.6063106E-3,4.8805587E-3,0E0,0E0,0E0,0E0,0E0,0E0,0E0,0E0],"parents":[2147483647,0,0,1,1,2,2,3,3,4,4,5,5,6,6],"right_children":[2,4,6,8,10,12,14,-1,-1,-1,-1,-1,-1,-1,-1],"split_conditions":[7.9567954E-2,-3.9911515E-1,-8.600307E-2,7.002708E-2,-1.747678E-2,-3.1076776E-2,4.9367172E-1,-1.2348056E-3,-1.4929553E-4,-1.1167278E-3,-2.838952E-4,7.702607E-4,2.83341E-3,1.136986E-3,-0E0],"split_indices":[0,0,1,4,9,9,1,0,0,0,0,0,0,0,0],"split_type":[0,0,0,0,0,0,0,0,0,0,0,0,0,0,0],"sum_hessian":[5.64E2,4.13E2,1.51E2,1.07E2,3.06E2,6.5E1,8.6E1,9.1E1,1.6E1,4.5E1,2.61E2,1.3E1,5.2E1,6.9E1,1.7E1],"tree_param":{"num_deleted":"0","num_feature":"30","num_nodes":"15","size_leaf_vector":"1"}},{"base_weights":[5.694437E-4,-1.0759734E-2,3.3414137E-2,-1.7820638E-2,-4.13607E-3,1.449928E-2,4.1087773E-2,-0E0,-9.547514E-4,-0E0,-5.579367E-4,-0E0,8.7014725E-4,2.5427907E-3,1.2468528E-3],"categories":[],"categories_nodes":[],"categories_segments":[],"categories_sizes":[],"default_left":[0,0,0,0,0,0,0,0,0,0,0,0,0,0,0],"id":56,"left_children":[1,3,5,7,9,11,13,-1,-1,-1,-1,-1,-1,-1,-1],"loss_changes":[2.0356078E-1,1.6438242E-2,1.4311105E-2,2.9164478E-3,6.9059543E-3,1.5353747E-3,6.2975585E-3,0E0,0E0,0E0,0E0,0E0,0E0,0E0,0E0],"parents":[2147483647,0,0,1,1,2,2,3,3,4,4,5,5,6,6],"right_children":[2,4,6,8,10,12,14,-1,-1,-1,-1,-1,-1,-1,-1],"split_conditions":[1.3246922E-1,-3.380064E-1,4.933899E-1,-1.3613832E-1,2.217138E-2,-3.3235874E-2,1.02252714E-1,-0E0,-9.547514E-4,-0E0,-5.579367E-4,-0E0,8.7014725E-4,2.5427907E-3,1.2468528E-3],"split_indices":[0,0,0,5,5,9,2,0,0,0,0,0,0,0,0],"split_type":[0,0,0,0,0,0,0,0,0,0,0,0,0,0,0],"sum_hessian":[5.39E2,3.99E2,1.4E2,1.85E2,2.14E2,4.5E1,9.5E1,1.6E1,1.69E2,1.3E2,8.4E1,9E0,3.6E1,5.4E1,4.1E1],"tree_param":{"num_deleted":"0","num_feature":"30","num_nodes":"15","size_leaf_vector":"1"}},{"base_weights":[-3.351496E-6,-4.302111E-3,1.4726322E-2,4.1197013E-2,-6.0667023E-3,3.4822545E-3,2.6522085E-2,-0E0,2.4166375E-3,1.0043919E-3,-3.8301764E-4,-0E0,6.194308E-4,1.6134464E-3,-0E0],"categories":[],"categories_nodes":[],"categories_segments":[],"categories_sizes":[],"default_left":[0,0,0,0,0,0,0,0,0,0,0,0,0,0,0],"id":57,"left_children":[1,3,5,7,9,11,13,-1,-1,-1,-1,-1,-1,-1,-1],"loss_changes":[3.5746142E-2,3.3267647E-2,1.3618885E-2,2.574753E-3,1.7292539E-2,3.2950735E-3,8.84534E-3,0E0,0E0,0E0,0E0,0E0,0E0,0E0,0E0],"parents":[2147483647,0,0,1,1,2,2,3,3,4,4,5,5,6,6],"right_children":[2,4,6,8,10,12,14,-1,-1,-1,-1,-1,-1,-1,-1],"split_conditions":[1.4279793E-2,-2.515465E-1,1.2686276E-3,-4.813006E-2,-1.3407552E-2,1.3360737E-3,2.4742194E-2,-0E0,2.4166375E-3,1.0043919E-3,-3.8301764E-4,-0E0,6.194308E-4,1.6134464E-3,-0E0],"split_indices":[9,2,19,3,14,20,5,0,0,0,0,0,0,0,0],"split_type":[0,0,0,0,0,0,0,0,0,0,0,0,0,0,0],"sum_hessian":[5.79E2,4.54E2,1.25E2,1.4E1,4.4E2,6.9E1,5.6E1,3E0,1.1E1,2.1E1,4.19E2,4.3E1,2.6E1,4.6E1,1E1],"tree_param":{"num_deleted":"0","num_feature":"30","num_nodes":"15","size_leaf_vector":"1"}},{"base_weights":[9.2179416E-4,-1.0030213E-2,3.334022E-2,-1.7784718E-2,-4.2916005E-3,2.912969E-3,2.5452478E-2,-1.0094137E-3,-2.753409E-4,-3.0043008E-4,4.5452183E-4,1.361735E-3,-0E0],"categories":[],"categories_nodes":[],"categories_segments":[],"categories_sizes":[],"default_left":[0,0,0,0,0,0,0,0,0,0,0,0,0],"id":58,"left_children":[1,3,5,7,9,-1,11,-1,-1,-1,-1,-1,-1],"loss_changes":[2.0859255E-1,1.694008E-2,1.9432798E-2,2.5131889E-3,5.6515187E-3,0E0,3.6629513E-3,0E0,0E0,0E0,0E0,0E0,0E0],"parents":[2147483647,0,0,1,1,2,2,3,3,4,4,6,6],"right_children":[2,4,6,8,10,-1,12,-1,-1,-1,-1,-1,-1],"split_conditions":[1.3246922E-1,-3.5181874E-1,-2.4034354E-1,5.8611114E-2,7.4693166E-2,2.912969E-3,4.528742E-1,-1.0094137E-3,-2.753409E-4,-3.0043008E-4,4.5452183E-4,1.361735E-3,-0E0],"split_indices":[0,0,1,4,8,0,1,0,0,0,0,0,0],"split_type":[0,0,0,0,0,0,0,0,0,0,0,0,0],"sum_hessian":[5.79E2,4.31E2,1.48E2,1.75E2,2.56E2,3.1E1,1.17E2,1.39E2,3.6E1,2.34E2,2.2E1,1.07E2,1E1],"tree_param":{"num_deleted":"0","num_feature":"30","num_nodes":"13","size_leaf_vector":"1"}},{"base_weights":[-4.238818E-4,-1.0932706E-2,2.6907844E-2,-1.8958693E-2,-6.8514575E-3,1.39887715E-2,3.879635E-2,-1.0667756E-3,-0E0,-6.356473E-4,-1.5449586E-4,8.383669E-4,-0E0,6.3363113E-4,2.264867E-3],"categories":[],"categories_nodes":[],"categories_segments":[],"categories_sizes":[],"default_left":[0,0,0,0,0,0,0,0,0,0,0,0,0,0,0],"id":59,"left_children":[1,3,5,7,9,11,13,-1,-1,-1,-1,-1,-1,-1,-1],"loss_changes":[1.5523392E-1,1.0293245E-2,1.7063454E-2,3.777828E-3,4.399596E-3,2.9253894E-3,6.0265586E-3,0E0,0E0,0E0,0E0,0E0,0E0,0E0,0E0],"parents":[2147483647,0,0,1,1,2,2,3,3,4,4,5,5,6,6],"right_children":[2,4,6,8,10,12,14,-1,-1,-1,-1,-1,-1,-1,-1],"split_conditions":[1.02216996E-1,-8.08423E-3,9.1866976E-1,-2.0110407E-1,-3.7499326E-1,5.033939E-2,-3.407164E-2,-1.0667756E-3,-0E0,-6.356473E-4,-1.5449586E-4,8.383669E-4,-0E0,6.3363113E-4,2.264867E-3],"split_indices":[0,9,0,0,0,3,9,0,0,0,0,0,0,0,0],"split_type":[0,0,0,0,0,0,0,0,0,0,0,0,0,0,0],"sum_hessian":[5.44E2,3.96E2,1.48E2,1.24E2,2.72E2,7.6E1,7.2E1,1.06E2,1.8E1,9.5E1,1.77E2,6.3E1,1.3E1,1.8E1,5.4E1],"tree_param":{"num_deleted":"0","num_feature":"30","num_nodes":"15","size_leaf_vector":"1"}},{"base_weights":[7.238309E-4,-9.998725E-3,2.823795E-2,-1.4429905E-2,-3.9010388E-3,3.545774E-2,1.243522E-2,-0E0,-8.0966315E-4,-4.4387413E-4,1.3328546E-4,-0E0,1.8599486E-3,7.4086257E-4,-0E0],"categories":[],"categories_nodes":[],"categories_segments":[],"categories_sizes":[],"default_left":[0,0,0,0,0,0,0,0,0,0,0,0,0,0,0],"id":60,"left_children":[1,3,5,7,9,11,13,-1,-1,-1,-1,-1,-1,-1,-1],"loss_changes":[1.7056365E-1,9.16177E-3,1.3366833E-2,4.6534836E-3,6.625107E-3,5.2342266E-3,1.9438164E-3,0E0,0E0,0E0,0E0,0E0,0E0,0E0,0E0],"parents":[2147483647,0,0,1,1,2,2,3,3,4,4,5,5,6,6],"right_children":[2,4,6,8,10,12,14,-1,-1,-1,-1,-1,-1,-1,-1],"split_conditions":[8.85879E-2,-3.2373872E-1,1.6906728E-1,-1.16819374E-1,8.145818E-4,-1.3543324E-2,5.921015E-3,-0E0,-8.0966315E-4,-4.4387413E-4,1.3328546E-4,-0E0,1.8599486E-3,7.4086257E-4,-0E0],"split_indices":[0,0,1,5,23,17,23,0,0,0,0,0,0,0,0],"split_type":[0,0,0,0,0,0,0,0,0,0,0,0,0,0,0],"sum_hessian":[5.7E2,4.08E2,1.62E2,2.26E2,1.82E2,1.06E2,5.6E1,2.9E1,1.97E2,1.12E2,7E1,6E0,1E2,4.8E1,8E0],"tree_param":{"num_deleted":"0","num_feature":"30","num_nodes":"15","size_leaf_vector":"1"}},{"base_weights":[3.773231E-5,-8.771779E-3,2.8339697E-2,-1.1746422E-2,9.854126E-4,3.5378642E-2,9.6401945E-3,-3.7800375E-4,-9.3852164E-4,4.4193745E-4,-1.8022828E-4,-0E0,1.8170237E-3,-0E0,6.473116E-4],"categories":[],"categories_nodes":[],"categories_segments":[],"categories_sizes":[],"default_left":[0,0,0,0,0,0,0,0,0,0,0,0,0,0,0],"id":61,"left_children":[1,3,5,7,9,11,13,-1,-1,-1,-1,-1,-1,-1,-1],"loss_changes":[1.4407215E-1,1.36261135E-2,1.33212805E-2,7.193316E-3,3.943662E-3,2.660364E-3,1.5348285E-3,0E0,0E0,0E0,0E0,0E0,0E0,0E0,0E0],"parents":[2147483647,0,0,1,1,2,2,3,3,4,4,5,5,6,6],"right_children":[2,4,6,8,10,12,14,-1,-1,-1,-1,-1,-1,-1,-1],"split_conditions":[1.3724287E-1,-1.9073854E-1,1.6906728E-1,-1.9248676E-2,8.430999E-2,-5.803232E-2,-3.3235874E-2,-3.7800375E-4,-9.3852164E-4,4.4193745E-4,-1.8022828E-4,-0E0,1.8170237E-3,-0E0,6.473116E-4],"split_indices":[0,0,1,2,3,9,9,0,0,0,0,0,0,0,0],"split_type":[0,0,0,0,0,0,0,0,0,0,0,0,0,0,0],"sum_hessian":[5.68E2,4.31E2,1.37E2,3.38E2,9.3E1,9.5E1,4.2E1,2.22E2,1.16E2,4.2E1,5.1E1,3E0,9.2E1,1E1,3.2E1],"tree_param":{"num_deleted":"0","num_feature":"30","num_nodes":"15","size_leaf_vector":"1"}}]},"name":"gbtree"},"learner_model_param":{"base_score":"2.7717257E-1","boost_from_average":"1","num_class":"0","num_feature":"30","num_target":"1"},"objective":{"name":"reg:squarederror","reg_loss_param":{"scale_pos_weight":"1"}}},"version":[2,1,4]}