{"learner":{"attributes":{"scikit_learn":"{\"_estimator_type\": \"regressor\"}"},"feature_names":[],"feature_types":[],"gradient_booster":{"model":{"gbtree_model_param":{"num_parallel_tree":"1","num_trees":"200"},"iteration_indptr":[0,1,2,3,4,5,6,7,8,9,10,11,12,13,14,15,16,17,18,19,20,21,22,23,24,25,26,27,28,29,30,31,32,33,34,35,36,37,38,39,40,41,42,43,44,45,46,47,48,49,50,51,52,53,54,55,56,57,58,59,60,61,62,63,64,65,66,67,68,69,70,71,72,73,74,75,76,77,78,79,80,81,82,83,84,85,86,87,88,89,90,91,92,93,94,95,96,97,98,99,100,101,102,103,104,105,106,107,108,109,110,111,112,113,114,115,116,117,118,119,120,121,122,123,124,125,126,127,128,129,130,131,132,133,134,135,136,137,138,139,140,141,142,143,144,145,146,147,148,149,150,151,152,153,154,155,156,157,158,159,160,161,162,163,164,165,166,167,168,169,170,171,172,173,174,175,176,177,178,179,180,181,182,183,184,185,186,187,188,189,190,191,192,193,194,195,196,197,198,199,200],"tree_info":[0,0,0,0,0,0,0,0,0,0,0,0,0,0,0,0,0,0,0,0,0,0,0,0,0,0,0,0,0,0,0,0,0,0,0,0,0,0,0,0,0,0,0,0,0,0,0,0,0,0,0,0,0,0,0,0,0,0,0,0,0,0,0,0,0,0,0,0,0,0,0,0,0,0,0,0,0,0,0,0,0,0,0,0,0,0,0,0,0,0,0,0,0,0,0,0,0,0,0,0,0,0,0,0,0,0,0,0,0,0,0,0,0,0,0,0,0,0,0,0,0,0,0,0,0,0,0,0,0,0,0,0,0,0,0,0,0,0,0,0,0,0,0,0,0,0,0,0,0,0,0,0,0,0,0,0,0,0,0,0,0,0,0,0,0,0,0,0,0,0,0,0,0,0,0,0,0,0,0,0,0,0,0,0,0,0,0,0,0,0,0,0,0,0,0,0,0,0,0,0],"trees":[{"base_weights":[-5.2564646E-5,-3.22098E2,3.7054718E2,-3.7922537E2,-1.4647942E2,2.5596632E2,4.5733853E2,-2.0579605E1,-1.6549744E1,-1.9122333E2,7.7054685E-1,5.9405144E1,2.8099292E2,2.0854677E1,2.552494E1,-9.706202E0,-4.415213E0,-1.5652131E0,3.2836527E-1,2.2153587E0,5.2472873E0,1.2080679E1,1.5985244E1],"categories":[],"categories_nodes":[],"categories_segments":[],"categories_sizes":[],"default_left":[0,0,0,0,0,0,0,0,0,0,0,0,0,0,0,0,0,0,0,0,0,0,0],"id":0,"left_children":[1,3,5,7,9,11,13,-1,-1,15,17,19,21,-1,-1,-1,-1,-1,-1,-1,-1,-1,-1],"loss_changes":[9.214013E7,4.087932E6,3.453052E6,3.49252E5,6.78767E5,7.5563E5,2.2138E5,0E0,0E0,6.44225E3,4.853832E3,8.413992E3,1.34654E5,0E0,0E0,0E0,0E0,0E0,0E0,0E0,0E0,0E0,0E0],"parents":[2147483647,0,0,1,1,2,2,3,3,4,4,5,5,6,6,9,9,10,10,11,11,12,12],"right_children":[2,4,6,8,10,12,14,-1,-1,16,18,20,22,-1,-1,-1,-1,-1,-1,-1,-1,-1,-1],"split_conditions":[2.224068E3,2.0554365E3,2.6323691E3,1.8991489E3,2.1527227E3,2.2950127E3,2.7296528E3,-2.0579605E1,-1.6549744E1,2.1304624E3,2.1793704E3,2.2745764E3,2.5597002E3,2.0854677E1,2.552494E1,-9.706202E0,-4.415213E0,-1.5652131E0,3.2836527E-1,2.2153587E0,5.2472873E0,1.2080679E1,1.5985244E1],"split_indices":[0,0,0,1,0,0,0,0,0,0,0,0,0,0,0,0,0,0,0,0,0,0,0],"split_type":[0,0,0,0,0,0,0,0,0,0,0,0,0,0,0,0,0,0,0,0,0,0,0],"sum_hessian":[7.7E2,4.12E2,3.58E2,3.1E2,1.02E2,1.56E2,2.02E2,1.81E2,1.29E2,7.8E1,2.4E1,1.8E1,1.38E2,1.2E2,8.2E1,7.5E1,3E0,3E0,2.1E1,1.5E1,3E0,7.2E1,6.6E1],"tree_param":{"num_deleted":"0","num_feature":"2","num_nodes":"23","size_leaf_vector":"1"}},{"base_weights":[3.812172E-2,-3.0612015E2,3.5224796E2,-3.614763E2,-1.4238612E2,2.4339432E2,4.3470004E2,-1.955628E1,-1.5807024E1,-1.842682E2,6.8253905E-1,9.3833916E1,2.7373508E2,1.9820559E1,2.4264072E1,-1.0305932E1,-7.9828453E0,-1.5065186E0,3.126931E-1,2.111515E0,7.5064034E0,1.1890911E1,1.5197906E1],"categories":[],"categories_nodes":[],"categories_segments":[],"categories_sizes":[],"default_left":[0,0,0,0,0,0,0,0,0,0,0,0,0,0,0,0,0,0,0,0,0,0,0],"id":1,"left_children":[1,3,5,7,9,11,13,-1,-1,15,17,19,21,-1,-1,-1,-1,-1,-1,-1,-1,-1,-1],"loss_changes":[8.324627E7,3.691832E6,3.1163E6,2.90356E5,6.35279E5,6.86746E5,2.00776E5,0E0,0E0,1.118875E4,4.480148E3,7.499953E4,6.8831E4,0E0,0E0,0E0,0E0,0E0,0E0,0E0,0E0,0E0,0E0],"parents":[2147483647,0,0,1,1,2,2,3,3,4,4,5,5,6,6,9,9,10,10,11,11,12,12],"right_children":[2,4,6,8,10,12,14,-1,-1,16,18,20,22,-1,-1,-1,-1,-1,-1,-1,-1,-1,-1],"split_conditions":[2.224068E3,1.9444608E3,2.6323691E3,1.8991489E3,2.1527227E3,2.3321772E3,2.7296528E3,-1.955628E1,-1.5807024E1,2.085929E3,2.1793704E3,2.2745764E3,2.5597002E3,1.9820559E1,2.4264072E1,-1.0305932E1,-7.9828453E0,-1.5065186E0,3.126931E-1,2.111515E0,7.5064034E0,1.1890911E1,1.5197906E1],"split_indices":[0,1,0,1,0,0,0,0,0,0,0,0,0,0,0,0,0,0,0,0,0,0,0],"split_type":[0,0,0,0,0,0,0,0,0,0,0,0,0,0,0,0,0,0,0,0,0,0,0],"sum_hessian":[7.7E2,4.12E2,3.58E2,3.07E2,1.05E2,1.56E2,2.02E2,1.81E2,1.26E2,8.1E1,2.4E1,2.7E1,1.29E2,1.2E2,8.2E1,3.9E1,4.2E1,3E0,2.1E1,1.5E1,1.2E1,6.3E1,6.6E1],"tree_param":{"num_deleted":"0","num_feature":"2","num_nodes":"23","size_leaf_vector":"1"}},{"base_weights":[6.989927E-2,-2.9094687E2,3.3486057E2,-3.4351718E2,-1.354506E2,2.3312952E2,4.145711E2,-1.8583832E1,-1.5022891E1,-1.752778E2,6.00625E-1,8.948571E1,2.6161746E2,1.9058573E1,2.3314493E1,-9.803519E0,-7.592983E0,-1.4500214E0,2.9776666E-1,2.012535E0,7.1599565E0,1.1305658E1,1.4517058E1],"categories":[],"categories_nodes":[],"categories_segments":[],"categories_sizes":[],"default_left":[0,0,0,0,0,0,0,0,0,0,0,0,0,0,0,0,0,0,0,0,0,0,0],"id":2,"left_children":[1,3,5,7,9,11,13,-1,-1,15,17,19,21,-1,-1,-1,-1,-1,-1,-1,-1,-1,-1],"loss_changes":[7.521573E7,3.329536E6,2.814496E6,2.61784E5,5.744704E5,6.31328E5,1.67744E5,0E0,0E0,1.015275E4,4.1353325E3,6.828441E4,6.9985E4,0E0,0E0,0E0,0E0,0E0,0E0,0E0,0E0,0E0,0E0],"parents":[2147483647,0,0,1,1,2,2,3,3,4,4,5,5,6,6,9,9,10,10,11,11,12,12],"right_children":[2,4,6,8,10,12,14,-1,-1,16,18,20,22,-1,-1,-1,-1,-1,-1,-1,-1,-1,-1],"split_conditions":[2.224068E3,1.9444608E3,2.6337988E3,1.8991489E3,2.1527227E3,2.3321772E3,2.740556E3,-1.8583832E1,-1.5022891E1,2.085929E3,2.1793704E3,2.2745764E3,2.5597002E3,1.9058573E1,2.3314493E1,-9.803519E0,-7.592983E0,-1.4500214E0,2.9776666E-1,2.012535E0,7.1599565E0,1.1305658E1,1.4517058E1],"split_indices":[0,1,0,1,0,0,0,0,0,0,0,0,0,0,0,0,0,0,0,0,0,0,0],"split_type":[0,0,0,0,0,0,0,0,0,0,0,0,0,0,0,0,0,0,0,0,0,0,0],"sum_hessian":[7.7E2,4.12E2,3.58E2,3.07E2,1.05E2,1.59E2,1.99E2,1.81E2,1.26E2,8.1E1,2.4E1,2.7E1,1.32E2,1.26E2,7.3E1,3.9E1,4.2E1,3E0,2.1E1,1.5E1,1.2E1,6.3E1,6.9E1],"tree_param":{"num_deleted":"0","num_feature":"2","num_nodes":"23","size_leaf_vector":"1"}},{"base_weights":[9.908974E-2,-2.743784E2,3.2083652E2,-3.2550156E2,-1.2179644E2,2.2552176E2,3.9405444E2,-1.765975E1,-1.4211342E1,-1.6439618E2,2.7455533E0,9.302917E1,2.4873073E2,1.7964268E1,2.1936878E1,-8.351352E0,-3.6655426E0,-1.3956482E0,3.770547E-1,2.1156137E0,6.8294992E0,1.0749207E1,1.3801574E1],"categories":[],"categories_nodes":[],"categories_segments":[],"categories_sizes":[],"default_left":[0,0,0,0,0,0,0,0,0,0,0,0,0,0,0,0,0,0,0,0,0,0,0],"id":3,"left_children":[1,3,5,7,9,11,13,-1,-1,15,17,19,21,-1,-1,-1,-1,-1,-1,-1,-1,-1,-1],"loss_changes":[6.796317E7,3.205352E6,2.395564E6,2.55098E5,5.628296E5,4.596385E5,1.53086E5,0E0,0E0,6.686E3,4.3271704E3,4.945228E4,6.31915E4,0E0,0E0,0E0,0E0,0E0,0E0,0E0,0E0,0E0,0E0],"parents":[2147483647,0,0,1,1,2,2,3,3,4,4,5,5,6,6,9,9,10,10,11,11,12,12],"right_children":[2,4,6,8,10,12,14,-1,-1,16,18,20,22,-1,-1,-1,-1,-1,-1,-1,-1,-1,-1],"split_conditions":[2.2324023E3,2.0554365E3,2.6337988E3,1.8991489E3,2.1527227E3,2.3321772E3,2.7296528E3,-1.765975E1,-1.4211342E1,2.1304624E3,2.1793704E3,2.2745764E3,2.5597002E3,1.7964268E1,2.1936878E1,-8.351352E0,-3.6655426E0,-1.3956482E0,3.770547E-1,2.1156137E0,6.8294992E0,1.0749207E1,1.3801574E1],"split_indices":[0,0,0,1,0,0,0,0,0,0,0,0,0,0,0,0,0,0,0,0,0,0,0],"split_type":[0,0,0,0,0,0,0,0,0,0,0,0,0,0,0,0,0,0,0,0,0,0,0],"sum_hessian":[7.7E2,4.15E2,3.55E2,3.1E2,1.05E2,1.56E2,1.99E2,1.81E2,1.29E2,7.8E1,2.7E1,2.4E1,1.32E2,1.17E2,8.2E1,7.5E1,3E0,3E0,2.4E1,1.2E1,1.2E1,6.3E1,6.9E1],"tree_param":{"num_deleted":"0","num_feature":"2","num_nodes":"23","size_leaf_vector":"1"}},{"base_weights":[1.3107818E-1,-2.6076743E2,3.0500085E2,-3.112238E2,-1.2103558E2,2.14459E2,3.745512E2,-1.6781618E1,-1.36444235E1,-1.6032942E2,2.5719953E0,8.873542E1,2.3647879E2,1.7207926E1,2.1082508E1,-9.0158615E0,-6.8306513E0,-1.3433075E0,3.5896096E-1,2.017965E0,6.514287E0,1.0220141E1,1.3121355E1],"categories":[],"categories_nodes":[],"categories_segments":[],"categories_sizes":[],"default_left":[0,0,0,0,0,0,0,0,0,0,0,0,0,0,0,0,0,0,0,0,0,0,0],"id":4,"left_children":[1,3,5,7,9,11,13,-1,-1,15,17,19,21,-1,-1,-1,-1,-1,-1,-1,-1,-1,-1],"loss_changes":[6.1404924E7,2.89528E6,2.161482E6,1.93804E5,5.443981E5,4.136555E5,1.4118E5,0E0,0E0,1.565975E4,3.9904648E3,4.499286E4,5.70575E4,0E0,0E0,0E0,0E0,0E0,0E0,0E0,0E0,0E0,0E0],"parents":[2147483647,0,0,1,1,2,2,3,3,4,4,5,5,6,6,9,9,10,10,11,11,12,12],"right_children":[2,4,6,8,10,12,14,-1,-1,16,18,20,22,-1,-1,-1,-1,-1,-1,-1,-1,-1,-1],"split_conditions":[2.2324023E3,1.943853E3,2.6337988E3,1.8991489E3,2.1527227E3,2.3321772E3,2.740556E3,-1.6781618E1,-1.36444235E1,2.085929E3,2.1793704E3,2.2745764E3,2.5597002E3,1.7207926E1,2.1082508E1,-9.0158615E0,-6.8306513E0,-1.3433075E0,3.5896096E-1,2.017965E0,6.514287E0,1.0220141E1,1.3121355E1],"split_indices":[0,1,0,1,0,0,0,0,0,0,0,0,0,0,0,0,0,0,0,0,0,0,0],"split_type":[0,0,0,0,0,0,0,0,0,0,0,0,0,0,0,0,0,0,0,0,0,0,0],"sum_hessian":[7.7E2,4.15E2,3.55E2,3.04E2,1.11E2,1.56E2,1.99E2,1.81E2,1.23E2,8.4E1,2.7E1,2.4E1,1.32E2,1.26E2,7.3E1,4.2E1,4.2E1,3E0,2.4E1,1.2E1,1.2E1,6.3E1,6.9E1],"tree_param":{"num_deleted":"0","num_feature":"2","num_nodes":"23","size_leaf_vector":"1"}},{"base_weights":[1.5425634E-1,-2.4979192E2,2.8769635E2,-2.9576224E2,-1.1886767E2,1.9899713E2,3.5487903E2,-1.6077524E1,-1.3132575E1,-1.5249942E2,2.35E-1,4.6422195E1,2.1842105E2,1.5550702E1,1.9254833E1,-8.575552E0,-6.497066E0,-1.2929353E0,2.484314E-1,1.7562859E0,4.0001283E0,9.406466E0,1.2408275E1],"categories":[],"categories_nodes":[],"categories_segments":[],"categories_sizes":[],"default_left":[0,0,0,0,0,0,0,0,0,0,0,0,0,0,0,0,0,0,0,0,0,0,0],"id":5,"left_children":[1,3,5,7,9,11,13,-1,-1,15,17,19,21,-1,-1,-1,-1,-1,-1,-1,-1,-1,-1],"loss_changes":[5.548367E7,2.450538E6,2.068682E6,1.75972E5,4.3664962E5,4.551465E5,1.49304E5,0E0,0E0,1.4167375E4,3.2164294E3,4.3973086E3,7.85535E4,0E0,0E0,0E0,0E0,0E0,0E0,0E0,0E0,0E0,0E0],"parents":[2147483647,0,0,1,1,2,2,3,3,4,4,5,5,6,6,9,9,10,10,11,11,12,12],"right_children":[2,4,6,8,10,12,14,-1,-1,16,18,20,22,-1,-1,-1,-1,-1,-1,-1,-1,-1,-1],"split_conditions":[2.224068E3,1.943853E3,2.6323691E3,1.8908364E3,2.1527227E3,2.2950127E3,2.7078254E3,-1.6077524E1,-1.3132575E1,2.085929E3,2.1793704E3,2.2745764E3,2.5597002E3,1.5550702E1,1.9254833E1,-8.575552E0,-6.497066E0,-1.2929353E0,2.484314E-1,1.7562859E0,4.0001283E0,9.406466E0,1.2408275E1],"split_indices":[0,1,0,1,0,0,0,0,0,0,0,0,0,0,0,0,0,0,0,0,0,0,0],"split_type":[0,0,0,0,0,0,0,0,0,0,0,0,0,0,0,0,0,0,0,0,0,0,0],"sum_hessian":[7.7E2,4.12E2,3.58E2,3.04E2,1.08E2,1.56E2,2.02E2,1.66E2,1.38E2,8.4E1,2.4E1,1.8E1,1.38E2,8.7E1,1.15E2,4.2E1,4.2E1,3E0,2.1E1,1.5E1,3E0,7.2E1,6.6E1],"tree_param":{"num_deleted":"0","num_feature":"2","num_nodes":"23","size_leaf_vector":"1"}},{"base_weights":[1.6865684E-1,-2.3556464E2,2.756318E2,-2.794174E2,-1.04680016E2,1.9390121E2,3.3841217E2,-1.5159813E1,-1.2198878E1,-1.4122664E2,2.17225E0,7.993042E1,2.138664E2,1.5521634E1,1.9092894E1,-7.1806846E0,-3.028299E0,-1.2444489E0,3.2075784E-1,1.8437613E0,5.841856E0,9.510596E0,1.2197718E1],"categories":[],"categories_nodes":[],"categories_segments":[],"categories_sizes":[],"default_left":[0,0,0,0,0,0,0,0,0,0,0,0,0,0,0,0,0,0,0,0,0,0,0],"id":6,"left_children":[1,3,5,7,9,11,13,-1,-1,15,17,19,21,-1,-1,-1,-1,-1,-1,-1,-1,-1,-1],"loss_changes":[5.013046E7,2.358444E6,1.761046E6,1.88112E5,4.1424625E5,3.401505E5,1.24576E5,0E0,0E0,6.51275E3,3.374578E3,3.5417234E4,4.82555E4,0E0,0E0,0E0,0E0,0E0,0E0,0E0,0E0,0E0,0E0],"parents":[2147483647,0,0,1,1,2,2,3,3,4,4,5,5,6,6,9,9,10,10,11,11,12,12],"right_children":[2,4,6,8,10,12,14,-1,-1,16,18,20,22,-1,-1,-1,-1,-1,-1,-1,-1,-1,-1],"split_conditions":[2.2324023E3,2.0554365E3,2.6337988E3,1.8991489E3,2.1527227E3,2.3321772E3,2.740556E3,-1.5159813E1,-1.2198878E1,2.1304624E3,2.1793704E3,2.2745764E3,2.5855396E3,1.5521634E1,1.9092894E1,-7.1806846E0,-3.028299E0,-1.2444489E0,3.2075784E-1,1.8437613E0,5.841856E0,9.510596E0,1.2197718E1],"split_indices":[0,0,0,1,0,0,0,0,0,0,0,0,0,0,0,0,0,0,0,0,0,0,0],"split_type":[0,0,0,0,0,0,0,0,0,0,0,0,0,0,0,0,0,0,0,0,0,0,0],"sum_hessian":[7.7E2,4.15E2,3.55E2,3.1E2,1.05E2,1.56E2,1.99E2,1.81E2,1.29E2,7.8E1,2.7E1,2.4E1,1.32E2,1.26E2,7.3E1,7.5E1,3E0,3E0,2.4E1,1.2E1,1.2E1,7.8E1,5.4E1],"tree_param":{"num_deleted":"0","num_feature":"2","num_nodes":"23","size_leaf_vector":"1"}},{"base_weights":[1.9336002E-1,-2.2563907E2,2.5999448E2,-2.6715372E2,-1.0740409E2,1.7994205E2,3.2062616E2,-1.4778266E1,-1.2079141E1,-1.3774797E2,6.1240233E-2,4.226647E1,1.9746646E2,1.4020396E1,1.7418627E1,-7.7710567E0,-5.8435683E0,-1.1977844E0,2.2125855E-1,1.6018089E0,3.6310518E0,8.313716E0,1.1056764E1],"categories":[],"categories_nodes":[],"categories_segments":[],"categories_sizes":[],"default_left":[0,0,0,0,0,0,0,0,0,0,0,0,0,0,0,0,0,0,0,0,0,0,0],"id":7,"left_children":[1,3,5,7,9,11,13,-1,-1,15,17,19,21,-1,-1,-1,-1,-1,-1,-1,-1,-1,-1],"loss_changes":[4.5294404E7,1.99851E6,1.684788E6,1.50182E5,3.5544812E5,3.704455E5,1.28844E5,0E0,0E0,1.3196875E4,2.7262134E3,3.5736875E3,6.58515E4,0E0,0E0,0E0,0E0,0E0,0E0,0E0,0E0,0E0,0E0],"parents":[2147483647,0,0,1,1,2,2,3,3,4,4,5,5,6,6,9,9,10,10,11,11,12,12],"right_children":[2,4,6,8,10,12,14,-1,-1,16,18,20,22,-1,-1,-1,-1,-1,-1,-1,-1,-1,-1],"split_conditions":[2.224068E3,1.943853E3,2.6323691E3,1.882468E3,2.1527227E3,2.2950127E3,2.7078254E3,-1.4778266E1,-1.2079141E1,2.085929E3,2.1793704E3,2.2745764E3,2.5440117E3,1.4020396E1,1.7418627E1,-7.7710567E0,-5.8435683E0,-1.1977844E0,2.2125855E-1,1.6018089E0,3.6310518E0,8.313716E0,1.1056764E1],"split_indices":[0,1,0,0,0,0,0,0,0,0,0,0,0,0,0,0,0,0,0,0,0,0,0],"split_type":[0,0,0,0,0,0,0,0,0,0,0,0,0,0,0,0,0,0,0,0,0,0,0],"sum_hessian":[7.7E2,4.12E2,3.58E2,3.04E2,1.08E2,1.56E2,2.02E2,1.39E2,1.65E2,8.4E1,2.4E1,1.8E1,1.38E2,8.7E1,1.15E2,4.2E1,4.2E1,3E0,2.1E1,1.5E1,3E0,6.3E1,7.5E1],"tree_param":{"num_deleted":"0","num_feature":"2","num_nodes":"23","size_leaf_vector":"1"}},{"base_weights":[2.025813E-1,-2.1278946E2,2.490916E2,-2.5314488E2,-9.680545E1,1.7531566E2,3.0576025E2,-1.4271224E1,-2.315953E2,-1.2930237E2,1.8214198E0,7.2043816E1,1.934095E2,1.3999962E1,1.729199E1,-1.2173852E1,-1.0219942E1,-7.278441E0,-5.5581875E0,-1.1528686E0,2.864585E-1,1.6847355E0,5.2425547E0,8.588998E0,1.1048043E1],"categories":[],"categories_nodes":[],"categories_segments":[],"categories_sizes":[],"default_left":[0,0,0,0,0,0,0,0,0,0,0,0,0,0,0,0,0,0,0,0,0,0,0,0,0],"id":8,"left_children":[1,3,5,7,9,11,13,-1,15,17,19,21,23,-1,-1,-1,-1,-1,-1,-1,-1,-1,-1,-1,-1],"loss_changes":[4.0924776E7,1.922618E6,1.434752E6,1.48146E5,3.4958806E5,2.794335E5,1.09664E5,0E0,1.1631E4,8.012125E3,2.8542627E3,2.792032E4,4.13015E4,0E0,0E0,0E0,0E0,0E0,0E0,0E0,0E0,0E0,0E0,0E0,0E0],"parents":[2147483647,0,0,1,1,2,2,3,3,4,4,5,5,6,6,8,8,9,9,10,10,11,11,12,12],"right_children":[2,4,6,8,10,12,14,-1,16,18,20,22,24,-1,-1,-1,-1,-1,-1,-1,-1,-1,-1,-1,-1],"split_conditions":[2.2324023E3,1.9656703E3,2.6337988E3,1.8803141E3,2.1527227E3,2.3321772E3,2.740556E3,-1.4271224E1,1.9175386E3,2.085929E3,2.1793704E3,2.2745764E3,2.5855396E3,1.3999962E1,1.729199E1,-1.2173852E1,-1.0219942E1,-7.278441E0,-5.5581875E0,-1.1528686E0,2.864585E-1,1.6847355E0,5.2425547E0,8.588998E0,1.1048043E1],"split_indices":[0,0,0,1,0,0,0,0,0,0,0,0,0,0,0,0,0,0,0,0,0,0,0,0,0],"split_type":[0,0,0,0,0,0,0,0,0,0,0,0,0,0,0,0,0,0,0,0,0,0,0,0,0],"sum_hessian":[7.7E2,4.15E2,3.55E2,3.07E2,1.08E2,1.56E2,1.99E2,1.18E2,1.89E2,8.1E1,2.7E1,2.4E1,1.32E2,1.26E2,7.3E1,1.26E2,6.3E1,3.9E1,4.2E1,3E0,2.4E1,1.2E1,1.2E1,7.8E1,5.4E1],"tree_param":{"num_deleted":"0","num_feature":"2","num_nodes":"25","size_leaf_vector":"1"}},{"base_weights":[2.021326E-1,-2.0386061E2,2.3495898E2,-2.4205605E2,-9.904917E1,1.639034E2,2.9062866E2,-1.3563659E1,-1.1092234E1,-1.2603899E2,-8.3046876E-2,6.3129536E1,1.8388658E2,1.256925E1,1.5682918E1,-7.113946E0,-5.286745E0,-1.1096375E0,1.9703369E-1,1.460859E0,5.000585E0,8.164978E0,1.0505683E1],"categories":[],"categories_nodes":[],"categories_segments":[],"categories_sizes":[],"default_left":[0,0,0,0,0,0,0,0,0,0,0,0,0,0,0,0,0,0,0,0,0,0,0],"id":9,"left_children":[1,3,5,7,9,11,13,-1,-1,15,17,19,21,-1,-1,-1,-1,-1,-1,-1,-1,-1,-1],"loss_changes":[3.698275E7,1.629394E6,1.37244E6,1.18156E5,2.9915012E5,3.10597E5,1.01906E5,0E0,0E0,1.3973E4,2.3115361E3,3.2099258E4,3.75E4,0E0,0E0,0E0,0E0,0E0,0E0,0E0,0E0,0E0,0E0],"parents":[2147483647,0,0,1,1,2,2,3,3,4,4,5,5,6,6,9,9,10,10,11,11,12,12],"right_children":[2,4,6,8,10,12,14,-1,-1,16,18,20,22,-1,-1,-1,-1,-1,-1,-1,-1,-1,-1],"split_conditions":[2.224068E3,1.942954E3,2.6337988E3,1.8803141E3,2.1527227E3,2.3321772E3,2.702549E3,-1.3563659E1,-1.1092234E1,2.085929E3,2.1793704E3,2.2745764E3,2.5855396E3,1.256925E1,1.5682918E1,-7.113946E0,-5.286745E0,-1.1096375E0,1.9703369E-1,1.460859E0,5.000585E0,8.164978E0,1.0505683E1],"split_indices":[0,1,0,1,0,0,0,0,0,0,0,0,0,0,0,0,0,0,0,0,0,0,0],"split_type":[0,0,0,0,0,0,0,0,0,0,0,0,0,0,0,0,0,0,0,0,0,0,0],"sum_hessian":[7.7E2,4.12E2,3.58E2,3.01E2,1.11E2,1.59E2,1.99E2,1.18E2,1.83E2,8.7E1,2.4E1,2.7E1,1.32E2,7.8E1,1.21E2,4.5E1,4.2E1,3E0,2.1E1,1.5E1,1.2E1,7.8E1,5.4E1],"tree_param":{"num_deleted":"0","num_feature":"2","num_nodes":"23","size_leaf_vector":"1"}},{"base_weights":[2.1205086E-1,-1.9225331E2,2.2511479E2,-2.2800417E2,-8.554793E1,1.6472932E2,2.8194086E2,-1.2383437E1,-9.87818E0,-1.15322464E2,1.5140642E0,6.561714E1,1.800477E2,1.290287E1,1.5665526E1,-5.873264E0,-2.2889192E0,-1.0680268E0,2.556719E-1,1.5395471E0,4.7697935E0,7.7618937E0,1.0221515E1],"categories":[],"categories_nodes":[],"categories_segments":[],"categories_sizes":[],"default_left":[0,0,0,0,0,0,0,0,0,0,0,0,0,0,0,0,0,0,0,0,0,0,0],"id":10,"left_children":[1,3,5,7,9,11,13,-1,-1,15,17,19,21,-1,-1,-1,-1,-1,-1,-1,-1,-1,-1],"loss_changes":[3.3416774E7,1.567453E6,1.175158E6,1.37236E5,2.7495094E5,2.538775E5,5.5505E4,0E0,0E0,6.395125E3,2.4145837E3,2.2989672E4,5.9609E4,0E0,0E0,0E0,0E0,0E0,0E0,0E0,0E0,0E0,0E0],"parents":[2147483647,0,0,1,1,2,2,3,3,4,4,5,5,6,6,9,9,10,10,11,11,12,12],"right_children":[2,4,6,8,10,12,14,-1,-1,16,18,20,22,-1,-1,-1,-1,-1,-1,-1,-1,-1,-1],"split_conditions":[2.2324023E3,2.0554365E3,2.6592578E3,1.8948473E3,2.1527227E3,2.3321772E3,2.740556E3,-1.2383437E1,-9.87818E0,2.1304624E3,2.1793704E3,2.2745764E3,2.5855396E3,1.290287E1,1.5665526E1,-5.873264E0,-2.2889192E0,-1.0680268E0,2.556719E-1,1.5395471E0,4.7697935E0,7.7618937E0,1.0221515E1],"split_indices":[0,0,0,0,0,0,0,0,0,0,0,0,0,0,0,0,0,0,0,0,0,0,0],"split_type":[0,0,0,0,0,0,0,0,0,0,0,0,0,0,0,0,0,0,0,0,0,0,0],"sum_hessian":[7.7E2,4.15E2,3.55E2,3.1E2,1.05E2,1.74E2,1.81E2,1.84E2,1.26E2,7.8E1,2.7E1,2.4E1,1.5E2,1.08E2,7.3E1,7.5E1,3E0,3E0,2.4E1,1.2E1,1.2E1,7.8E1,7.2E1],"tree_param":{"num_deleted":"0","num_feature":"2","num_nodes":"23","size_leaf_vector":"1"}},{"base_weights":[2.2953114E-1,-1.8271567E2,2.1400755E2,-2.186629E2,-8.672627E1,1.5663167E2,2.680008E2,-1.2277198E1,-2.0008951E2,-1.1378392E2,1.4094064E0,6.258866E1,1.7116441E2,1.2263647E1,1.4892835E1,-1.0464587E1,-8.8245E0,-6.439519E0,-4.7542186E0,-1.0279725E0,2.4340235E-1,1.4684908E0,4.5496497E0,7.378708E0,9.717443E0],"categories":[],"categories_nodes":[],"categories_segments":[],"categories_sizes":[],"default_left":[0,0,0,0,0,0,0,0,0,0,0,0,0,0,0,0,0,0,0,0,0,0,0,0,0],"id":11,"left_children":[1,3,5,7,9,11,13,-1,15,17,19,21,23,-1,-1,-1,-1,-1,-1,-1,-1,-1,-1,-1,-1],"loss_changes":[3.0192652E7,1.416465E6,1.060878E6,1.0165E5,2.7440594E5,2.2846E5,5.0442E4,0E0,3.021E3,1.2448125E4,2.2275908E3,2.0916516E4,5.3905E4,0E0,0E0,0E0,0E0,0E0,0E0,0E0,0E0,0E0,0E0,0E0,0E0],"parents":[2147483647,0,0,1,1,2,2,3,3,4,4,5,5,6,6,8,8,9,9,10,10,11,11,12,12],"right_children":[2,4,6,8,10,12,14,-1,16,18,20,22,24,-1,-1,-1,-1,-1,-1,-1,-1,-1,-1,-1,-1],"split_conditions":[2.2324023E3,1.942954E3,2.6592578E3,1.8803141E3,2.1527227E3,2.3321772E3,2.740556E3,-1.2277198E1,1.9175386E3,2.085929E3,2.1793704E3,2.2745764E3,2.5855396E3,1.2263647E1,1.4892835E1,-1.0464587E1,-8.8245E0,-6.439519E0,-4.7542186E0,-1.0279725E0,2.4340235E-1,1.4684908E0,4.5496497E0,7.378708E0,9.717443E0],"split_indices":[0,1,0,1,0,0,0,0,0,0,0,0,0,0,0,0,0,0,0,0,0,0,0,0,0],"split_type":[0,0,0,0,0,0,0,0,0,0,0,0,0,0,0,0,0,0,0,0,0,0,0,0,0],"sum_hessian":[7.7E2,4.15E2,3.55E2,3.01E2,1.14E2,1.74E2,1.81E2,1.18E2,1.83E2,8.7E1,2.7E1,2.4E1,1.5E2,1.08E2,7.3E1,1.26E2,5.7E1,4.5E1,4.2E1,3E0,2.4E1,1.2E1,1.2E1,7.8E1,7.2E1],"tree_param":{"num_deleted":"0","num_feature":"2","num_nodes":"25","size_leaf_vector":"1"}},{"base_weights":[2.2675122E-1,-1.7505225E2,2.0187021E2,-2.0783432E2,-8.509474E1,1.3976877E2,2.4890495E2,-1.1500129E1,-9.375953E0,-1.1013589E2,-6.037868E0,3.309844E1,1.5334407E2,1.0358829E1,1.3310145E1,-6.1245456E0,-4.658711E0,-1.7224156E0,1.6381337E-1,1.274897E0,2.7612915E0,6.421416E0,8.615403E0],"categories":[],"categories_nodes":[],"categories_segments":[],"categories_sizes":[],"default_left":[0,0,0,0,0,0,0,0,0,0,0,0,0,0,0,0,0,0,0,0,0,0,0],"id":12,"left_children":[1,3,5,7,9,11,13,-1,-1,15,17,19,21,-1,-1,-1,-1,-1,-1,-1,-1,-1,-1],"loss_changes":[2.7285456E7,1.200249E6,1.013822E6,9.2878E4,2.2105862E5,2.222735E5,9.1378E4,0E0,0E0,6.39975E3,7.5221865E3,1.7872598E3,4.354875E4,0E0,0E0,0E0,0E0,0E0,0E0,0E0,0E0,0E0,0E0],"parents":[2147483647,0,0,1,1,2,2,3,3,4,4,5,5,6,6,9,9,10,10,11,11,12,12],"right_children":[2,4,6,8,10,12,14,-1,-1,16,18,20,22,-1,-1,-1,-1,-1,-1,-1,-1,-1,-1],"split_conditions":[2.224068E3,1.942954E3,2.6323691E3,1.882468E3,2.1304624E3,2.2950127E3,2.691741E3,-1.1500129E1,-9.375953E0,2.085929E3,2.1793704E3,2.2745764E3,2.5440117E3,1.0358829E1,1.3310145E1,-6.1245456E0,-4.658711E0,-1.7224156E0,1.6381337E-1,1.274897E0,2.7612915E0,6.421416E0,8.615403E0],"split_indices":[0,1,0,0,0,0,0,0,0,0,0,0,0,0,0,0,0,0,0,0,0,0,0],"split_type":[0,0,0,0,0,0,0,0,0,0,0,0,0,0,0,0,0,0,0,0,0,0,0],"sum_hessian":[7.7E2,4.12E2,3.58E2,3.01E2,1.11E2,1.56E2,2.02E2,1.39E2,1.62E2,8.4E1,2.7E1,1.8E1,1.38E2,6.3E1,1.39E2,4.5E1,3.9E1,6E0,2.1E1,1.5E1,3E0,6.3E1,7.5E1],"tree_param":{"num_deleted":"0","num_feature":"2","num_nodes":"23","size_leaf_vector":"1"}},{"base_weights":[2.2779524E-1,-1.6508412E2,1.9340062E2,-1.9520676E2,-7.165118E1,1.415503E2,2.4219408E2,-2.1016827E2,-8.193278E0,-9.756157E1,1.2360055E0,5.6444992E1,1.5470316E2,1.105355E1,1.3501747E1,-1.11538515E1,-9.648178E0,-4.9711385E0,-1.9602174E0,-9.248291E-1,2.1718895E-1,1.3418721E0,4.0855308E0,6.664112E0,8.788273E0],"categories":[],"categories_nodes":[],"categories_segments":[],"categories_sizes":[],"default_left":[0,0,0,0,0,0,0,0,0,0,0,0,0,0,0,0,0,0,0,0,0,0,0,0,0],"id":13,"left_children":[1,3,5,7,9,11,13,15,-1,17,19,21,23,-1,-1,-1,-1,-1,-1,-1,-1,-1,-1,-1,-1],"loss_changes":[2.4652864E7,1.156822E6,8.66382E5,1.12799E5,1.9463975E5,1.87159E5,4.7335E4,3.372E3,0E0,4.3568125E3,1.7974287E3,1.650843E4,4.470075E4,0E0,0E0,0E0,0E0,0E0,0E0,0E0,0E0,0E0,0E0,0E0,0E0],"parents":[2147483647,0,0,1,1,2,2,3,3,4,4,5,5,6,6,7,7,9,9,10,10,11,11,12,12],"right_children":[2,4,6,8,10,12,14,16,-1,18,20,22,24,-1,-1,-1,-1,-1,-1,-1,-1,-1,-1,-1,-1],"split_conditions":[2.2324023E3,2.0596055E3,2.6592578E3,1.9110494E3,2.1527227E3,2.3321772E3,2.740556E3,1.8793828E3,-8.193278E0,2.1304624E3,2.1793704E3,2.2745764E3,2.5855396E3,1.105355E1,1.3501747E1,-1.11538515E1,-9.648178E0,-4.9711385E0,-1.9602174E0,-9.248291E-1,2.1718895E-1,1.3418721E0,4.0855308E0,6.664112E0,8.788273E0],"split_indices":[0,0,0,1,0,0,0,1,0,0,0,0,0,0,0,0,0,0,0,0,0,0,0,0,0],"split_type":[0,0,0,0,0,0,0,0,0,0,0,0,0,0,0,0,0,0,0,0,0,0,0,0,0],"sum_hessian":[7.7E2,4.15E2,3.55E2,3.13E2,1.02E2,1.74E2,1.81E2,2.08E2,1.05E2,7.5E1,2.7E1,2.4E1,1.5E2,1.08E2,7.3E1,1.12E2,9.6E1,7.2E1,3E0,3E0,2.4E1,1.2E1,1.2E1,7.8E1,7.2E1],"tree_param":{"num_deleted":"0","num_feature":"2","num_nodes":"25","size_leaf_vector":"1"}},{"base_weights":[2.278459E-1,-1.5815297E2,1.8243132E2,-1.8778506E2,-7.684006E1,1.2631719E2,2.2493126E2,-1.0554467E1,-1.716927E2,-9.938838E1,-5.645499E0,4.9475098E1,1.4189613E2,9.342102E0,1.2036841E1,-8.999797E0,-7.5275626E0,-5.5397925E0,-4.1892543E0,-1.5867763E0,1.4562434E-1,1.1627816E0,3.896972E0,6.1282682E0,7.912174E0],"categories":[],"categories_nodes":[],"categories_segments":[],"categories_sizes":[],"default_left":[0,0,0,0,0,0,0,0,0,0,0,0,0,0,0,0,0,0,0,0,0,0,0,0,0],"id":14,"left_children":[1,3,5,7,9,11,13,-1,15,17,19,21,23,-1,-1,-1,-1,-1,-1,-1,-1,-1,-1,-1,-1],"loss_changes":[2.2278012E7,9.80682E5,8.27748E5,7.7014E4,1.7923456E5,1.80927E5,7.723E4,0E0,5.201E3,5.8465E3,6.3442153E3,1.9084422E4,2.168575E4,0E0,0E0,0E0,0E0,0E0,0E0,0E0,0E0,0E0,0E0,0E0,0E0],"parents":[2147483647,0,0,1,1,2,2,3,3,4,4,5,5,6,6,8,8,9,9,10,10,11,11,12,12],"right_children":[2,4,6,8,10,12,14,-1,16,18,20,22,24,-1,-1,-1,-1,-1,-1,-1,-1,-1,-1,-1,-1],"split_conditions":[2.224068E3,1.942954E3,2.6323691E3,1.8803141E3,2.1304624E3,2.3321772E3,2.691741E3,-1.0554467E1,1.9175386E3,2.085929E3,2.1793704E3,2.2745764E3,2.5597002E3,9.342102E0,1.2036841E1,-8.999797E0,-7.5275626E0,-5.5397925E0,-4.1892543E0,-1.5867763E0,1.4562434E-1,1.1627816E0,3.896972E0,6.1282682E0,7.912174E0],"split_indices":[0,1,0,1,0,0,0,0,0,0,0,0,0,0,0,0,0,0,0,0,0,0,0,0,0],"split_type":[0,0,0,0,0,0,0,0,0,0,0,0,0,0,0,0,0,0,0,0,0,0,0,0,0],"sum_hessian":[7.7E2,4.12E2,3.58E2,3.01E2,1.11E2,1.56E2,2.02E2,1.18E2,1.83E2,8.4E1,2.7E1,2.7E1,1.29E2,6.3E1,1.39E2,1.26E2,5.7E1,4.5E1,3.9E1,6E0,2.1E1,1.5E1,1.2E1,6.3E1,6.6E1],"tree_param":{"num_deleted":"0","num_feature":"2","num_nodes":"25","size_leaf_vector":"1"}},{"base_weights":[2.1934658E-1,-1.491677E2,1.7478336E2,-1.7586981E2,-6.3030273E1,1.2936807E2,2.2049576E2,-9.542794E0,-7.448964E0,-8.6759056E1,1.0851266E0,5.14112E1,1.409576E2,1.0244666E1,1.2641962E1,-4.419453E0,-1.8272095E0,1.9777198E-1,-8.562805E-1,1.2262733E0,3.7171116E0,6.015661E0,7.9908853E0],"categories":[],"categories_nodes":[],"categories_segments":[],"categories_sizes":[],"default_left":[0,0,0,0,0,0,0,0,0,0,0,0,0,0,0,0,0,0,0,0,0,0,0],"id":15,"left_children":[1,3,5,7,9,11,13,-1,-1,15,17,19,21,-1,-1,-1,-1,-1,-1,-1,-1,-1,-1],"loss_changes":[2.01319E7,9.45738E5,7.10545E5,9.9312E4,1.5223216E5,1.5628375E5,3.7012E4,0E0,0E0,2.7450625E3,1.5313137E3,1.3589656E4,4.190075E4,0E0,0E0,0E0,0E0,0E0,0E0,0E0,0E0,0E0,0E0],"parents":[2147483647,0,0,1,1,2,2,3,3,4,4,5,5,6,6,9,9,10,10,11,11,12,12],"right_children":[2,4,6,8,10,12,14,-1,-1,16,18,20,22,-1,-1,-1,-1,-1,-1,-1,-1,-1,-1],"split_conditions":[2.2324023E3,2.0883484E3,2.6511035E3,1.9088601E3,2.1527227E3,2.3321772E3,2.7568035E3,-9.542794E0,-7.448964E0,2.1304624E3,2.2807024E3,2.2745764E3,2.5855396E3,1.0244666E1,1.2641962E1,-4.419453E0,-1.8272095E0,1.9777198E-1,-8.562805E-1,1.2262733E0,3.7171116E0,6.015661E0,7.9908853E0],"split_indices":[0,1,1,1,0,0,0,0,0,0,1,0,0,0,0,0,0,0,0,0,0,0,0],"split_type":[0,0,0,0,0,0,0,0,0,0,0,0,0,0,0,0,0,0,0,0,0,0,0],"sum_hessian":[7.7E2,4.15E2,3.55E2,3.16E2,9.9E1,1.8E2,1.75E2,1.99E2,1.17E2,7.2E1,2.7E1,2.4E1,1.56E2,1.23E2,5.2E1,6.9E1,3E0,2.4E1,3E0,1.2E1,1.2E1,7.8E1,7.8E1],"tree_param":{"num_deleted":"0","num_feature":"2","num_nodes":"23","size_leaf_vector":"1"}},{"base_weights":[2.3166128E-1,-1.4288692E2,1.6487718E2,-1.6968149E2,-6.9361496E1,1.1969724E2,2.0815822E2,-9.558047E0,-1.5486769E2,-8.817457E1,-3.65E-1,4.5117527E1,1.3273389E2,9.46745E0,1.1652537E1,-8.117065E0,-6.791646E0,-4.7865386E0,-3.265185E0,9.9442035E-2,-1.4214295E0,1.0670197E0,3.5455558E0,5.7186866E0,7.539242E0],"categories":[],"categories_nodes":[],"categories_segments":[],"categories_sizes":[],"default_left":[0,0,0,0,0,0,0,0,0,0,0,0,0,0,0,0,0,0,0,0,0,0,0,0,0],"id":16,"left_children":[1,3,5,7,9,11,13,-1,15,17,19,21,23,-1,-1,-1,-1,-1,-1,-1,-1,-1,-1,-1,-1],"loss_changes":[1.8191272E7,8.01875E5,6.77085E5,6.6489E4,1.4534788E5,1.6707525E5,4.1086E4,0E0,4.124E3,8.9563125E3,1.7079705E3,1.5659059E4,3.279825E4,0E0,0E0,0E0,0E0,0E0,0E0,0E0,0E0,0E0,0E0,0E0,0E0],"parents":[2147483647,0,0,1,1,2,2,3,3,4,4,5,5,6,6,8,8,9,9,10,10,11,11,12,12],"right_children":[2,4,6,8,10,12,14,-1,16,18,20,22,24,-1,-1,-1,-1,-1,-1,-1,-1,-1,-1,-1,-1],"split_conditions":[2.224068E3,1.942954E3,2.6592578E3,1.8803141E3,2.1527227E3,2.3321772E3,2.740556E3,-9.558047E0,1.9175386E3,2.1059739E3,2.2807024E3,2.2745764E3,2.5855396E3,9.46745E0,1.1652537E1,-8.117065E0,-6.791646E0,-4.7865386E0,-3.265185E0,9.9442035E-2,-1.4214295E0,1.0670197E0,3.5455558E0,5.7186866E0,7.539242E0],"split_indices":[0,1,0,1,0,0,0,0,0,0,1,0,0,0,0,0,0,0,0,0,0,0,0,0,0],"split_type":[0,0,0,0,0,0,0,0,0,0,0,0,0,0,0,0,0,0,0,0,0,0,0,0,0],"sum_hessian":[7.7E2,4.12E2,3.58E2,3.01E2,1.11E2,1.77E2,1.81E2,1.18E2,1.83E2,8.7E1,2.4E1,2.7E1,1.5E2,1.08E2,7.3E1,1.26E2,5.7E1,6.3E1,2.4E1,2.3E1,1E0,1.5E1,1.2E1,7.8E1,7.2E1],"tree_param":{"num_deleted":"0","num_feature":"2","num_nodes":"25","size_leaf_vector":"1"}},{"base_weights":[2.26749E-1,-1.3582446E2,1.5674185E2,-1.6127838E2,-6.597706E1,1.15127E2,1.9935771E2,-8.948896E0,-7.254345E0,-8.527696E1,-5.031747E0,4.302628E1,1.2725243E2,9.253947E0,1.145016E1,-4.7691336E0,-3.5761743E0,-1.4160227E0,1.3035057E-1,1.0169976E0,3.38191E0,5.4363685E0,7.208336E0],"categories":[],"categories_nodes":[],"categories_segments":[],"categories_sizes":[],"default_left":[0,0,0,0,0,0,0,0,0,0,0,0,0,0,0,0,0,0,0,0,0,0,0],"id":17,"left_children":[1,3,5,7,9,11,13,-1,-1,15,17,19,21,-1,-1,-1,-1,-1,-1,-1,-1,-1,-1],"loss_changes":[1.6439016E7,7.236275E5,6.13719E5,6.0581E4,1.3130962E5,1.5538725E5,3.2117E4,0E0,0E0,4.9919375E3,5.0549414E3,1.4258156E4,3.351925E4,0E0,0E0,0E0,0E0,0E0,0E0,0E0,0E0,0E0,0E0],"parents":[2147483647,0,0,1,1,2,2,3,3,4,4,5,5,6,6,9,9,10,10,11,11,12,12],"right_children":[2,4,6,8,10,12,14,-1,-1,16,18,20,22,-1,-1,-1,-1,-1,-1,-1,-1,-1,-1],"split_conditions":[2.224068E3,1.942954E3,2.6511035E3,1.882468E3,2.1304624E3,2.3321772E3,2.7568035E3,-8.948896E0,-7.254345E0,2.085929E3,2.1793704E3,2.2745764E3,2.5855396E3,9.253947E0,1.145016E1,-4.7691336E0,-3.5761743E0,-1.4160227E0,1.3035057E-1,1.0169976E0,3.38191E0,5.4363685E0,7.208336E0],"split_indices":[0,1,1,0,0,0,0,0,0,0,0,0,0,0,0,0,0,0,0,0,0,0,0],"split_type":[0,0,0,0,0,0,0,0,0,0,0,0,0,0,0,0,0,0,0,0,0,0,0],"sum_hessian":[7.7E2,4.12E2,3.58E2,3.01E2,1.11E2,1.83E2,1.75E2,1.39E2,1.62E2,8.4E1,2.7E1,2.7E1,1.56E2,1.23E2,5.2E1,4.5E1,3.9E1,6E0,2.1E1,1.5E1,1.2E1,7.8E1,7.8E1],"tree_param":{"num_deleted":"0","num_feature":"2","num_nodes":"23","size_leaf_vector":"1"}},{"base_weights":[2.308812E-1,-1.280901E2,1.5017836E2,-1.5149986E2,-5.5480865E1,1.1478202E2,1.9380933E2,-8.275101E0,-1.3040834E2,-7.548854E1,8.071289E-1,6.3602386E1,1.2806828E2,9.000054E0,1.0888452E1,-6.911218E0,-5.6565347E0,-4.098315E0,-2.949763E0,1.8282178E-1,-8.60141E-1,1.3620102E0,4.105463E0,5.3674994E0,6.988851E0],"categories":[],"categories_nodes":[],"categories_segments":[],"categories_sizes":[],"default_left":[0,0,0,0,0,0,0,0,0,0,0,0,0,0,0,0,0,0,0,0,0,0,0,0,0],"id":18,"left_children":[1,3,5,7,9,11,13,-1,15,17,19,21,23,-1,-1,-1,-1,-1,-1,-1,-1,-1,-1,-1,-1],"loss_changes":[1.4854363E7,6.986965E5,5.275525E5,7.11495E4,1.1605866E5,1.271715E5,1.30745E4,0E0,1.918E3,3.2841875E3,1.4997452E3,2.6700203E4,2.308075E4,0E0,0E0,0E0,0E0,0E0,0E0,0E0,0E0,0E0,0E0,0E0,0E0],"parents":[2147483647,0,0,1,1,2,2,3,3,4,4,5,5,6,6,8,8,9,9,10,10,11,11,12,12],"right_children":[2,4,6,8,10,12,14,-1,16,18,20,22,24,-1,-1,-1,-1,-1,-1,-1,-1,-1,-1,-1,-1],"split_conditions":[2.2324023E3,2.0725042E3,2.6772043E3,1.8948473E3,2.1527227E3,2.46546E3,2.7568035E3,-8.275101E0,1.9361322E3,2.1059739E3,2.2807024E3,2.2950127E3,2.5855396E3,9.000054E0,1.0888452E1,-6.911218E0,-5.6565347E0,-4.098315E0,-2.949763E0,1.8282178E-1,-8.60141E-1,1.3620102E0,4.105463E0,5.3674994E0,6.988851E0],"split_indices":[0,1,0,0,0,1,0,0,0,0,1,0,0,0,0,0,0,0,0,0,0,0,0,0,0],"split_type":[0,0,0,0,0,0,0,0,0,0,0,0,0,0,0,0,0,0,0,0,0,0,0,0,0],"sum_hessian":[7.7E2,4.15E2,3.55E2,3.13E2,1.02E2,1.98E2,1.57E2,1.84E2,1.29E2,7.5E1,2.7E1,4.2E1,1.56E2,1.05E2,5.2E1,8.4E1,4.5E1,5.1E1,2.4E1,2.4E1,3E0,1.5E1,2.7E1,6E1,9.6E1],"tree_param":{"num_deleted":"0","num_feature":"2","num_nodes":"25","size_leaf_vector":"1"}},{"base_weights":[2.3122223E-1,-1.2271766E2,1.4167317E2,-1.4399994E2,-5.4664116E1,1.0275562E2,1.7895695E2,-8.280869E0,-1.3119415E2,-7.177088E1,-4.729785E-1,3.9037666E1,1.1389037E2,8.046637E0,9.925839E0,-6.862745E0,-5.3828273E0,-3.8947103E0,-2.8081772E0,8.9336656E-2,-1.3676513E0,9.2304844E-1,3.067997E0,4.735097E0,6.3275695E0],"categories":[],"categories_nodes":[],"categories_segments":[],"categories_sizes":[],"default_left":[0,0,0,0,0,0,0,0,0,0,0,0,0,0,0,0,0,0,0,0,0,0,0,0,0],"id":19,"left_children":[1,3,5,7,9,11,13,-1,15,17,19,21,23,-1,-1,-1,-1,-1,-1,-1,-1,-1,-1,-1,-1],"loss_changes":[1.3425175E7,5.902905E5,5.02518E5,6.5196E4,9.266959E4,1.21842E5,3.22165E4,0E0,1.404E4,2.888375E3,1.5674014E3,1.172816E4,2.4699875E4,0E0,0E0,0E0,0E0,0E0,0E0,0E0,0E0,0E0,0E0,0E0,0E0],"parents":[2147483647,0,0,1,1,2,2,3,3,4,4,5,5,6,6,8,8,9,9,10,10,11,11,12,12],"right_children":[2,4,6,8,10,12,14,-1,16,18,20,22,24,-1,-1,-1,-1,-1,-1,-1,-1,-1,-1,-1,-1],"split_conditions":[2.224068E3,2.0596055E3,2.6592578E3,1.8793828E3,2.1527227E3,2.3321772E3,2.7296528E3,-8.280869E0,1.9361322E3,2.1059739E3,2.2807024E3,2.2745764E3,2.5597002E3,8.046637E0,9.925839E0,-6.862745E0,-5.3828273E0,-3.8947103E0,-2.8081772E0,8.9336656E-2,-1.3676513E0,9.2304844E-1,3.067997E0,4.735097E0,6.3275695E0],"split_indices":[0,0,0,1,0,0,0,0,0,0,1,0,0,0,0,0,0,0,0,0,0,0,0,0,0],"split_type":[0,0,0,0,0,0,0,0,0,0,0,0,0,0,0,0,0,0,0,0,0,0,0,0,0],"sum_hessian":[7.7E2,4.12E2,3.58E2,3.13E2,9.9E1,1.77E2,1.81E2,1.12E2,2.01E2,7.5E1,2.4E1,2.7E1,1.5E2,9.9E1,8.2E1,1.56E2,4.5E1,5.1E1,2.4E1,2.3E1,1E0,1.5E1,1.2E1,6.3E1,8.7E1],"tree_param":{"num_deleted":"0","num_feature":"2","num_nodes":"25","size_leaf_vector":"1"}},{"base_weights":[2.2553004E-1,-1.1665078E2,1.3468149E2,-1.364701E2,-5.0677876E1,9.8829094E1,1.7139832E2,-1.4763026E2,-5.690961E0,-6.7167694E1,-5.004785E-1,3.7228245E1,1.09185745E2,7.9462433E0,9.867377E0,-8.0934E0,-6.8866477E0,-3.4241884E0,-1.3672303E0,8.505504E-2,-1.3334595E0,8.797783E-1,2.9263916E0,4.502041E0,6.052952E0],"categories":[],"categories_nodes":[],"categories_segments":[],"categories_sizes":[],"default_left":[0,0,0,0,0,0,0,0,0,0,0,0,0,0,0,0,0,0,0,0,0,0,0,0,0],"id":20,"left_children":[1,3,5,7,9,11,13,15,-1,17,19,21,23,-1,-1,-1,-1,-1,-1,-1,-1,-1,-1,-1,-1],"loss_changes":[1.2131758E7,5.33097E5,4.556435E5,6.33305E4,8.0225766E4,1.13323375E5,2.56035E4,7.1565E3,0E0,1.9532812E3,1.4856792E3,1.0678871E4,2.4788E4,0E0,0E0,0E0,0E0,0E0,0E0,0E0,0E0,0E0,0E0,0E0,0E0],"parents":[2147483647,0,0,1,1,2,2,3,3,4,4,5,5,6,6,7,7,9,9,10,10,11,11,12,12],"right_children":[2,4,6,8,10,12,14,16,-1,18,20,22,24,-1,-1,-1,-1,-1,-1,-1,-1,-1,-1,-1,-1],"split_conditions":[2.224068E3,2.0883484E3,2.6511035E3,1.9110494E3,2.1527227E3,2.3321772E3,2.7568035E3,1.8664508E3,-5.690961E0,2.1304624E3,2.2807024E3,2.2745764E3,2.5597002E3,7.9462433E0,9.867377E0,-8.0934E0,-6.8866477E0,-3.4241884E0,-1.3672303E0,8.505504E-2,-1.3334595E0,8.797783E-1,2.9263916E0,4.502041E0,6.052952E0],"split_indices":[0,1,1,1,0,0,0,0,0,0,1,0,0,0,0,0,0,0,0,0,0,0,0,0,0],"split_type":[0,0,0,0,0,0,0,0,0,0,0,0,0,0,0,0,0,0,0,0,0,0,0,0,0],"sum_hessian":[7.7E2,4.12E2,3.58E2,3.16E2,9.6E1,1.83E2,1.75E2,2.08E2,1.08E2,7.2E1,2.4E1,2.7E1,1.56E2,1.23E2,5.2E1,7.9E1,1.29E2,6.9E1,3E0,2.3E1,1E0,1.5E1,1.2E1,6.3E1,9.3E1],"tree_param":{"num_deleted":"0","num_feature":"2","num_nodes":"25","size_leaf_vector":"1"}},{"base_weights":[2.2130936E-1,-1.1088296E2,1.2803703E2,-1.3167036E2,-5.384118E1,9.712621E1,1.6674554E2,-7.488624E0,-1.2021138E2,-6.955062E1,-4.228908E0,3.5502766E1,1.0643096E2,8.026024E0,1.0965459E1,-6.3089232E0,-5.2227807E0,-3.9007213E0,-2.9039235E0,-1.2103114E0,1.1598678E-1,8.385338E-1,2.791333E0,4.4315467E0,5.9915333E0],"categories":[],"categories_nodes":[],"categories_segments":[],"categories_sizes":[],"default_left":[0,0,0,0,0,0,0,0,0,0,0,0,0,0,0,0,0,0,0,0,0,0,0,0,0],"id":21,"left_children":[1,3,5,7,9,11,13,-1,15,17,19,21,23,-1,-1,-1,-1,-1,-1,-1,-1,-1,-1,-1,-1],"loss_changes":[1.0963068E7,4.826255E5,4.13353E5,4.46405E4,8.699653E4,1.12046375E5,1.6496E4,0E0,4.683E3,3.7224062E3,3.719234E3,9.723602E3,3.111925E4,0E0,0E0,0E0,0E0,0E0,0E0,0E0,0E0,0E0,0E0,0E0,0E0],"parents":[2147483647,0,0,1,1,2,2,3,3,4,4,5,5,6,6,8,8,9,9,10,10,11,11,12,12],"right_children":[2,4,6,8,10,12,14,-1,16,18,20,22,24,-1,-1,-1,-1,-1,-1,-1,-1,-1,-1,-1,-1],"split_conditions":[2.224068E3,1.942954E3,2.6772043E3,1.8793828E3,2.1304624E3,2.3321772E3,2.803564E3,-7.488624E0,1.9175386E3,2.085929E3,2.1793704E3,2.2745764E3,2.5855396E3,8.026024E0,1.0965459E1,-6.3089232E0,-5.2227807E0,-3.9007213E0,-2.9039235E0,-1.2103114E0,1.1598678E-1,8.385338E-1,2.791333E0,4.4315467E0,5.9915333E0],"split_indices":[0,1,0,1,0,0,0,0,0,0,0,0,0,0,0,0,0,0,0,0,0,0,0,0,0],"split_type":[0,0,0,0,0,0,0,0,0,0,0,0,0,0,0,0,0,0,0,0,0,0,0,0,0],"sum_hessian":[7.7E2,4.12E2,3.58E2,3.01E2,1.11E2,2.01E2,1.57E2,1.12E2,1.89E2,8.4E1,2.7E1,2.7E1,1.74E2,1.44E2,1.3E1,1.32E2,5.7E1,4.5E1,3.9E1,6E0,2.1E1,1.5E1,1.2E1,7.8E1,9.6E1],"tree_param":{"num_deleted":"0","num_feature":"2","num_nodes":"25","size_leaf_vector":"1"}},{"base_weights":[2.181748E-1,-1.045845E2,1.2268361E2,-1.2369082E2,-4.532268E1,9.360745E1,1.5852837E2,-6.9638453E0,-1.1051515E2,-6.1591972E1,4.5548794E-1,5.1638615E1,1.04505875E2,7.627485E0,1.0456343E1,-5.8080378E0,-4.607884E0,-3.3508785E0,-2.3921528E0,1.6336523E-1,-8.6161196E-1,1.1167382E0,3.3269718E0,4.392646E0,5.695049E0],"categories":[],"categories_nodes":[],"categories_segments":[],"categories_sizes":[],"default_left":[0,0,0,0,0,0,0,0,0,0,0,0,0,0,0,0,0,0,0,0,0,0,0,0,0],"id":22,"left_children":[1,3,5,7,9,11,13,-1,15,17,19,21,23,-1,-1,-1,-1,-1,-1,-1,-1,-1,-1,-1,-1],"loss_changes":[9.908389E6,4.654205E5,3.561935E5,4.90895E4,7.6740234E4,8.562475E4,1.589475E4,0E0,7.43175E3,2.4629688E3,1.448873E3,1.7289875E4,1.4557125E4,0E0,0E0,0E0,0E0,0E0,0E0,0E0,0E0,0E0,0E0,0E0,0E0],"parents":[2147483647,0,0,1,1,2,2,3,3,4,4,5,5,6,6,8,8,9,9,10,10,11,11,12,12],"right_children":[2,4,6,8,10,12,14,-1,16,18,20,22,24,-1,-1,-1,-1,-1,-1,-1,-1,-1,-1,-1,-1],"split_conditions":[2.2324023E3,2.0596055E3,2.6772043E3,1.882468E3,2.1527227E3,2.46546E3,2.803564E3,-6.9638453E0,1.9361322E3,2.1059739E3,2.2807024E3,2.2950127E3,2.5855396E3,7.627485E0,1.0456343E1,-5.8080378E0,-4.607884E0,-3.3508785E0,-2.3921528E0,1.6336523E-1,-8.6161196E-1,1.1167382E0,3.3269718E0,4.392646E0,5.695049E0],"split_indices":[0,0,0,0,0,1,0,0,0,0,1,0,0,0,0,0,0,0,0,0,0,0,0,0,0],"split_type":[0,0,0,0,0,0,0,0,0,0,0,0,0,0,0,0,0,0,0,0,0,0,0,0,0],"sum_hessian":[7.7E2,4.15E2,3.55E2,3.13E2,1.02E2,1.98E2,1.57E2,1.39E2,1.74E2,7.5E1,2.7E1,4.2E1,1.56E2,1.44E2,1.3E1,1.29E2,4.5E1,5.1E1,2.4E1,2.4E1,3E0,1.5E1,2.7E1,6E1,9.6E1],"tree_param":{"num_deleted":"0","num_feature":"2","num_nodes":"25","size_leaf_vector":"1"}},{"base_weights":[2.1867938E-1,-1.0019824E2,1.1573949E2,-1.1722026E2,-4.353659E1,7.97807E1,1.4297983E2,-1.2860796E2,-1.0049888E2,-5.764681E1,-5.9329104E-1,1.9308233E1,8.747276E1,6.2193804E0,1.5948215E2,-7.156392E0,-6.0424924E0,-5.347049E0,-4.363641E0,-3.1321948E0,-2.2773325E0,7.588959E-2,-1.281482E0,7.622215E-1,1.5368195E0,3.6406338E0,4.933357E0,7.5792856E0,9.970872E0],"categories":[],"categories_nodes":[],"categories_segments":[],"categories_sizes":[],"default_left":[0,0,0,0,0,0,0,0,0,0,0,0,0,0,0,0,0,0,0,0,0,0,0,0,0,0,0,0,0],"id":23,"left_children":[1,3,5,7,9,11,13,15,17,19,21,23,25,-1,27,-1,-1,-1,-1,-1,-1,-1,-1,-1,-1,-1,-1,-1,-1],"loss_changes":[8.955384E6,3.9323325E5,3.402445E5,4.74375E4,5.8741906E4,7.1340875E4,4.244575E4,3.54275E3,1.999E3,1.5607656E3,1.3602455E3,4.1383545E2,1.5627125E4,0E0,2.56725E3,0E0,0E0,0E0,0E0,0E0,0E0,0E0,0E0,0E0,0E0,0E0,0E0,0E0,0E0],"parents":[2147483647,0,0,1,1,2,2,3,3,4,4,5,5,6,6,7,7,8,8,9,9,10,10,11,11,12,12,14,14],"right_children":[2,4,6,8,10,12,14,16,18,20,22,24,26,-1,28,-1,-1,-1,-1,-1,-1,-1,-1,-1,-1,-1,-1,-1,-1],"split_conditions":[2.224068E3,2.0883484E3,2.6323691E3,1.8948473E3,2.1527227E3,2.2950127E3,2.7151233E3,1.8583658E3,1.9361322E3,2.1059739E3,2.2807024E3,2.2745764E3,2.5440117E3,6.2193804E0,2.803564E3,-7.156392E0,-6.0424924E0,-5.347049E0,-4.363641E0,-3.1321948E0,-2.2773325E0,7.588959E-2,-1.281482E0,7.622215E-1,1.5368195E0,3.6406338E0,4.933357E0,7.5792856E0,9.970872E0],"split_indices":[0,1,0,0,0,0,0,0,0,0,1,0,0,0,0,0,0,0,0,0,0,0,0,0,0,0,0,0,0],"split_type":[0,0,0,0,0,0,0,0,0,0,0,0,0,0,0,0,0,0,0,0,0,0,0,0,0,0,0,0,0],"sum_hessian":[7.7E2,4.12E2,3.58E2,3.16E2,9.6E1,1.56E2,2.02E2,1.84E2,1.32E2,7.2E1,2.4E1,1.8E1,1.38E2,9.9E1,1.03E2,5.8E1,1.26E2,8.4E1,4.8E1,4.8E1,2.4E1,2.3E1,1E0,1.5E1,3E0,6.3E1,7.5E1,9E1,1.3E1],"tree_param":{"num_deleted":"0","num_feature":"2","num_nodes":"29","size_leaf_vector":"1"}},{"base_weights":[2.1434993E-1,-9.525984E1,1.10048965E2,-1.1310063E2,-4.630288E1,8.3376205E1,1.4345306E2,-6.4473877E0,-1.03080505E2,-5.979985E1,-3.6762521E0,4.4038994E1,9.4370705E1,6.8977113E0,9.507935E0,-5.4091573E0,-4.480119E0,-3.3563561E0,-2.4939246E0,-1.0635132E0,1.04447246E-1,7.2649306E-1,2.892445E0,3.9721394E0,5.1392736E0],"categories":[],"categories_nodes":[],"categories_segments":[],"categories_sizes":[],"default_left":[0,0,0,0,0,0,0,0,0,0,0,0,0,0,0,0,0,0,0,0,0,0,0,0,0],"id":24,"left_children":[1,3,5,7,9,11,13,-1,15,17,19,21,23,-1,-1,-1,-1,-1,-1,-1,-1,-1,-1,-1,-1],"loss_changes":[8.0954755E6,3.5548975E5,3.07901E5,3.46625E4,6.4217156E4,8.32075E4,1.43455E4,0E0,3.373625E3,2.831E3,2.8845547E3,1.7905305E4,1.1556E4,0E0,0E0,0E0,0E0,0E0,0E0,0E0,0E0,0E0,0E0,0E0,0E0],"parents":[2147483647,0,0,1,1,2,2,3,3,4,4,5,5,6,6,8,8,9,9,10,10,11,11,12,12],"right_children":[2,4,6,8,10,12,14,-1,16,18,20,22,24,-1,-1,-1,-1,-1,-1,-1,-1,-1,-1,-1,-1],"split_conditions":[2.224068E3,1.942954E3,2.6772043E3,1.8793828E3,2.1304624E3,2.46546E3,2.803564E3,-6.4473877E0,1.9175386E3,2.085929E3,2.1793704E3,2.2745764E3,2.5855396E3,6.8977113E0,9.507935E0,-5.4091573E0,-4.480119E0,-3.3563561E0,-2.4939246E0,-1.0635132E0,1.04447246E-1,7.2649306E-1,2.892445E0,3.9721394E0,5.1392736E0],"split_indices":[0,1,0,1,0,1,0,0,0,0,0,0,0,0,0,0,0,0,0,0,0,0,0,0,0],"split_type":[0,0,0,0,0,0,0,0,0,0,0,0,0,0,0,0,0,0,0,0,0,0,0,0,0],"sum_hessian":[7.7E2,4.12E2,3.58E2,3.01E2,1.11E2,2.01E2,1.57E2,1.12E2,1.89E2,8.4E1,2.7E1,4.5E1,1.56E2,1.44E2,1.3E1,1.32E2,5.7E1,4.5E1,3.9E1,6E0,2.1E1,1.5E1,3E1,6E1,9.6E1],"tree_param":{"num_deleted":"0","num_feature":"2","num_nodes":"25","size_leaf_vector":"1"}},{"base_weights":[2.1142451E-1,-9.19815E1,1.0301227E2,-1.07499695E2,-4.6901535E1,6.9633125E1,1.293068E2,-6.163469E0,-9.834226E1,-5.687865E1,-6.221702E0,1.4774649E1,7.89988E1,5.7638493E0,7.4100986E0,-5.1559396E0,-4.259976E0,-3.1921823E0,-2.372347E0,-3.9484605E-2,-1.5234162E0,2.9956666E-1,9.6704024E-1,3.2887192E0,4.4547844E0],"categories":[],"categories_nodes":[],"categories_segments":[],"categories_sizes":[],"default_left":[0,0,0,0,0,0,0,0,0,0,0,0,0,0,0,0,0,0,0,0,0,0,0,0,0],"id":25,"left_children":[1,3,5,7,9,11,13,-1,15,17,19,21,23,-1,-1,-1,-1,-1,-1,-1,-1,-1,-1,-1,-1],"loss_changes":[7.3166355E6,2.79679E5,3.1135225E5,3.1489E4,4.266808E4,8.258006E4,3.673E4,0E0,3.518625E3,2.554625E3,2.8735127E3,8.8677295E2,1.2699875E4,0E0,0E0,0E0,0E0,0E0,0E0,0E0,0E0,0E0,0E0,0E0,0E0],"parents":[2147483647,0,0,1,1,2,2,3,3,4,4,5,5,6,6,8,8,9,9,10,10,11,11,12,12],"right_children":[2,4,6,8,10,12,14,-1,16,18,20,22,24,-1,-1,-1,-1,-1,-1,-1,-1,-1,-1,-1,-1],"split_conditions":[2.210265E3,1.942954E3,2.6323691E3,1.8724708E3,2.1304624E3,2.2950127E3,2.7296528E3,-6.163469E0,1.9175386E3,2.085929E3,2.2459465E3,2.2324023E3,2.5440117E3,5.7638493E0,7.4100986E0,-5.1559396E0,-4.259976E0,-3.1921823E0,-2.372347E0,-3.9484605E-2,-1.5234162E0,2.9956666E-1,9.6704024E-1,3.2887192E0,4.4547844E0],"split_indices":[0,1,0,0,0,0,0,0,0,0,1,0,0,0,0,0,0,0,0,0,0,0,0,0,0],"split_type":[0,0,0,0,0,0,0,0,0,0,0,0,0,0,0,0,0,0,0,0,0,0,0,0,0],"sum_hessian":[7.7E2,4.06E2,3.64E2,3.01E2,1.05E2,1.62E2,2.02E2,1.06E2,1.95E2,8.4E1,2.1E1,2.4E1,1.38E2,1.2E2,8.2E1,1.38E2,5.7E1,4.5E1,3.9E1,1.8E1,3E0,9E0,1.5E1,6.3E1,7.5E1],"tree_param":{"num_deleted":"0","num_feature":"2","num_nodes":"25","size_leaf_vector":"1"}},{"base_weights":[2.0013356E-1,-8.743824E1,9.792237E1,-1.02176315E2,-4.462372E1,6.620668E1,1.2290629E2,-5.831788E0,-9.303899E1,-5.410022E1,-5.9816008E0,1.4086582E1,7.510449E1,5.221974E0,1.3585605E2,-4.8791943E0,-4.0506477E0,-3.0360448E0,-2.2566967E0,-3.761115E-2,-1.4662873E0,1.0727918E0,4.3001938E-1,3.126848E0,4.2349734E0,6.46457E0,8.722457E0],"categories":[],"categories_nodes":[],"categories_segments":[],"categories_sizes":[],"default_left":[0,0,0,0,0,0,0,0,0,0,0,0,0,0,0,0,0,0,0,0,0,0,0,0,0,0,0],"id":26,"left_children":[1,3,5,7,9,11,13,-1,15,17,19,21,23,-1,25,-1,-1,-1,-1,-1,-1,-1,-1,-1,-1,-1,-1],"loss_changes":[6.611574E6,2.52259E5,2.810825E5,2.904875E4,3.849278E4,7.4534125E4,3.43565E4,0E0,2.47925E3,2.3052656E3,2.6635981E3,8.262002E2,1.14645E4,0E0,6.834E3,0E0,0E0,0E0,0E0,0E0,0E0,0E0,0E0,0E0,0E0,0E0,0E0],"parents":[2147483647,0,0,1,1,2,2,3,3,4,4,5,5,6,6,8,8,9,9,10,10,11,11,12,12,14,14],"right_children":[2,4,6,8,10,12,14,-1,16,18,20,22,24,-1,26,-1,-1,-1,-1,-1,-1,-1,-1,-1,-1,-1,-1],"split_conditions":[2.210265E3,1.942954E3,2.6323691E3,1.8793828E3,2.1304624E3,2.2950127E3,2.7078254E3,-5.831788E0,1.9175386E3,2.085929E3,2.2459465E3,2.2807024E3,2.5440117E3,5.221974E0,2.803564E3,-4.8791943E0,-4.0506477E0,-3.0360448E0,-2.2566967E0,-3.761115E-2,-1.4662873E0,1.0727918E0,4.3001938E-1,3.126848E0,4.2349734E0,6.46457E0,8.722457E0],"split_indices":[0,1,0,1,0,0,0,0,0,0,1,1,0,0,0,0,0,0,0,0,0,0,0,0,0,0,0],"split_type":[0,0,0,0,0,0,0,0,0,0,0,0,0,0,0,0,0,0,0,0,0,0,0,0,0,0,0],"sum_hessian":[7.7E2,4.06E2,3.64E2,3.01E2,1.05E2,1.62E2,2.02E2,1.12E2,1.89E2,8.4E1,2.1E1,2.4E1,1.38E2,8.7E1,1.15E2,1.32E2,5.7E1,4.5E1,3.9E1,1.8E1,3E0,9E0,1.5E1,6.3E1,7.5E1,1.02E2,1.3E1],"tree_param":{"num_deleted":"0","num_feature":"2","num_nodes":"27","size_leaf_vector":"1"}},{"base_weights":[2.0013341E-1,-8.120209E1,9.5321266E1,-9.5750114E1,-3.4272808E1,7.2450676E1,1.2352332E2,-5.5759892E0,-8.729938E1,-4.7047512E1,2.5669643E-1,3.9772835E1,8.093919E1,5.9268236E0,8.317489E0,-4.64216E0,-3.7403107E0,-2.55455E0,-1.8620186E0,1.550415E-1,-8.7916565E-1,2.3708475E0,2.8132597E-1,3.4165242E0,4.401698E0],"categories":[],"categories_nodes":[],"categories_segments":[],"categories_sizes":[],"default_left":[0,0,0,0,0,0,0,0,0,0,0,0,0,0,0,0,0,0,0,0,0,0,0,0,0],"id":27,"left_children":[1,3,5,7,9,11,13,-1,15,17,19,21,23,-1,-1,-1,-1,-1,-1,-1,-1,-1,-1,-1,-1],"loss_changes":[5.977648E6,2.807335E5,2.2066975E5,3.250975E4,4.4122484E4,5.1980625E4,1.40255E4,0E0,7.6685E3,9.921875E2,1.4752252E3,1.0957E4,8.0291875E3,0E0,0E0,0E0,0E0,0E0,0E0,0E0,0E0,0E0,0E0,0E0,0E0],"parents":[2147483647,0,0,1,1,2,2,3,3,4,4,5,5,6,6,8,8,9,9,10,10,11,11,12,12],"right_children":[2,4,6,8,10,12,14,-1,16,18,20,22,24,-1,-1,-1,-1,-1,-1,-1,-1,-1,-1,-1,-1],"split_conditions":[2.2324023E3,2.0883484E3,2.6772043E3,1.8724708E3,2.1527227E3,2.46546E3,2.803564E3,-5.5759892E0,1.9189158E3,2.1059739E3,2.2807024E3,2.3954236E3,2.5855396E3,5.9268236E0,8.317489E0,-4.64216E0,-3.7403107E0,-2.55455E0,-1.8620186E0,1.550415E-1,-8.7916565E-1,2.3708475E0,2.8132597E-1,3.4165242E0,4.401698E0],"split_indices":[0,1,0,0,0,1,0,0,1,0,1,0,0,0,0,0,0,0,0,0,0,0,0,0,0],"split_type":[0,0,0,0,0,0,0,0,0,0,0,0,0,0,0,0,0,0,0,0,0,0,0,0,0],"sum_hessian":[7.7E2,4.15E2,3.55E2,3.16E2,9.9E1,1.98E2,1.57E2,1.06E2,2.1E2,7.2E1,2.7E1,4.2E1,1.56E2,1.44E2,1.3E1,1.41E2,6.9E1,4.8E1,2.4E1,2.4E1,3E0,3.4E1,8E0,6E1,9.6E1],"tree_param":{"num_deleted":"0","num_feature":"2","num_nodes":"25","size_leaf_vector":"1"}},{"base_weights":[1.9745213E-1,-7.7798325E1,8.992464E1,-9.1281906E1,-3.468188E1,6.831817E1,1.1792076E2,-5.275121E0,-8.287498E1,-4.5443897E1,-5.7808596E-1,2.391789E1,7.491868E1,5.653855E0,7.931324E0,-4.334495E0,-3.4026444E0,-2.4686697E0,-1.7726396E0,7.391765E-2,-1.2483155E0,5.4127806E-1,1.9095844E0,3.127467E0,4.197063E0],"categories":[],"categories_nodes":[],"categories_segments":[],"categories_sizes":[],"default_left":[0,0,0,0,0,0,0,0,0,0,0,0,0,0,0,0,0,0,0,0,0,0,0,0,0],"id":28,"left_children":[1,3,5,7,9,11,13,-1,15,17,19,21,23,-1,-1,-1,-1,-1,-1,-1,-1,-1,-1,-1,-1],"loss_changes":[5.402717E6,2.369375E5,2.0910225E5,2.87955E4,3.667628E4,5.828625E4,1.26235E4,0E0,5.522625E3,1.2333438E3,1.2907312E3,4.819115E3,1.46149375E4,0E0,0E0,0E0,0E0,0E0,0E0,0E0,0E0,0E0,0E0,0E0,0E0],"parents":[2147483647,0,0,1,1,2,2,3,3,4,4,5,5,6,6,8,8,9,9,10,10,11,11,12,12],"right_children":[2,4,6,8,10,12,14,-1,16,18,20,22,24,-1,-1,-1,-1,-1,-1,-1,-1,-1,-1,-1,-1],"split_conditions":[2.224068E3,2.0596055E3,2.6828247E3,1.8793828E3,2.1527227E3,2.3321772E3,2.803564E3,-5.275121E0,1.9361322E3,2.1059739E3,2.2807024E3,2.2745764E3,2.5855396E3,5.653855E0,7.931324E0,-4.334495E0,-3.4026444E0,-2.4686697E0,-1.7726396E0,7.391765E-2,-1.2483155E0,5.4127806E-1,1.9095844E0,3.127467E0,4.197063E0],"split_indices":[0,0,0,1,0,0,0,0,0,0,1,0,0,0,0,0,0,0,0,0,0,0,0,0,0],"split_type":[0,0,0,0,0,0,0,0,0,0,0,0,0,0,0,0,0,0,0,0,0,0,0,0,0],"sum_hessian":[7.7E2,4.12E2,3.58E2,3.13E2,9.9E1,2.04E2,1.54E2,1.12E2,2.01E2,7.5E1,2.4E1,2.7E1,1.77E2,1.41E2,1.3E1,1.56E2,4.5E1,5.1E1,2.4E1,2.3E1,1E0,1.5E1,1.2E1,7.8E1,9.9E1],"tree_param":{"num_deleted":"0","num_feature":"2","num_nodes":"25","size_leaf_vector":"1"}},{"base_weights":[1.93993E-1,-7.512069E1,8.4174484E1,-8.77559E1,-3.841357E1,5.6823338E1,1.05721596E2,-5.202796E0,-8.151483E1,-4.6495308E1,-5.4426045E0,1.1569433E1,6.455373E1,9.464377E1,6.187699E0,-4.269399E0,-3.4914474E0,-2.6103246E0,-1.9382534E0,-1.6174316E-2,-1.4198884E0,9.716296E-1,2.965935E-1,4.137183E0,2.9394104E0,4.773156E0,1.4068401E0],"categories":[],"categories_nodes":[],"categories_segments":[],"categories_sizes":[],"default_left":[0,0,0,0,0,0,0,0,0,0,0,0,0,0,0,0,0,0,0,0,0,0,0,0,0,0,0],"id":29,"left_children":[1,3,5,7,9,11,13,-1,15,17,19,21,23,25,-1,-1,-1,-1,-1,-1,-1,-1,-1,-1,-1,-1,-1],"loss_changes":[4.8828705E6,1.8539675E5,2.0910075E5,2.224025E4,2.7991984E4,5.6275438E4,2.883875E4,0E0,4.130625E3,1.7288594E3,2.5760378E3,9.929553E2,9.71325E3,4.398E3,0E0,0E0,0E0,0E0,0E0,0E0,0E0,0E0,0E0,0E0,0E0,0E0,0E0],"parents":[2147483647,0,0,1,1,2,2,3,3,4,4,5,5,6,6,8,8,9,9,10,10,11,11,12,12,13,13],"right_children":[2,4,6,8,10,12,14,-1,16,18,20,22,24,26,-1,-1,-1,-1,-1,-1,-1,-1,-1,-1,-1,-1,-1],"split_conditions":[2.210265E3,1.942954E3,2.6323691E3,1.8664508E3,2.1304624E3,2.2950127E3,2.740556E3,-5.202796E0,1.9172406E3,2.085929E3,2.2459465E3,2.2807024E3,2.4106538E3,2.7512551E3,6.187699E0,-4.269399E0,-3.4914474E0,-2.6103246E0,-1.9382534E0,-1.6174316E-2,-1.4198884E0,9.716296E-1,2.965935E-1,4.137183E0,2.9394104E0,4.773156E0,1.4068401E0],"split_indices":[0,1,0,0,0,0,0,0,0,0,1,1,0,1,0,0,0,0,0,0,0,0,0,0,0,0,0],"split_type":[0,0,0,0,0,0,0,0,0,0,0,0,0,0,0,0,0,0,0,0,0,0,0,0,0,0,0],"sum_hessian":[7.7E2,4.06E2,3.64E2,3.01E2,1.05E2,1.62E2,2.02E2,7.9E1,2.22E2,8.4E1,2.1E1,2.4E1,1.38E2,1.29E2,7.3E1,1.62E2,6E1,4.5E1,3.9E1,1.8E1,3E0,9E0,1.5E1,3E1,1.08E2,1.27E2,2E0],"tree_param":{"num_deleted":"0","num_feature":"2","num_nodes":"27","size_leaf_vector":"1"}},{"base_weights":[1.8656127E-1,-7.030992E1,8.128645E1,-8.224648E1,-3.0575895E1,6.1639095E1,1.0674724E2,-4.7707295E0,-7.458677E1,-4.0415108E1,-6.223535E-1,3.1531271E1,6.990985E1,5.108662E0,7.2757926E0,-3.970373E0,-3.2077672E0,-7.385376E-1,-2.0651572E0,6.9629416E-2,-1.2245239E0,4.9356386E-1,2.0846744E0,5.166785E0,3.3374321E0],"categories":[],"categories_nodes":[],"categories_segments":[],"categories_sizes":[],"default_left":[0,0,0,0,0,0,0,0,0,0,0,0,0,0,0,0,0,0,0,0,0,0,0,0,0],"id":30,"left_children":[1,3,5,7,9,11,13,-1,15,17,19,21,23,-1,-1,-1,-1,-1,-1,-1,-1,-1,-1,-1,-1],"loss_changes":[4.4137205E6,1.9336612E5,1.7300525E5,2.485725E4,2.8562625E4,4.8843625E4,1.2618E4,0E0,5.214375E3,1.0523516E3,1.2364271E3,9.713656E3,1.00090625E4,0E0,0E0,0E0,0E0,0E0,0E0,0E0,0E0,0E0,0E0,0E0,0E0],"parents":[2147483647,0,0,1,1,2,2,3,3,4,4,5,5,6,6,8,8,9,9,10,10,11,11,12,12],"right_children":[2,4,6,8,10,12,14,-1,16,18,20,22,24,-1,-1,-1,-1,-1,-1,-1,-1,-1,-1,-1,-1],"split_conditions":[2.224068E3,2.0883484E3,2.6828247E3,1.8793828E3,2.1527227E3,2.46546E3,2.803564E3,-4.7707295E0,1.9189158E3,2.0929536E3,2.2807024E3,2.2745764E3,2.4106538E3,5.108662E0,7.2757926E0,-3.970373E0,-3.2077672E0,-7.385376E-1,-2.0651572E0,6.9629416E-2,-1.2245239E0,4.9356386E-1,2.0846744E0,5.166785E0,3.3374321E0],"split_indices":[0,1,0,1,0,1,0,0,1,1,1,0,0,0,0,0,0,0,0,0,0,0,0,0,0],"split_type":[0,0,0,0,0,0,0,0,0,0,0,0,0,0,0,0,0,0,0,0,0,0,0,0,0],"sum_hessian":[7.7E2,4.12E2,3.58E2,3.16E2,9.6E1,2.04E2,1.54E2,1.12E2,2.04E2,7.2E1,2.4E1,4.5E1,1.59E2,1.41E2,1.3E1,1.35E2,6.9E1,3E0,6.9E1,2.3E1,1E0,1.5E1,3E1,1.1E1,1.48E2],"tree_param":{"num_deleted":"0","num_feature":"2","num_nodes":"25","size_leaf_vector":"1"}},{"base_weights":[1.870437E-1,-6.631278E1,7.789418E1,-7.817186E1,-2.8056374E1,5.940303E1,1.01489784E2,-4.5684648E0,-7.110884E1,-3.768775E1,2.3452637E0,4.115777E1,3.5273983E0,4.8335385E0,6.7461166E0,-3.7293794E0,-2.9042752E0,-2.0940106E0,-1.4502476E0,3.1527275E-1,-7.378296E-1,2.780713E0,8.4897536E-1],"categories":[],"categories_nodes":[],"categories_segments":[],"categories_sizes":[],"default_left":[0,0,0,0,0,0,0,0,0,0,0,0,0,0,0,0,0,0,0,0,0,0,0],"id":31,"left_children":[1,3,5,7,9,11,13,-1,15,17,19,21,-1,-1,-1,-1,-1,-1,-1,-1,-1,-1,-1],"loss_changes":[3.9893165E6,1.8654025E5,1.492975E5,2.3051375E4,2.9369344E4,3.8171562E4,1.1929375E4,0E0,5.227E3,1.5518516E3,1.7862123E3,2.6668797E4,0E0,0E0,0E0,0E0,0E0,0E0,0E0,0E0,0E0,0E0,0E0],"parents":[2147483647,0,0,1,1,2,2,3,3,4,4,5,5,6,6,8,8,9,9,10,10,11,11],"right_children":[2,4,6,8,10,12,14,-1,16,18,20,22,-1,-1,-1,-1,-1,-1,-1,-1,-1,-1,-1],"split_conditions":[2.2324023E3,2.0883484E3,2.6828247E3,1.8724708E3,2.1793704E3,2.5440117E3,2.801463E3,-4.5684648E0,1.9361322E3,2.1059739E3,2.273257E3,2.4824998E3,3.5273983E0,4.8335385E0,6.7461166E0,-3.7293794E0,-2.9042752E0,-2.0940106E0,-1.4502476E0,3.1527275E-1,-7.378296E-1,2.780713E0,8.4897536E-1],"split_indices":[0,1,0,0,0,0,0,0,0,0,1,0,0,0,0,0,0,0,0,0,0,0,0],"split_type":[0,0,0,0,0,0,0,0,0,0,0,0,0,0,0,0,0,0,0,0,0,0,0],"sum_hessian":[7.7E2,4.15E2,3.55E2,3.16E2,9.9E1,2.01E2,1.54E2,1.06E2,2.1E2,7.5E1,2.4E1,7.8E1,1.23E2,1.38E2,1.6E1,1.62E2,4.8E1,4.8E1,2.7E1,2E1,4E0,4.8E1,3E1],"tree_param":{"num_deleted":"0","num_feature":"2","num_nodes":"23","size_leaf_vector":"1"}},{"base_weights":[1.8233758E-1,-6.453682E1,7.234813E1,-7.5585075E1,-3.3638046E1,4.6470055E1,8.9584854E1,-9.312643E1,-7.097709E1,-4.045768E1,-4.8304996E0,1.5377915E1,5.5258423E1,7.693794E1,1.0270803E2,-3.3202245E0,-4.8933387E0,-3.7001932E0,-3.007559E0,-2.2795434E0,-1.6579045E0,1.1091052E-2,-1.38107E0,3.3132657E-1,1.4502517E0,4.457146E0,2.3370078E0,4.0169177E0,3.0348642E0,4.849835E0,6.6247725E0],"categories":[],"categories_nodes":[],"categories_segments":[],"categories_sizes":[],"default_left":[0,0,0,0,0,0,0,0,0,0,0,0,0,0,0,0,0,0,0,0,0,0,0,0,0,0,0,0,0,0,0],"id":32,"left_children":[1,3,5,7,9,11,13,15,17,19,21,23,25,27,29,-1,-1,-1,-1,-1,-1,-1,-1,-1,-1,-1,-1,-1,-1,-1,-1],"loss_changes":[3.6056312E6,1.3639825E5,1.5864638E5,1.755825E4,2.1218375E4,3.9591156E4,2.8279E4,9.7484375E2,3.445625E3,1.7856875E3,2.5393594E3,3.8625059E3,2.902675E4,1.4745E3,4.8415E3,0E0,0E0,0E0,0E0,0E0,0E0,0E0,0E0,0E0,0E0,0E0,0E0,0E0,0E0,0E0,0E0],"parents":[2147483647,0,0,1,1,2,2,3,3,4,4,5,5,6,6,7,7,8,8,9,9,10,10,11,11,12,12,13,13,14,14],"right_children":[2,4,6,8,10,12,14,16,18,20,22,24,26,28,30,-1,-1,-1,-1,-1,-1,-1,-1,-1,-1,-1,-1,-1,-1,-1,-1],"split_conditions":[2.210265E3,1.9372966E3,2.6170503E3,1.8583658E3,2.1304624E3,2.3321772E3,2.7151233E3,1.8479017E3,1.9172406E3,2.085929E3,2.2459465E3,2.2745764E3,2.4106538E3,2.6986296E3,2.803564E3,-3.3202245E0,-4.8933387E0,-3.7001932E0,-3.007559E0,-2.2795434E0,-1.6579045E0,1.1091052E-2,-1.38107E0,3.3132657E-1,1.4502517E0,4.457146E0,2.3370078E0,4.0169177E0,3.0348642E0,4.849835E0,6.6247725E0],"split_indices":[0,1,0,0,0,0,0,1,0,0,1,0,0,1,0,0,0,0,0,0,0,0,0,0,0,0,0,0,0,0,0],"split_type":[0,0,0,0,0,0,0,0,0,0,0,0,0,0,0,0,0,0,0,0,0,0,0,0,0,0,0,0,0,0,0],"sum_hessian":[7.7E2,4.06E2,3.64E2,2.98E2,1.08E2,1.47E2,2.17E2,5.8E1,2.4E2,8.7E1,2.1E1,3.3E1,1.14E2,1.14E2,1.03E2,1.1E1,4.7E1,1.83E2,5.7E1,4.8E1,3.9E1,1.8E1,3E0,2.1E1,1.2E1,2.1E1,9.3E1,9.1E1,2.3E1,9E1,1.3E1],"tree_param":{"num_deleted":"0","num_feature":"2","num_nodes":"31","size_leaf_vector":"1"}},{"base_weights":[1.8216105E-1,-6.135967E1,6.8805016E1,-7.0867615E1,-2.8946331E1,3.930084E1,8.256586E1,-8.590812E1,-6.5703804E1,-3.4629642E1,9.241638E-1,8.4646E0,4.708387E1,6.922744E1,9.577416E1,-3.13424E0,-4.4822955E0,-3.468954E0,-2.7644055E0,-1.9206822E0,-1.3182718E0,4.658804E-1,-1.3292786E0,8.5548097E-1,1.2662125E-1,3.474873E0,1.7745802E0,3.5044363E0,1.2610413E0,4.5484557E0,6.3171945E0],"categories":[],"categories_nodes":[],"categories_segments":[],"categories_sizes":[],"default_left":[0,0,0,0,0,0,0,0,0,0,0,0,0,0,0,0,0,0,0,0,0,0,0,0,0,0,0,0,0,0,0],"id":33,"left_children":[1,3,5,7,9,11,13,15,17,19,21,23,25,27,29,-1,-1,-1,-1,-1,-1,-1,-1,-1,-1,-1,-1,-1,-1,-1,-1],"loss_changes":[3.260291E6,1.233795E5,1.44946E5,1.874275E4,1.598975E4,2.7921406E4,3.7061875E4,1.0644375E3,5.275E3,1.4576797E3,3.942137E3,1.2387654E3,2.1956906E4,3.045875E3,6.427E3,0E0,0E0,0E0,0E0,0E0,0E0,0E0,0E0,0E0,0E0,0E0,0E0,0E0,0E0,0E0,0E0],"parents":[2147483647,0,0,1,1,2,2,3,3,4,4,5,5,6,6,7,7,8,8,9,9,10,10,11,11,12,12,13,13,14,14],"right_children":[2,4,6,8,10,12,14,16,18,20,22,24,26,28,30,-1,-1,-1,-1,-1,-1,-1,-1,-1,-1,-1,-1,-1,-1,-1,-1],"split_conditions":[2.210265E3,2.0596055E3,2.579681E3,1.8675332E3,2.1793704E3,2.2950127E3,2.702549E3,1.8479017E3,1.9189158E3,2.1059739E3,2.2459465E3,2.2807024E3,2.4106538E3,2.7154927E3,2.803564E3,-3.13424E0,-4.4822955E0,-3.468954E0,-2.7644055E0,-1.9206822E0,-1.3182718E0,4.658804E-1,-1.3292786E0,8.5548097E-1,1.2662125E-1,3.474873E0,1.7745802E0,3.5044363E0,1.2610413E0,4.5484557E0,6.3171945E0],"split_indices":[0,0,1,1,0,0,0,1,1,0,1,1,0,1,0,0,0,0,0,0,0,0,0,0,0,0,0,0,0,0,0],"split_type":[0,0,0,0,0,0,0,0,0,0,0,0,0,0,0,0,0,0,0,0,0,0,0,0,0,0,0,0,0,0,0],"sum_hessian":[7.7E2,4.06E2,3.64E2,3.13E2,9.3E1,1.17E2,2.47E2,7.6E1,2.37E2,7.8E1,1.5E1,2.4E1,9.3E1,1.26E2,1.21E2,1.3E1,6.3E1,1.71E2,6.6E1,5.1E1,2.7E1,1.2E1,3E0,9E0,1.5E1,3E1,6.3E1,1.23E2,3E0,1.08E2,1.3E1],"tree_param":{"num_deleted":"0","num_feature":"2","num_nodes":"31","size_leaf_vector":"1"}},{"base_weights":[1.7815395E-1,-5.7437275E1,6.645947E1,-6.717255E1,-2.5029865E1,4.7558846E1,8.457954E1,-8.4643265E1,-6.2933376E1,-3.2396667E1,1.556807E0,2.4072414E1,5.5324387E1,7.692295E1,5.0882006E0,-3.0243948E0,-4.4459357E0,-3.3377693E0,-2.6426015E0,-4.748108E-1,-1.6603848E0,4.44381E-1,-4.0644655E-1,1.5339088E0,-3.2466498E-1,4.438979E0,2.5790117E0,3.9119682E0,1.8338623E0],"categories":[],"categories_nodes":[],"categories_segments":[],"categories_sizes":[],"default_left":[0,0,0,0,0,0,0,0,0,0,0,0,0,0,0,0,0,0,0,0,0,0,0,0,0,0,0,0,0],"id":34,"left_children":[1,3,5,7,9,11,13,15,17,19,21,23,25,27,-1,-1,-1,-1,-1,-1,-1,-1,-1,-1,-1,-1,-1,-1,-1],"loss_changes":[2.9481325E6,1.28618E5,1.18928125E5,1.8150625E4,1.9048738E4,3.1132688E4,1.6118625E4,7.1475E2,6.451375E3,1.0961875E3,1.634342E3,9.487055E3,1.20805E4,4.01775E3,0E0,0E0,0E0,0E0,0E0,0E0,0E0,0E0,0E0,0E0,0E0,0E0,0E0,0E0,0E0],"parents":[2147483647,0,0,1,1,2,2,3,3,4,4,5,5,6,6,7,7,8,8,9,9,10,10,11,11,12,12,13,13],"right_children":[2,4,6,8,10,12,14,16,18,20,22,24,26,28,-1,-1,-1,-1,-1,-1,-1,-1,-1,-1,-1,-1,-1,-1,-1],"split_conditions":[2.224068E3,2.0883484E3,2.6592578E3,1.8583658E3,2.1793704E3,2.46546E3,2.7568035E3,1.8479017E3,1.9172406E3,2.0929536E3,2.2459465E3,2.3954236E3,2.4106538E3,2.768132E3,5.0882006E0,-3.0243948E0,-4.4459357E0,-3.3377693E0,-2.6426015E0,-4.748108E-1,-1.6603848E0,4.44381E-1,-4.0644655E-1,1.5339088E0,-3.2466498E-1,4.438979E0,2.5790117E0,3.9119682E0,1.8338623E0],"split_indices":[0,1,0,0,0,1,0,1,0,1,1,0,0,1,0,0,0,0,0,0,0,0,0,0,0,0,0,0,0],"split_type":[0,0,0,0,0,0,0,0,0,0,0,0,0,0,0,0,0,0,0,0,0,0,0,0,0,0,0,0,0],"sum_hessian":[7.7E2,4.12E2,3.58E2,3.16E2,9.6E1,1.77E2,1.81E2,5.8E1,2.58E2,7.5E1,2.1E1,4.5E1,1.32E2,1.29E2,5.2E1,1.1E1,4.7E1,1.83E2,7.5E1,3E0,7.2E1,1.2E1,9E0,3.7E1,8E0,1.1E1,1.21E2,1.24E2,5E0],"tree_param":{"num_deleted":"0","num_feature":"2","num_nodes":"29","size_leaf_vector":"1"}},{"base_weights":[1.7380975E-1,-5.418442E1,6.3693054E1,-6.405195E1,-2.357678E1,4.9581184E1,8.51115E1,-7.794386E1,-5.9288376E1,-3.1919758E1,-8.952986E-2,3.2540108E1,2.945485E0,4.053175E0,5.787664E0,-3.1666975E0,-4.187495E0,-3.1296785E0,-2.4959257E0,-1.7437706E0,-1.2247603E0,1.3499561E-1,-8.75058E-1,2.2960854E0,5.169434E-1],"categories":[],"categories_nodes":[],"categories_segments":[],"categories_sizes":[],"default_left":[0,0,0,0,0,0,0,0,0,0,0,0,0,0,0,0,0,0,0,0,0,0,0,0,0],"id":35,"left_children":[1,3,5,7,9,11,13,15,17,19,21,23,-1,-1,-1,-1,-1,-1,-1,-1,-1,-1,-1,-1,-1],"loss_changes":[2.6655552E6,1.24130875E5,1.03382625E5,1.615775E4,2.018036E4,3.2579188E4,7.9819375E3,1.2274062E3,4.246125E3,8.135E2,1.407176E3,2.2995172E4,0E0,0E0,0E0,0E0,0E0,0E0,0E0,0E0,0E0,0E0,0E0,0E0,0E0],"parents":[2147483647,0,0,1,1,2,2,3,3,4,4,5,5,6,6,7,7,8,8,9,9,10,10,11,11],"right_children":[2,4,6,8,10,12,14,16,18,20,22,24,-1,-1,-1,-1,-1,-1,-1,-1,-1,-1,-1,-1,-1],"split_conditions":[2.2324023E3,2.0596055E3,2.691741E3,1.8675332E3,2.1527227E3,2.5440117E3,2.803564E3,1.8529277E3,1.9189158E3,2.1059739E3,2.2807024E3,2.4824998E3,2.945485E0,4.053175E0,5.787664E0,-3.1666975E0,-4.187495E0,-3.1296785E0,-2.4959257E0,-1.7437706E0,-1.2247603E0,1.3499561E-1,-8.75058E-1,2.2960854E0,5.169434E-1],"split_indices":[0,0,0,1,0,0,0,1,1,0,1,0,0,0,0,0,0,0,0,0,0,0,0,0,0],"split_type":[0,0,0,0,0,0,0,0,0,0,0,0,0,0,0,0,0,0,0,0,0,0,0,0,0],"sum_hessian":[7.7E2,4.15E2,3.55E2,3.13E2,1.02E2,2.16E2,1.39E2,7.6E1,2.37E2,7.5E1,2.7E1,7.8E1,1.38E2,1.26E2,1.3E1,2.5E1,5.1E1,1.71E2,6.6E1,5.1E1,2.4E1,2.4E1,3E0,4.8E1,3E1],"tree_param":{"num_deleted":"0","num_feature":"2","num_nodes":"25","size_leaf_vector":"1"}},{"base_weights":[1.6367808E-1,-4.995968E1,6.2525986E1,-6.071327E1,-1.9077118E1,4.9654995E1,8.092618E1,-7.692984E1,-5.678473E1,-2.9302397E1,2.441756E0,3.5780773E1,2.7992668E0,3.8521097E0,5.5189543E0,-2.7406332E0,-4.0428214E0,-3.0161858E0,-2.3978815E0,-3.9161682E-1,-1.5038718E0,3.1728467E-1,-2.6268217E-1,2.827449E0,4.919347E-1],"categories":[],"categories_nodes":[],"categories_segments":[],"categories_sizes":[],"default_left":[0,0,0,0,0,0,0,0,0,0,0,0,0,0,0,0,0,0,0,0,0,0,0,0,0],"id":36,"left_children":[1,3,5,7,9,11,13,15,17,19,21,23,-1,-1,-1,-1,-1,-1,-1,-1,-1,-1,-1,-1,-1],"loss_changes":[2.4131218E6,1.4097988E5,7.7450625E4,1.582675E4,2.4715637E4,1.6001656E4,7.5114375E3,6.91875E2,5.1979375E3,1.0290781E3,1.1449053E3,3.5541258E4,0E0,0E0,0E0,0E0,0E0,0E0,0E0,0E0,0E0,0E0,0E0,0E0,0E0],"parents":[2147483647,0,0,1,1,2,2,3,3,4,4,5,5,6,6,7,7,8,8,9,9,10,10,11,11],"right_children":[2,4,6,8,10,12,14,16,18,20,22,24,-1,-1,-1,-1,-1,-1,-1,-1,-1,-1,-1,-1,-1],"split_conditions":[2.2745764E3,2.0883484E3,2.691741E3,1.8583658E3,2.1793704E3,2.5440117E3,2.803564E3,1.8479017E3,1.9163704E3,2.0929536E3,2.2807024E3,2.4824998E3,2.7992668E0,3.8521097E0,5.5189543E0,-2.7406332E0,-4.0428214E0,-3.0161858E0,-2.3978815E0,-3.9161682E-1,-1.5038718E0,3.1728467E-1,-2.6268217E-1,2.827449E0,4.919347E-1],"split_indices":[0,1,0,0,0,0,0,1,0,1,1,0,0,0,0,0,0,0,0,0,0,0,0,0,0],"split_type":[0,0,0,0,0,0,0,0,0,0,0,0,0,0,0,0,0,0,0,0,0,0,0,0,0],"sum_hessian":[7.7E2,4.27E2,3.43E2,3.16E2,1.11E2,2.04E2,1.39E2,5.8E1,2.58E2,7.5E1,3.6E1,6.6E1,1.38E2,1.26E2,1.3E1,1.1E1,4.7E1,1.8E2,7.8E1,3E0,7.2E1,2.4E1,1.2E1,3.6E1,3E1],"tree_param":{"num_deleted":"0","num_feature":"2","num_nodes":"25","size_leaf_vector":"1"}},{"base_weights":[1.573868E-1,-4.749448E1,5.9444717E1,-5.771606E1,-1.8139696E1,4.7202065E1,7.694685E1,-3.4035084E0,-5.2191868E1,-2.7862186E1,2.3210845E0,3.40413E1,2.6603081E0,3.6610239E0,5.262713E0,-2.7395205E0,-2.1241302E0,-1.5605279E0,-1.0503728E0,8.930573E-1,2.1228746E-2,2.6899002E0,4.6813098E-1],"categories":[],"categories_nodes":[],"categories_segments":[],"categories_sizes":[],"default_left":[0,0,0,0,0,0,0,0,0,0,0,0,0,0,0,0,0,0,0,0,0,0,0],"id":37,"left_children":[1,3,5,7,9,11,13,-1,15,17,19,21,-1,-1,-1,-1,-1,-1,-1,-1,-1,-1,-1],"loss_changes":[2.1810155E6,1.273755E5,7.007775E4,1.4579125E4,2.23448E4,1.43875625E4,7.061125E3,0E0,2.9958125E3,1.0887148E3,1.082876E3,3.216346E4,0E0,0E0,0E0,0E0,0E0,0E0,0E0,0E0,0E0,0E0,0E0],"parents":[2147483647,0,0,1,1,2,2,3,3,4,4,5,5,6,6,8,8,9,9,10,10,11,11],"right_children":[2,4,6,8,10,12,14,-1,16,18,20,22,-1,-1,-1,-1,-1,-1,-1,-1,-1,-1,-1],"split_conditions":[2.2745764E3,2.0883484E3,2.691741E3,1.8724708E3,2.1793704E3,2.5440117E3,2.803564E3,-3.4035084E0,1.9361322E3,2.1059739E3,2.2313171E3,2.4824998E3,2.6603081E0,3.6610239E0,5.262713E0,-2.7395205E0,-2.1241302E0,-1.5605279E0,-1.0503728E0,8.930573E-1,2.1228746E-2,2.6899002E0,4.6813098E-1],"split_indices":[0,1,0,0,0,0,0,0,0,0,1,0,0,0,0,0,0,0,0,0,0,0,0],"split_type":[0,0,0,0,0,0,0,0,0,0,0,0,0,0,0,0,0,0,0,0,0,0,0],"sum_hessian":[7.7E2,4.27E2,3.43E2,3.16E2,1.11E2,2.04E2,1.39E2,1.06E2,2.1E2,7.5E1,3.6E1,6.6E1,1.38E2,1.26E2,1.3E1,1.62E2,4.8E1,4.8E1,2.7E1,3E0,3.3E1,3.6E1,3E1],"tree_param":{"num_deleted":"0","num_feature":"2","num_nodes":"23","size_leaf_vector":"1"}},{"base_weights":[1.5568508E-1,-4.5143032E1,5.6515266E1,-5.485633E1,-1.7247875E1,4.4870293E1,7.3163155E1,-6.985243E1,-5.1228428E1,-2.6503447E1,2.2297297E0,3.3510303E1,2.558318E0,3.4617136E0,4.8758597E0,-2.4590256E0,-3.6782577E0,-2.7532244E0,-2.2127068E0,-1.4840931E0,-9.997336E-1,2.9579982E-1,-2.515381E-1,2.5590382E0,8.163687E-1],"categories":[],"categories_nodes":[],"categories_segments":[],"categories_sizes":[],"default_left":[0,0,0,0,0,0,0,0,0,0,0,0,0,0,0,0,0,0,0,0,0,0,0,0,0],"id":38,"left_children":[1,3,5,7,9,11,13,15,17,19,21,23,-1,-1,-1,-1,-1,-1,-1,-1,-1,-1,-1,-1,-1],"loss_changes":[1.9709272E6,1.15022125E5,6.3406375E4,1.36678125E4,2.025005E4,1.2947625E4,6.6443125E3,9.1025E2,4.492375E3,9.7877734E2,1.0200339E3,2.2240258E4,0E0,0E0,0E0,0E0,0E0,0E0,0E0,0E0,0E0,0E0,0E0,0E0,0E0],"parents":[2147483647,0,0,1,1,2,2,3,3,4,4,5,5,6,6,7,7,8,8,9,9,10,10,11,11],"right_children":[2,4,6,8,10,12,14,16,18,20,22,24,-1,-1,-1,-1,-1,-1,-1,-1,-1,-1,-1,-1,-1],"split_conditions":[2.2745764E3,2.0883484E3,2.691741E3,1.8583658E3,2.1793704E3,2.5597002E3,2.801463E3,1.8479017E3,1.9150204E3,2.1059739E3,2.2807024E3,2.4824998E3,2.558318E0,3.4617136E0,4.8758597E0,-2.4590256E0,-3.6782577E0,-2.7532244E0,-2.2127068E0,-1.4840931E0,-9.997336E-1,2.9579982E-1,-2.515381E-1,2.5590382E0,8.163687E-1],"split_indices":[0,1,0,0,0,0,0,1,1,0,1,0,0,0,0,0,0,0,0,0,0,0,0,0,0],"split_type":[0,0,0,0,0,0,0,0,0,0,0,0,0,0,0,0,0,0,0,0,0,0,0,0,0],"sum_hessian":[7.7E2,4.27E2,3.43E2,3.16E2,1.11E2,2.04E2,1.39E2,5.8E1,2.58E2,7.5E1,3.6E1,7.5E1,1.29E2,1.23E2,1.6E1,1.1E1,4.7E1,1.62E2,9.6E1,4.8E1,2.7E1,2.4E1,1.2E1,3.6E1,3.9E1],"tree_param":{"num_deleted":"0","num_feature":"2","num_nodes":"25","size_leaf_vector":"1"}},{"base_weights":[1.4881907E-1,-4.2917564E1,5.373098E1,-5.2322456E1,-1.6864918E1,4.265569E1,6.9564575E1,-6.432625E1,-4.8219032E1,-2.6088327E1,1.0811828E0,3.0645817E1,4.813774E1,3.3060174E0,4.791989E0,-2.5592234E0,-3.4830053E0,-2.514399E0,-1.9245108E0,-1.4279078E0,-9.953775E-1,1.002432E-1,-8.735596E-1,2.4345424E0,4.0598145E-1,2.0639303E0,2.5200012E0],"categories":[],"categories_nodes":[],"categories_segments":[],"categories_sizes":[],"default_left":[0,0,0,0,0,0,0,0,0,0,0,0,0,0,0,0,0,0,0,0,0,0,0,0,0,0,0],"id":39,"left_children":[1,3,5,7,9,11,13,15,17,19,21,23,25,-1,-1,-1,-1,-1,-1,-1,-1,-1,-1,-1,-1,-1,-1],"loss_changes":[1.7814576E6,1.03987125E5,5.7357E4,1.2364875E4,1.9063494E4,1.202175E4,6.33275E3,1.8319062E3,2.855E3,5.9165234E2,7.204865E2,2.6839188E4,7.64375E1,0E0,0E0,0E0,0E0,0E0,0E0,0E0,0E0,0E0,0E0,0E0,0E0,0E0,0E0],"parents":[2147483647,0,0,1,1,2,2,3,3,4,4,5,5,6,6,7,7,8,8,9,9,10,10,11,11,12,12],"right_children":[2,4,6,8,10,12,14,16,18,20,22,24,26,-1,-1,-1,-1,-1,-1,-1,-1,-1,-1,-1,-1,-1,-1],"split_conditions":[2.2745764E3,2.0596055E3,2.691741E3,1.8675332E3,2.1527227E3,2.5440117E3,2.803564E3,1.8529277E3,1.9361322E3,2.1059739E3,2.3241934E3,2.4824998E3,2.5987432E3,3.3060174E0,4.791989E0,-2.5592234E0,-3.4830053E0,-2.514399E0,-1.9245108E0,-1.4279078E0,-9.953775E-1,1.002432E-1,-8.735596E-1,2.4345424E0,4.0598145E-1,2.0639303E0,2.5200012E0],"split_indices":[0,0,0,1,0,0,0,1,0,0,1,0,0,0,0,0,0,0,0,0,0,0,0,0,0,0,0],"split_type":[0,0,0,0,0,0,0,0,0,0,0,0,0,0,0,0,0,0,0,0,0,0,0,0,0,0,0],"sum_hessian":[7.7E2,4.27E2,3.43E2,3.13E2,1.14E2,2.04E2,1.39E2,7.6E1,2.37E2,7.5E1,3.9E1,6.6E1,1.38E2,1.26E2,1.3E1,2.5E1,5.1E1,1.92E2,4.5E1,5.1E1,2.4E1,3.8E1,1E0,3.6E1,3E1,3.9E1,9.9E1],"tree_param":{"num_deleted":"0","num_feature":"2","num_nodes":"27","size_leaf_vector":"1"}},{"base_weights":[1.4378679E-1,-4.3111362E1,4.8375847E1,-5.0481598E1,-2.2498404E1,2.8397352E1,5.8789623E1,-6.3502308E1,-4.708449E1,-2.6974699E1,-3.5705678E0,7.0083942E0,3.5831684E1,5.3380558E1,3.8382607E0,-2.2290254E0,-3.34549E0,-2.5030055E0,-2.081476E0,-1.2620903E0,-2.171038E0,6.629446E-2,-1.2968048E0,4.5071235E-1,-5.144531E-1,3.3214931E0,1.3059734E0,2.7095988E0,9.935384E-1],"categories":[],"categories_nodes":[],"categories_segments":[],"categories_sizes":[],"default_left":[0,0,0,0,0,0,0,0,0,0,0,0,0,0,0,0,0,0,0,0,0,0,0,0,0,0,0,0,0],"id":40,"left_children":[1,3,5,7,9,11,13,15,17,19,21,23,25,27,-1,-1,-1,-1,-1,-1,-1,-1,-1,-1,-1,-1,-1,-1,-1],"loss_changes":[1.6106111E6,6.0696688E4,7.4269375E4,1.0235625E4,9.138883E3,1.9943484E4,1.91405E4,8.212031E2,1.827875E3,1.4119141E3,2.443649E3,1.272417E3,2.6199438E4,4.00775E3,0E0,0E0,0E0,0E0,0E0,0E0,0E0,0E0,0E0,0E0,0E0,0E0,0E0,0E0,0E0],"parents":[2147483647,0,0,1,1,2,2,3,3,4,4,5,5,6,6,7,7,8,8,9,9,10,10,11,11,12,12,13,13],"right_children":[2,4,6,8,10,12,14,16,18,20,22,24,26,28,-1,-1,-1,-1,-1,-1,-1,-1,-1,-1,-1,-1,-1,-1,-1],"split_conditions":[2.210265E3,1.9372966E3,2.5987432E3,1.8583658E3,2.1304624E3,2.3321772E3,2.7568035E3,1.8479017E3,1.9110494E3,2.1587131E3,2.2459465E3,2.3788364E3,2.4106538E3,2.768132E3,3.8382607E0,-2.2290254E0,-3.34549E0,-2.5030055E0,-2.081476E0,-1.2620903E0,-2.171038E0,6.629446E-2,-1.2968048E0,4.5071235E-1,-5.144531E-1,3.3214931E0,1.3059734E0,2.7095988E0,9.935384E-1],"split_indices":[0,1,0,0,0,0,0,1,1,1,1,1,0,1,0,0,0,0,0,0,0,0,0,0,0,0,0,0,0],"split_type":[0,0,0,0,0,0,0,0,0,0,0,0,0,0,0,0,0,0,0,0,0,0,0,0,0,0,0,0,0],"sum_hessian":[7.7E2,4.06E2,3.64E2,2.98E2,1.08E2,1.26E2,2.38E2,5.8E1,2.4E2,8.7E1,2.1E1,3.3E1,9.3E1,1.86E2,5.2E1,1.1E1,4.7E1,1.5E2,9E1,8.1E1,6E0,1.8E1,3E0,3E1,3E0,2.1E1,7.2E1,1.81E2,5E0],"tree_param":{"num_deleted":"0","num_feature":"2","num_nodes":"29","size_leaf_vector":"1"}},{"base_weights":[1.3305157E-1,-3.881056E1,4.8585762E1,-4.7159515E1,-1.4833501E1,3.8439327E1,6.3095997E1,-5.836315E1,-4.338425E1,-2.2773146E1,1.8758644E0,1.9613108E1,4.1554604E1,2.9936526E0,4.391293E0,-2.3103027E0,-3.1659665E0,-2.2991006E0,-1.8190707E0,-1.618744E-1,-1.1765816E0,8.4221804E-1,2.9846192E-3,1.5347768E0,-5.4439425E-1,3.4962964E0,1.9612637E0],"categories":[],"categories_nodes":[],"categories_segments":[],"categories_sizes":[],"default_left":[0,0,0,0,0,0,0,0,0,0,0,0,0,0,0,0,0,0,0,0,0,0,0,0,0,0,0],"id":41,"left_children":[1,3,5,7,9,11,13,15,17,19,21,23,25,-1,-1,-1,-1,-1,-1,-1,-1,-1,-1,-1,-1,-1,-1],"loss_changes":[1.4567036E6,8.497906E4,4.822075E4,1.0876E4,1.4901355E4,1.1208031E4,5.9E3,1.7136875E3,2.7113125E3,1.0499492E3,1.0048529E3,1.0812986E4,8.82225E3,0E0,0E0,0E0,0E0,0E0,0E0,0E0,0E0,0E0,0E0,0E0,0E0,0E0,0E0],"parents":[2147483647,0,0,1,1,2,2,3,3,4,4,5,5,6,6,7,7,8,8,9,9,10,10,11,11,12,12],"right_children":[2,4,6,8,10,12,14,16,18,20,22,24,26,-1,-1,-1,-1,-1,-1,-1,-1,-1,-1,-1,-1,-1,-1],"split_conditions":[2.2745764E3,2.0883484E3,2.691741E3,1.8675332E3,2.1793704E3,2.46546E3,2.803564E3,1.8529277E3,1.9189158E3,2.0929536E3,2.2313171E3,2.3954236E3,2.4106538E3,2.9936526E0,4.391293E0,-2.3103027E0,-3.1659665E0,-2.2991006E0,-1.8190707E0,-1.618744E-1,-1.1765816E0,8.4221804E-1,2.9846192E-3,1.5347768E0,-5.4439425E-1,3.4962964E0,1.9612637E0],"split_indices":[0,1,0,1,0,1,0,1,1,1,1,0,0,0,0,0,0,0,0,0,0,0,0,0,0,0,0],"split_type":[0,0,0,0,0,0,0,0,0,0,0,0,0,0,0,0,0,0,0,0,0,0,0,0,0,0,0],"sum_hessian":[7.7E2,4.27E2,3.43E2,3.16E2,1.11E2,2.04E2,1.39E2,7.6E1,2.4E2,7.5E1,3.6E1,3E1,1.74E2,1.26E2,1.3E1,2.5E1,5.1E1,1.71E2,6.9E1,3E0,7.2E1,3E0,3.3E1,2.2E1,8E0,1.1E1,1.63E2],"tree_param":{"num_deleted":"0","num_feature":"2","num_nodes":"27","size_leaf_vector":"1"}},{"base_weights":[1.312704E-1,-3.689361E1,4.6196728E1,-4.4979786E1,-1.4494021E1,3.543671E1,5.86393E1,-5.7732048E1,-4.186508E1,-2.1944252E1,1.804958E0,1.8664488E1,3.852271E1,5.2546127E1,3.4859626E0,-2.020974E0,-3.0428722E0,-2.2502754E0,-1.8257983E0,-1.2381285E0,-7.963257E-1,2.696787E-1,-2.617535E-1,1.4613796E0,-5.201972E-1,3.3360474E0,1.7970597E0,2.7082183E0,8.274007E-1],"categories":[],"categories_nodes":[],"categories_segments":[],"categories_sizes":[],"default_left":[0,0,0,0,0,0,0,0,0,0,0,0,0,0,0,0,0,0,0,0,0,0,0,0,0,0,0,0,0],"id":42,"left_children":[1,3,5,7,9,11,13,15,17,19,21,23,25,27,-1,-1,-1,-1,-1,-1,-1,-1,-1,-1,-1,-1,-1,-1,-1],"loss_changes":[1.3166974E6,7.6870375E4,4.3977562E4,1.0055E4,1.4004193E4,8.9599375E3,7.003375E3,7.3259375E2,2.657E3,9.454492E2,9.6300214E2,9.822721E3,9.030656E3,5.2785625E3,0E0,0E0,0E0,0E0,0E0,0E0,0E0,0E0,0E0,0E0,0E0,0E0,0E0,0E0,0E0],"parents":[2147483647,0,0,1,1,2,2,3,3,4,4,5,5,6,6,7,7,8,8,9,9,10,10,11,11,12,12,13,13],"right_children":[2,4,6,8,10,12,14,16,18,20,22,24,26,28,-1,-1,-1,-1,-1,-1,-1,-1,-1,-1,-1,-1,-1,-1,-1],"split_conditions":[2.2745764E3,2.0596055E3,2.6772043E3,1.8583658E3,2.1793704E3,2.46546E3,2.7568035E3,1.8479017E3,1.9133092E3,2.1059739E3,2.2807024E3,2.3954236E3,2.4106538E3,2.768132E3,3.4859626E0,-2.020974E0,-3.0428722E0,-2.2502754E0,-1.8257983E0,-1.2381285E0,-7.963257E-1,2.696787E-1,-2.617535E-1,1.4613796E0,-5.201972E-1,3.3360474E0,1.7970597E0,2.7082183E0,8.274007E-1],"split_indices":[0,0,0,0,0,1,0,1,1,0,1,0,0,1,0,0,0,0,0,0,0,0,0,0,0,0,0,0,0],"split_type":[0,0,0,0,0,0,0,0,0,0,0,0,0,0,0,0,0,0,0,0,0,0,0,0,0,0,0,0,0],"sum_hessian":[7.7E2,4.27E2,3.43E2,3.13E2,1.14E2,1.86E2,1.57E2,5.8E1,2.55E2,7.8E1,3.6E1,3E1,1.56E2,1.05E2,5.2E1,1.1E1,4.7E1,1.56E2,9.9E1,5.1E1,2.7E1,2.4E1,1.2E1,2.2E1,8E0,1.1E1,1.45E2,1E2,5E0],"tree_param":{"num_deleted":"0","num_feature":"2","num_nodes":"29","size_leaf_vector":"1"}},{"base_weights":[1.271721E-1,-3.706554E1,4.1599247E1,-4.3393536E1,-1.9367044E1,2.2997395E1,5.0282387E1,-5.493129E1,-4.0388885E1,-2.3186129E1,-3.2103827E0,5.6178265E0,2.9678665E1,4.397403E1,6.2293285E1,-2.1242254E0,-2.9679763E0,-2.1463807E0,-1.7866217E0,-1.0739625E0,-1.9934361E0,7.906173E-2,-1.2583984E0,3.864636E-1,-6.0751647E-1,2.9240656E0,9.657013E-1,2.2516441E0,1.1476319E0,2.8879912E0,4.0255547E0],"categories":[],"categories_nodes":[],"categories_segments":[],"categories_sizes":[],"default_left":[0,0,0,0,0,0,0,0,0,0,0,0,0,0,0,0,0,0,0,0,0,0,0,0,0,0,0,0,0,0,0],"id":43,"left_children":[1,3,5,7,9,11,13,15,17,19,21,23,25,27,29,-1,-1,-1,-1,-1,-1,-1,-1,-1,-1,-1,-1,-1,-1,-1,-1],"loss_changes":[1.1907778E6,4.4742E4,5.7799312E4,8.14675E3,6.6512656E3,1.3535148E4,1.60514375E4,7.300469E2,1.3150938E3,1.6494688E3,2.3544683E3,1.3694738E3,2.424546E4,2.6613125E3,2.2046562E3,0E0,0E0,0E0,0E0,0E0,0E0,0E0,0E0,0E0,0E0,0E0,0E0,0E0,0E0,0E0,0E0],"parents":[2147483647,0,0,1,1,2,2,3,3,4,4,5,5,6,6,7,7,8,8,9,9,10,10,11,11,12,12,13,13,14,14],"right_children":[2,4,6,8,10,12,14,16,18,20,22,24,26,28,30,-1,-1,-1,-1,-1,-1,-1,-1,-1,-1,-1,-1,-1,-1,-1,-1],"split_conditions":[2.210265E3,1.9372966E3,2.579681E3,1.8583658E3,2.1304624E3,2.3321772E3,2.7296528E3,1.8529277E3,1.9110494E3,2.1587131E3,2.2459465E3,2.3788364E3,2.4106538E3,2.7210054E3,2.803564E3,-2.1242254E0,-2.9679763E0,-2.1463807E0,-1.7866217E0,-1.0739625E0,-1.9934361E0,7.906173E-2,-1.2583984E0,3.864636E-1,-6.0751647E-1,2.9240656E0,9.657013E-1,2.2516441E0,1.1476319E0,2.8879912E0,4.0255547E0],"split_indices":[0,1,1,0,0,0,0,1,1,1,1,1,0,0,0,0,0,0,0,0,0,0,0,0,0,0,0,0,0,0,0],"split_type":[0,0,0,0,0,0,0,0,0,0,0,0,0,0,0,0,0,0,0,0,0,0,0,0,0,0,0,0,0,0,0],"sum_hessian":[7.7E2,4.06E2,3.64E2,2.98E2,1.08E2,1.17E2,2.47E2,5.8E1,2.4E2,8.7E1,2.1E1,3.3E1,8.4E1,1.65E2,8.2E1,1.8E1,4E1,1.5E2,9E1,8.1E1,6E0,1.8E1,3E0,3E1,3E0,2.1E1,6.3E1,1.56E2,9E0,6.9E1,1.3E1],"tree_param":{"num_deleted":"0","num_feature":"2","num_nodes":"31","size_leaf_vector":"1"}},{"base_weights":[1.217117E-1,-3.3362675E1,4.178216E1,-3.9624554E1,-9.737635E0,3.0858149E1,5.2034298E1,-4.507343E1,-3.2821526E1,-1.7168798E1,1.5718697E0,2.1686815E1,3.5707626E1,4.684803E1,6.3186436E1,-2.6135497E0,-2.0687385E0,-1.8037897E0,-1.4200518E0,-4.417134E-1,-1.1668181E0,2.5542432E-1,-2.6751146E-1,1.9246674E0,-2.027163E-1,1.8413767E0,-1.4483948E-1,2.4069095E0,6.725952E-1,2.842574E0,3.8386502E0],"categories":[],"categories_nodes":[],"categories_segments":[],"categories_sizes":[],"default_left":[0,0,0,0,0,0,0,0,0,0,0,0,0,0,0,0,0,0,0,0,0,0,0,0,0,0,0,0,0,0,0],"id":44,"left_children":[1,3,5,7,9,11,13,15,17,19,21,23,25,27,29,-1,-1,-1,-1,-1,-1,-1,-1,-1,-1,-1,-1,-1,-1,-1,-1],"loss_changes":[1.0769194E6,6.293122E4,3.6920375E4,1.10499375E4,7.674881E3,6.742078E3,7.2193438E3,2.76225E3,1.1907656E3,2.6210469E3,9.331215E2,2.6545848E4,4.819125E3,4.6951562E3,1.9704688E2,0E0,0E0,0E0,0E0,0E0,0E0,0E0,0E0,0E0,0E0,0E0,0E0,0E0,0E0,0E0,0E0],"parents":[2147483647,0,0,1,1,2,2,3,3,4,4,5,5,6,6,7,7,8,8,9,9,10,10,11,11,12,12,13,13,14,14],"right_children":[2,4,6,8,10,12,14,16,18,20,22,24,26,28,30,-1,-1,-1,-1,-1,-1,-1,-1,-1,-1,-1,-1,-1,-1,-1,-1],"split_conditions":[2.2745764E3,2.0784487E3,2.6511035E3,1.8948473E3,2.1793704E3,2.5368555E3,2.7568035E3,1.8583658E3,1.9361322E3,2.1340144E3,2.2807024E3,2.4824998E3,2.6474526E3,2.768132E3,2.803564E3,-2.6135497E0,-2.0687385E0,-1.8037897E0,-1.4200518E0,-4.417134E-1,-1.1668181E0,2.5542432E-1,-2.6751146E-1,1.9246674E0,-2.027163E-1,1.8413767E0,-1.4483948E-1,2.4069095E0,6.725952E-1,2.842574E0,3.8386502E0],"split_indices":[0,0,1,0,0,0,0,0,0,1,1,0,1,1,0,0,0,0,0,0,0,0,0,0,0,0,0,0,0,0,0],"split_type":[0,0,0,0,0,0,0,0,0,0,0,0,0,0,0,0,0,0,0,0,0,0,0,0,0,0,0,0,0,0,0],"sum_hessian":[7.7E2,4.27E2,3.43E2,3.37E2,9E1,1.68E2,1.75E2,1.84E2,1.53E2,5.4E1,3.6E1,6E1,1.08E2,1.23E2,5.2E1,5.8E1,1.26E2,8.4E1,6.9E1,2.4E1,3E1,2.4E1,1.2E1,3.6E1,2.4E1,1.05E2,3E0,1.18E2,5E0,3.9E1,1.3E1],"tree_param":{"num_deleted":"0","num_feature":"2","num_nodes":"31","size_leaf_vector":"1"}},{"base_weights":[1.2036877E-1,-3.2997227E1,3.8219105E1,-3.8672386E1,-1.4847254E1,2.7232447E1,4.9488007E1,-4.8160065E1,-3.5440353E1,-1.9628809E1,-1.8507951E0,5.205959E0,3.0987284E1,4.453039E1,6.0153214E1,-1.8644835E0,-2.6334555E0,-1.8479109E0,-1.4150747E0,-8.752112E-1,-1.8580008E0,-1.0572194E-2,-1.152832E0,3.9663917E-1,-6.5690917E-1,2.6926537E0,1.3530279E0,2.2875717E0,6.4456993E-1,2.7766826E0,3.9598267E0],"categories":[],"categories_nodes":[],"categories_segments":[],"categories_sizes":[],"default_left":[0,0,0,0,0,0,0,0,0,0,0,0,0,0,0,0,0,0,0,0,0,0,0,0,0,0,0,0,0,0,0],"id":45,"left_children":[1,3,5,7,9,11,13,15,17,19,21,23,25,27,29,-1,-1,-1,-1,-1,-1,-1,-1,-1,-1,-1,-1,-1,-1,-1,-1],"loss_changes":[9.740616E5,4.196647E4,4.3099188E4,7.9218438E3,6.178002E3,1.50565625E4,6.6271562E3,1.8101406E3,1.5329375E3,2.068541E3,9.6851215E2,1.5048174E3,1.2639375E4,4.2006094E3,2.6445312E2,0E0,0E0,0E0,0E0,0E0,0E0,0E0,0E0,0E0,0E0,0E0,0E0,0E0,0E0,0E0,0E0],"parents":[2147483647,0,0,1,1,2,2,3,3,4,4,5,5,6,6,7,7,8,8,9,9,10,10,11,11,12,12,13,13,14,14],"right_children":[2,4,6,8,10,12,14,16,18,20,22,24,26,28,30,-1,-1,-1,-1,-1,-1,-1,-1,-1,-1,-1,-1,-1,-1,-1,-1],"split_conditions":[2.224068E3,2.0596055E3,2.6511035E3,1.8675332E3,2.1304624E3,2.3321772E3,2.7568035E3,1.8529277E3,1.9361322E3,2.1587131E3,2.2807024E3,2.3788364E3,2.4106538E3,2.768132E3,2.8411243E3,-1.8644835E0,-2.6334555E0,-1.8479109E0,-1.4150747E0,-8.752112E-1,-1.8580008E0,-1.0572194E-2,-1.152832E0,3.9663917E-1,-6.5690917E-1,2.6926537E0,1.3530279E0,2.2875717E0,6.4456993E-1,2.7766826E0,3.9598267E0],"split_indices":[0,0,1,1,0,0,0,1,0,1,1,1,0,1,0,0,0,0,0,0,0,0,0,0,0,0,0,0,0,0,0],"split_type":[0,0,0,0,0,0,0,0,0,0,0,0,0,0,0,0,0,0,0,0,0,0,0,0,0,0,0,0,0,0,0],"sum_hessian":[7.7E2,4.12E2,3.58E2,3.13E2,9.9E1,1.83E2,1.75E2,7.6E1,2.37E2,7.2E1,2.7E1,2.7E1,1.56E2,1.23E2,5.2E1,2.5E1,5.1E1,1.92E2,4.5E1,6.6E1,6E0,2.6E1,1E0,2.4E1,3E0,2.1E1,1.35E2,1.18E2,5E0,4.5E1,7E0],"tree_param":{"num_deleted":"0","num_feature":"2","num_nodes":"31","size_leaf_vector":"1"}},{"base_weights":[1.1667357E-1,-3.1873747E1,3.5787865E1,-3.7295128E1,-1.6709831E1,1.8858244E1,4.3111996E1,-4.7494015E1,-3.4643555E1,-2.0839006E1,-5.6480675E0,4.491376E0,2.480274E1,3.7610943E1,5.399235E1,-1.8114849E0,-2.5777838E0,-2.1492193E0,-1.6649917E0,-9.163378E-1,-1.7351607E0,5.5918664E-1,-5.0675243E-1,3.278848E-1,-6.3227236E-1,2.564142E0,7.1654665E-1,1.9301032E0,8.84729E-1,2.500588E0,3.5019367E0],"categories":[],"categories_nodes":[],"categories_segments":[],"categories_sizes":[],"default_left":[0,0,0,0,0,0,0,0,0,0,0,0,0,0,0,0,0,0,0,0,0,0,0,0,0,0,0,0,0,0,0],"id":46,"left_children":[1,3,5,7,9,11,13,15,17,19,21,23,25,27,29,-1,-1,-1,-1,-1,-1,-1,-1,-1,-1,-1,-1,-1,-1,-1,-1],"loss_changes":[8.809569E5,3.2836E4,4.4445094E4,6.4405312E3,4.8609805E3,9.453824E3,1.3172094E4,8.315156E2,1.2697188E3,2.1156016E3,2.4545908E3,1.2868704E3,2.1171328E4,2.7121562E3,1.7987969E3,0E0,0E0,0E0,0E0,0E0,0E0,0E0,0E0,0E0,0E0,0E0,0E0,0E0,0E0,0E0,0E0],"parents":[2147483647,0,0,1,1,2,2,3,3,4,4,5,5,6,6,7,7,8,8,9,9,10,10,11,11,12,12,13,13,14,14],"right_children":[2,4,6,8,10,12,14,16,18,20,22,24,26,28,30,-1,-1,-1,-1,-1,-1,-1,-1,-1,-1,-1,-1,-1,-1,-1,-1],"split_conditions":[2.210265E3,1.9372966E3,2.5855396E3,1.8583658E3,2.121568E3,2.3321772E3,2.7296528E3,1.8529277E3,1.8675332E3,2.1443752E3,2.1682698E3,2.3788364E3,2.4106538E3,2.7210054E3,2.803564E3,-1.8114849E0,-2.5777838E0,-2.1492193E0,-1.6649917E0,-9.163378E-1,-1.7351607E0,5.5918664E-1,-5.0675243E-1,3.278848E-1,-6.3227236E-1,2.564142E0,7.1654665E-1,1.9301032E0,8.84729E-1,2.500588E0,3.5019367E0],"split_indices":[0,1,0,0,0,0,0,1,1,1,1,1,0,0,0,0,0,0,0,0,0,0,0,0,0,0,0,0,0,0,0],"split_type":[0,0,0,0,0,0,0,0,0,0,0,0,0,0,0,0,0,0,0,0,0,0,0,0,0,0,0,0,0,0,0],"sum_hessian":[7.7E2,4.06E2,3.64E2,2.98E2,1.08E2,1.11E2,2.53E2,5.8E1,2.4E2,7.8E1,3E1,3.3E1,7.8E1,1.71E2,8.2E1,1.8E1,4E1,2.9E1,2.11E2,6.8E1,1E1,6E0,2.4E1,3E1,3E0,2.1E1,5.7E1,1.62E2,9E0,6.9E1,1.3E1],"tree_param":{"num_deleted":"0","num_feature":"2","num_nodes":"31","size_leaf_vector":"1"}},{"base_weights":[1.1212483E-1,-2.846896E1,3.6236275E1,-3.4100143E1,-7.9178023E0,2.9299898E1,4.8447475E1,-3.8844852E1,-2.81789E1,-1.4646937E1,1.5327027E0,1.8613985E1,3.2922497E1,4.5647476E1,3.339346E0,-2.2596858E0,-1.7794756E0,-1.541519E0,-1.2278345E0,-3.3452198E-1,-1.0295494E0,8.0737305E-1,-4.4347816E-3,1.8026116E0,-2.923296E-1,1.7493712E0,5.882134E-1,2.7465873E0,2.1603692E0],"categories":[],"categories_nodes":[],"categories_segments":[],"categories_sizes":[],"default_left":[0,0,0,0,0,0,0,0,0,0,0,0,0,0,0,0,0,0,0,0,0,0,0,0,0,0,0,0,0],"id":47,"left_children":[1,3,5,7,9,11,13,15,17,19,21,23,25,27,-1,-1,-1,-1,-1,-1,-1,-1,-1,-1,-1,-1,-1,-1,-1],"loss_changes":[7.9706394E5,4.960847E4,2.7463688E4,8.401344E3,6.00026E3,7.9035625E3,3.2160938E3,2.215125E3,7.2196875E2,2.4633965E3,9.4928595E2,2.495066E4,6.7099062E3,9.5890625E1,0E0,0E0,0E0,0E0,0E0,0E0,0E0,0E0,0E0,0E0,0E0,0E0,0E0,0E0,0E0],"parents":[2147483647,0,0,1,1,2,2,3,3,4,4,5,5,6,6,7,7,8,8,9,9,10,10,11,11,12,12,13,13],"right_children":[2,4,6,8,10,12,14,16,18,20,22,24,26,28,-1,-1,-1,-1,-1,-1,-1,-1,-1,-1,-1,-1,-1,-1,-1],"split_conditions":[2.2950127E3,2.0784487E3,2.702549E3,1.8948473E3,2.1793704E3,2.5368555E3,2.803564E3,1.8583658E3,1.9361322E3,2.1340144E3,2.2313171E3,2.4824998E3,2.6986296E3,2.7193865E3,3.339346E0,-2.2596858E0,-1.7794756E0,-1.541519E0,-1.2278345E0,-3.3452198E-1,-1.0295494E0,8.0737305E-1,-4.4347816E-3,1.8026116E0,-2.923296E-1,1.7493712E0,5.882134E-1,2.7465873E0,2.1603692E0],"split_indices":[0,0,0,0,0,0,0,0,0,1,1,0,1,1,0,0,0,0,0,0,0,0,0,0,0,0,0,0,0],"split_type":[0,0,0,0,0,0,0,0,0,0,0,0,0,0,0,0,0,0,0,0,0,0,0,0,0,0,0,0,0],"sum_hessian":[7.7E2,4.3E2,3.4E2,3.37E2,9.3E1,2.19E2,1.21E2,1.84E2,1.53E2,5.4E1,3.9E1,5.7E1,1.62E2,1.08E2,1.3E1,5.8E1,1.26E2,8.4E1,6.9E1,2.4E1,3E1,3E0,3.6E1,3.3E1,2.4E1,1.47E2,1.5E1,1.8E1,9E1],"tree_param":{"num_deleted":"0","num_feature":"2","num_nodes":"29","size_leaf_vector":"1"}},{"base_weights":[1.1264382E-1,-2.706265E1,3.4459972E1,-3.241532E1,-7.5279126E0,2.7046953E1,4.490976E1,-3.692449E1,-2.6787968E1,-1.3939418E1,1.4761047E0,1.7709354E1,3.059546E1,4.224288E1,3.0860267E0,-2.1486185E0,-1.6912053E0,-1.4653506E0,-1.1673223E0,-3.184673E-1,-9.797328E-1,7.7709657E-1,-4.2209937E-3,1.7151378E0,-2.7830225E-1,1.9627479E0,1.4529518E0,2.803291E0,1.9986954E0],"categories":[],"categories_nodes":[],"categories_segments":[],"categories_sizes":[],"default_left":[0,0,0,0,0,0,0,0,0,0,0,0,0,0,0,0,0,0,0,0,0,0,0,0,0,0,0,0,0],"id":48,"left_children":[1,3,5,7,9,11,13,15,17,19,21,23,25,27,-1,-1,-1,-1,-1,-1,-1,-1,-1,-1,-1,-1,-1,-1,-1],"loss_changes":[7.20583E5,4.4822656E4,2.5200688E4,7.5875312E3,5.44713E3,6.1513438E3,3.6692812E3,2.015375E3,6.508672E2,2.2297764E3,8.7931476E2,2.2591576E4,7.884531E2,1.6479531E3,0E0,0E0,0E0,0E0,0E0,0E0,0E0,0E0,0E0,0E0,0E0,0E0,0E0,0E0,0E0],"parents":[2147483647,0,0,1,1,2,2,3,3,4,4,5,5,6,6,7,7,8,8,9,9,10,10,11,11,12,12,13,13],"right_children":[2,4,6,8,10,12,14,16,18,20,22,24,26,28,-1,-1,-1,-1,-1,-1,-1,-1,-1,-1,-1,-1,-1,-1,-1],"split_conditions":[2.2950127E3,2.0784487E3,2.691741E3,1.8948473E3,2.1793704E3,2.5368555E3,2.801463E3,1.8583658E3,1.9361322E3,2.1340144E3,2.2313171E3,2.4824998E3,2.5327893E3,2.6788584E3,3.0860267E0,-2.1486185E0,-1.6912053E0,-1.4653506E0,-1.1673223E0,-3.184673E-1,-9.797328E-1,7.7709657E-1,-4.2209937E-3,1.7151378E0,-2.7830225E-1,1.9627479E0,1.4529518E0,2.803291E0,1.9986954E0],"split_indices":[0,0,0,0,0,0,0,0,0,1,1,0,1,1,0,0,0,0,0,0,0,0,0,0,0,0,0,0,0],"split_type":[0,0,0,0,0,0,0,0,0,0,0,0,0,0,0,0,0,0,0,0,0,0,0,0,0,0,0,0,0],"sum_hessian":[7.7E2,4.3E2,3.4E2,3.37E2,9.3E1,2.01E2,1.39E2,1.84E2,1.53E2,5.4E1,3.9E1,5.7E1,1.44E2,1.23E2,1.6E1,5.8E1,1.26E2,8.4E1,6.9E1,2.4E1,3E1,3E0,3.6E1,3.3E1,2.4E1,1.8E1,1.26E2,1.4E1,1.09E2],"tree_param":{"num_deleted":"0","num_feature":"2","num_nodes":"29","size_leaf_vector":"1"}},{"base_weights":[1.14446856E-1,-2.7402163E1,3.0797039E1,-3.1884699E1,-1.3862593E1,1.8887201E1,3.8741344E1,-3.9608925E1,-2.9148237E1,-1.8814463E1,-6.5154605E0,3.3327708E0,2.3321667E1,3.3882587E1,4.7738346E1,-1.4838952E0,-2.1906364E0,-2.0487614E0,-1.4152693E0,-7.888791E-1,-2.2011476E0,8.301961E-1,-4.997215E-1,2.7830932E-1,-7.404694E-1,2.2738748E0,8.9440787E-1,1.7298777E0,-5.745809E-1,2.2360256E0,3.352272E0],"categories":[],"categories_nodes":[],"categories_segments":[],"categories_sizes":[],"default_left":[0,0,0,0,0,0,0,0,0,0,0,0,0,0,0,0,0,0,0,0,0,0,0,0,0,0,0,0,0,0,0],"id":49,"left_children":[1,3,5,7,9,11,13,15,17,19,21,23,25,27,29,-1,-1,-1,-1,-1,-1,-1,-1,-1,-1,-1,-1,-1,-1,-1,-1],"loss_changes":[6.5178444E5,2.4259469E4,3.3802875E4,5.2923125E3,3.6247656E3,1.0130656E4,7.9122188E3,1.9143359E3,1.1229531E3,3.975291E3,3.6245066E3,1.4600767E3,1.3030641E4,5.1015312E3,1.3133594E3,0E0,0E0,0E0,0E0,0E0,0E0,0E0,0E0,0E0,0E0,0E0,0E0,0E0,0E0,0E0,0E0],"parents":[2147483647,0,0,1,1,2,2,3,3,4,4,5,5,6,6,7,7,8,8,9,9,10,10,11,11,12,12,13,13,14,14],"right_children":[2,4,6,8,10,12,14,16,18,20,22,24,26,28,30,-1,-1,-1,-1,-1,-1,-1,-1,-1,-1,-1,-1,-1,-1,-1,-1],"split_conditions":[2.210265E3,1.9594177E3,2.6170503E3,1.8675332E3,2.1059739E3,2.3321772E3,2.740556E3,1.8529277E3,1.8593607E3,2.1340144E3,2.1443752E3,2.3788364E3,2.4106538E3,2.7512551E3,2.8411243E3,-1.4838952E0,-2.1906364E0,-2.0487614E0,-1.4152693E0,-7.888791E-1,-2.2011476E0,8.301961E-1,-4.997215E-1,2.7830932E-1,-7.404694E-1,2.2738748E0,8.9440787E-1,1.7298777E0,-5.745809E-1,2.2360256E0,3.352272E0],"split_indices":[0,0,0,1,0,0,0,1,0,1,1,1,0,1,0,0,0,0,0,0,0,0,0,0,0,0,0,0,0,0,0],"split_type":[0,0,0,0,0,0,0,0,0,0,0,0,0,0,0,0,0,0,0,0,0,0,0,0,0,0,0,0,0,0,0],"sum_hessian":[7.7E2,4.06E2,3.64E2,3.04E2,1.02E2,1.47E2,2.17E2,7.6E1,2.28E2,6E1,4.2E1,3.3E1,1.14E2,1.44E2,7.3E1,2.5E1,5.1E1,1.2E1,2.16E2,5.5E1,5E0,5E0,3.7E1,3E1,3E0,2.1E1,9.3E1,1.42E2,2E0,6.6E1,7E0],"tree_param":{"num_deleted":"0","num_feature":"2","num_nodes":"31","size_leaf_vector":"1"}},{"base_weights":[1.0826449E-1,-2.4470201E1,3.1173399E1,-2.9027851E1,-5.5763874E0,2.5304743E1,4.2338425E1,-3.342886E1,-2.3854757E1,-1.15580845E1,1.4419739E0,1.52286625E1,2.8379625E1,4.0337257E1,3.2156007E0,-1.9474392E0,-1.5300633E0,-1.3228476E0,-1.0376486E0,8.393784E-2,-9.0085804E-1,7.6669616E-1,-4.9415384E-3,1.5585471E0,-5.050809E-1,1.5051779E0,5.979004E-1,2.6279185E0,1.9067415E0],"categories":[],"categories_nodes":[],"categories_segments":[],"categories_sizes":[],"default_left":[0,0,0,0,0,0,0,0,0,0,0,0,0,0,0,0,0,0,0,0,0,0,0,0,0,0,0,0,0],"id":50,"left_children":[1,3,5,7,9,11,13,15,17,19,21,23,25,27,-1,-1,-1,-1,-1,-1,-1,-1,-1,-1,-1,-1,-1,-1,-1],"loss_changes":[5.8944706E5,3.695214E4,2.1272188E4,7.102625E3,3.5851113E3,6.569922E3,2.5066875E3,1.695625E3,7.665781E2,3.963144E3,8.5770667E2,2.252511E4,4.509297E3,9.295469E2,0E0,0E0,0E0,0E0,0E0,0E0,0E0,0E0,0E0,0E0,0E0,0E0,0E0,0E0,0E0],"parents":[2147483647,0,0,1,1,2,2,3,3,4,4,5,5,6,6,7,7,8,8,9,9,10,10,11,11,12,12,13,13],"right_children":[2,4,6,8,10,12,14,16,18,20,22,24,26,28,-1,-1,-1,-1,-1,-1,-1,-1,-1,-1,-1,-1,-1,-1,-1],"split_conditions":[2.2950127E3,2.085929E3,2.7078254E3,1.9002949E3,2.1793704E3,2.5271794E3,2.8305752E3,1.8583658E3,1.9361322E3,2.1340144E3,2.2313171E3,2.4824998E3,2.6986296E3,2.7193865E3,3.2156007E0,-1.9474392E0,-1.5300633E0,-1.3228476E0,-1.0376486E0,8.393784E-2,-9.0085804E-1,7.6669616E-1,-4.9415384E-3,1.5585471E0,-5.050809E-1,1.5051779E0,5.979004E-1,2.6279185E0,1.9067415E0],"split_indices":[0,0,0,1,0,0,1,0,0,1,1,0,1,1,0,0,0,0,0,0,0,0,0,0,0,0,0,0,0],"split_type":[0,0,0,0,0,0,0,0,0,0,0,0,0,0,0,0,0,0,0,0,0,0,0,0,0,0,0,0,0],"sum_hessian":[7.7E2,4.3E2,3.4E2,3.46E2,8.4E1,2.25E2,1.15E2,1.84E2,1.62E2,4.5E1,3.9E1,5.4E1,1.71E2,1.08E2,7E0,5.8E1,1.26E2,8.4E1,7.8E1,1.5E1,3E1,3E0,3.6E1,3.3E1,2.1E1,1.54E2,1.7E1,1.3E1,9.5E1],"tree_param":{"num_deleted":"0","num_feature":"2","num_nodes":"29","size_leaf_vector":"1"}},{"base_weights":[1.0934998E-1,-2.4775257E1,2.7857092E1,-2.8512938E1,-1.1482736E1,1.8879427E1,3.6780354E1,-3.5911266E1,-2.6030844E1,-1.44383335E1,-1.5566185E0,6.199801E0,2.3694925E1,3.2946262E1,4.5490753E1,-1.440723E0,-2.0877728E0,-1.8659315E0,-1.2638191E0,-6.135731E-1,-1.6093558E0,1.5875244E-1,-1.1821442E0,5.015375E-1,-6.609077E-1,1.2467054E0,-1.1251129E0,1.7040361E0,1.910319E-1,2.084787E0,3.081288E0],"categories":[],"categories_nodes":[],"categories_segments":[],"categories_sizes":[],"default_left":[0,0,0,0,0,0,0,0,0,0,0,0,0,0,0,0,0,0,0,0,0,0,0,0,0,0,0,0,0,0,0],"id":51,"left_children":[1,3,5,7,9,11,13,15,17,19,21,23,25,27,29,-1,-1,-1,-1,-1,-1,-1,-1,-1,-1,-1,-1,-1,-1,-1,-1],"loss_changes":[5.3305925E5,1.9893672E4,2.8545781E4,4.8863594E3,2.647248E3,1.1087898E4,4.5794062E3,1.9904219E3,1.1091406E3,2.297171E3,2.374174E3,4.0008264E3,8.1748906E3,4.1652188E3,6.7578906E2,0E0,0E0,0E0,0E0,0E0,0E0,0E0,0E0,0E0,0E0,0E0,0E0,0E0,0E0,0E0,0E0],"parents":[2147483647,0,0,1,1,2,2,3,3,4,4,5,5,6,6,7,7,8,8,9,9,10,10,11,11,12,12,13,13,14,14],"right_children":[2,4,6,8,10,12,14,16,18,20,22,24,26,28,30,-1,-1,-1,-1,-1,-1,-1,-1,-1,-1,-1,-1,-1,-1,-1,-1],"split_conditions":[2.210265E3,2.0883484E3,2.6592578E3,1.8675332E3,2.1304624E3,2.46546E3,2.7568035E3,1.856942E3,1.8593607E3,2.1587131E3,2.2459465E3,2.3954236E3,2.656473E3,2.768132E3,2.8411243E3,-1.440723E0,-2.0877728E0,-1.8659315E0,-1.2638191E0,-6.135731E-1,-1.6093558E0,1.5875244E-1,-1.1821442E0,5.015375E-1,-6.609077E-1,1.2467054E0,-1.1251129E0,1.7040361E0,1.910319E-1,2.084787E0,3.081288E0],"split_indices":[0,1,0,1,0,1,0,1,0,1,1,0,1,1,0,0,0,0,0,0,0,0,0,0,0,0,0,0,0,0,0],"split_type":[0,0,0,0,0,0,0,0,0,0,0,0,0,0,0,0,0,0,0,0,0,0,0,0,0,0,0,0,0,0,0],"sum_hessian":[7.7E2,4.06E2,3.64E2,3.16E2,9E1,1.83E2,1.81E2,7.6E1,2.4E2,6.9E1,2.1E1,5.1E1,1.32E2,1.29E2,5.2E1,3.7E1,3.9E1,1.2E1,2.28E2,6.3E1,6E0,1.8E1,3E0,4.3E1,8E0,1.29E2,3E0,1.24E2,5E0,4.5E1,7E0],"tree_param":{"num_deleted":"0","num_feature":"2","num_nodes":"31","size_leaf_vector":"1"}},{"base_weights":[1.00112066E-1,-2.2141531E1,2.821169E1,-2.625708E1,-5.0799174E0,2.3240446E1,3.9316925E1,-3.0277456E1,-2.1532991E1,-1.0368584E1,1.1290467E0,1.379719E1,2.5936852E1,3.728401E1,2.9525697E0,-1.7670717E0,-1.3843247E0,-1.1943495E0,-9.36382E-1,1.08760074E-1,-8.254162E-1,2.4041407E-1,-2.3451614E-1,1.4460335E0,-5.1013017E-1,1.3962859E0,5.7570857E-1,2.5203085E0,1.7509739E0],"categories":[],"categories_nodes":[],"categories_segments":[],"categories_sizes":[],"default_left":[0,0,0,0,0,0,0,0,0,0,0,0,0,0,0,0,0,0,0,0,0,0,0,0,0,0,0,0,0],"id":52,"left_children":[1,3,5,7,9,11,13,15,17,19,21,23,25,27,-1,-1,-1,-1,-1,-1,-1,-1,-1,-1,-1,-1,-1,-1,-1],"loss_changes":[4.8269062E5,3.0130531E4,1.7911781E4,5.9384688E3,2.8028628E3,5.702297E3,1.9706406E3,1.4488281E3,6.290703E2,3.578627E3,8.7898535E2,2.0257885E4,4.956461E3,1.1172188E3,0E0,0E0,0E0,0E0,0E0,0E0,0E0,0E0,0E0,0E0,0E0,0E0,0E0,0E0,0E0],"parents":[2147483647,0,0,1,1,2,2,3,3,4,4,5,5,6,6,7,7,8,8,9,9,10,10,11,11,12,12,13,13],"right_children":[2,4,6,8,10,12,14,16,18,20,22,24,26,28,-1,-1,-1,-1,-1,-1,-1,-1,-1,-1,-1,-1,-1,-1,-1],"split_conditions":[2.2950127E3,2.085929E3,2.7151233E3,1.8948473E3,2.1793704E3,2.5271794E3,2.8305752E3,1.8583658E3,1.9361322E3,2.1340144E3,2.2807024E3,2.4824998E3,2.6986296E3,2.7258394E3,2.9525697E0,-1.7670717E0,-1.3843247E0,-1.1943495E0,-9.36382E-1,1.08760074E-1,-8.254162E-1,2.4041407E-1,-2.3451614E-1,1.4460335E0,-5.1013017E-1,1.3962859E0,5.7570857E-1,2.5203085E0,1.7509739E0],"split_indices":[0,0,0,0,0,0,1,0,0,1,1,0,1,1,0,0,0,0,0,0,0,0,0,0,0,0,0,0,0],"split_type":[0,0,0,0,0,0,0,0,0,0,0,0,0,0,0,0,0,0,0,0,0,0,0,0,0,0,0,0,0],"sum_hessian":[7.7E2,4.3E2,3.4E2,3.46E2,8.4E1,2.37E2,1.03E2,1.84E2,1.62E2,4.5E1,3.9E1,5.4E1,1.83E2,9.6E1,7E0,5.8E1,1.26E2,8.4E1,7.8E1,1.5E1,3E1,2.4E1,1.5E1,3.3E1,2.1E1,1.6E2,2.3E1,1.1E1,8.5E1],"tree_param":{"num_deleted":"0","num_feature":"2","num_nodes":"29","size_leaf_vector":"1"}},{"base_weights":[1.0047242E-1,-2.0578188E1,2.7505623E1,-2.4959475E1,-4.1857986E0,2.288267E1,3.7420536E1,-2.8781527E1,-2.0468437E1,-1.0258511E1,9.1636306E-1,3.9587513E1,2.1005796E1,3.5449112E1,2.8323243E0,-1.6802148E0,-1.31572E0,-1.1352392E0,-8.9015734E-1,1.0366745E-1,-8.469457E-1,1.1753602E-1,-8.441803E-1,1.1181005E0,2.4896352E0,-9.743889E-1,1.2126969E0,2.4047964E0,1.6636122E0],"categories":[],"categories_nodes":[],"categories_segments":[],"categories_sizes":[],"default_left":[0,0,0,0,0,0,0,0,0,0,0,0,0,0,0,0,0,0,0,0,0,0,0,0,0,0,0,0,0],"id":53,"left_children":[1,3,5,7,9,11,13,15,17,19,21,23,25,27,-1,-1,-1,-1,-1,-1,-1,-1,-1,-1,-1,-1,-1,-1,-1],"loss_changes":[4.374931E5,3.1496219E4,1.4361344E4,5.367125E3,2.9218926E3,6.348242E3,1.9337812E3,1.3169375E3,5.6734375E2,3.5775366E3,1.3673275E3,2.7539062E3,2.7830648E4,1.0702031E3,0E0,0E0,0E0,0E0,0E0,0E0,0E0,0E0,0E0,0E0,0E0,0E0,0E0,0E0,0E0],"parents":[2147483647,0,0,1,1,2,2,3,3,4,4,5,5,6,6,7,7,8,8,9,9,10,10,11,11,12,12,13,13],"right_children":[2,4,6,8,10,12,14,16,18,20,22,24,26,28,-1,-1,-1,-1,-1,-1,-1,-1,-1,-1,-1,-1,-1,-1,-1],"split_conditions":[2.3321772E3,2.085929E3,2.7151233E3,1.9002949E3,2.1527227E3,2.4106538E3,2.8411243E3,1.8583658E3,1.9361322E3,2.1340144E3,2.3788364E3,2.3882227E3,2.4901824E3,2.7258394E3,2.8323243E0,-1.6802148E0,-1.31572E0,-1.1352392E0,-8.9015734E-1,1.0366745E-1,-8.469457E-1,1.1753602E-1,-8.441803E-1,1.1181005E0,2.4896352E0,-9.743889E-1,1.2126969E0,2.4047964E0,1.6636122E0],"split_indices":[0,0,0,1,0,0,0,0,0,1,1,0,1,1,0,0,0,0,0,0,0,0,0,0,0,0,0,0,0],"split_type":[0,0,0,0,0,0,0,0,0,0,0,0,0,0,0,0,0,0,0,0,0,0,0,0,0,0,0,0,0],"sum_hessian":[7.7E2,4.39E2,3.31E2,3.46E2,9.3E1,2.28E2,1.03E2,1.84E2,1.62E2,4.2E1,5.1E1,2.1E1,2.07E2,9.6E1,7E0,5.8E1,1.26E2,8.4E1,7.8E1,1.5E1,2.7E1,4.8E1,3E0,9E0,1.2E1,1.5E1,1.92E2,1.1E1,8.5E1],"tree_param":{"num_deleted":"0","num_feature":"2","num_nodes":"29","size_leaf_vector":"1"}},{"base_weights":[1.009759E-1,-1.9564043E1,2.6162745E1,-2.3230732E1,-1.6968673E0,2.059135E1,3.3656433E1,-2.6643127E1,-1.7869556E1,1.7611288E1,-3.304643E0,3.7772038E1,1.8274103E1,3.170318E1,4.897121E1,-1.5520257E0,-1.206211E0,-8.406742E-1,-1.9766501E0,9.7333986E-1,2.083435E-1,-1.1251723E0,-2.5475105E-2,1.0677832E0,2.3747241E0,-9.287155E-1,1.095648E0,2.369612E0,1.4826978E0,9.7928876E-1,2.6118317E0],"categories":[],"categories_nodes":[],"categories_segments":[],"categories_sizes":[],"default_left":[0,0,0,0,0,0,0,0,0,0,0,0,0,0,0,0,0,0,0,0,0,0,0,0,0,0,0,0,0,0,0],"id":54,"left_children":[1,3,5,7,9,11,13,15,17,19,21,23,25,27,29,-1,-1,-1,-1,-1,-1,-1,-1,-1,-1,-1,-1,-1,-1,-1,-1],"loss_changes":[3.9565334E5,2.8786453E4,1.31680625E4,6.2014062E3,2.4174805E3,6.9934375E3,2.635375E3,1.6990938E3,2.6526523E3,6.856177E1,3.7986328E3,2.497086E3,2.3469824E4,2.6777266E3,3.2028516E2,0E0,0E0,0E0,0E0,0E0,0E0,0E0,0E0,0E0,0E0,0E0,0E0,0E0,0E0,0E0,0E0],"parents":[2147483647,0,0,1,1,2,2,3,3,4,4,5,5,6,6,7,7,8,8,9,9,10,10,11,11,12,12,13,13,14,14],"right_children":[2,4,6,8,10,12,14,16,18,20,22,24,26,28,30,-1,-1,-1,-1,-1,-1,-1,-1,-1,-1,-1,-1,-1,-1,-1,-1],"split_conditions":[2.3321772E3,2.1059739E3,2.691741E3,1.9150204E3,2.1443752E3,2.4106538E3,2.803564E3,1.8675332E3,2.1340144E3,2.1150725E3,2.121568E3,2.3882227E3,2.4901824E3,2.6768875E3,2.7913923E3,-1.5520257E0,-1.206211E0,-8.406742E-1,-1.9766501E0,9.7333986E-1,2.083435E-1,-1.1251723E0,-2.5475105E-2,1.0677832E0,2.3747241E0,-9.287155E-1,1.095648E0,2.369612E0,1.4826978E0,9.7928876E-1,2.6118317E0],"split_indices":[0,0,0,1,1,0,0,1,1,0,0,0,1,1,1,0,0,0,0,0,0,0,0,0,0,0,0,0,0,0,0],"split_type":[0,0,0,0,0,0,0,0,0,0,0,0,0,0,0,0,0,0,0,0,0,0,0,0,0,0,0,0,0,0,0],"sum_hessian":[7.7E2,4.39E2,3.31E2,3.64E2,7.5E1,1.92E2,1.39E2,2.2E2,1.44E2,5E0,7E1,2.1E1,1.71E2,1.26E2,1.3E1,7.6E1,1.44E2,1.39E2,5E0,4E0,1E0,8E0,6.2E1,9E0,1.2E1,1.5E1,1.56E2,1.2E1,1.14E2,2E0,1.1E1],"tree_param":{"num_deleted":"0","num_feature":"2","num_nodes":"31","size_leaf_vector":"1"}},{"base_weights":[1.0304476E-1,-1.8598475E1,2.4887882E1,-2.2084497E1,-1.6116782E0,2.0623806E1,3.4037743E1,-2.4838734E1,-1.6108774E1,1.6927652E1,-3.1556826E0,3.603986E1,1.8894108E1,3.2205708E1,2.5998216E0,-1.5245689E0,-1.1476355E0,-7.404957E-1,-1.8942932E0,9.344043E-1,2.031372E-1,-1.0751613E0,-2.4225725E-2,1.019729E0,2.2651198E0,-8.851822E-1,1.0915111E0,2.2266214E0,1.5055608E0],"categories":[],"categories_nodes":[],"categories_segments":[],"categories_sizes":[],"default_left":[0,0,0,0,0,0,0,0,0,0,0,0,0,0,0,0,0,0,0,0,0,0,0,0,0,0,0,0,0],"id":55,"left_children":[1,3,5,7,9,11,13,15,17,19,21,23,25,27,-1,-1,-1,-1,-1,-1,-1,-1,-1,-1,-1,-1,-1,-1,-1],"loss_changes":[3.5783228E5,2.6019594E4,1.2251203E4,5.60725E3,2.2289038E3,5.425375E3,1.7471172E3,1.9440469E3,2.7765918E3,5.9962036E1,3.4692476E3,2.264205E3,2.2737148E4,1.1634453E3,0E0,0E0,0E0,0E0,0E0,0E0,0E0,0E0,0E0,0E0,0E0,0E0,0E0,0E0,0E0],"parents":[2147483647,0,0,1,1,2,2,3,3,4,4,5,5,6,6,7,7,8,8,9,9,10,10,11,11,12,12,13,13],"right_children":[2,4,6,8,10,12,14,16,18,20,22,24,26,28,-1,-1,-1,-1,-1,-1,-1,-1,-1,-1,-1,-1,-1,-1,-1],"split_conditions":[2.3321772E3,2.1059739E3,2.7151233E3,1.9189158E3,2.1443752E3,2.4106538E3,2.8305752E3,1.8583658E3,2.1340144E3,2.1150725E3,2.121568E3,2.3882227E3,2.4901824E3,2.7258394E3,2.5998216E0,-1.5245689E0,-1.1476355E0,-7.404957E-1,-1.8942932E0,9.344043E-1,2.031372E-1,-1.0751613E0,-2.4225725E-2,1.019729E0,2.2651198E0,-8.851822E-1,1.0915111E0,2.2266214E0,1.5055608E0],"split_indices":[0,0,0,1,1,0,1,0,1,0,0,0,1,1,0,0,0,0,0,0,0,0,0,0,0,0,0,0,0],"split_type":[0,0,0,0,0,0,0,0,0,0,0,0,0,0,0,0,0,0,0,0,0,0,0,0,0,0,0,0,0],"sum_hessian":[7.7E2,4.39E2,3.31E2,3.64E2,7.5E1,2.28E2,1.03E2,2.47E2,1.17E2,5E0,7E1,2.1E1,2.07E2,9.6E1,7E0,5.8E1,1.89E2,1.12E2,5E0,4E0,1E0,8E0,6.2E1,9E0,1.2E1,1.5E1,1.92E2,1.1E1,8.5E1],"tree_param":{"num_deleted":"0","num_feature":"2","num_nodes":"29","size_leaf_vector":"1"}},{"base_weights":[1.03762776E-1,-1.7680563E1,2.367304E1,-2.148914E1,-3.4331548E0,2.0171679E1,3.393409E1,-2.81459E1,-1.951844E1,-8.319564E0,1.224151E0,3.438715E1,1.8717915E1,3.1808905E1,2.4940796E0,-1.064813E0,-1.6974705E0,-1.0566252E0,-7.664076E-1,1.5111084E-1,-6.952507E-1,1.3569176E-1,-8.1066287E-1,9.738391E-1,2.1605752E0,-8.436859E-1,1.0645752E0,1.9278014E0,1.3976694E0],"categories":[],"categories_nodes":[],"categories_segments":[],"categories_sizes":[],"default_left":[0,0,0,0,0,0,0,0,0,0,0,0,0,0,0,0,0,0,0,0,0,0,0,0,0,0,0,0,0],"id":56,"left_children":[1,3,5,7,9,11,13,15,17,19,21,23,25,27,-1,-1,-1,-1,-1,-1,-1,-1,-1,-1,-1,-1,-1,-1,-1],"loss_changes":[3.2359378E5,2.3801656E4,1.1243453E4,4.00275E3,2.1493896E3,4.5228438E3,1.2263047E3,2.3379023E3,1.5089609E3,2.9560754E3,1.3168356E3,2.0530137E3,2.1335266E4,8.992656E2,0E0,0E0,0E0,0E0,0E0,0E0,0E0,0E0,0E0,0E0,0E0,0E0,0E0,0E0,0E0],"parents":[2147483647,0,0,1,1,2,2,3,3,4,4,5,5,6,6,7,7,8,8,9,9,10,10,11,11,12,12,13,13],"right_children":[2,4,6,8,10,12,14,16,18,20,22,24,26,28,-1,-1,-1,-1,-1,-1,-1,-1,-1,-1,-1,-1,-1,-1,-1],"split_conditions":[2.3321772E3,2.085929E3,2.7296528E3,1.8675332E3,2.1793704E3,2.4106538E3,2.8411243E3,1.856942E3,1.9361322E3,2.1340144E3,2.3788364E3,2.3882227E3,2.4901824E3,2.7626924E3,2.4940796E0,-1.064813E0,-1.6974705E0,-1.0566252E0,-7.664076E-1,1.5111084E-1,-6.952507E-1,1.3569176E-1,-8.1066287E-1,9.738391E-1,2.1605752E0,-8.436859E-1,1.0645752E0,1.9278014E0,1.3976694E0],"split_indices":[0,0,0,1,0,0,0,1,0,1,1,0,1,1,0,0,0,0,0,0,0,0,0,0,0,0,0,0,0],"split_type":[0,0,0,0,0,0,0,0,0,0,0,0,0,0,0,0,0,0,0,0,0,0,0,0,0,0,0,0,0],"sum_hessian":[7.7E2,4.39E2,3.31E2,3.46E2,9.3E1,2.49E2,8.2E1,7.6E1,2.7E2,4.5E1,4.8E1,2.1E1,2.28E2,7.5E1,7E0,3.7E1,3.9E1,1.92E2,7.8E1,1.5E1,3E1,4.5E1,3E0,9E0,1.2E1,1.5E1,2.13E2,2.4E1,5.1E1],